{"type":"LSTM","options":{"inputSize":33,"inputRange":33,"hiddenSizes":[20,20],"outputSize":33,"learningRate":0.01,"decayRate":0.999,"smoothEps":1e-8,"regc":0.000001,"clipval":5,"json":null,"dataFormatter":{"values":["Can I get some assistance to fix this issue?","Can I get some help?","Can I get some support on this bug?","Can I get some support on this issue?","Could you provide me some support to fix this issue?","Do I need to assist you to fix the issue?","Do I need to provide support to you regarding the issue?","Do you need assistance?","Do you need help?","Do you need some assistance?","Do you need some help with your issue?","Do you need some help?","Do you need some support?","Do you need support?","False","I could use some assistance with a bug I am currently facing","I could use some help with a bug I am currently facing","I need some assistance with a bug in my Rust code","I need some help with a bug I have in C++","True"],"indexTable":{"C":0,"a":1,"n":2," ":3,"I":4,"g":5,"e":6,"t":7,"s":8,"o":9,"m":10,"i":11,"c":12,"f":13,"x":14,"h":15,"u":16,"?":17,"l":18,"p":19,"r":20,"b":21,"d":22,"y":23,"v":24,"D":25,"w":26,"F":27,"R":28,"+":29,"T":30,"stop-input":31,"start-output":32},"characterTable":{"0":"C","1":"a","2":"n","3":" ","4":"I","5":"g","6":"e","7":"t","8":"s","9":"o","10":"m","11":"i","12":"c","13":"f","14":"x","15":"h","16":"u","17":"?","18":"l","19":"p","20":"r","21":"b","22":"d","23":"y","24":"v","25":"D","26":"w","27":"F","28":"R","29":"+","30":"T","31":"stop-input","32":"start-output"},"characters":["C","a","n"," ","I","g","e","t","s","o","m","i","c","f","x","h","u","?","l","p","r","b","d","y","v","D","w","F","R","+","T","stop-input","start-output"]}},"input":{"rows":34,"columns":33,"weights":{"0":-0.3626291751861572,"1":0.5728950500488281,"2":-0.25899985432624817,"3":0.41378524899482727,"4":-0.9980292320251465,"5":0.2040705382823944,"6":0.5035192370414734,"7":1.440812110900879,"8":-2.389681816101074,"9":1.0686781406402588,"10":2.1030116081237793,"11":-0.8281393647193909,"12":0.3115796148777008,"13":-1.1141952276229858,"14":1.0408291816711426,"15":-0.8803194761276245,"16":0.6021695137023926,"17":2.823439359664917,"18":0.6454787254333496,"19":1.8907430171966553,"20":2.10479998588562,"21":-0.11358244717121124,"22":-0.15955191850662231,"23":0.3309047222137451,"24":0.12991215288639069,"25":0.6210461258888245,"26":1.8548015356063843,"27":-0.3040236830711365,"28":-0.0022101206704974174,"29":-0.2947263717651367,"30":-0.9670036435127258,"31":1.84591805934906,"32":-0.01475707907229662,"33":0.2541138231754303,"34":-1.489332675933838,"35":-3.7313003540039062,"36":0.1264631599187851,"37":5.91642427444458,"38":-1.1594364643096924,"39":6.629923343658447,"40":3.8953940868377686,"41":3.2692627906799316,"42":-0.14120212197303772,"43":-0.21905845403671265,"44":-2.5106608867645264,"45":-2.305816650390625,"46":-2.806522846221924,"47":4.658382892608643,"48":0.2156725376844406,"49":-3.6553680896759033,"50":2.2498557567596436,"51":2.1601216793060303,"52":4.861687660217285,"53":-0.3415345847606659,"54":0.9853662848472595,"55":3.761699676513672,"56":1.3775498867034912,"57":1.5665689706802368,"58":-0.9645165801048279,"59":0.2627314627170563,"60":-0.7187886238098145,"61":2.361527919769287,"62":-2.0782876014709473,"63":-0.19428646564483643,"64":-3.8080501556396484,"65":10.035402297973633,"66":-1.069879174232483,"67":0.3669940233230591,"68":0.006199031136929989,"69":1.79623281955719,"70":-1.8587576150894165,"71":-0.09447044134140015,"72":1.1019421815872192,"73":0.3801923096179962,"74":0.6443668603897095,"75":-0.753869891166687,"76":0.8973338603973389,"77":1.2360718250274658,"78":3.2355802059173584,"79":-1.8728992938995361,"80":0.16987456381320953,"81":-0.28526023030281067,"82":0.1724211424589157,"83":1.636792540550232,"84":1.3915412425994873,"85":-0.9593977332115173,"86":0.5763059854507446,"87":-2.3059659004211426,"88":-0.4086306393146515,"89":0.9255850315093994,"90":-0.9825977683067322,"91":1.214552640914917,"92":0.48192834854125977,"93":0.05287759751081467,"94":-0.10206097364425659,"95":-0.49795740842819214,"96":-1.3931807279586792,"97":0.6254724264144897,"98":-1.0268985033035278,"99":1.1808253526687622,"100":-1.1231337785720825,"101":-1.346238613128662,"102":-0.9636004567146301,"103":-1.1003541946411133,"104":-0.927562952041626,"105":-1.660079836845398,"106":-0.7003012299537659,"107":-0.3496513068675995,"108":-0.5985051393508911,"109":-2.0747101306915283,"110":1.63410484790802,"111":-0.7428624033927917,"112":0.2623421549797058,"113":-0.4527134299278259,"114":0.4990554749965668,"115":-0.19868072867393494,"116":-2.111630916595459,"117":1.238221287727356,"118":-1.689026951789856,"119":-1.3949639797210693,"120":-1.08574378490448,"121":-1.9124690294265747,"122":-1.5046067237854004,"123":0.5029414296150208,"124":-1.5455741882324219,"125":-0.36237257719039917,"126":-0.30809521675109863,"127":-1.2415549755096436,"128":-0.5146587491035461,"129":-1.1146864891052246,"130":-0.88034987449646,"131":-0.8541584610939026,"132":0.3839086890220642,"133":-0.05322994664311409,"134":0.9642040133476257,"135":-1.0846034288406372,"136":-1.2985883951187134,"137":0.32112327218055725,"138":0.8277978897094727,"139":-0.404382586479187,"140":0.16693717241287231,"141":-0.8360325694084167,"142":-1.4233055114746094,"143":0.975182831287384,"144":1.4235934019088745,"145":0.907982587814331,"146":-0.8698300719261169,"147":-0.7083889245986938,"148":0.9144068360328674,"149":-1.4570386409759521,"150":0.9979907274246216,"151":2.8711345195770264,"152":1.0762088298797607,"153":0.6515638828277588,"154":-1.9011439085006714,"155":-0.4520960748195648,"156":-1.6085861921310425,"157":-0.16700434684753418,"158":-0.9891665577888489,"159":-1.453263521194458,"160":0.0036911554634571075,"161":-1.6584383249282837,"162":-0.28366538882255554,"163":1.1817668676376343,"164":-3.360598564147949,"165":-3.8510336875915527,"166":2.5901169776916504,"167":-1.1976516246795654,"168":-1.4272786378860474,"169":0.44985178112983704,"170":0.9707980155944824,"171":0.663815975189209,"172":2.340465545654297,"173":-1.1920933723449707,"174":-1.851845622062683,"175":-2.013057231903076,"176":-1.99335777759552,"177":0.7063185572624207,"178":-3.162116765975952,"179":4.748966693878174,"180":1.3400986194610596,"181":-1.4245870113372803,"182":1.497496247291565,"183":-0.523762583732605,"184":2.8580241203308105,"185":0.9273245930671692,"186":-0.6673210263252258,"187":-0.7625231742858887,"188":0.7009405493736267,"189":-0.3383871018886566,"190":1.4551351070404053,"191":-1.6172765493392944,"192":3.301380157470703,"193":-1.8717472553253174,"194":-0.3314376473426819,"195":-1.2667629718780518,"196":0.448626846075058,"197":1.0311050415039062,"198":-1.2258360385894775,"199":-0.6810048222541809,"200":-1.486426591873169,"201":-1.326461911201477,"202":-0.6307268142700195,"203":0.17838960886001587,"204":0.38062745332717896,"205":0.12833276391029358,"206":-2.6246166229248047,"207":0.28510889410972595,"208":-2.273324728012085,"209":0.4165142774581909,"210":-0.18954719603061676,"211":-1.9552675485610962,"212":3.2932443618774414,"213":1.884462833404541,"214":0.3978290259838104,"215":-1.8901289701461792,"216":2.527859926223755,"217":-0.4171920120716095,"218":2.213043451309204,"219":-0.6992927193641663,"220":0.8336008191108704,"221":-2.085373878479004,"222":-0.27492445707321167,"223":0.9258981347084045,"224":1.007718563079834,"225":2.453033447265625,"226":-1.198455572128296,"227":-0.7914214134216309,"228":-2.0644173622131348,"229":1.3353044986724854,"230":2.8389384746551514,"231":-0.27617162466049194,"232":-0.06983178108930588,"233":1.1439355611801147,"234":1.3452297449111938,"235":0.52727872133255,"236":-0.19016452133655548,"237":-0.42959991097450256,"238":-2.7903122901916504,"239":-1.7965396642684937,"240":-0.8948688507080078,"241":0.28686070442199707,"242":3.4562835693359375,"243":1.8114709854125977,"244":-1.4237525463104248,"245":-1.4533274173736572,"246":-0.4299144148826599,"247":-0.08059294521808624,"248":1.0686845779418945,"249":-0.6444334387779236,"250":-2.634124755859375,"251":-1.594760537147522,"252":-0.9451301693916321,"253":-0.7770541906356812,"254":0.2756670415401459,"255":1.650511622428894,"256":-0.8839610815048218,"257":-2.564464569091797,"258":-0.7768728137016296,"259":-0.1717018485069275,"260":-0.2823921740055084,"261":-1.4377920627593994,"262":0.3824441432952881,"263":0.13446852564811707,"264":3.7631263732910156,"265":0.05695889890193939,"266":-0.9605609178543091,"267":-0.3250661790370941,"268":1.827285647392273,"269":-2.8836355209350586,"270":-0.707589864730835,"271":-1.4261753559112549,"272":0.07839402556419373,"273":3.2014925479888916,"274":0.568518877029419,"275":0.8476287722587585,"276":-1.2253906726837158,"277":3.3435282707214355,"278":-1.7773929834365845,"279":1.0858986377716064,"280":-0.27193179726600647,"281":-5.498394012451172,"282":1.293866753578186,"283":-0.4717823565006256,"284":-0.9647203683853149,"285":1.3331986665725708,"286":1.3367772102355957,"287":1.360730767250061,"288":1.9027007818222046,"289":-4.002875804901123,"290":0.35326021909713745,"291":-1.806638479232788,"292":0.03142975643277168,"293":1.2225275039672852,"294":-3.0396125316619873,"295":-0.7725509405136108,"296":1.222188949584961,"297":0.21434640884399414,"298":-0.12880398333072662,"299":-0.5555084347724915,"300":-0.625479519367218,"301":1.2010451555252075,"302":0.5705540180206299,"303":-0.11565589904785156,"304":2.081247568130493,"305":-2.860151529312134,"306":1.1125545501708984,"307":-1.061994194984436,"308":-0.22865650057792664,"309":0.17244234681129456,"310":-2.5571658611297607,"311":0.7293248176574707,"312":0.14919115602970123,"313":-2.5834078788757324,"314":1.0071913003921509,"315":2.2456631660461426,"316":-0.16329608857631683,"317":-0.14063963294029236,"318":0.05754891410470009,"319":1.1918838024139404,"320":-0.23426400125026703,"321":-1.8986529111862183,"322":-1.3357458114624023,"323":0.9619227051734924,"324":1.6799992322921753,"325":-2.39355731010437,"326":-0.22879093885421753,"327":-1.803291916847229,"328":-1.1128849983215332,"329":-0.7673256397247314,"330":-1.1903728246688843,"331":0.36238089203834534,"332":-0.20521262288093567,"333":0.4244297742843628,"334":-1.7192370891571045,"335":0.9579287767410278,"336":-0.4033183455467224,"337":0.6748092174530029,"338":-1.270322561264038,"339":-0.17122766375541687,"340":-1.0480149984359741,"341":-0.6058953404426575,"342":-0.6542235016822815,"343":0.0005582273588515818,"344":-0.6716744899749756,"345":-0.23459868133068085,"346":0.4250562787055969,"347":0.6496737003326416,"348":-0.9444440007209778,"349":-1.1182448863983154,"350":0.664106011390686,"351":-1.0298985242843628,"352":0.15248224139213562,"353":-0.5535423755645752,"354":-0.01924028992652893,"355":0.44244667887687683,"356":0.989123523235321,"357":1.5201570987701416,"358":-1.0993692874908447,"359":0.8879966139793396,"360":0.6265754699707031,"361":0.1369621753692627,"362":-0.7123200297355652,"363":1.1673833131790161,"364":1.8440355062484741,"365":-0.14784659445285797,"366":-0.8143818378448486,"367":0.5740693211555481,"368":0.8282877206802368,"369":-0.07799903303384781,"370":0.9115396738052368,"371":-1.0333583354949951,"372":-0.8072951436042786,"373":-1.3037537336349487,"374":-0.9600748419761658,"375":-0.07044348120689392,"376":-1.7290955781936646,"377":-1.183030605316162,"378":-2.2509491443634033,"379":-0.510797381401062,"380":0.6488233804702759,"381":-1.7710646390914917,"382":1.621987223625183,"383":-0.9926105737686157,"384":0.8283076882362366,"385":-1.345091700553894,"386":1.1829978227615356,"387":-0.6187900304794312,"388":1.0402988195419312,"389":-1.7494145631790161,"390":-0.2963707149028778,"391":-0.5013338923454285,"392":-1.8080395460128784,"393":-1.5153074264526367,"394":4.2842326164245605,"395":-1.439627766609192,"396":-2.0222039222717285,"397":-1.2346664667129517,"398":2.889353036880493,"399":-3.4336869716644287,"400":-1.855580449104309,"401":1.3998486995697021,"402":2.1823441982269287,"403":-0.8019879460334778,"404":-2.9660425186157227,"405":1.393843412399292,"406":1.003319263458252,"407":1.8604813814163208,"408":-0.18540897965431213,"409":-2.0412607192993164,"410":-1.6958458423614502,"411":0.6669752597808838,"412":-0.22638793289661407,"413":1.1663068532943726,"414":-0.9061997532844543,"415":-5.252950668334961,"416":-1.9111391305923462,"417":-0.02406296692788601,"418":2.643742561340332,"419":-2.5665228366851807,"420":0.7606990337371826,"421":-0.8198810815811157,"422":0.10330639779567719,"423":1.1405954360961914,"424":0.19268843531608582,"425":2.3305325508117676,"426":3.8336691856384277,"427":-1.8567546606063843,"428":-0.5826215744018555,"429":-3.4479422569274902,"430":0.016735384240746498,"431":1.6253795623779297,"432":-1.4972318410873413,"433":-0.045013755559921265,"434":2.238311529159546,"435":6.245591163635254,"436":0.6353099346160889,"437":-1.8490350246429443,"438":3.811715841293335,"439":-3.168842077255249,"440":-1.6119353771209717,"441":-2.1880791187286377,"442":-0.9701716899871826,"443":-0.6040657758712769,"444":3.9986839294433594,"445":-2.2436208724975586,"446":1.6237841844558716,"447":6.491261005401611,"448":2.830592393875122,"449":2.719529390335083,"450":1.911082148551941,"451":2.6914618015289307,"452":0.4528030455112457,"453":1.3290234804153442,"454":1.9729605913162231,"455":5.069518089294434,"456":-2.569615364074707,"457":2.4946022033691406,"458":-1.779279112815857,"459":-2.3894851207733154,"460":-0.2520023584365845,"461":1.6486402750015259,"462":0.8070699572563171,"463":-4.106935977935791,"464":-0.5302844047546387,"465":3.838075876235962,"466":0.867235541343689,"467":1.3470078706741333,"468":-1.7215609550476074,"469":0.5799212455749512,"470":6.225501537322998,"471":-6.261922836303711,"472":-1.1113766431808472,"473":1.810044527053833,"474":1.460639476776123,"475":-1.0996097326278687,"476":-2.264993667602539,"477":-3.860901117324829,"478":4.071260929107666,"479":-3.4288668632507324,"480":-6.439340114593506,"481":1.427175760269165,"482":-2.0413355827331543,"483":-0.8575037121772766,"484":-0.23016229271888733,"485":4.842085838317871,"486":0.0695560872554779,"487":1.8260794878005981,"488":-3.975689172744751,"489":2.5272278785705566,"490":1.0854731798171997,"491":-0.40896257758140564,"492":4.817969799041748,"493":1.3284543752670288,"494":-1.9449384212493896,"495":4.358133316040039,"496":3.921299695968628,"497":-6.0655131340026855,"498":-0.26779288053512573,"499":-0.43564021587371826,"500":3.4867117404937744,"501":3.049103021621704,"502":1.0459257364273071,"503":-2.492889404296875,"504":-1.594030737876892,"505":-4.464447498321533,"506":-8.974336624145508,"507":-1.6628797054290771,"508":5.467576503753662,"509":0.22565600275993347,"510":7.18286657333374,"511":-6.40546178817749,"512":-1.249021291732788,"513":6.9710845947265625,"514":9.350687026977539,"515":4.798759937286377,"516":-1.28520667552948,"517":0.9443275928497314,"518":2.301663637161255,"519":1.0444461107254028,"520":-3.761701822280884,"521":8.554680824279785,"522":-4.042924404144287,"523":-0.05770520120859146,"524":-2.7608304023742676,"525":-6.402991771697998,"526":-1.73774254322052,"527":2.6900370121002197,"528":-0.5097162127494812,"529":-0.3611740469932556,"530":1.9083435535430908,"531":3.7155401706695557,"532":0.8303890824317932,"533":0.36938390135765076,"534":-0.19823765754699707,"535":-1.2173163890838623,"536":-2.7794620990753174,"537":0.033319663256406784,"538":-0.2634328007698059,"539":2.9867184162139893,"540":1.0951205492019653,"541":-0.6138656735420227,"542":-1.3296922445297241,"543":-2.4440882205963135,"544":-1.9639291763305664,"545":-1.4489436149597168,"546":-0.9832889437675476,"547":-2.4809491634368896,"548":-1.702141284942627,"549":-0.5009800791740417,"550":-1.1407966613769531,"551":0.4271945357322693,"552":0.8477436900138855,"553":-2.223452568054199,"554":-3.185551404953003,"555":1.5892884731292725,"556":-1.6969488859176636,"557":-3.2802910804748535,"558":-2.1348047256469727,"559":-0.958801805973053,"560":-0.015004720538854599,"561":-1.1266895532608032,"562":-0.4256369173526764,"563":1.8174337148666382,"564":-0.8351057767868042,"565":1.6645740270614624,"566":-0.010064054280519485,"567":1.660330891609192,"568":0.08659318089485168,"569":1.0402793884277344,"570":-0.4934907853603363,"571":-0.9389936327934265,"572":0.5842463374137878,"573":-0.5888304710388184,"574":0.7309035062789917,"575":-1.24882972240448,"576":0.7771438360214233,"577":0.5251267552375793,"578":-0.04985782876610756,"579":0.8322415947914124,"580":-0.2950892150402069,"581":-1.6846249103546143,"582":-2.6032938957214355,"583":0.4249364137649536,"584":-2.007009267807007,"585":1.846664547920227,"586":0.5220229029655457,"587":-1.1140154600143433,"588":-0.5980038046836853,"589":-0.38413670659065247,"590":-1.1053169965744019,"591":1.6494344472885132,"592":-0.5659331679344177,"593":-0.09244877099990845,"594":1.99381685256958,"595":-2.0371458530426025,"596":-0.18602317571640015,"597":1.5577442646026611,"598":2.831045150756836,"599":-1.0863169431686401,"600":0.6107532978057861,"601":1.2108854055404663,"602":2.1388683319091797,"603":3.2232844829559326,"604":1.2021807432174683,"605":1.1648346185684204,"606":-3.338411569595337,"607":2.102222204208374,"608":-0.13736417889595032,"609":0.40702110528945923,"610":0.5561150908470154,"611":0.4893339276313782,"612":0.9801009893417358,"613":3.2983133792877197,"614":-0.5140804648399353,"615":2.8012454509735107,"616":2.9751620292663574,"617":0.2224932312965393,"618":0.9610378742218018,"619":-1.8328056335449219,"620":-0.46946558356285095,"621":-1.4413405656814575,"622":3.598630905151367,"623":2.2062342166900635,"624":0.036891691386699677,"625":-0.5018126368522644,"626":1.4691746234893799,"627":2.8293135166168213,"628":-0.3320624530315399,"629":2.566208839416504,"630":-0.2975773811340332,"631":0.14048077166080475,"632":-2.803609609603882,"633":0.6984674334526062,"634":-1.0025938749313354,"635":1.3729275465011597,"636":-0.21564629673957825,"637":1.2614496946334839,"638":-2.4801700115203857,"639":0.2951054275035858,"640":-0.22482293844223022,"641":-1.0935560464859009,"642":0.20030641555786133,"643":-0.9258725643157959,"644":-1.9188190698623657,"645":-0.7435532212257385,"646":1.4345555305480957,"647":-1.5003836154937744,"648":0.532619059085846,"649":1.5201162099838257,"650":1.5825188159942627,"651":1.9843543767929077,"652":-0.2791909873485565,"653":-1.245863914489746,"654":-0.07880840450525284,"655":2.5950021743774414,"656":4.0015459060668945,"657":2.953392267227173,"658":-0.9969846606254578,"659":-0.7610380053520203,"660":2.2880783081054688,"661":-0.22853867709636688,"662":-0.3987264037132263,"663":-0.5653721690177917,"664":2.119448661804199,"665":-0.5427440404891968,"666":1.047257423400879,"667":-0.8660896420478821,"668":2.159703016281128,"669":0.985737144947052,"670":-2.1839165687561035,"671":-3.2261459827423096,"672":-0.48724526166915894,"673":1.951473355293274,"674":1.3142732381820679,"675":2.967261552810669,"676":-0.15252923965454102,"677":-0.7115638852119446,"678":0.30562007427215576,"679":0.035287100821733475,"680":2.467560052871704,"681":0.5105789303779602,"682":2.40877366065979,"683":2.552586555480957,"684":2.330967426300049,"685":-0.7480937242507935,"686":1.556010127067566,"687":-0.2921348810195923,"688":2.235769033432007,"689":0.8502485156059265,"690":-1.2309774160385132,"691":-0.7437272071838379,"692":4.18245792388916,"693":-0.869541347026825,"694":0.30695226788520813,"695":1.1304655075073242,"696":1.2321796417236328,"697":-3.072148561477661,"698":0.7655931711196899,"699":-1.723303198814392,"700":0.5027294754981995,"701":-0.9928311109542847,"702":-1.7593086957931519,"703":0.898914098739624,"704":4.672121047973633,"705":0.9866821765899658,"706":-1.2293585538864136,"707":-0.6452831625938416,"708":-1.9856383800506592,"709":3.1735680103302,"710":0.44619348645210266,"711":0.11710838973522186,"712":-0.011738108471035957,"713":-1.3444737195968628,"714":1.407394289970398,"715":0.7194225192070007,"716":-0.7690948247909546,"717":-2.6772751808166504,"718":2.7745180130004883,"719":-0.341542512178421,"720":1.0498266220092773,"721":0.9194456338882446,"722":1.95682954788208,"723":0.5316789746284485,"724":1.5862224102020264,"725":-0.7962148189544678,"726":1.3706378936767578,"727":3.3388428688049316,"728":7.1322760581970215,"729":0.28298619389533997,"730":-1.1578683853149414,"731":4.974268913269043,"732":-3.3423612117767334,"733":-0.6487834453582764,"734":-1.428877353668213,"735":-3.1150591373443604,"736":-3.9952328205108643,"737":2.3454904556274414,"738":-0.8079083561897278,"739":-6.410625457763672,"740":-4.27890682220459,"741":2.5682125091552734,"742":-0.2576431334018707,"743":2.6432735919952393,"744":-3.9431231021881104,"745":1.4702682495117188,"746":-6.5434184074401855,"747":0.5521414279937744,"748":-5.191186904907227,"749":5.871501922607422,"750":-2.491349935531616,"751":1.1664305925369263,"752":0.049108076840639114,"753":-2.7306063175201416,"754":-2.164907455444336,"755":-0.3920222818851471,"756":2.888538360595703,"757":3.5907440185546875,"758":-1.7582343816757202,"759":3.046640396118164,"760":-0.43007755279541016,"761":0.750889241695404,"762":-0.5252484083175659,"763":-0.295303076505661,"764":-2.0498180389404297,"765":1.6781269311904907,"766":0.9033139944076538,"767":2.6508748531341553,"768":2.177677631378174,"769":1.9239650964736938,"770":1.7724913358688354,"771":-1.9855278730392456,"772":2.9795494079589844,"773":-1.9316253662109375,"774":-2.0509541034698486,"775":1.3762454986572266,"776":3.0175325870513916,"777":0.2922573685646057,"778":0.1153157502412796,"779":-0.3480140268802643,"780":1.7416986227035522,"781":1.1843206882476807,"782":-0.22932274639606476,"783":1.489074468612671,"784":-2.77215576171875,"785":-1.2738733291625977,"786":-2.547306537628174,"787":2.243967056274414,"788":1.5748058557510376,"789":0.5285293459892273,"790":-0.8390672206878662,"791":-0.42482906579971313,"792":-1.3089423179626465,"793":0.35494309663772583,"794":2.4520304203033447,"795":-0.8537311553955078,"796":0.0789073184132576,"797":0.7065603733062744,"798":-0.7289657592773438,"799":0.9489026069641113,"800":-2.5643866062164307,"801":-0.6976906657218933,"802":-2.038911819458008,"803":3.5143816471099854,"804":-1.3745067119598389,"805":-1.6495522260665894,"806":-2.321584463119507,"807":-1.0294508934020996,"808":-0.1643715500831604,"809":3.151460886001587,"810":0.6683930158615112,"811":-2.3215954303741455,"812":-1.7391376495361328,"813":-0.9189689755439758,"814":-3.796422004699707,"815":-0.56792813539505,"816":0.505973219871521,"817":0.1745612472295761,"818":0.9962196350097656,"819":-0.4196355640888214,"820":-5.0206685066223145,"821":-2.2995288372039795,"822":-0.47953683137893677,"823":1.9914817810058594,"824":-0.8372901082038879,"825":-0.9482924342155457,"826":-3.2232818603515625,"827":0.28836074471473694,"828":6.50036096572876,"829":-0.8355072140693665,"830":-1.8117293119430542,"831":-0.25411325693130493,"832":-2.367457628250122,"833":-3.4526543617248535,"834":-4.2661919593811035,"835":3.0367350578308105,"836":3.5316953659057617,"837":2.7168092727661133,"838":-0.10930711776018143,"839":1.8339266777038574,"840":-4.692118167877197,"841":4.014845848083496,"842":-3.190471649169922,"843":-3.6242265701293945,"844":1.194603443145752,"845":-4.040042877197266,"846":-0.021239077672362328,"847":0.02347494475543499,"848":-4.518121242523193,"849":-1.1655830144882202,"850":1.4706693887710571,"851":-3.9159600734710693,"852":0.2748616933822632,"853":-0.716651439666748,"854":3.389132261276245,"855":0.4101341962814331,"856":2.825552225112915,"857":-2.3099496364593506,"858":3.5504093170166016,"859":1.483054757118225,"860":-0.8715923428535461,"861":-1.2129747867584229,"862":0.8155010938644409,"863":-1.8050388097763062,"864":-0.2289891391992569,"865":-3.193241596221924,"866":1.2927470207214355,"867":-0.22226151823997498,"868":-3.20099139213562,"869":-1.8839080333709717,"870":-1.1832672357559204,"871":-0.8617300987243652,"872":0.8732674717903137,"873":0.20825715363025665,"874":-1.3250843286514282,"875":-0.2522050738334656,"876":1.5625466108322144,"877":2.804091453552246,"878":-0.4813423752784729,"879":1.447741150856018,"880":0.2917245626449585,"881":0.7893040776252747,"882":3.029437303543091,"883":-0.16138067841529846,"884":-1.3870115280151367,"885":0.4921141564846039,"886":2.1756603717803955,"887":1.3946672677993774,"888":-0.38117238879203796,"889":-2.4319581985473633,"890":4.876033306121826,"891":-3.944284439086914,"892":0.547761857509613,"893":-2.1118814945220947,"894":-4.024916172027588,"895":-0.1609114408493042,"896":2.3326058387756348,"897":0.2697557508945465,"898":2.729731321334839,"899":-5.168226718902588,"900":2.5330286026000977,"901":-9.138875007629395,"902":-4.1173014640808105,"903":-1.2354871034622192,"904":-3.4897475242614746,"905":3.1378724575042725,"906":4.97247314453125,"907":-2.4802064895629883,"908":0.8864868879318237,"909":0.6939613223075867,"910":1.2546321153640747,"911":4.499034404754639,"912":-0.700410008430481,"913":1.1855193376541138,"914":-3.5140864849090576,"915":3.124521017074585,"916":2.7564947605133057,"917":1.9004579782485962,"918":3.718524217605591,"919":-0.7175590395927429,"920":-2.306131362915039,"921":0.9335922002792358,"922":-0.4292908012866974,"923":5.9413909912109375,"924":-0.9890705347061157,"925":-0.03434097766876221,"926":-0.9731084108352661,"927":1.044173240661621,"928":-0.15365296602249146,"929":2.9945321083068848,"930":-2.403552532196045,"931":-0.8272724747657776,"932":0.20171046257019043,"933":-0.29170915484428406,"934":0.8514847159385681,"935":-2.579132318496704,"936":0.2755891978740692,"937":0.12533330917358398,"938":-0.15884500741958618,"939":4.79374361038208,"940":-0.6004406809806824,"941":0.10465526580810547,"942":3.5130298137664795,"943":-0.06346380710601807,"944":1.09617280960083,"945":1.015616536140442,"946":-0.8630238175392151,"947":-1.7106225490570068,"948":-0.16780807077884674,"949":-1.897626519203186,"950":2.64609432220459,"951":3.115708112716675,"952":-2.6792447566986084,"953":2.684877872467041,"954":-1.6842173337936401,"955":-0.6739946603775024,"956":0.8625368475914001,"957":-11.84350299835205,"958":5.459792613983154,"959":4.45468807220459,"960":8.482117652893066,"961":-7.309511184692383,"962":3.920459270477295,"963":-2.3217053413391113,"964":-9.258628845214844,"965":-6.40978479385376,"966":-4.564547061920166,"967":-0.901999294757843,"968":3.1103053092956543,"969":4.843752861022949,"970":-8.742701530456543,"971":-3.8304896354675293,"972":-1.9695942401885986,"973":1.37080717086792,"974":3.4201910495758057,"975":-3.3502328395843506,"976":-15.038079261779785,"977":-0.04845245182514191,"978":-14.017921447753906,"979":0.0017952363705262542,"980":-6.399973392486572,"981":-1.6957745552062988,"982":3.1354825496673584,"983":-2.941737174987793,"984":4.891417026519775,"985":-8.898482322692871,"986":-3.670004367828369,"987":5.004324436187744,"988":3.604985475540161,"989":-0.23455840349197388,"990":-0.45291808247566223,"991":-1.3947632312774658,"992":-3.852311611175537,"993":-1.1314890384674072,"994":-8.529068946838379,"995":1.0500121116638184,"996":-3.1799399852752686,"997":3.5205447673797607,"998":1.224085807800293,"999":1.514969825744629,"1000":12.50561809539795,"1001":3.8373520374298096,"1002":13.52419376373291,"1003":7.811098098754883,"1004":-7.836169719696045,"1005":-5.5147929191589355,"1006":-3.1727187633514404,"1007":-5.0209479331970215,"1008":-3.1196908950805664,"1009":-5.791041374206543,"1010":5.2008185386657715,"1011":-11.453131675720215,"1012":-9.608952522277832,"1013":5.450418949127197,"1014":-9.092846870422363,"1015":0.7703194618225098,"1016":2.873455762863159,"1017":-7.904853820800781,"1018":-4.810737133026123,"1019":-9.706579208374023,"1020":0.15614227950572968,"1021":8.793277740478516,"1022":-14.346694946289062,"1023":-2.4978883266448975,"1024":-1.8671643733978271,"1025":-1.7006863355636597,"1026":-4.918320655822754,"1027":-1.8585807085037231,"1028":1.829377293586731,"1029":-1.8234418630599976,"1030":2.317434310913086,"1031":-1.909113883972168,"1032":-1.625521183013916,"1033":0.3051927387714386,"1034":3.9539878368377686,"1035":3.0651462078094482,"1036":-2.1081292629241943,"1037":2.025524377822876,"1038":-0.6408128142356873,"1039":-0.981203019618988,"1040":1.154435634613037,"1041":3.2275238037109375,"1042":0.3474155068397522,"1043":-0.19363537430763245,"1044":-3.576373815536499,"1045":-4.032630920410156,"1046":-0.9695127606391907,"1047":-2.512732982635498,"1048":3.465083599090576,"1049":0.7351081967353821,"1050":0.14451731741428375,"1051":-2.8383843898773193,"1052":-4.3986430168151855,"1053":-2.2036471366882324,"1054":3.000382661819458,"1055":-3.6741960048675537,"1056":-0.5966285467147827,"1057":-0.6768800616264343,"1058":0.05623593181371689,"1059":1.3005471229553223,"1060":1.442326307296753,"1061":0.6897477507591248,"1062":-1.3012688159942627,"1063":-1.2813340425491333,"1064":1.098211646080017,"1065":1.4798054695129395,"1066":-1.1025861501693726,"1067":-1.4559009075164795,"1068":-1.6559334993362427,"1069":1.0465320348739624,"1070":0.43724557757377625,"1071":0.9928869605064392,"1072":0.595670223236084,"1073":-0.7122061848640442,"1074":-1.339050531387329,"1075":-1.3429887294769287,"1076":-1.4648247957229614,"1077":0.016210155561566353,"1078":-0.06838808953762054,"1079":-2.9720993041992188,"1080":-1.3823446035385132,"1081":-1.0532795190811157,"1082":0.31404218077659607,"1083":-0.15141348540782928,"1084":-0.5208814740180969,"1085":1.088283896446228,"1086":1.709014892578125,"1087":-1.8368263244628906,"1088":2.557791233062744,"1089":-0.041215140372514725,"1090":0.879665732383728,"1091":1.2165660858154297,"1092":-0.48466911911964417,"1093":-0.22103029489517212,"1094":-0.09777545183897018,"1095":0.03979978337883949,"1096":-0.5967857241630554,"1097":1.0159364938735962,"1098":0.5025636553764343,"1099":-1.3370095491409302,"1100":-2.127913475036621,"1101":-1.9803123474121094,"1102":-0.04246578365564346,"1103":0.5692548751831055,"1104":1.7105090618133545,"1105":0.7434191107749939,"1106":1.3453271389007568,"1107":0.5915696024894714,"1108":-0.12132755666971207,"1109":-0.8518049716949463,"1110":-0.7014046907424927,"1111":-0.07711992412805557,"1112":1.707898736000061,"1113":-0.44055214524269104,"1114":1.4485584497451782,"1115":0.3534861207008362,"1116":0.04392441734671593,"1117":-0.7167354226112366,"1118":0.8564497232437134,"1119":0.03127465397119522,"1120":-2.043174982070923,"1121":1.5794557332992554}},"hiddenLayers":[{"inputMatrix":{"rows":20,"columns":33,"weights":{"0":-0.05247547850012779,"1":0.39578989148139954,"2":-0.3979061245918274,"3":-0.4485800564289093,"4":0.8230196237564087,"5":0.981893002986908,"6":0.06783754378557205,"7":0.906220555305481,"8":-1.07350754737854,"9":2.1697592735290527,"10":-0.8847042322158813,"11":-1.8919427394866943,"12":-1.100075125694275,"13":-0.9052045345306396,"14":3.280945062637329,"15":1.906782627105713,"16":-0.7401025891304016,"17":1.2423782348632812,"18":0.29045796394348145,"19":1.7045247554779053,"20":3.4136157035827637,"21":0.9338361024856567,"22":1.7985727787017822,"23":0.4351595342159271,"24":-0.13866889476776123,"25":0.14082756638526917,"26":1.506961464881897,"27":1.5586235523223877,"28":0.7617866396903992,"29":0.6497640609741211,"30":-0.18167097866535187,"31":-0.6233605146408081,"32":1.2756041288375854,"33":0.3329739272594452,"34":0.0038162083365023136,"35":-1.1347997188568115,"36":-2.3131401538848877,"37":-3.7813351154327393,"38":1.7420825958251953,"39":-1.007759690284729,"40":1.7294903993606567,"41":-2.1558966636657715,"42":-0.8838454484939575,"43":-0.9553927183151245,"44":-0.5357169508934021,"45":0.7086101174354553,"46":-1.1672337055206299,"47":1.5919322967529297,"48":0.8834018111228943,"49":0.3595128059387207,"50":-0.32584497332572937,"51":1.6311904191970825,"52":0.6402847170829773,"53":1.4044365882873535,"54":-0.9852969646453857,"55":-1.595293402671814,"56":0.3771156370639801,"57":-2.178664445877075,"58":2.056866407394409,"59":1.7262376546859741,"60":0.08626881241798401,"61":-0.787333607673645,"62":0.6824841499328613,"63":-1.843525767326355,"64":1.9739421606063843,"65":-0.5232633948326111,"66":2.756736993789673,"67":0.5397849082946777,"68":-0.6480681896209717,"69":-0.3595046103000641,"70":2.140805721282959,"71":-0.9791433215141296,"72":1.7545043230056763,"73":1.1816610097885132,"74":2.124258518218994,"75":-0.29235944151878357,"76":1.1054712533950806,"77":-1.229249358177185,"78":-0.19163040816783905,"79":2.485630750656128,"80":-1.5381417274475098,"81":-1.498724341392517,"82":-0.08924993872642517,"83":-0.2765732407569885,"84":-2.1293938159942627,"85":3.0264194011688232,"86":2.012378215789795,"87":0.9598709344863892,"88":0.17181462049484253,"89":2.6556966304779053,"90":0.7481591105461121,"91":-0.22516080737113953,"92":0.10985209792852402,"93":-2.904329776763916,"94":3.416846752166748,"95":-1.9965897798538208,"96":1.020790696144104,"97":-0.03890654444694519,"98":-0.3963679373264313,"99":1.4810935258865356,"100":0.3263137936592102,"101":-0.8524360656738281,"102":0.5279762744903564,"103":0.43110141158103943,"104":-1.2396106719970703,"105":-1.0982983112335205,"106":-0.09297698736190796,"107":1.2650796175003052,"108":0.14181023836135864,"109":-0.6181377172470093,"110":0.22233526408672333,"111":0.5153588056564331,"112":1.4820687770843506,"113":0.9117485284805298,"114":-0.6733381748199463,"115":1.0634162425994873,"116":-0.7867652177810669,"117":0.7730182409286499,"118":-0.4732482433319092,"119":-0.04651028662919998,"120":-0.38869616389274597,"121":-0.6302229166030884,"122":-0.4619032144546509,"123":-0.2940031886100769,"124":-1.1500451564788818,"125":0.5610765814781189,"126":-0.44361206889152527,"127":-0.11291450262069702,"128":-0.048396095633506775,"129":-0.45894527435302734,"130":-0.37601980566978455,"131":0.8038607835769653,"132":-0.30531755089759827,"133":0.5095484256744385,"134":0.9075599312782288,"135":0.15406295657157898,"136":0.14161674678325653,"137":0.07983934134244919,"138":1.6525261402130127,"139":0.018920915201306343,"140":0.6179976463317871,"141":1.7452950477600098,"142":0.6718881130218506,"143":-1.4350008964538574,"144":-1.2803919315338135,"145":-0.26943662762641907,"146":1.6478040218353271,"147":0.10820245742797852,"148":-0.6753823161125183,"149":1.7476556301116943,"150":-1.6761598587036133,"151":0.07983292639255524,"152":-0.07742339372634888,"153":0.7805740833282471,"154":1.1711865663528442,"155":-0.9832044243812561,"156":0.30844375491142273,"157":-1.507667064666748,"158":0.14865253865718842,"159":0.7590166926383972,"160":2.3244545459747314,"161":0.7916083335876465,"162":1.1708248853683472,"163":-1.472834587097168,"164":1.2235833406448364,"165":-0.8341712355613708,"166":0.32492896914482117,"167":0.1585366129875183,"168":-1.705508828163147,"169":-2.1673121452331543,"170":1.4062062501907349,"171":-1.4918125867843628,"172":0.7428246736526489,"173":-2.791306495666504,"174":-0.3839713931083679,"175":-1.4620031118392944,"176":0.8547829389572144,"177":0.8861247897148132,"178":-1.7367234230041504,"179":-2.2869255542755127,"180":-1.3916174173355103,"181":-1.6738370656967163,"182":-0.014283429831266403,"183":-1.3228508234024048,"184":-1.295912504196167,"185":0.8354018926620483,"186":-0.24488519132137299,"187":-1.255757212638855,"188":2.5120339393615723,"189":-2.1778080463409424,"190":1.9559094905853271,"191":0.941454291343689,"192":1.0107502937316895,"193":-1.2217663526535034,"194":-2.1474661827087402,"195":-0.7701528072357178,"196":2.224360704421997,"197":-0.6774224042892456,"198":1.8766210079193115,"199":0.9753004312515259,"200":0.5035645365715027,"201":0.7784582376480103,"202":0.06763001531362534,"203":-2.479048490524292,"204":2.086838722229004,"205":-0.11252377927303314,"206":0.9573349952697754,"207":0.5403175950050354,"208":-0.6043396592140198,"209":0.14509934186935425,"210":-0.9649729132652283,"211":1.9988951683044434,"212":-0.7500368356704712,"213":-1.0944702625274658,"214":-1.3578954935073853,"215":0.1264405995607376,"216":1.136630654335022,"217":0.2028888463973999,"218":0.05499425530433655,"219":0.8569346070289612,"220":1.5047683715820312,"221":0.29411402344703674,"222":1.7421401739120483,"223":-1.8243956565856934,"224":-2.4485023021698,"225":-3.6447904109954834,"226":2.4238293170928955,"227":-1.071991205215454,"228":-1.0386557579040527,"229":-0.9803386926651001,"230":0.8746337294578552,"231":0.7186534404754639,"232":-0.10938429832458496,"233":0.30066752433776855,"234":1.815575122833252,"235":-0.07383469492197037,"236":-0.13971839845180511,"237":-4.2861247062683105,"238":0.49781885743141174,"239":1.426731824874878,"240":-0.9869867563247681,"241":-0.07691353559494019,"242":0.7542339563369751,"243":-1.3389396667480469,"244":1.3453876972198486,"245":-2.428485631942749,"246":-0.9551413655281067,"247":3.3228814601898193,"248":-1.0271762609481812,"249":-1.2692936658859253,"250":1.1928433179855347,"251":-0.4421271085739136,"252":0.2863714396953583,"253":-0.6181192994117737,"254":-0.9956148266792297,"255":-0.4169531464576721,"256":-0.22913117706775665,"257":-2.1764917373657227,"258":-0.9455229043960571,"259":-0.21781791746616364,"260":1.1990770101547241,"261":1.8424203395843506,"262":2.2594692707061768,"263":-0.7511229515075684,"264":-0.9108544588088989,"265":-1.3274527788162231,"266":1.8706811666488647,"267":-1.4224300384521484,"268":1.2132660150527954,"269":-0.14059923589229584,"270":2.949859380722046,"271":0.7371041774749756,"272":1.8862489461898804,"273":0.8817012906074524,"274":-1.0578436851501465,"275":-0.7834280729293823,"276":-1.4847290515899658,"277":0.7883533835411072,"278":0.6170415282249451,"279":-0.3233235776424408,"280":1.6624122858047485,"281":1.072619080543518,"282":-1.6785335540771484,"283":0.715095043182373,"284":-0.1085779219865799,"285":0.693221926689148,"286":2.091745615005493,"287":-0.7601947784423828,"288":2.260730743408203,"289":0.7575718760490417,"290":-1.3730783462524414,"291":-0.007729900069534779,"292":1.912268877029419,"293":-1.380651831626892,"294":2.2525646686553955,"295":-2.2809910774230957,"296":1.4537830352783203,"297":-0.04403847083449364,"298":1.1569664478302002,"299":-0.07602502405643463,"300":-0.120354063808918,"301":-0.0505625382065773,"302":-0.7841677665710449,"303":1.3979464769363403,"304":0.7889549732208252,"305":0.7342936992645264,"306":1.7892816066741943,"307":1.9634835720062256,"308":-1.0519360303878784,"309":-1.437072992324829,"310":-0.4502418637275696,"311":3.008049249649048,"312":-1.1173151731491089,"313":1.9011551141738892,"314":1.861170768737793,"315":-1.799834132194519,"316":0.32685232162475586,"317":0.7544131278991699,"318":-0.2564184367656708,"319":1.2776309251785278,"320":1.049852967262268,"321":-0.07690960168838501,"322":-0.4733780026435852,"323":-1.1856144666671753,"324":0.4326416850090027,"325":2.8675119876861572,"326":1.8867005109786987,"327":1.5590368509292603,"328":-0.46488550305366516,"329":0.5140810012817383,"330":-1.207366704940796,"331":0.7764399647712708,"332":1.7017484903335571,"333":1.0937434434890747,"334":-1.6258656978607178,"335":0.9340003728866577,"336":0.7369717359542847,"337":-1.100972056388855,"338":-1.7711992263793945,"339":0.3926393389701843,"340":-2.1333096027374268,"341":0.7119465470314026,"342":1.2627997398376465,"343":-1.641207218170166,"344":0.2432766556739807,"345":-0.9419881105422974,"346":0.45288366079330444,"347":0.37035730481147766,"348":1.7374902963638306,"349":-0.7168754935264587,"350":0.08399922400712967,"351":-2.1390297412872314,"352":-1.0313363075256348,"353":-2.078174114227295,"354":0.016552580520510674,"355":-0.8989980220794678,"356":0.753775954246521,"357":0.9516788721084595,"358":-0.9677964448928833,"359":-1.4857391119003296,"360":-1.1776854991912842,"361":-0.32298415899276733,"362":-0.3449815511703491,"363":-0.40217021107673645,"364":-0.7322292327880859,"365":-0.12984226644039154,"366":-0.24907904863357544,"367":2.0712921619415283,"368":0.09985170513391495,"369":2.417975664138794,"370":-0.6242778301239014,"371":1.2250502109527588,"372":3.0940330028533936,"373":-0.5902480483055115,"374":-0.10994334518909454,"375":-1.7550888061523438,"376":0.4400286376476288,"377":0.24188143014907837,"378":-0.7690051198005676,"379":-1.5651254653930664,"380":-0.22583872079849243,"381":1.1532261371612549,"382":-0.2831959128379822,"383":-0.7177202701568604,"384":0.9036988615989685,"385":1.7373855113983154,"386":-1.4414665699005127,"387":1.8994903564453125,"388":-2.0778262615203857,"389":-0.712173342704773,"390":-0.5023685097694397,"391":1.0532095432281494,"392":-0.7933297753334045,"393":1.0427523851394653,"394":-4.339705467224121,"395":1.342983365058899,"396":0.32364997267723083,"397":-0.4128998816013336,"398":-1.120730996131897,"399":0.7852235436439514,"400":-0.2081213742494583,"401":-0.1776716560125351,"402":-0.1093684732913971,"403":0.45513325929641724,"404":1.429809331893921,"405":-0.880645751953125,"406":-0.8035846948623657,"407":-0.08577918261289597,"408":0.0805404782295227,"409":-0.20510944724082947,"410":0.5727233290672302,"411":-0.6678012013435364,"412":-1.0714143514633179,"413":-0.16722017526626587,"414":-0.025073716416954994,"415":0.9849119186401367,"416":-0.7201086282730103,"417":0.3630942106246948,"418":0.4267490804195404,"419":-0.037546779960393906,"420":0.05125916004180908,"421":-0.6795819401741028,"422":-0.36854514479637146,"423":1.2295690774917603,"424":0.7216370105743408,"425":0.20993131399154663,"426":-0.6459985375404358,"427":-0.5481975674629211,"428":0.5521583557128906,"429":-0.6365307569503784,"430":0.5171458125114441,"431":0.553952157497406,"432":-0.7155521512031555,"433":0.5895850658416748,"434":0.24285046756267548,"435":-0.9081446528434753,"436":0.5588420629501343,"437":1.237046480178833,"438":-1.7393192052841187,"439":-0.9472761750221252,"440":2.2411534786224365,"441":2.459383726119995,"442":0.14345978200435638,"443":-0.4201573431491852,"444":-0.5362035036087036,"445":-0.5915152430534363,"446":0.16028526425361633,"447":-1.7768714427947998,"448":-1.9935154914855957,"449":-0.5588036179542542,"450":-1.1651945114135742,"451":-1.778749704360962,"452":0.5377237796783447,"453":-0.9590550661087036,"454":-0.17744791507720947,"455":-2.9685347080230713,"456":0.016524752601981163,"457":-2.6880009174346924,"458":0.1925807148218155,"459":-0.4251715838909149,"460":-1.0616438388824463,"461":-2.5585262775421143,"462":-1.979797124862671,"463":-0.06855414807796478,"464":-0.36120617389678955,"465":0.00838396418839693,"466":-0.36371198296546936,"467":0.6646595597267151,"468":1.5112906694412231,"469":0.8745105266571045,"470":-0.832905113697052,"471":-0.29294353723526,"472":-1.097878098487854,"473":0.058778535574674606,"474":0.8070916533470154,"475":-0.8545339107513428,"476":0.6399052143096924,"477":-0.09021679311990738,"478":-0.5015471577644348,"479":0.787824273109436,"480":2.024585247039795,"481":0.11217964440584183,"482":-0.5108386874198914,"483":-1.566590428352356,"484":-0.9122719764709473,"485":-2.5508687496185303,"486":0.09418457001447678,"487":-1.0850542783737183,"488":1.1115158796310425,"489":0.2784024477005005,"490":-1.742125391960144,"491":-2.451082468032837,"492":1.3563958406448364,"493":-1.1960349082946777,"494":0.24332942068576813,"495":0.13984619081020355,"496":0.9441341757774353,"497":-1.0692118406295776,"498":0.4909292161464691,"499":1.1900696754455566,"500":-0.09637023508548737,"501":1.219327688217163,"502":0.7096392512321472,"503":-0.26088401675224304,"504":2.282158136367798,"505":-1.7513351440429688,"506":-2.3341941833496094,"507":-2.2659153938293457,"508":-0.07136200368404388,"509":1.9296268224716187,"510":1.093192458152771,"511":-0.04454230144619942,"512":0.9005049467086792,"513":-1.0635229349136353,"514":1.2928385734558105,"515":2.2305703163146973,"516":1.219458818435669,"517":0.8568011522293091,"518":-0.5683669447898865,"519":-0.06095261871814728,"520":0.2259340137243271,"521":0.04417579621076584,"522":0.07313136756420135,"523":0.8544619679450989,"524":-0.6171078681945801,"525":0.27562177181243896,"526":-0.23829486966133118,"527":2.2893526554107666,"528":-0.7014123797416687,"529":-2.4585068225860596,"530":-0.28876152634620667,"531":-0.21440044045448303,"532":0.029869744554162025,"533":0.025675814598798752,"534":-2.7927491664886475,"535":-3.610123872756958,"536":-0.9267041087150574,"537":0.46177059412002563,"538":-0.537322998046875,"539":2.94889760017395,"540":0.5729682445526123,"541":1.304540991783142,"542":-0.7806336879730225,"543":-0.42329853773117065,"544":2.2743499279022217,"545":-4.871310234069824,"546":-1.994037389755249,"547":-0.6493562459945679,"548":-1.4933489561080933,"549":0.1093672513961792,"550":-1.643996000289917,"551":-1.2084769010543823,"552":-1.0608404874801636,"553":-0.21426530182361603,"554":-1.382713794708252,"555":-0.25246986746788025,"556":-1.353066086769104,"557":-2.1748886108398438,"558":0.02799852378666401,"559":1.9325625896453857,"560":-0.06600330024957657,"561":0.5026335120201111,"562":0.010340705513954163,"563":0.30565768480300903,"564":2.3529164791107178,"565":-0.12755264341831207,"566":0.7980826497077942,"567":-1.023589849472046,"568":1.8226505517959595,"569":-1.9954068660736084,"570":0.1851937174797058,"571":1.495301365852356,"572":0.24087049067020416,"573":1.520689606666565,"574":-1.6220128536224365,"575":-1.0153838396072388,"576":-3.581144332885742,"577":-0.26223769783973694,"578":0.31305667757987976,"579":-0.031613077968358994,"580":-1.7017645835876465,"581":0.5949599146842957,"582":0.08429993689060211,"583":-0.4034460186958313,"584":-0.7691250443458557,"585":-2.4632301330566406,"586":1.4340009689331055,"587":1.6383671760559082,"588":0.32366904616355896,"589":0.9993498921394348,"590":0.17339637875556946,"591":0.7070332765579224,"592":1.3880031108856201,"593":-3.366511106491089,"594":-1.1151018142700195,"595":-2.6845879554748535,"596":-0.7569640278816223,"597":-0.7497949004173279,"598":-1.0640448331832886,"599":-0.8775841593742371,"600":-2.3314805030822754,"601":-2.8921515941619873,"602":-0.5673750042915344,"603":-0.5550752878189087,"604":-0.5969445109367371,"605":0.21543045341968536,"606":-1.2553101778030396,"607":0.2329409122467041,"608":-0.07918541133403778,"609":1.4639374017715454,"610":2.2906548976898193,"611":-1.954674243927002,"612":-1.6787440776824951,"613":-1.766149640083313,"614":-0.422181099653244,"615":-1.6974315643310547,"616":1.809653878211975,"617":-2.331205368041992,"618":1.2811944484710693,"619":0.7180328965187073,"620":0.8713691234588623,"621":0.6888227462768555,"622":1.349666953086853,"623":1.3370428085327148,"624":2.4821150302886963,"625":-0.14235427975654602,"626":1.6691488027572632,"627":-0.6475351452827454,"628":-0.4898970127105713,"629":0.8293964266777039,"630":-0.704481303691864,"631":-0.6178346276283264,"632":0.9486938714981079,"633":-2.155890703201294,"634":-0.6278418302536011,"635":-0.8818898797035217,"636":-0.8870848417282104,"637":-0.6493940949440002,"638":0.3162831962108612,"639":-0.782546877861023,"640":-1.3161922693252563,"641":-1.474539875984192,"642":1.3225833177566528,"643":-2.3151438236236572,"644":-0.26149240136146545,"645":0.5451357364654541,"646":-3.7165067195892334,"647":-0.9652162194252014,"648":-1.0194228887557983,"649":-0.4417967200279236,"650":-0.6162102222442627,"651":-0.9792633652687073,"652":0.3663315773010254,"653":0.7002341747283936,"654":1.1176948547363281,"655":-1.9455941915512085,"656":1.7476662397384644,"657":0.00780046870931983,"658":-0.3024246096611023,"659":-0.14002805948257446}},"inputHidden":{"rows":20,"columns":20,"weights":{"0":2.262742280960083,"1":-0.8905224204063416,"2":3.541192054748535,"3":2.2184669971466064,"4":2.5195865631103516,"5":0.692721962928772,"6":0.34815743565559387,"7":2.3373539447784424,"8":-0.13723665475845337,"9":0.809678316116333,"10":1.2120215892791748,"11":1.8118882179260254,"12":-3.7763428688049316,"13":-3.600642442703247,"14":4.282154560089111,"15":0.8004648089408875,"16":-1.0691416263580322,"17":1.1517330408096313,"18":1.7479748725891113,"19":2.4615416526794434,"20":1.1233081817626953,"21":-1.1614775657653809,"22":-1.5624464750289917,"23":-0.8267724514007568,"24":0.3914884328842163,"25":0.9642348885536194,"26":0.8345289826393127,"27":-1.5651910305023193,"28":-0.5056849122047424,"29":0.8717604875564575,"30":1.2953048944473267,"31":-0.12087391316890717,"32":-0.5375738143920898,"33":0.45409101247787476,"34":1.7822586297988892,"35":-0.6126806139945984,"36":1.174487590789795,"37":0.527698814868927,"38":-2.3980815410614014,"39":0.778559684753418,"40":1.5506293773651123,"41":-3.315046548843384,"42":-0.44973164796829224,"43":-1.1675764322280884,"44":-0.7715243697166443,"45":3.36275577545166,"46":0.30693113803863525,"47":0.529626727104187,"48":-1.8759312629699707,"49":0.14800238609313965,"50":2.2070093154907227,"51":-0.9941359162330627,"52":0.19426608085632324,"53":-1.1581997871398926,"54":1.0651084184646606,"55":-0.46268126368522644,"56":4.244379997253418,"57":-0.20026430487632751,"58":-1.4724572896957397,"59":2.2712340354919434,"60":-3.1702184677124023,"61":-0.9098207950592041,"62":0.8826726675033569,"63":0.8907331824302673,"64":1.4739676713943481,"65":-2.7787675857543945,"66":-1.532192349433899,"67":3.286500930786133,"68":0.09550974518060684,"69":4.900719165802002,"70":-2.7669901847839355,"71":-0.45396146178245544,"72":-0.1974659264087677,"73":-0.07682695239782333,"74":3.0575153827667236,"75":-0.5426546931266785,"76":-5.1512651443481445,"77":-1.8406368494033813,"78":6.225351810455322,"79":1.204214096069336,"80":-2.5757291316986084,"81":-2.0087368488311768,"82":1.120826244354248,"83":1.306043028831482,"84":-0.6351355314254761,"85":0.02523454651236534,"86":-0.21859002113342285,"87":3.2206015586853027,"88":-0.03723393753170967,"89":1.673178791999817,"90":0.6442773342132568,"91":1.6028873920440674,"92":-6.11295223236084,"93":-4.59242057800293,"94":1.058496356010437,"95":-0.3495192527770996,"96":1.3733478784561157,"97":-2.021568775177002,"98":-0.5759665966033936,"99":2.8135199546813965,"100":1.89739191532135,"101":-0.6281833052635193,"102":-2.102825880050659,"103":-1.6261497735977173,"104":-0.3215388357639313,"105":0.48602068424224854,"106":0.6038439273834229,"107":-2.389251708984375,"108":1.8811686038970947,"109":-1.3595584630966187,"110":-4.170254707336426,"111":1.1050388813018799,"112":1.5321346521377563,"113":0.09833372384309769,"114":-1.2219467163085938,"115":-1.2420693635940552,"116":2.2964181900024414,"117":-1.8120861053466797,"118":-2.9719479084014893,"119":-0.6030521392822266,"120":3.7295713424682617,"121":0.7787030935287476,"122":0.18502552807331085,"123":3.473475217819214,"124":1.9781666994094849,"125":0.6600884795188904,"126":0.8786975741386414,"127":-0.21323542296886444,"128":-2.817662239074707,"129":-3.112757682800293,"130":2.1369247436523438,"131":-1.8390803337097168,"132":-0.43531718850135803,"133":-0.22184237837791443,"134":3.791023015975952,"135":1.0720816850662231,"136":1.2039207220077515,"137":-2.3250277042388916,"138":0.20059989392757416,"139":0.13495609164237976,"140":-0.9185548424720764,"141":1.8447957038879395,"142":0.22338436543941498,"143":-1.390871286392212,"144":-0.7001703381538391,"145":-2.925668239593506,"146":-2.7790815830230713,"147":-1.0315067768096924,"148":-1.1144890785217285,"149":0.5398087501525879,"150":-2.8697237968444824,"151":-2.7717318534851074,"152":1.3879112005233765,"153":1.8285821676254272,"154":-0.27627307176589966,"155":-0.7447819709777832,"156":0.5404344797134399,"157":1.650476098060608,"158":-1.5249974727630615,"159":-3.107020378112793,"160":-0.5505483746528625,"161":-2.8141672611236572,"162":-0.7636458277702332,"163":-0.8688313961029053,"164":0.883109986782074,"165":2.3621766567230225,"166":-1.4327858686447144,"167":-0.594785213470459,"168":-0.14316563308238983,"169":-0.2346343994140625,"170":2.1657779216766357,"171":-1.472557783126831,"172":1.0368901491165161,"173":1.0005747079849243,"174":-0.980476438999176,"175":1.461523175239563,"176":0.11846128106117249,"177":-3.593035936355591,"178":0.6866469383239746,"179":3.6205475330352783,"180":2.1083900928497314,"181":0.8906697034835815,"182":1.6766997575759888,"183":1.7535139322280884,"184":1.912594199180603,"185":-0.762287974357605,"186":-2.316067934036255,"187":0.020105110481381416,"188":-1.5859291553497314,"189":1.6394950151443481,"190":2.0983967781066895,"191":-2.543752431869507,"192":-2.617326021194458,"193":-2.284745216369629,"194":-1.2844789028167725,"195":0.3180767595767975,"196":1.4554154872894287,"197":-0.8048004508018494,"198":-1.2517083883285522,"199":1.2856718301773071,"200":2.0997793674468994,"201":3.2884325981140137,"202":-1.1463110446929932,"203":0.41182446479797363,"204":-0.7464640736579895,"205":-1.4114634990692139,"206":0.8333365321159363,"207":-0.01720530167222023,"208":-0.2921060621738434,"209":-4.189094066619873,"210":-3.6572015285491943,"211":0.541316032409668,"212":2.0923824310302734,"213":1.8489185571670532,"214":3.0137887001037598,"215":-1.3422049283981323,"216":-1.67629075050354,"217":2.370436906814575,"218":-0.34371107816696167,"219":-2.769667625427246,"220":1.157438039779663,"221":-0.5562677979469299,"222":0.5108916759490967,"223":0.5258199572563171,"224":1.4707906246185303,"225":1.6518669128417969,"226":0.18163207173347473,"227":-0.2474297732114792,"228":-0.1828293800354004,"229":-0.7966324687004089,"230":0.4758025109767914,"231":-0.7612500190734863,"232":-1.1679487228393555,"233":1.0195492506027222,"234":1.525339126586914,"235":2.036862850189209,"236":-1.6046887636184692,"237":0.045952439308166504,"238":1.1227567195892334,"239":-1.842994213104248,"240":0.5651864409446716,"241":-3.843467950820923,"242":-1.4668209552764893,"243":-5.068156719207764,"244":-9.205240249633789,"245":4.814655303955078,"246":-0.26705843210220337,"247":-2.9265878200531006,"248":1.8477414846420288,"249":-1.6319265365600586,"250":5.8363823890686035,"251":-1.7808502912521362,"252":-4.225269317626953,"253":-1.1439964771270752,"254":0.18125317990779877,"255":1.7717056274414062,"256":4.603666305541992,"257":-3.1071879863739014,"258":-5.003110885620117,"259":3.714799165725708,"260":-2.9879562854766846,"261":1.150795340538025,"262":-0.017366664484143257,"263":-1.6488878726959229,"264":-0.1128954365849495,"265":-1.113843560218811,"266":-1.6005783081054688,"267":0.013745181262493134,"268":-0.21234257519245148,"269":1.200555682182312,"270":-3.4643473625183105,"271":-0.9454556107521057,"272":2.3229219913482666,"273":0.4815906584262848,"274":0.5516742467880249,"275":2.4756476879119873,"276":1.4046586751937866,"277":1.3649355173110962,"278":-0.31097760796546936,"279":-1.4770886898040771,"280":-0.2983487844467163,"281":4.827356815338135,"282":-0.9773157238960266,"283":2.2483582496643066,"284":4.771646499633789,"285":-5.667384624481201,"286":-1.9032888412475586,"287":-0.2587926983833313,"288":-0.9162217974662781,"289":0.2650785446166992,"290":0.028293294832110405,"291":-2.497887134552002,"292":1.8124182224273682,"293":0.7487925887107849,"294":3.6883862018585205,"295":0.7391167879104614,"296":-0.11939597874879837,"297":4.950486660003662,"298":-1.7535903453826904,"299":-2.8901844024658203,"300":2.342503786087036,"301":1.0938555002212524,"302":5.0185065269470215,"303":2.603116512298584,"304":2.283334732055664,"305":3.2810614109039307,"306":0.3565645217895508,"307":0.9966415762901306,"308":-3.5578222274780273,"309":2.118607521057129,"310":2.5144639015197754,"311":0.5235998034477234,"312":-2.000666856765747,"313":-3.628175735473633,"314":1.153055191040039,"315":-0.7329270243644714,"316":-0.2653113603591919,"317":-0.08469097316265106,"318":1.1731804609298706,"319":3.6773905754089355,"320":0.03581848368048668,"321":-0.9306499361991882,"322":-2.2022130489349365,"323":-2.17812180519104,"324":-1.4514570236206055,"325":-1.9666980504989624,"326":0.8655373454093933,"327":-1.6929614543914795,"328":2.234682321548462,"329":-2.8879966735839844,"330":-1.8669021129608154,"331":1.6144344806671143,"332":1.4304646253585815,"333":0.29585760831832886,"334":-0.37498414516448975,"335":-0.028322983533143997,"336":0.7189279794692993,"337":-0.20438897609710693,"338":0.9806223511695862,"339":-0.8158435225486755,"340":-2.1788220405578613,"341":0.5927740931510925,"342":-0.2397700846195221,"343":-0.350572407245636,"344":-1.3519136905670166,"345":-0.6410072445869446,"346":-0.2571715712547302,"347":0.5796400904655457,"348":2.525524854660034,"349":0.6183395385742188,"350":-1.0851984024047852,"351":-0.6085116863250732,"352":-0.6421827077865601,"353":-0.3650669753551483,"354":-2.6533637046813965,"355":-1.2484420537948608,"356":-0.9059852361679077,"357":-2.508007764816284,"358":-0.529254674911499,"359":-0.4727407693862915,"360":-3.427677869796753,"361":-1.6645258665084839,"362":0.3831195831298828,"363":-1.3911583423614502,"364":-0.7496250867843628,"365":-1.579155683517456,"366":2.4903054237365723,"367":0.5333385467529297,"368":2.1527042388916016,"369":-1.4675055742263794,"370":-2.401477098464966,"371":-0.41197219491004944,"372":1.5321509838104248,"373":-0.5013670921325684,"374":-2.8938426971435547,"375":-0.2421090304851532,"376":-1.0170491933822632,"377":0.3114319443702698,"378":-0.6010360717773438,"379":-1.7589514255523682,"380":0.3770677447319031,"381":-3.9030580520629883,"382":-5.6968841552734375,"383":-4.39063835144043,"384":-1.0377919673919678,"385":1.166013240814209,"386":-0.5870537161827087,"387":-5.41618537902832,"388":0.37434881925582886,"389":-0.012561836279928684,"390":-0.8295236825942993,"391":-0.5019356608390808,"392":2.6541330814361572,"393":4.631765842437744,"394":-0.15417569875717163,"395":3.5072743892669678,"396":4.4220099449157715,"397":-0.9128120541572571,"398":-1.2718393802642822,"399":2.324921131134033}},"inputBias":{"rows":20,"columns":1,"weights":{"0":0.3525390625,"1":1.2417867183685303,"2":0.667628824710846,"3":0.4217347502708435,"4":-0.5393051505088806,"5":1.1105128526687622,"6":0.04244333133101463,"7":0.313847154378891,"8":-0.08258050680160522,"9":0.18099862337112427,"10":1.4141825437545776,"11":-0.5675507187843323,"12":-1.1509865522384644,"13":-1.2732675075531006,"14":1.1937767267227173,"15":1.3837016820907593,"16":0.858333945274353,"17":-0.26806074380874634,"18":0.4479064345359802,"19":-1.00963294506073}},"forgetMatrix":{"rows":20,"columns":33,"weights":{"0":-1.3418834209442139,"1":-0.37761086225509644,"2":-1.1189639568328857,"3":3.4067721366882324,"4":0.9556392431259155,"5":-0.5236963033676147,"6":2.1111209392547607,"7":1.0091676712036133,"8":1.529435634613037,"9":-0.011977068148553371,"10":0.08051718771457672,"11":-1.37625253200531,"12":0.13649988174438477,"13":-0.5496105551719666,"14":1.7634028196334839,"15":1.7474420070648193,"16":0.7878889441490173,"17":2.1920933723449707,"18":1.3354965448379517,"19":1.2288057804107666,"20":1.1434805393218994,"21":0.5877758264541626,"22":0.8519877791404724,"23":0.4453052878379822,"24":1.498609185218811,"25":0.6017451286315918,"26":-0.731067955493927,"27":0.4301716089248657,"28":0.9075565338134766,"29":-1.4634796380996704,"30":0.1679341048002243,"31":-1.349969506263733,"32":1.8302708864212036,"33":-0.10281859338283539,"34":0.0938502848148346,"35":-1.9162161350250244,"36":-1.0422571897506714,"37":-2.1021924018859863,"38":-0.542073130607605,"39":-0.2881886661052704,"40":-0.4489535093307495,"41":-1.3754689693450928,"42":0.012827243655920029,"43":-0.2910066545009613,"44":-3.709252119064331,"45":-2.6551783084869385,"46":0.736330509185791,"47":1.584574818611145,"48":3.944209575653076,"49":1.364585280418396,"50":-1.374491572380066,"51":-1.2951078414916992,"52":1.9553158283233643,"53":1.0267505645751953,"54":-0.16839517652988434,"55":0.3398541212081909,"56":0.8158167004585266,"57":1.593962550163269,"58":1.1021804809570312,"59":1.520910620689392,"60":0.7533026337623596,"61":-0.036508962512016296,"62":3.325312614440918,"63":1.589318871498108,"64":-0.6491596698760986,"65":2.847644805908203,"66":-1.3288942575454712,"67":0.8157004714012146,"68":-0.6963651180267334,"69":-1.6588096618652344,"70":-3.6281473636627197,"71":-0.03380519524216652,"72":-1.8852465152740479,"73":0.5606022477149963,"74":-2.885310649871826,"75":0.1212916448712349,"76":0.7789245843887329,"77":1.2850197553634644,"78":2.366079568862915,"79":-1.7261217832565308,"80":0.18493704497814178,"81":-0.13744805753231049,"82":-0.1848982274532318,"83":-1.0212185382843018,"84":0.645706832408905,"85":-1.224751591682434,"86":0.6071799397468567,"87":-0.8034321069717407,"88":-1.6036574840545654,"89":-1.2674620151519775,"90":-1.7759977579116821,"91":0.7193943858146667,"92":-0.04826432466506958,"93":2.893293619155884,"94":-1.3109767436981201,"95":-0.8043187260627747,"96":-1.8070026636123657,"97":1.657114028930664,"98":-0.1504567265510559,"99":1.2858645915985107,"100":-0.9632349014282227,"101":0.38863882422447205,"102":-1.167088270187378,"103":0.08330858498811722,"104":-1.6264441013336182,"105":-0.010000853799283504,"106":-2.053231954574585,"107":1.3188438415527344,"108":1.6308914422988892,"109":-1.1251859664916992,"110":1.4632927179336548,"111":-1.2603615522384644,"112":3.8517727851867676,"113":-0.38955122232437134,"114":1.4506916999816895,"115":2.3836543560028076,"116":-0.9783891439437866,"117":2.368354082107544,"118":1.4026038646697998,"119":-0.018885105848312378,"120":0.1943184733390808,"121":-0.5234423279762268,"122":0.9907452464103699,"123":-0.37559017539024353,"124":-1.1710178852081299,"125":0.5478988289833069,"126":-1.6654646396636963,"127":0.05799490213394165,"128":-2.3180201053619385,"129":-2.352930784225464,"130":0.12407711893320084,"131":1.4582453966140747,"132":2.210524559020996,"133":-1.6484971046447754,"134":-0.4738907814025879,"135":-0.40544822812080383,"136":0.8380416035652161,"137":-2.4077274799346924,"138":0.471793532371521,"139":-0.42964157462120056,"140":0.25629720091819763,"141":0.4920697510242462,"142":-1.050750732421875,"143":0.5559998154640198,"144":-0.19785131514072418,"145":3.383636951446533,"146":-0.01393180713057518,"147":0.4624541997909546,"148":2.3630621433258057,"149":-2.1213767528533936,"150":0.6994870901107788,"151":0.1277114450931549,"152":-0.48512834310531616,"153":0.7467414140701294,"154":-0.20505143702030182,"155":-1.6041797399520874,"156":1.1339197158813477,"157":-3.231421947479248,"158":0.13296964764595032,"159":-2.2281789779663086,"160":1.7804887294769287,"161":-1.1078816652297974,"162":-0.22727428376674652,"163":-0.7076196074485779,"164":0.47480422258377075,"165":0.4339371919631958,"166":0.3209401071071625,"167":-0.11683563888072968,"168":0.38383445143699646,"169":1.521553635597229,"170":-1.8878834247589111,"171":1.7272905111312866,"172":0.17036516964435577,"173":1.8860726356506348,"174":-2.2391583919525146,"175":1.378784418106079,"176":1.6676969528198242,"177":0.8817411661148071,"178":-0.6507130265235901,"179":2.2620718479156494,"180":-1.283941388130188,"181":-0.08154243230819702,"182":-0.5411309599876404,"183":1.4128286838531494,"184":2.7932825088500977,"185":0.1514492779970169,"186":-1.0822358131408691,"187":0.7563940286636353,"188":0.8944492340087891,"189":-0.024707559496164322,"190":1.5426411628723145,"191":-0.9897129535675049,"192":-0.04970119893550873,"193":0.8400992751121521,"194":0.6911829710006714,"195":-0.5059291124343872,"196":4.379785537719727,"197":-0.9291377067565918,"198":-2.0633914470672607,"199":0.06040780246257782,"200":-0.6288663148880005,"201":-1.4330569505691528,"202":-0.32644346356391907,"203":2.151336193084717,"204":0.4526139795780182,"205":-0.6323558688163757,"206":-0.5633543729782104,"207":1.1081045866012573,"208":-1.2753572463989258,"209":-0.5678209662437439,"210":-0.3983105719089508,"211":-1.3535372018814087,"212":1.69987154006958,"213":1.1985900402069092,"214":-0.7151668071746826,"215":1.0109186172485352,"216":0.4771743714809418,"217":-0.5925233364105225,"218":-0.16131600737571716,"219":-0.27027347683906555,"220":-0.21693730354309082,"221":0.9704391956329346,"222":-1.657192349433899,"223":2.2394144535064697,"224":2.3431756496429443,"225":1.2915045022964478,"226":-0.41461876034736633,"227":0.08448521792888641,"228":-0.8375919461250305,"229":-0.7433412075042725,"230":1.698396921157837,"231":-3.3632755279541016,"232":4.1033124923706055,"233":1.8507941961288452,"234":1.4902174472808838,"235":-0.13565300405025482,"236":3.2512893676757812,"237":-0.2090631127357483,"238":1.711748480796814,"239":-0.7547011375427246,"240":-1.2749030590057373,"241":0.22624287009239197,"242":-0.8712289929389954,"243":-0.6632195711135864,"244":-3.966362953186035,"245":0.5307010412216187,"246":-1.3980827331542969,"247":-2.3214972019195557,"248":4.046698570251465,"249":-0.3764067590236664,"250":-1.8032227754592896,"251":-0.6260308027267456,"252":-0.01986258290708065,"253":-1.4841318130493164,"254":0.7552424073219299,"255":-0.9347607493400574,"256":0.874201774597168,"257":0.1939171999692917,"258":0.4938427805900574,"259":1.2837190628051758,"260":0.8372015357017517,"261":0.3130665123462677,"262":0.18088139593601227,"263":-0.4931045174598694,"264":1.6663576364517212,"265":0.8687056303024292,"266":1.4529833793640137,"267":-3.012446880340576,"268":-0.684356153011322,"269":-1.2331781387329102,"270":3.024855852127075,"271":0.29181969165802,"272":0.4290381968021393,"273":1.0478515625,"274":0.5032122135162354,"275":0.49360159039497375,"276":-0.6950114965438843,"277":1.109160304069519,"278":0.7521652579307556,"279":-0.6521421074867249,"280":0.30447760224342346,"281":1.1391154527664185,"282":0.31514471769332886,"283":0.5825666189193726,"284":-0.19876186549663544,"285":2.230515480041504,"286":0.688966691493988,"287":2.218249559402466,"288":0.530283510684967,"289":0.819097101688385,"290":0.37173429131507874,"291":-0.3059214651584625,"292":2.8921475410461426,"293":0.9977068901062012,"294":-0.39114904403686523,"295":-0.6225976943969727,"296":0.12807597219944,"297":-0.6281550526618958,"298":1.2129631042480469,"299":-1.7487417459487915,"300":0.7766600251197815,"301":0.3122508227825165,"302":0.24891115725040436,"303":-0.1803043633699417,"304":-1.395699381828308,"305":-0.031578075140714645,"306":-0.844054639339447,"307":-1.8005218505859375,"308":-2.688289165496826,"309":-0.7757800817489624,"310":-0.9864982962608337,"311":1.5465728044509888,"312":1.3026387691497803,"313":-0.08471603691577911,"314":-0.347480833530426,"315":1.0520431995391846,"316":0.9392119646072388,"317":1.4042233228683472,"318":-0.8842691779136658,"319":-0.14182239770889282,"320":0.5090084671974182,"321":-0.2847546339035034,"322":0.4133146107196808,"323":1.6279280185699463,"324":1.6272084712982178,"325":0.3790639042854309,"326":-0.12900333106517792,"327":-0.2709435820579529,"328":0.11371224373579025,"329":1.715280532836914,"330":1.034860610961914,"331":-2.9239397048950195,"332":1.2294753789901733,"333":-0.11440459638834,"334":1.3997045755386353,"335":-1.249227523803711,"336":-0.12632043659687042,"337":-1.2673269510269165,"338":-0.48840901255607605,"339":-1.1505744457244873,"340":-0.2906624972820282,"341":3.224698781967163,"342":-1.1157276630401611,"343":0.6913101077079773,"344":-0.5723204612731934,"345":1.0323463678359985,"346":2.4217450618743896,"347":-1.9934104681015015,"348":2.9606831073760986,"349":2.2065396308898926,"350":-0.39711716771125793,"351":-0.771597146987915,"352":0.43864330649375916,"353":-0.9570955038070679,"354":3.3003110885620117,"355":-1.1829063892364502,"356":1.2758444547653198,"357":-2.715160846710205,"358":0.5104493498802185,"359":0.5243420600891113,"360":-2.4083638191223145,"361":0.6035632491111755,"362":0.8607757687568665,"363":-1.103779673576355,"364":1.9057375192642212,"365":-0.7365742325782776,"366":0.0299796462059021,"367":-0.4121391177177429,"368":0.4647115170955658,"369":-0.05072613060474396,"370":0.8180099129676819,"371":-0.18496887385845184,"372":0.7276301383972168,"373":-1.7983211278915405,"374":-1.3577014207839966,"375":-0.8138990998268127,"376":-0.051951657980680466,"377":2.335742712020874,"378":0.7513939738273621,"379":-0.35476911067962646,"380":0.6246906518936157,"381":0.019857926294207573,"382":0.11569054424762726,"383":1.0150460004806519,"384":-0.6135981678962708,"385":-0.8157876133918762,"386":0.2571571469306946,"387":-0.9662087559700012,"388":1.016377329826355,"389":1.4051308631896973,"390":1.3218190670013428,"391":-0.4121381640434265,"392":-0.94394850730896,"393":-0.5785450339317322,"394":-0.04107334837317467,"395":1.8665447235107422,"396":-1.1037898063659668,"397":-0.32667210698127747,"398":0.7316707968711853,"399":-0.48094287514686584,"400":-1.3025691509246826,"401":0.8956299424171448,"402":-0.2934286892414093,"403":0.9941536784172058,"404":-1.404780387878418,"405":-0.6588589549064636,"406":-1.2036386728286743,"407":1.905194878578186,"408":1.4273208379745483,"409":-0.32529667019844055,"410":-1.3946219682693481,"411":-0.4977346658706665,"412":1.540229082107544,"413":0.19773635268211365,"414":1.1697114706039429,"415":-1.5027408599853516,"416":-0.6964049935340881,"417":-0.9240944385528564,"418":-1.084886908531189,"419":-0.9143250584602356,"420":-1.0535775423049927,"421":0.9429969787597656,"422":0.09680300951004028,"423":2.2333123683929443,"424":-1.708404541015625,"425":0.022347142919898033,"426":-0.7977561950683594,"427":1.0030553340911865,"428":-1.9305672645568848,"429":0.4390838146209717,"430":0.006658284459263086,"431":-1.0836982727050781,"432":0.8858515620231628,"433":-0.33813661336898804,"434":0.9014881253242493,"435":-0.3600277602672577,"436":0.3374696671962738,"437":-1.6496059894561768,"438":1.334826111793518,"439":1.3789618015289307,"440":-1.6711152791976929,"441":0.3146679103374481,"442":0.432986319065094,"443":-0.22211581468582153,"444":1.03378427028656,"445":0.4247993528842926,"446":1.611618161201477,"447":1.3563251495361328,"448":-1.6835362911224365,"449":-0.3114573657512665,"450":-0.5329331159591675,"451":1.2639209032058716,"452":-1.3716408014297485,"453":-0.8437390327453613,"454":-1.2194628715515137,"455":1.801844596862793,"456":0.27144214510917664,"457":-0.08553556352853775,"458":3.9124109745025635,"459":0.6971686482429504,"460":-0.0730813592672348,"461":-1.224977731704712,"462":1.9944217205047607,"463":-0.040504418313503265,"464":0.1326204091310501,"465":-3.1512677669525146,"466":1.218019962310791,"467":-2.081374406814575,"468":2.230602741241455,"469":-0.3704605996608734,"470":1.9309881925582886,"471":0.8853920102119446,"472":-3.7364914417266846,"473":1.524559736251831,"474":-3.3916499614715576,"475":0.008804162964224815,"476":3.0829806327819824,"477":1.2330838441848755,"478":0.1303430199623108,"479":-0.1747753918170929,"480":1.8458185195922852,"481":1.8685227632522583,"482":-0.8759771585464478,"483":-0.8919509053230286,"484":1.4322799444198608,"485":2.400749921798706,"486":0.3316655457019806,"487":0.06157562509179115,"488":0.5065799951553345,"489":-0.8770880103111267,"490":0.2504947781562805,"491":-0.6643316149711609,"492":-2.133608818054199,"493":-0.7542504072189331,"494":-0.45753705501556396,"495":-0.17037351429462433,"496":0.07839180529117584,"497":-1.0441642999649048,"498":-1.7426108121871948,"499":-0.4475063383579254,"500":-0.41866689920425415,"501":2.0572891235351562,"502":-0.7371683120727539,"503":0.5926088094711304,"504":-0.9512455463409424,"505":1.171992301940918,"506":-1.446768045425415,"507":1.4859081506729126,"508":-0.577527642250061,"509":1.7223893404006958,"510":2.054690361022949,"511":-0.43635791540145874,"512":0.28916409611701965,"513":-0.056624867022037506,"514":-0.4199945330619812,"515":1.6451438665390015,"516":-2.825324773788452,"517":-0.2010767012834549,"518":2.262319564819336,"519":-0.4154953062534332,"520":1.566060185432434,"521":0.5810839533805847,"522":-0.5201864838600159,"523":1.3053944110870361,"524":-1.0933915376663208,"525":0.4460112452507019,"526":0.771701455116272,"527":-0.21901609003543854,"528":1.7271807193756104,"529":0.8584933280944824,"530":-0.16475124657154083,"531":-0.5389375686645508,"532":0.5846956372261047,"533":-1.6274372339248657,"534":-0.8996913433074951,"535":0.1314166784286499,"536":1.0278905630111694,"537":1.708999514579773,"538":2.990548610687256,"539":-1.41778564453125,"540":-1.5980695486068726,"541":2.037872791290283,"542":1.3016670942306519,"543":-0.4256278872489929,"544":-0.39697039127349854,"545":-0.6306570768356323,"546":0.24974259734153748,"547":-0.13048632442951202,"548":0.5648950338363647,"549":1.851975679397583,"550":1.2679001092910767,"551":-0.3028753697872162,"552":1.6605209112167358,"553":-0.8340481519699097,"554":-1.095180630683899,"555":-0.3763616383075714,"556":0.9874637126922607,"557":2.1499991416931152,"558":-0.7719978094100952,"559":-1.5648936033248901,"560":0.9861223697662354,"561":0.43338897824287415,"562":2.2046959400177,"563":-0.15330614149570465,"564":0.050437185913324356,"565":0.43057483434677124,"566":0.4736129641532898,"567":1.2775620222091675,"568":-0.60234534740448,"569":0.8690226674079895,"570":0.019596001133322716,"571":-1.7313170433044434,"572":-1.3645528554916382,"573":-0.07758242636919022,"574":-0.12064559012651443,"575":0.6805121302604675,"576":0.7441095113754272,"577":-0.550740659236908,"578":0.09562928229570389,"579":0.1747046411037445,"580":1.7708642482757568,"581":0.02680482715368271,"582":-0.7699077725410461,"583":0.21436892449855804,"584":0.7832465767860413,"585":0.657891035079956,"586":-0.4859272241592407,"587":0.08470522612333298,"588":-0.10746532678604126,"589":0.4883557856082916,"590":0.7142033576965332,"591":1.5038055181503296,"592":-1.1113451719284058,"593":1.8114359378814697,"594":0.17228201031684875,"595":2.176283597946167,"596":-0.308072954416275,"597":3.967805862426758,"598":-0.3162902295589447,"599":0.6513650417327881,"600":0.030570589005947113,"601":1.1963627338409424,"602":3.466527223587036,"603":-0.6510508060455322,"604":1.5015400648117065,"605":0.3492220640182495,"606":-0.7274323105812073,"607":-0.2832862138748169,"608":1.1441001892089844,"609":-0.24757695198059082,"610":0.595366895198822,"611":1.468654990196228,"612":1.130602478981018,"613":0.0030875212978571653,"614":2.339188575744629,"615":0.16894440352916718,"616":1.2947595119476318,"617":1.4297717809677124,"618":-0.22562283277511597,"619":1.0468347072601318,"620":2.430732250213623,"621":0.3513464033603668,"622":2.2380998134613037,"623":2.806626558303833,"624":2.8786442279815674,"625":0.40633922815322876,"626":0.46173614263534546,"627":-1.3951349258422852,"628":-0.5016238689422607,"629":-0.33663514256477356,"630":0.604979932308197,"631":-0.7290947437286377,"632":0.7578111290931702,"633":-2.688737154006958,"634":-0.974636971950531,"635":-1.6906763315200806,"636":1.320364236831665,"637":0.35200682282447815,"638":1.1990711688995361,"639":-1.4878662824630737,"640":-0.05458679050207138,"641":0.5296047329902649,"642":1.4027739763259888,"643":0.3752913177013397,"644":1.0615801811218262,"645":-1.5215917825698853,"646":-2.6574792861938477,"647":-0.6219518780708313,"648":2.37679386138916,"649":0.42390984296798706,"650":-1.8214420080184937,"651":0.028297554701566696,"652":-1.8838268518447876,"653":-0.1917121857404709,"654":2.6038899421691895,"655":-0.6840417981147766,"656":1.394850492477417,"657":0.612841784954071,"658":-1.639865756034851,"659":0.9412907361984253}},"forgetHidden":{"rows":20,"columns":20,"weights":{"0":-0.4105788469314575,"1":-1.5048179626464844,"2":2.9980385303497314,"3":0.9754048585891724,"4":2.345031499862671,"5":-0.9941801428794861,"6":-1.480474591255188,"7":3.3418989181518555,"8":-0.024122530594468117,"9":0.1348416656255722,"10":-0.5795078873634338,"11":-2.83575439453125,"12":-2.2767343521118164,"13":-2.659783124923706,"14":1.6353439092636108,"15":-0.2145983874797821,"16":-1.257287859916687,"17":-1.4811532497406006,"18":1.8673958778381348,"19":2.898455858230591,"20":1.424043893814087,"21":0.019864587113261223,"22":0.8448426723480225,"23":-0.09442611038684845,"24":0.5703012943267822,"25":1.5079891681671143,"26":-0.7952593564987183,"27":0.2505466938018799,"28":-0.8541126251220703,"29":-0.275129109621048,"30":1.99322509765625,"31":-0.21878114342689514,"32":-1.5363799333572388,"33":0.6849997043609619,"34":-2.636514663696289,"35":-0.054058365523815155,"36":-1.0803757905960083,"37":-0.8139088749885559,"38":-2.312013626098633,"39":0.3094780743122101,"40":0.10641621053218842,"41":-0.3160821497440338,"42":-1.388741374015808,"43":-1.9967975616455078,"44":-2.6103620529174805,"45":-1.3698850870132446,"46":-0.46466025710105896,"47":-1.7043102979660034,"48":-1.1908223628997803,"49":1.1928445100784302,"50":-1.859259009361267,"51":-0.6986145377159119,"52":1.6824957132339478,"53":2.9332268238067627,"54":2.0209250450134277,"55":0.5485287308692932,"56":2.1577000617980957,"57":1.4522886276245117,"58":-1.9038201570510864,"59":-2.1933627128601074,"60":-1.39474356174469,"61":-0.3244803249835968,"62":1.6013554334640503,"63":0.7877363562583923,"64":1.9690477848052979,"65":-1.1147483587265015,"66":-2.588823080062866,"67":2.89357328414917,"68":-1.6298069953918457,"69":1.2266225814819336,"70":-4.768963813781738,"71":-0.22319506108760834,"72":-0.27643856406211853,"73":-0.021450232714414597,"74":1.7039040327072144,"75":1.5855414867401123,"76":-2.3477365970611572,"77":-0.34152254462242126,"78":2.617372512817383,"79":0.026861067861318588,"80":-1.2386178970336914,"81":-1.3623287677764893,"82":-1.6189781427383423,"83":-0.908113420009613,"84":-2.365342855453491,"85":0.027302874252200127,"86":0.1354086995124817,"87":-0.7979934811592102,"88":-0.8723939657211304,"89":0.9322412014007568,"90":0.49902984499931335,"91":-0.5637561678886414,"92":1.534650206565857,"93":0.5004101991653442,"94":-0.5681024193763733,"95":-0.030640115961432457,"96":0.04854998365044594,"97":-1.757489562034607,"98":-1.2402631044387817,"99":-0.5678366422653198,"100":-0.6022805571556091,"101":1.586647868156433,"102":-1.3469858169555664,"103":-0.33847686648368835,"104":1.4472237825393677,"105":-3.1328206062316895,"106":0.8792986273765564,"107":-1.8733805418014526,"108":0.751571536064148,"109":-0.4922539293766022,"110":-2.147387981414795,"111":0.5694275498390198,"112":1.394692301750183,"113":0.9433189034461975,"114":3.949359655380249,"115":1.1128687858581543,"116":-1.669412612915039,"117":2.243680238723755,"118":-0.8522951602935791,"119":-2.232215642929077,"120":1.6531782150268555,"121":-1.4118882417678833,"122":0.63156658411026,"123":-0.1668509542942047,"124":0.02119053341448307,"125":1.2958298921585083,"126":-0.24971789121627808,"127":-2.148913621902466,"128":-0.02930164337158203,"129":-1.3778014183044434,"130":-0.610113263130188,"131":-0.6429153680801392,"132":0.2053419053554535,"133":0.6010688543319702,"134":2.951223134994507,"135":1.7587697505950928,"136":-0.6625251770019531,"137":0.4022791385650635,"138":1.321750521659851,"139":-0.34462738037109375,"140":0.8494411706924438,"141":-1.256121039390564,"142":-0.3949219882488251,"143":0.008508417755365372,"144":-0.5269575119018555,"145":2.334786891937256,"146":0.1921580582857132,"147":-0.4557422995567322,"148":0.5937681198120117,"149":-0.553139328956604,"150":0.5297963619232178,"151":0.023242730647325516,"152":0.9436425566673279,"153":-1.0024797916412354,"154":-0.5025622248649597,"155":1.207066297531128,"156":1.3700398206710815,"157":-0.19034649431705475,"158":-1.5453828573226929,"159":0.8999475836753845,"160":0.9998265504837036,"161":0.3090120851993561,"162":0.42845669388771057,"163":0.5452405214309692,"164":0.2915244698524475,"165":0.3906004726886749,"166":0.7300606966018677,"167":1.3741278648376465,"168":-0.18059514462947845,"169":1.3651777505874634,"170":2.31238055229187,"171":0.37830814719200134,"172":0.6685803532600403,"173":-0.39439108967781067,"174":0.21541959047317505,"175":0.41817450523376465,"176":-2.3036727905273438,"177":-1.1606274843215942,"178":0.3090219795703888,"179":0.156211256980896,"180":-1.0772300958633423,"181":0.7007778882980347,"182":0.9084017276763916,"183":0.5970205068588257,"184":0.7303995490074158,"185":-0.38012754917144775,"186":-0.4198516607284546,"187":-0.6479964256286621,"188":-0.6812087297439575,"189":-0.13622696697711945,"190":0.9555115103721619,"191":0.03756226226687431,"192":-0.6490008234977722,"193":-0.7926958203315735,"194":-1.2808589935302734,"195":-0.040928177535533905,"196":1.131432294845581,"197":0.2635851204395294,"198":0.6640764474868774,"199":-0.580177366733551,"200":2.6455836296081543,"201":0.6827957034111023,"202":-0.02919425629079342,"203":-0.2498767226934433,"204":-0.5516008138656616,"205":0.815841555595398,"206":0.5281324982643127,"207":1.428242802619934,"208":0.9080262184143066,"209":0.46278810501098633,"210":-0.30887529253959656,"211":-0.17241452634334564,"212":-1.7411446571350098,"213":-1.3956302404403687,"214":-1.3947821855545044,"215":-0.9627654552459717,"216":-0.6915925145149231,"217":-0.15991853177547455,"218":-0.21376463770866394,"219":-0.7240187525749207,"220":0.3088257610797882,"221":-0.7175830006599426,"222":1.123216152191162,"223":1.0518501996994019,"224":0.708016574382782,"225":0.3639596402645111,"226":0.6251114010810852,"227":0.3487914204597473,"228":0.4291980266571045,"229":-1.1241155862808228,"230":-0.0022479568142443895,"231":1.1643677949905396,"232":-0.5078322887420654,"233":-0.30573570728302,"234":0.7508425712585449,"235":0.8940707445144653,"236":-0.532723605632782,"237":-1.0318269729614258,"238":-0.05422959104180336,"239":1.151306390762329,"240":1.401477336883545,"241":-0.995119571685791,"242":-4.191684722900391,"243":-1.3006895780563354,"244":-2.8671658039093018,"245":-0.1334153413772583,"246":-0.4478960633277893,"247":-0.8138318061828613,"248":1.239092469215393,"249":0.2575570046901703,"250":0.7626076936721802,"251":-0.07447098940610886,"252":2.657857656478882,"253":1.6288995742797852,"254":6.0642805099487305,"255":2.1868789196014404,"256":1.099501609802246,"257":0.5143747925758362,"258":-1.0076946020126343,"259":-2.2518768310546875,"260":-1.9814586639404297,"261":-2.724965810775757,"262":0.9800589084625244,"263":-0.9311668872833252,"264":1.6549526453018188,"265":2.0844690799713135,"266":1.0904676914215088,"267":-1.654500126838684,"268":-0.3130819499492645,"269":4.52647066116333,"270":0.6019864082336426,"271":2.4602532386779785,"272":-2.2856593132019043,"273":-1.1227070093154907,"274":-1.5832123756408691,"275":0.7070261240005493,"276":6.484241008758545,"277":-4.522212505340576,"278":-2.4104206562042236,"279":4.303289890289307,"280":-1.2395737171173096,"281":0.9215689897537231,"282":0.9958727359771729,"283":1.1895670890808105,"284":-0.17661675810813904,"285":-2.0640647411346436,"286":1.3041739463806152,"287":-0.7831935882568359,"288":1.8365978002548218,"289":-1.8246170282363892,"290":-2.368917465209961,"291":-0.06600117683410645,"292":0.0345454066991806,"293":-0.3648463785648346,"294":3.5467731952667236,"295":-2.2997710704803467,"296":0.7032286524772644,"297":0.997750461101532,"298":2.4617888927459717,"299":-1.4904370307922363,"300":-0.009973238222301006,"301":-3.095247507095337,"302":0.4321378469467163,"303":1.3467315435409546,"304":2.712486743927002,"305":1.1755387783050537,"306":-2.4777681827545166,"307":-3.141256093978882,"308":-0.33486729860305786,"309":-0.6212993264198303,"310":0.35468241572380066,"311":-2.9693222045898438,"312":-1.4385707378387451,"313":-0.5867407917976379,"314":-1.565152883529663,"315":3.889484405517578,"316":4.31083869934082,"317":-0.591915488243103,"318":-3.590116262435913,"319":3.1587605476379395,"320":-2.7207343578338623,"321":0.8610118627548218,"322":1.7698808908462524,"323":-0.2618366777896881,"324":-2.324134588241577,"325":0.22171097993850708,"326":1.4607036113739014,"327":1.690535545349121,"328":2.9496991634368896,"329":-0.6935087442398071,"330":0.8523336052894592,"331":0.5950673818588257,"332":-2.2892682552337646,"333":-2.1596765518188477,"334":-0.6491292715072632,"335":-0.09374969452619553,"336":0.10954708606004715,"337":-2.98371958732605,"338":0.36694392561912537,"339":1.276149034500122,"340":-2.4437954425811768,"341":1.6548172235488892,"342":-4.642637729644775,"343":-1.2078965902328491,"344":-2.421478033065796,"345":-2.769207239151001,"346":1.0818339586257935,"347":-5.624571323394775,"348":1.552174687385559,"349":-3.2801098823547363,"350":-1.682029366493225,"351":2.1762001514434814,"352":3.8214056491851807,"353":1.5074074268341064,"354":-2.1094624996185303,"355":-2.338449239730835,"356":-0.07616587728261948,"357":2.374492883682251,"358":-0.6433218121528625,"359":-2.3020830154418945,"360":-2.4569013118743896,"361":-0.5174931287765503,"362":-0.27557459473609924,"363":-2.0111050605773926,"364":-3.085968017578125,"365":3.4469118118286133,"366":-0.2532934248447418,"367":0.9322518706321716,"368":-2.0829265117645264,"369":0.21435505151748657,"370":1.3069652318954468,"371":-2.7596490383148193,"372":-1.1588126420974731,"373":-2.6038265228271484,"374":-1.9514975547790527,"375":5.179991722106934,"376":1.6485399007797241,"377":-0.8248472809791565,"378":-0.6876447796821594,"379":1.301689863204956,"380":1.3287285566329956,"381":1.025162696838379,"382":-1.705036997795105,"383":-0.42482098937034607,"384":-1.277395486831665,"385":-0.43970048427581787,"386":-0.1363939642906189,"387":1.1068694591522217,"388":0.04598133638501167,"389":0.9275464415550232,"390":0.4805748462677002,"391":-0.32953283190727234,"392":1.858609914779663,"393":1.5974723100662231,"394":2.538938045501709,"395":-1.0716400146484375,"396":2.9715499877929688,"397":-0.5615522861480713,"398":3.0939478874206543,"399":-0.5997133255004883}},"forgetBias":{"rows":20,"columns":1,"weights":{"0":0,"1":0,"2":0,"3":0,"4":0,"5":0,"6":0,"7":0,"8":0,"9":0,"10":0,"11":0,"12":0,"13":0,"14":0,"15":0,"16":0,"17":0,"18":0,"19":0}},"outputMatrix":{"rows":20,"columns":33,"weights":{"0":-0.5969057679176331,"1":0.5167953968048096,"2":-0.8533424735069275,"3":-0.647247850894928,"4":1.3507437705993652,"5":-1.0091512203216553,"6":1.2320741415023804,"7":1.7842564582824707,"8":1.3850935697555542,"9":-0.23942404985427856,"10":-0.07054407149553299,"11":0.1733168214559555,"12":0.07591360062360764,"13":-0.9606567621231079,"14":3.455672264099121,"15":-0.22894322872161865,"16":-1.4115815162658691,"17":1.2629427909851074,"18":3.939750909805298,"19":2.3506522178649902,"20":-0.22203142940998077,"21":0.7488091588020325,"22":0.7725328207015991,"23":-0.6598762273788452,"24":1.118484616279602,"25":-0.7163799405097961,"26":-1.5822299718856812,"27":0.4085555374622345,"28":-0.9457631707191467,"29":-2.0103116035461426,"30":-4.334956645965576,"31":-0.7606289982795715,"32":0.7372923493385315,"33":-1.1914602518081665,"34":0.29386529326438904,"35":-1.243538498878479,"36":0.2820025086402893,"37":-1.8890471458435059,"38":1.2691564559936523,"39":-1.1358647346496582,"40":-0.011106315068900585,"41":-2.5343008041381836,"42":-0.9386498332023621,"43":-1.7655740976333618,"44":1.480965256690979,"45":1.5511473417282104,"46":-1.5639172792434692,"47":0.17954890429973602,"48":-0.49317657947540283,"49":0.37639445066452026,"50":1.1881306171417236,"51":1.3508564233779907,"52":1.8649791479110718,"53":1.2588329315185547,"54":-0.6598581075668335,"55":-1.3485385179519653,"56":-1.0100398063659668,"57":-1.2847316265106201,"58":1.4143842458724976,"59":0.6821760535240173,"60":0.8901273608207703,"61":0.3629600405693054,"62":-2.778294086456299,"63":-1.9347985982894897,"64":1.6028122901916504,"65":-0.4205455780029297,"66":0.15841475129127502,"67":0.33481529355049133,"68":0.4836273193359375,"69":-1.3124725818634033,"70":-1.4521268606185913,"71":-0.5235652327537537,"72":-0.8352504968643188,"73":-1.5854662656784058,"74":-1.131527066230774,"75":-1.7174805402755737,"76":-0.9955686330795288,"77":-0.6620804071426392,"78":2.915817975997925,"79":-1.3204106092453003,"80":0.03264996409416199,"81":-0.6489673852920532,"82":-0.15509720146656036,"83":-1.5268137454986572,"84":0.3398716151714325,"85":0.2199334055185318,"86":-1.2499440908432007,"87":-1.419079065322876,"88":-0.8128064870834351,"89":-1.2649353742599487,"90":-1.893247127532959,"91":1.0490326881408691,"92":-1.524983286857605,"93":1.2888425588607788,"94":-0.517910897731781,"95":-0.0068610236048698425,"96":0.7408155798912048,"97":-0.14496126770973206,"98":-0.25909802317619324,"99":1.6117182970046997,"100":0.9569962024688721,"101":-1.2005901336669922,"102":-2.1754415035247803,"103":-0.4151028096675873,"104":0.49539777636528015,"105":-2.280080556869507,"106":0.14150869846343994,"107":0.184903085231781,"108":1.3394367694854736,"109":-0.09469163417816162,"110":-0.7342042326927185,"111":-2.153682231903076,"112":1.736611008644104,"113":-1.1267975568771362,"114":1.1196675300598145,"115":-0.48610225319862366,"116":-0.639427900314331,"117":-0.8214340806007385,"118":-0.31569868326187134,"119":0.35491201281547546,"120":0.5393248796463013,"121":-0.012195397168397903,"122":0.6253649592399597,"123":0.4577871561050415,"124":-1.468963384628296,"125":1.0530953407287598,"126":-0.21525411307811737,"127":0.7495154142379761,"128":1.5108914375305176,"129":0.5763235092163086,"130":-2.232226848602295,"131":-0.11155061423778534,"132":0.996677577495575,"133":-0.7428762912750244,"134":0.879990816116333,"135":-1.751875638961792,"136":-0.06690531224012375,"137":-1.0265930891036987,"138":1.7172359228134155,"139":-1.74769127368927,"140":0.8466317653656006,"141":1.0684118270874023,"142":-0.4000118374824524,"143":-0.27101728320121765,"144":-0.07362090051174164,"145":1.0813922882080078,"146":-0.9047526121139526,"147":1.1716840267181396,"148":1.088667392730713,"149":-0.21698012948036194,"150":-0.4812745451927185,"151":1.3985669612884521,"152":0.6665067076683044,"153":0.5493395924568176,"154":1.9100404977798462,"155":-0.4760647118091583,"156":-0.8544139862060547,"157":-1.6501082181930542,"158":-0.101127028465271,"159":-2.863779306411743,"160":2.5946497917175293,"161":-0.24623845517635345,"162":2.4835257530212402,"163":-3.2556278705596924,"164":1.1660799980163574,"165":-1.9331923723220825,"166":1.007891058921814,"167":0.787187933921814,"168":3.919673442840576,"169":0.5789269208908081,"170":0.3106350302696228,"171":-1.9556370973587036,"172":0.8340656757354736,"173":1.536033034324646,"174":-2.7432618141174316,"175":2.6883046627044678,"176":-0.9550644755363464,"177":-0.029565846547484398,"178":-0.19607426226139069,"179":0.4580082297325134,"180":-1.27664315700531,"181":-0.6151531338691711,"182":1.2045756578445435,"183":-1.4769155979156494,"184":-0.6490862965583801,"185":-1.4111614227294922,"186":-1.7429782152175903,"187":-0.7186844944953918,"188":2.5712883472442627,"189":0.8160245418548584,"190":1.6415616273880005,"191":-0.4240368902683258,"192":0.416449636220932,"193":-1.438073992729187,"194":0.44528794288635254,"195":0.6502026915550232,"196":2.251920223236084,"197":0.07603538781404495,"198":0.9707843065261841,"199":0.16716179251670837,"200":-1.8408277034759521,"201":-0.5566505789756775,"202":2.8962063789367676,"203":0.048768479377031326,"204":0.838055431842804,"205":2.282994508743286,"206":-0.47966229915618896,"207":3.03003191947937,"208":-0.8742993474006653,"209":-2.0174872875213623,"210":-2.1093642711639404,"211":-0.3216935098171234,"212":1.4574675559997559,"213":0.7975571751594543,"214":-2.315190076828003,"215":0.7970616817474365,"216":0.27009814977645874,"217":2.2575154304504395,"218":0.963292121887207,"219":1.297466516494751,"220":1.2840766906738281,"221":-0.12695269286632538,"222":1.7491227388381958,"223":-1.4092411994934082,"224":0.3515087962150574,"225":0.503459632396698,"226":1.5806549787521362,"227":0.4560714364051819,"228":-0.42649686336517334,"229":-1.8725472688674927,"230":2.7396562099456787,"231":-1.3064237833023071,"232":-0.23130348324775696,"233":1.1222481727600098,"234":0.2810400426387787,"235":-0.9914272427558899,"236":0.5908554792404175,"237":0.9037473797798157,"238":0.05837097391486168,"239":0.4933643043041229,"240":-0.027762537822127342,"241":-0.05985170602798462,"242":1.274335503578186,"243":1.0266250371932983,"244":-0.8997659087181091,"245":-1.4105535745620728,"246":-0.4253988564014435,"247":2.245126962661743,"248":1.5778878927230835,"249":0.1977221816778183,"250":0.31673428416252136,"251":0.5310046076774597,"252":-0.5402493476867676,"253":0.1417863667011261,"254":-1.1822258234024048,"255":-0.05115191265940666,"256":1.2306028604507446,"257":0.4920041859149933,"258":-0.9099500179290771,"259":0.8225932717323303,"260":0.21965399384498596,"261":1.1141140460968018,"262":-0.08426299691200256,"263":-1.1556625366210938,"264":1.5459117889404297,"265":-0.4750438630580902,"266":0.3168847858905792,"267":2.2100586891174316,"268":0.9873796105384827,"269":0.19670742750167847,"270":-0.7205143570899963,"271":-0.2577536106109619,"272":2.062021255493164,"273":0.4867274761199951,"274":0.3765956163406372,"275":-1.3592255115509033,"276":-1.4040204286575317,"277":0.7560689449310303,"278":0.4916742742061615,"279":0.22967344522476196,"280":1.1806437969207764,"281":1.420005202293396,"282":-2.1701412200927734,"283":0.27552080154418945,"284":0.014310387894511223,"285":1.4394415616989136,"286":0.6568154692649841,"287":0.9647886753082275,"288":0.8480041027069092,"289":-0.6844807267189026,"290":0.14716202020645142,"291":0.27901509404182434,"292":1.1258933544158936,"293":0.5805768966674805,"294":1.041966438293457,"295":-2.1811678409576416,"296":0.9606441259384155,"297":0.9954513311386108,"298":2.0546934604644775,"299":0.20022718608379364,"300":-1.2552279233932495,"301":0.45629268884658813,"302":-1.2052584886550903,"303":2.7080821990966797,"304":1.1272974014282227,"305":-0.9044647812843323,"306":0.8012407422065735,"307":-0.03692299872636795,"308":-1.0747582912445068,"309":-2.36582350730896,"310":0.22795845568180084,"311":2.207028388977051,"312":-0.5698988437652588,"313":-0.10299453139305115,"314":1.1635465621948242,"315":0.015055548399686813,"316":3.0521891117095947,"317":1.0307364463806152,"318":0.9752837419509888,"319":0.6818697452545166,"320":1.3909504413604736,"321":1.7277414798736572,"322":0.39864352345466614,"323":-1.7488385438919067,"324":-0.9880183339118958,"325":1.8288389444351196,"326":-0.0013904643710702658,"327":-0.32755690813064575,"328":0.04041546583175659,"329":2.4691879749298096,"330":-1.1246567964553833,"331":-2.3124747276306152,"332":-0.7662104368209839,"333":0.5038312673568726,"334":2.316890001296997,"335":-0.5800793170928955,"336":1.6643983125686646,"337":1.20647394657135,"338":-0.9021333456039429,"339":0.6318393349647522,"340":-1.9377421140670776,"341":1.1532968282699585,"342":0.05723267048597336,"343":-0.8170197606086731,"344":2.081536293029785,"345":0.8121134042739868,"346":-0.1784968376159668,"347":1.4174034595489502,"348":2.3026654720306396,"349":0.798556923866272,"350":-0.6844794750213623,"351":-1.2345197200775146,"352":-0.22592803835868835,"353":-0.9203311204910278,"354":2.0164852142333984,"355":-0.6207367181777954,"356":1.1695842742919922,"357":-0.5433680415153503,"358":-1.1563440561294556,"359":-2.501538038253784,"360":-1.3320392370224,"361":-0.9995861053466797,"362":1.5404728651046753,"363":0.6861664056777954,"364":0.12461815029382706,"365":-0.1708953082561493,"366":0.10210523754358292,"367":-0.07104942202568054,"368":-0.36879998445510864,"369":0.05076207220554352,"370":0.1769980490207672,"371":1.0418955087661743,"372":2.4506642818450928,"373":0.04127536714076996,"374":-1.9866461753845215,"375":-1.8927627801895142,"376":0.07885704189538956,"377":0.10069702565670013,"378":0.09032345563173294,"379":-0.08756300061941147,"380":0.5538051128387451,"381":-2.1496617794036865,"382":-0.8408098220825195,"383":-0.16686825454235077,"384":2.8912267684936523,"385":2.5303893089294434,"386":0.4492410719394684,"387":2.5254247188568115,"388":-0.014963443391025066,"389":-0.1882081776857376,"390":0.20475080609321594,"391":2.299776792526245,"392":2.0460703372955322,"393":2.4737515449523926,"394":-3.1495201587677,"395":1.4980180263519287,"396":-0.03930315747857094,"397":0.7186012864112854,"398":0.492672860622406,"399":0.1653209924697876,"400":-0.5330723524093628,"401":0.11057888716459274,"402":-2.949359893798828,"403":-0.4391951560974121,"404":-0.07447609305381775,"405":-0.9389011263847351,"406":-0.18909136950969696,"407":1.2245054244995117,"408":1.8193585872650146,"409":0.07644104212522507,"410":-1.9913885593414307,"411":-1.5873430967330933,"412":-1.9332261085510254,"413":-0.9643931984901428,"414":0.8745882511138916,"415":-2.7607474327087402,"416":-1.9595681428909302,"417":-1.0801341533660889,"418":-1.8734920024871826,"419":0.2137887328863144,"420":-0.32030442357063293,"421":0.7394740581512451,"422":-1.023322582244873,"423":-1.0109175443649292,"424":-2.0092039108276367,"425":1.0111948251724243,"426":-1.4598673582077026,"427":-0.40770265460014343,"428":-2.0044498443603516,"429":-1.4501012563705444,"430":0.6554089784622192,"431":-0.15083028376102448,"432":-1.3600965738296509,"433":-2.0810837745666504,"434":0.2311914563179016,"435":0.7215027809143066,"436":-0.4020676612854004,"437":-1.3640137910842896,"438":-2.200878620147705,"439":-1.6092185974121094,"440":2.428722858428955,"441":1.9697144031524658,"442":-1.1245990991592407,"443":-0.3277178406715393,"444":-0.5144580602645874,"445":1.0462433099746704,"446":0.25073403120040894,"447":-0.1810658723115921,"448":-0.5893373489379883,"449":0.133599191904068,"450":-1.081194519996643,"451":-0.7849494218826294,"452":-1.283827781677246,"453":-1.1215989589691162,"454":1.3745979070663452,"455":-1.4154560565948486,"456":0.6642528176307678,"457":-0.5970126390457153,"458":-1.595005989074707,"459":0.023998573422431946,"460":1.6181244850158691,"461":-2.131908893585205,"462":-1.0254243612289429,"463":0.04835643619298935,"464":0.19338874518871307,"465":-0.6720667481422424,"466":0.4871788024902344,"467":1.0428951978683472,"468":-0.13156218826770782,"469":-0.806454598903656,"470":0.6048638224601746,"471":-1.4088000059127808,"472":-0.30608242750167847,"473":-1.3880329132080078,"474":-0.7331583499908447,"475":-0.6088043451309204,"476":0.013354888185858727,"477":2.155343770980835,"478":-1.3386377096176147,"479":0.06794066727161407,"480":1.0734546184539795,"481":-1.956620693206787,"482":-1.7588602304458618,"483":-1.6235333681106567,"484":-0.24985478818416595,"485":-0.7941069006919861,"486":1.2731319665908813,"487":0.3250689208507538,"488":0.3940052092075348,"489":1.032010793685913,"490":-1.6360682249069214,"491":0.15489928424358368,"492":0.7838634848594666,"493":-0.6180526614189148,"494":1.5480597019195557,"495":-0.1116996556520462,"496":-1.0287011861801147,"497":-1.0241025686264038,"498":-0.30366015434265137,"499":0.1692238748073578,"500":0.04931879788637161,"501":0.5236045122146606,"502":-0.22265592217445374,"503":0.8280929923057556,"504":1.5496755838394165,"505":0.12788793444633484,"506":0.4534207582473755,"507":-1.221468448638916,"508":1.5605188608169556,"509":0.556476891040802,"510":1.0965896844863892,"511":1.060293436050415,"512":-0.6182416677474976,"513":0.6730546355247498,"514":0.8344492316246033,"515":0.7879416346549988,"516":-0.953596830368042,"517":-0.37407568097114563,"518":-1.0383145809173584,"519":-0.37718066573143005,"520":-0.09986112266778946,"521":2.3258345127105713,"522":-1.8062069416046143,"523":-0.19835211336612701,"524":-1.8927348852157593,"525":-0.05849730595946312,"526":0.8828616142272949,"527":1.3910267353057861,"528":1.3608487844467163,"529":-1.4731241464614868,"530":-0.5783961415290833,"531":1.6353086233139038,"532":-1.0357913970947266,"533":-1.1406046152114868,"534":-1.2273534536361694,"535":-2.097404956817627,"536":-0.43197256326675415,"537":0.13694129884243011,"538":1.0468504428863525,"539":1.3418982028961182,"540":2.1652026176452637,"541":1.586106538772583,"542":-0.9719462990760803,"543":-1.2683595418930054,"544":3.3425445556640625,"545":-1.4778050184249878,"546":0.12350303679704666,"547":0.7721074819564819,"548":-0.488910049200058,"549":0.736916184425354,"550":-1.2382111549377441,"551":-0.33175021409988403,"552":-0.4845225214958191,"553":-1.8560607433319092,"554":-1.106760025024414,"555":-0.23554793000221252,"556":0.21784751117229462,"557":-0.18206235766410828,"558":-1.2812893390655518,"559":0.0005126686301082373,"560":-1.0233299732208252,"561":-2.0952534675598145,"562":-0.6374184489250183,"563":-1.1170158386230469,"564":3.73964524269104,"565":-0.5793382525444031,"566":2.437784194946289,"567":1.6714657545089722,"568":2.342874050140381,"569":-1.0816680192947388,"570":0.7301269173622131,"571":0.1742262840270996,"572":-1.243011713027954,"573":2.797529458999634,"574":-1.1745665073394775,"575":1.1392697095870972,"576":-0.4187300205230713,"577":-1.1720510721206665,"578":-0.07046013325452805,"579":0.44109731912612915,"580":-0.7589128613471985,"581":3.600656032562256,"582":-1.7658292055130005,"583":1.1383320093154907,"584":-0.3880777657032013,"585":0.5047519207000732,"586":0.2777165174484253,"587":3.286029577255249,"588":2.664355516433716,"589":-0.007476174272596836,"590":-1.7353637218475342,"591":-1.7103215456008911,"592":-0.7792961597442627,"593":0.15417571365833282,"594":-0.8342918157577515,"595":-2.0337414741516113,"596":-0.21135099232196808,"597":1.0227195024490356,