{"type":"LSTM","options":{"inputSize":74,"inputRange":74,"hiddenSizes":[20,20],"outputSize":74,"learningRate":0.01,"decayRate":0.999,"smoothEps":1e-8,"regc":0.000001,"clipval":5,"json":null,"dataFormatter":{"values":["Can I get some assistance to fix this issue?","Can I get some help?","Can I get some support on this bug?","Can I get some support on this issue?","Could you provide me some support to fix this ;:></!@#$%^&*_-=+~qwertyuiopasdfghjklzxcvbnm,.1023645789     /  [    ]   {    }   java compile error? \\","Could you provide me some support to fix this issue?","Could you provide me some support to fix this java compile error?","Could you provide me some support to fix this null_pointer.error?","Do I need to assist you to fix the issue?","Do I need to provide support to you regarding the issue?","Do you need assistance?","Do you need help with Ba`al?","Do you need help with a c&d?","Do you need help with a kilobyte?","Do you need help with a query?","Do you need help with c#?","Do you need help with f#?","Do you need help with kmeans?","Do you need help with linq","Do you need help with query's?","Do you need help with sql?","Do you need help with xamarin?","Do you need help with z++?","Do you need some assistance?","Do you need some help with your issue?","Do you need some help?","Do you need some support?","Do you need support?","False","I am a laywer, do you need help?","I could use some assistance with a bug I am currently facing","I need some assistance with a bug in my Rust code","I need some help with a bug I have in C++","True"],"indexTable":{"0":51,"1":50,"2":52,"3":53,"4":55,"5":56,"6":54,"7":57,"8":58,"9":59,"C":0,"a":1,"n":2," ":3,"I":4,"g":5,"e":6,"t":7,"s":8,"o":9,"m":10,"i":11,"c":12,"f":13,"x":14,"h":15,"u":16,"?":17,"l":18,"p":19,"r":20,"b":21,"d":22,"y":23,"v":24,";":25,":":26,">":27,"<":28,"/":29,"!":30,"@":31,"#":32,"$":33,"%":34,"^":35,"&":36,"*":37,"_":38,"-":39,"=":40,"+":41,"~":42,"q":43,"w":44,"j":45,"k":46,"z":47,",":48,".":49,"[":60,"]":61,"{":62,"}":63,"\\":64,"D":65,"B":66,"`":67,"'":68,"F":69,"R":70,"T":71,"stop-input":72,"start-output":73},"characterTable":{"0":"C","1":"a","2":"n","3":" ","4":"I","5":"g","6":"e","7":"t","8":"s","9":"o","10":"m","11":"i","12":"c","13":"f","14":"x","15":"h","16":"u","17":"?","18":"l","19":"p","20":"r","21":"b","22":"d","23":"y","24":"v","25":";","26":":","27":">","28":"<","29":"/","30":"!","31":"@","32":"#","33":"$","34":"%","35":"^","36":"&","37":"*","38":"_","39":"-","40":"=","41":"+","42":"~","43":"q","44":"w","45":"j","46":"k","47":"z","48":",","49":".","50":"1","51":"0","52":"2","53":"3","54":"6","55":"4","56":"5","57":"7","58":"8","59":"9","60":"[","61":"]","62":"{","63":"}","64":"\\","65":"D","66":"B","67":"`","68":"'","69":"F","70":"R","71":"T","72":"stop-input","73":"start-output"},"characters":["C","a","n"," ","I","g","e","t","s","o","m","i","c","f","x","h","u","?","l","p","r","b","d","y","v",";",":",">","<","/","!","@","#","$","%","^","&","*","_","-","=","+","~","q","w","j","k","z",",",".","1","0","2","3","6","4","5","7","8","9","[","]","{","}","\\","D","B","`","'","F","R","T","stop-input","start-output"]}},"input":{"rows":75,"columns":74,"weights":{"0":-0.5618091821670532,"1":0.456012099981308,"2":-0.7036910653114319,"3":0.5087013840675354,"4":-0.5828918218612671,"5":0.12086402624845505,"6":0.38280731439590454,"7":-0.2987042963504791,"8":0.18905872106552124,"9":0.4375743865966797,"10":-0.458172082901001,"11":0.25918683409690857,"12":0.21753720939159393,"13":-0.0340382382273674,"14":0.21863426268100739,"15":-0.3948953151702881,"16":0.2694215476512909,"17":-0.47935232520103455,"18":-1.8765137195587158,"19":0.14226782321929932,"20":-0.6557435393333435,"21":0.03323802724480629,"22":0.20209117233753204,"23":-0.5318451523780823,"24":-0.38472357392311096,"25":-0.34722700715065,"26":0.4581364393234253,"27":0.4513093829154968,"28":-0.47555381059646606,"29":-0.14680486917495728,"30":0.7772529125213623,"31":-0.28744471073150635,"32":-0.7747406959533691,"33":-0.2974576950073242,"34":-0.5913845896720886,"35":-0.32131683826446533,"36":-0.8273069262504578,"37":0.009833713993430138,"38":0.06372679024934769,"39":0.7661452293395996,"40":-0.17150823771953583,"41":0.14538149535655975,"42":0.2343122661113739,"43":-1.084920883178711,"44":-0.1482173651456833,"45":0.5176064968109131,"46":1.0672814846038818,"47":0.11582649499177933,"48":-0.13663677871227264,"49":-0.5215005278587341,"50":-0.010622930712997913,"51":-0.9197950959205627,"52":-0.2219192236661911,"53":-0.7043017148971558,"54":0.006663962733000517,"55":-0.06995993852615356,"56":-0.11562391370534897,"57":0.140736386179924,"58":-0.34241968393325806,"59":-0.40069615840911865,"60":0.3391891419887543,"61":0.03853073716163635,"62":0.3173644244670868,"63":-0.30520766973495483,"64":0.6527587175369263,"65":-0.09452652186155319,"66":0.24779850244522095,"67":-0.6912160515785217,"68":-0.10558955371379852,"69":0.8857961893081665,"70":0.8133710026741028,"71":-0.14514712989330292,"72":0.32426679134368896,"73":-0.717086911201477,"74":1.7062065601348877,"75":-1.073791265487671,"76":1.4492241144180298,"77":0.9389773607254028,"78":1.7353665828704834,"79":0.8872108459472656,"80":-2.321357488632202,"81":-0.0670749619603157,"82":-0.4426443576812744,"83":-1.9822803735733032,"84":1.8291995525360107,"85":0.7135928869247437,"86":0.06641586124897003,"87":-0.23200516402721405,"88":-0.40428659319877625,"89":0.30816009640693665,"90":-1.5219800472259521,"91":0.6804438233375549,"92":2.2993946075439453,"93":-0.5274372696876526,"94":1.3035080432891846,"95":0.6039814352989197,"96":-2.282813787460327,"97":1.40040123462677,"98":-1.3381285667419434,"99":0.9333513379096985,"100":-1.250736951828003,"101":-0.7791053056716919,"102":0.29903069138526917,"103":-0.29200437664985657,"104":-1.1777058839797974,"105":-1.0277502536773682,"106":1.6660487651824951,"107":1.638208270072937,"108":-1.0945178270339966,"109":-0.3659030497074127,"110":2.517817735671997,"111":0.7978788018226624,"112":-0.8815306425094604,"113":-1.5918829441070557,"114":-0.09910288453102112,"115":-1.504464030265808,"116":-1.3028193712234497,"117":1.8066164255142212,"118":0.4545990526676178,"119":-0.698091447353363,"120":-1.566770315170288,"121":0.17535552382469177,"122":0.9883241057395935,"123":0.13012386858463287,"124":-0.5802271366119385,"125":1.5306144952774048,"126":0.4604932367801666,"127":0.9767111539840698,"128":-0.17324717342853546,"129":0.20190571248531342,"130":0.6103752851486206,"131":-0.9689520001411438,"132":0.9797121286392212,"133":1.2641644477844238,"134":-1.6337107419967651,"135":-0.23915182054042816,"136":0.15823790431022644,"137":1.2662700414657593,"138":-1.5757406949996948,"139":0.003946696873754263,"140":0.2054847925901413,"141":0.9550504684448242,"142":-0.17414842545986176,"143":-2.184946060180664,"144":-1.5718088150024414,"145":0.9471040964126587,"146":-1.1096165180206299,"147":1.131858468055725,"148":-0.6381182074546814,"149":-0.3875519335269928,"150":-0.4473751187324524,"151":-0.2514573633670807,"152":0.3808467984199524,"153":0.6829192638397217,"154":0.5914477705955505,"155":-0.19028808176517487,"156":0.3186632990837097,"157":-0.8562913537025452,"158":-0.16058145463466644,"159":0.30140113830566406,"160":-0.6578438878059387,"161":-0.214410200715065,"162":-0.03854440525174141,"163":0.26869142055511475,"164":-0.5894672870635986,"165":-0.5057888031005859,"166":0.6617646217346191,"167":-0.3123798370361328,"168":-0.03746480122208595,"169":0.037691183388233185,"170":0.04607285559177399,"171":-0.21038295328617096,"172":-0.18768982589244843,"173":-0.7494256496429443,"174":0.1558908373117447,"175":0.31615400314331055,"176":0.3026175796985626,"177":-0.1745060384273529,"178":0.6412190794944763,"179":0.27329960465431213,"180":1.1161390542984009,"181":0.560207188129425,"182":0.024632394313812256,"183":-0.20835870504379272,"184":-0.07685653865337372,"185":0.5021952986717224,"186":0.4845106303691864,"187":-0.2139340490102768,"188":-0.321784645318985,"189":-0.5643973350524902,"190":-0.8863779306411743,"191":0.6603798270225525,"192":0.3653285801410675,"193":-0.19222871959209442,"194":-0.45907047390937805,"195":0.28912240266799927,"196":-0.22353529930114746,"197":0.152771458029747,"198":-1.226689100265503,"199":-0.770504891872406,"200":-0.08899235725402832,"201":0.6394936442375183,"202":-0.7900944352149963,"203":0.12070725113153458,"204":-0.34925296902656555,"205":-0.18236298859119415,"206":-0.8078889846801758,"207":-0.7848166227340698,"208":-1.0661466121673584,"209":-0.008808168582618237,"210":0.24470148980617523,"211":-0.7296919822692871,"212":-1.2131484746932983,"213":0.12056680023670197,"214":-0.2664109766483307,"215":-0.5497201681137085,"216":0.5744139552116394,"217":0.27725547552108765,"218":-0.11418579518795013,"219":-0.10947038233280182,"220":-0.8579243421554565,"221":0.9601839184761047,"222":-0.08386798202991486,"223":0.5014665722846985,"224":0.9580875039100647,"225":0.015170055441558361,"226":-0.8863939046859741,"227":0.20719380676746368,"228":-0.46053043007850647,"229":-0.32179421186447144,"230":-0.3528186082839966,"231":0.5656555891036987,"232":0.42741844058036804,"233":-0.31864064931869507,"234":0.5079433917999268,"235":0.2488965541124344,"236":0.05050373449921608,"237":0.03960319235920906,"238":0.365185409784317,"239":-0.130680650472641,"240":0.06973965466022491,"241":0.6847946047782898,"242":1.025385856628418,"243":-0.3073759078979492,"244":-0.6109412312507629,"245":0.7621651291847229,"246":-0.27504897117614746,"247":0.8800373077392578,"248":-0.8098210692405701,"249":-0.4195479154586792,"250":0.3778228461742401,"251":0.632544755935669,"252":-1.1026639938354492,"253":-0.457839697599411,"254":-0.4105769097805023,"255":-0.11416441947221756,"256":-0.28110602498054504,"257":0.3184271454811096,"258":0.8350344300270081,"259":0.5196102261543274,"260":-0.5423122048377991,"261":1.3241382837295532,"262":0.27125558257102966,"263":1.398105502128601,"264":-0.33678358793258667,"265":-0.11770755052566528,"266":-0.15230156481266022,"267":-0.1852915734052658,"268":-0.5846254825592041,"269":-0.3623182773590088,"270":0.6215316653251648,"271":-0.1499338299036026,"272":0.29312124848365784,"273":0.7819440364837646,"274":0.20728595554828644,"275":0.1053960844874382,"276":-0.2982686758041382,"277":0.06945379823446274,"278":0.3853316903114319,"279":-0.9488369226455688,"280":0.9926579594612122,"281":0.9208739399909973,"282":0.26582103967666626,"283":-0.08198191970586777,"284":-0.3803724944591522,"285":0.7198559641838074,"286":0.050087787210941315,"287":-0.1295901983976364,"288":0.4968353807926178,"289":1.0531476736068726,"290":-0.44932863116264343,"291":-1.0596582889556885,"292":-0.8786181807518005,"293":0.8152555823326111,"294":-0.8863024711608887,"295":0.1891230344772339,"296":-0.2401597499847412,"297":0.08849626779556274,"298":-0.6997602581977844,"299":-0.3115648627281189,"300":0.3879176080226898,"301":0.4242296516895294,"302":1.0423765182495117,"303":0.6345981359481812,"304":-0.44376906752586365,"305":0.11450139433145523,"306":-0.7115805149078369,"307":0.38017743825912476,"308":-0.49250391125679016,"309":-0.4707833230495453,"310":-0.6526663303375244,"311":0.5839349627494812,"312":0.2209882289171219,"313":-0.3439064025878906,"314":-0.3311607539653778,"315":-0.4556122124195099,"316":-0.7349696159362793,"317":0.39472028613090515,"318":0.6332812905311584,"319":-0.8186812996864319,"320":0.442014217376709,"321":-0.5808281302452087,"322":0.5022852420806885,"323":0.7406861186027527,"324":0.4413880705833435,"325":-0.6127336621284485,"326":0.5013412237167358,"327":0.6873055100440979,"328":0.02907392755150795,"329":-0.06894136965274811,"330":0.3604015111923218,"331":-0.521652102470398,"332":-0.292353093624115,"333":-0.3425714075565338,"334":0.72397780418396,"335":0.09180586040019989,"336":-0.369426965713501,"337":0.04968227818608284,"338":0.48576265573501587,"339":-0.12778502702713013,"340":0.699819028377533,"341":0.21449287235736847,"342":0.20301349461078644,"343":0.7461349964141846,"344":-0.6614399552345276,"345":0.24500659108161926,"346":-0.5590479969978333,"347":-0.32637208700180054,"348":0.4990057945251465,"349":-0.15680234134197235,"350":-0.31641992926597595,"351":0.42417702078819275,"352":-0.6238731145858765,"353":0.787026584148407,"354":-0.6768687963485718,"355":-0.6360340714454651,"356":0.5584555268287659,"357":0.4603419005870819,"358":0.5355660915374756,"359":-0.7811923623085022,"360":-0.055409908294677734,"361":0.490161269903183,"362":-0.6398065686225891,"363":-0.4092024862766266,"364":0.5535094141960144,"365":0.3585017919540405,"366":0.36478862166404724,"367":-0.7660859227180481,"368":0.29741913080215454,"369":-0.19766756892204285,"370":-0.5507022738456726,"371":0.6031423211097717,"372":0.049732811748981476,"373":-0.8820886015892029,"374":1.1813709735870361,"375":-1.0625994205474854,"376":-1.8690712451934814,"377":-0.5329746007919312,"378":0.7820698618888855,"379":1.1158968210220337,"380":-0.6534521579742432,"381":-0.7946694493293762,"382":1.7080495357513428,"383":0.9909469485282898,"384":0.8994739651679993,"385":-0.1718200445175171,"386":0.9999061822891235,"387":-1.2839550971984863,"388":0.2564804255962372,"389":0.896206259727478,"390":-0.6253527402877808,"391":-1.015331745147705,"392":-1.4274787902832031,"393":-0.15795975923538208,"394":1.0473525524139404,"395":-0.19099009037017822,"396":0.06404758989810944,"397":-1.4055275917053223,"398":-1.6082017421722412,"399":1.3335790634155273,"400":0.28589731454849243,"401":-0.5081782341003418,"402":-0.7096968293190002,"403":-1.3689007759094238,"404":1.6352348327636719,"405":1.3544447422027588,"406":1.039971113204956,"407":-0.28862062096595764,"408":-0.13027337193489075,"409":-1.6995251178741455,"410":-2.1609976291656494,"411":0.7281334400177002,"412":2.7712202072143555,"413":-1.5668995380401611,"414":-1.6533985137939453,"415":1.680612564086914,"416":0.6661440134048462,"417":-1.5894217491149902,"418":-0.23087075352668762,"419":-0.8751140832901001,"420":1.3577642440795898,"421":0.13169072568416595,"422":-0.6085955500602722,"423":0.4286577105522156,"424":-1.7968486547470093,"425":-0.877545177936554,"426":1.6611497402191162,"427":0.6921512484550476,"428":-0.46626466512680054,"429":-0.5782073736190796,"430":1.9172121286392212,"431":-0.8478093147277832,"432":-1.1048601865768433,"433":-0.30269137024879456,"434":1.560907244682312,"435":-0.5969908833503723,"436":1.5748041868209839,"437":0.1191498264670372,"438":-1.6160557270050049,"439":-0.2253955453634262,"440":2.309791088104248,"441":-0.2318352907896042,"442":2.50801944732666,"443":-0.9680014848709106,"444":2.9982693195343018,"445":-1.6034328937530518,"446":1.4344813823699951,"447":0.15806883573532104,"448":-2.0394773483276367,"449":-1.266005516052246,"450":-0.020243925973773003,"451":-2.0330538749694824,"452":1.6305735111236572,"453":-1.0514332056045532,"454":0.846260666847229,"455":-0.22798508405685425,"456":0.8791157603263855,"457":0.22671808302402496,"458":-0.022585485130548477,"459":-1.2809256315231323,"460":0.697699785232544,"461":0.17377398908138275,"462":-0.07048589736223221,"463":1.3071773052215576,"464":0.8736861348152161,"465":-0.3006349205970764,"466":-3.6273062229156494,"467":1.3602211475372314,"468":-2.1188416481018066,"469":1.4468355178833008,"470":-0.5725146532058716,"471":-1.2114213705062866,"472":-1.9241952896118164,"473":0.6319854855537415,"474":-0.5847528576850891,"475":-2.5994105339050293,"476":0.2857930362224579,"477":0.9196978807449341,"478":0.2964942753314972,"479":0.921546220779419,"480":2.7280943393707275,"481":0.38135766983032227,"482":-2.0416512489318848,"483":-1.6549566984176636,"484":-0.36282095313072205,"485":-1.3704761266708374,"486":0.40440690517425537,"487":1.8058613538742065,"488":-1.1741435527801514,"489":0.020657505840063095,"490":-2.004187822341919,"491":-0.6222776174545288,"492":2.362544059753418,"493":-0.997619092464447,"494":1.3855646848678589,"495":1.0496305227279663,"496":-1.2326672077178955,"497":2.87272572517395,"498":-0.19596309959888458,"499":-1.2993868589401245,"500":1.7838777303695679,"501":-0.2473878413438797,"502":1.0689510107040405,"503":1.159178376197815,"504":2.679058790206909,"505":-0.2575756907463074,"506":-0.22029265761375427,"507":1.4145550727844238,"508":-0.4658829867839813,"509":-0.3088189661502838,"510":1.4550607204437256,"511":0.6640267968177795,"512":-1.2598083019256592,"513":-1.140618920326233,"514":0.1524602621793747,"515":2.569262742996216,"516":-0.8133559226989746,"517":-0.271749883890152,"518":0.10789040476083755,"519":-0.09143564105033875,"520":0.2508290112018585,"521":-0.8279439210891724,"522":0.46478739380836487,"523":0.20043733716011047,"524":0.2333795130252838,"525":-0.5756935477256775,"526":0.4779689311981201,"527":0.6242925524711609,"528":-0.03382425755262375,"529":-0.8219406604766846,"530":0.6175040006637573,"531":0.9065694212913513,"532":0.7875192761421204,"533":-0.04211217910051346,"534":-0.1352652758359909,"535":-0.5239013433456421,"536":0.8184971809387207,"537":0.6782553791999817,"538":0.03438904881477356,"539":-0.8833824396133423,"540":-0.3969649076461792,"541":0.028905197978019714,"542":-0.025498919188976288,"543":-0.6655021905899048,"544":-0.18708953261375427,"545":-0.7412773370742798,"546":-0.28820517659187317,"547":0.5833380222320557,"548":0.35204997658729553,"549":-0.1816529482603073,"550":0.6823806762695312,"551":0.022138578817248344,"552":0.9994391798973083,"553":0.8608464002609253,"554":0.464220255613327,"555":-0.1151595190167427,"556":0.28665658831596375,"557":-0.22886694967746735,"558":-0.9719367027282715,"559":0.06604990363121033,"560":1.5120019912719727,"561":0.06197699159383774,"562":-0.6419577598571777,"563":0.9416104555130005,"564":-0.6667262315750122,"565":-0.6075928211212158,"566":-0.01856028474867344,"567":-0.5379457473754883,"568":0.10343986749649048,"569":0.2918532192707062,"570":-0.4562683403491974,"571":0.20169104635715485,"572":-0.6520319581031799,"573":-1.0008909702301025,"574":0.6749394536018372,"575":0.39862263202667236,"576":-0.6668002605438232,"577":0.08047895133495331,"578":0.04461808130145073,"579":-0.8626552820205688,"580":-0.7999242544174194,"581":-0.45606347918510437,"582":0.00871740560978651,"583":-0.6602230668067932,"584":0.6617871522903442,"585":-0.9526575207710266,"586":-0.7647833824157715,"587":-0.2658822238445282,"588":0.9626246690750122,"589":-0.16307011246681213,"590":0.2410052865743637,"591":-0.3110376000404358,"592":-0.1324883997440338,"593":1.2457435131072998,"594":-0.5945711135864258,"595":0.22713899612426758,"596":-0.6763187050819397,"597":0.2326907366514206,"598":1.0426149368286133,"599":-0.0735543817281723,"600":-0.48565542697906494,"601":0.2622520327568054,"602":-0.7546636462211609,"603":-0.3223370909690857,"604":0.058095820248126984,"605":0.140817329287529,"606":0.1906585395336151,"607":-0.131489560008049,"608":0.5211283564567566,"609":-0.9073944091796875,"610":0.1233949214220047,"611":0.3232548236846924,"612":-0.9596368074417114,"613":-0.2136525958776474,"614":0.26928359270095825,"615":-0.751160204410553,"616":-0.42185813188552856,"617":-1.3491190671920776,"618":0.704217255115509,"619":-0.010733477771282196,"620":0.4836801290512085,"621":0.03421587496995926,"622":0.675845205783844,"623":0.5687415599822998,"624":-0.22766312956809998,"625":-1.30038321018219,"626":0.10919515788555145,"627":-0.043462976813316345,"628":-0.16193851828575134,"629":-1.5928653478622437,"630":1.3816630840301514,"631":0.8380038142204285,"632":-0.5818935632705688,"633":1.117388129234314,"634":0.7490547299385071,"635":-0.7732142210006714,"636":-0.2533471882343292,"637":0.6145496368408203,"638":0.7181737422943115,"639":-0.03829091414809227,"640":-1.0304641723632812,"641":0.02196831814944744,"642":-0.04866209626197815,"643":-0.784042239189148,"644":0.015181208029389381,"645":-0.9692901372909546,"646":-0.6387511491775513,"647":0.07309642434120178,"648":-0.14490272104740143,"649":0.9666778445243835,"650":-1.3185701370239258,"651":-1.1708910465240479,"652":-0.08728386461734772,"653":-0.3104957938194275,"654":-0.13942064344882965,"655":-1.1861813068389893,"656":0.5025330185890198,"657":0.1964973509311676,"658":-0.16223730146884918,"659":-0.7539474964141846,"660":0.0927712619304657,"661":0.8054472804069519,"662":1.0151951313018799,"663":-1.1997870206832886,"664":1.318227767944336,"665":-0.8972248435020447,"666":0.6519707441329956,"667":-1.3591011762619019,"668":0.20310597121715546,"669":-0.15919864177703857,"670":0.1543058305978775,"671":0.8574907779693604,"672":-0.8058282732963562,"673":-0.931360125541687,"674":0.5709658265113831,"675":-0.47419023513793945,"676":0.5619446039199829,"677":0.15553784370422363,"678":0.01231551356613636,"679":0.001780157326720655,"680":0.2560138404369354,"681":-0.148966982960701,"682":-1.2409017086029053,"683":-0.6310047507286072,"684":-0.45362329483032227,"685":0.33079859614372253,"686":-0.26642775535583496,"687":-0.27016180753707886,"688":-0.4133926033973694,"689":-0.15255612134933472,"690":-1.1118782758712769,"691":-0.2072686403989792,"692":-0.7361791729927063,"693":0.4903356432914734,"694":-0.7415090203285217,"695":0.432480126619339,"696":0.5020185708999634,"697":-0.566175639629364,"698":0.5086730718612671,"699":1.3489409685134888,"700":-0.050580769777297974,"701":0.2883436977863312,"702":-0.45668861269950867,"703":0.8601526021957397,"704":-0.02446087636053562,"705":-0.9456830024719238,"706":-0.4224804937839508,"707":-1.1303184032440186,"708":-0.9777664542198181,"709":1.3223226070404053,"710":-0.2683469355106354,"711":0.011417735368013382,"712":-0.8494709730148315,"713":-0.011713572777807713,"714":0.012593694031238556,"715":-0.46810922026634216,"716":-0.6242288947105408,"717":-0.11671590059995651,"718":-0.06752068549394608,"719":1.2068294286727905,"720":-0.6012749075889587,"721":-0.03298075497150421,"722":0.10888658463954926,"723":0.03485877439379692,"724":0.06704425811767578,"725":-0.2092834860086441,"726":-0.35113388299942017,"727":-0.0879749283194542,"728":0.2942645251750946,"729":-0.07578844577074051,"730":-1.0403600931167603,"731":0.24311405420303345,"732":0.6550878882408142,"733":-0.3914819061756134,"734":-0.12993864715099335,"735":0.3381688594818115,"736":-0.1032535508275032,"737":0.09216784685850143,"738":-0.9155584573745728,"739":0.8869695663452148,"740":-0.7713719606399536,"741":0.2761848568916321,"742":0.09004040062427521,"743":-0.5697938799858093,"744":0.22535590827465057,"745":-0.6066669225692749,"746":-0.0676117017865181,"747":-0.959156334400177,"748":0.599744439125061,"749":0.5966829061508179,"750":-0.4280109405517578,"751":-0.5643328428268433,"752":1.1438205242156982,"753":0.6754469275474548,"754":0.525249719619751,"755":0.03834301978349686,"756":1.025210976600647,"757":-0.501898467540741,"758":0.39107874035835266,"759":0.9834757447242737,"760":-0.17021307349205017,"761":-0.7587573528289795,"762":-1.0614564418792725,"763":-0.21361689269542694,"764":0.5172321200370789,"765":-0.13738058507442474,"766":0.000047137928049778566,"767":-0.9434309005737305,"768":-1.028663992881775,"769":0.9911070466041565,"770":0.02708815410733223,"771":-0.0962829738855362,"772":-0.3172904849052429,"773":-0.7168939113616943,"774":0.632879912853241,"775":0.9137754440307617,"776":0.8599205613136292,"777":0.10944223403930664,"778":0.14942438900470734,"779":-0.14533117413520813,"780":-0.5489344000816345,"781":0.7433502078056335,"782":0.5130450129508972,"783":-0.724445641040802,"784":-1.0661277770996094,"785":0.42321911454200745,"786":-0.20374101400375366,"787":-0.9241978526115417,"788":-0.13168475031852722,"789":-0.5164299607276917,"790":0.7216393351554871,"791":0.03504260629415512,"792":-0.4854077100753784,"793":0.023127498105168343,"794":-0.8891778588294983,"795":-0.6666837930679321,"796":0.851177990436554,"797":0.09408966451883316,"798":-0.255667507648468,"799":-0.24926838278770447,"800":1.3977441787719727,"801":-0.46732527017593384,"802":-0.6023111343383789,"803":-0.14007338881492615,"804":0.9272509217262268,"805":-0.4881689250469208,"806":1.3216328620910645,"807":-0.15692302584648132,"808":-1.3733903169631958,"809":0.07434076815843582,"810":0.37213659286499023,"811":-0.20312614738941193,"812":0.46403878927230835,"813":-0.25856661796569824,"814":-0.7358906865119934,"815":0.665187656879425,"816":-0.3880378007888794,"817":-0.93522047996521,"818":0.275105744600296,"819":-1.6889984607696533,"820":0.34366679191589355,"821":-0.5578106045722961,"822":0.4034534692764282,"823":1.253104329109192,"824":-0.34737536311149597,"825":-0.823110044002533,"826":1.0886355638504028,"827":0.26611679792404175,"828":0.6865351796150208,"829":0.13772839307785034,"830":0.3637320399284363,"831":-0.5044304728507996,"832":0.07830038666725159,"833":0.1579733043909073,"834":-0.35328027606010437,"835":-0.5627163648605347,"836":-0.5783780217170715,"837":-0.28491613268852234,"838":0.5235400199890137,"839":0.08291266858577728,"840":0.33295169472694397,"841":-0.6924425959587097,"842":-0.9778827428817749,"843":0.6647331714630127,"844":0.18553772568702698,"845":0.2807285487651825,"846":0.3648229241371155,"847":-0.7951221466064453,"848":1.0327231884002686,"849":1.0653822422027588,"850":0.3033006191253662,"851":-0.4113788604736328,"852":0.2180628627538681,"853":-0.40148285031318665,"854":-0.5061135292053223,"855":0.7934892773628235,"856":0.5532941818237305,"857":-0.562498152256012,"858":-0.7269676923751831,"859":1.2216405868530273,"860":0.5282129049301147,"861":-1.0359457731246948,"862":-0.09969961643218994,"863":-0.6715160012245178,"864":0.7453035116195679,"865":-0.24420742690563202,"866":-0.4166087806224823,"867":-0.335532009601593,"868":-0.2642362415790558,"869":-0.6459073424339294,"870":0.6927855014801025,"871":0.28225961327552795,"872":-0.2713053524494171,"873":-0.23204456269741058,"874":1.0529764890670776,"875":-0.36405208706855774,"876":-0.7116261720657349,"877":0.016273031011223793,"878":0.7312955260276794,"879":-0.661706268787384,"880":1.0044151544570923,"881":-0.24568821489810944,"882":-0.931973397731781,"883":0.4046069085597992,"884":0.3173844814300537,"885":-0.09318891912698746,"886":0.5701916217803955,"887":-0.5061553716659546,"888":-1.6886259317398071,"889":1.2666141986846924,"890":-0.5199581980705261,"891":0.04051362723112106,"892":-0.5102353096008301,"893":-0.8585466146469116,"894":0.10260968655347824,"895":1.2408266067504883,"896":-0.5057820677757263,"897":0.5314955711364746,"898":-0.54388827085495,"899":0.34261247515678406,"900":-0.4159563481807709,"901":-0.2369195967912674,"902":-0.38662493228912354,"903":0.431207537651062,"904":1.1801806688308716,"905":0.9983357191085815,"906":-0.20597398281097412,"907":-0.8286384344100952,"908":-0.19437922537326813,"909":0.4061497747898102,"910":1.318739891052246,"911":-0.5898762941360474,"912":1.3433351516723633,"913":0.047107625752687454,"914":0.22107332944869995,"915":0.6171112060546875,"916":0.9837506413459778,"917":-1.0359716415405273,"918":0.15495021641254425,"919":1.0189945697784424,"920":0.21352621912956238,"921":-1.6025269031524658,"922":-0.04375062137842178,"923":-0.02313532866537571,"924":-0.061356015503406525,"925":-0.6429678201675415,"926":0.4053438901901245,"927":0.15368777513504028,"928":0.19550509750843048,"929":1.7276149988174438,"930":0.44742250442504883,"931":-0.8245189785957336,"932":0.8051281571388245,"933":0.15865550935268402,"934":0.45852747559547424,"935":0.5647940039634705,"936":-0.5923200845718384,"937":0.4614531993865967,"938":0.34790050983428955,"939":0.32923614978790283,"940":0.2863202393054962,"941":-0.6554763913154602,"942":0.9623205661773682,"943":0.139239102602005,"944":-0.7108567357063293,"945":0.6904388666152954,"946":-0.8026445508003235,"947":0.1337643563747406,"948":1.619178295135498,"949":0.16646946966648102,"950":0.04531319439411163,"951":-0.45215192437171936,"952":0.3254730701446533,"953":0.034478917717933655,"954":-1.0124397277832031,"955":0.2035275250673294,"956":0.5259577035903931,"957":-0.35857123136520386,"958":0.06603080779314041,"959":-0.5115780830383301,"960":0.7342642545700073,"961":-0.5954337120056152,"962":0.6986198425292969,"963":-0.7381388545036316,"964":0.6747570037841797,"965":0.08840426057577133,"966":0.5423640012741089,"967":1.8040403127670288,"968":-1.7205054759979248,"969":-0.015514230355620384,"970":0.07508990913629532,"971":-0.9391568899154663,"972":1.4258795976638794,"973":0.02616886980831623,"974":-0.06050602346658707,"975":0.3232235908508301,"976":0.681154191493988,"977":-0.46719762682914734,"978":-0.8761649131774902,"979":-0.7998015284538269,"980":-1.16511869430542,"981":0.1742078810930252,"982":0.25314629077911377,"983":-0.45863914489746094,"984":0.4546310603618622,"985":0.8690289855003357,"986":-0.5533695220947266,"987":-0.684014618396759,"988":-1.1785914897918701,"989":0.16557079553604126,"990":-0.18951182067394257,"991":0.2363884449005127,"992":-0.042975351214408875,"993":0.10913752764463425,"994":-0.38186582922935486,"995":0.3619970381259918,"996":-0.1546778529882431,"997":-0.24248537421226501,"998":-0.5366429090499878,"999":1.9329625368118286,"1000":-0.6222601532936096,"1001":-0.0826406329870224,"1002":-0.5709449052810669,"1003":-1.7708184719085693,"1004":-1.8471405506134033,"1005":1.2416988611221313,"1006":-0.5446341633796692,"1007":0.845439076423645,"1008":0.44948330521583557,"1009":-0.20241281390190125,"1010":0.26195093989372253,"1011":-0.2782515287399292,"1012":0.15301528573036194,"1013":0.15510225296020508,"1014":-0.49295392632484436,"1015":0.8481610417366028,"1016":-1.1192728281021118,"1017":-0.029617629945278168,"1018":-1.127814769744873,"1019":-0.8504648804664612,"1020":-0.02090447209775448,"1021":0.5942977666854858,"1022":-1.585349202156067,"1023":-0.19437140226364136,"1024":-0.08315446227788925,"1025":0.08824288100004196,"1026":-1.3879683017730713,"1027":-0.07962959259748459,"1028":-0.5553495287895203,"1029":0.22031322121620178,"1030":0.16129955649375916,"1031":-0.5642859935760498,"1032":-0.8942209482192993,"1033":0.3551999628543854,"1034":-0.9954245090484619,"1035":1.8424307107925415,"1036":-0.5723288059234619,"1037":-0.8042868971824646,"1038":-1.6888222694396973,"1039":0.6814016103744507,"1040":1.2590219974517822,"1041":0.5496588945388794,"1042":0.12291423976421356,"1043":-0.09642795473337173,"1044":-0.8088358640670776,"1045":-0.4537799656391144,"1046":-1.853865385055542,"1047":0.5788484215736389,"1048":-0.599882185459137,"1049":-0.9649660587310791,"1050":0.17999650537967682,"1051":1.4158833026885986,"1052":-1.0719408988952637,"1053":-1.2586935758590698,"1054":-0.11872713267803192,"1055":-0.7440707683563232,"1056":-2.0137991905212402,"1057":0.17902213335037231,"1058":0.08228755742311478,"1059":-1.8534307479858398,"1060":-0.42027178406715393,"1061":-2.099097967147827,"1062":1.7257808446884155,"1063":0.49601978063583374,"1064":0.27121081948280334,"1065":-0.003725397866219282,"1066":1.5384762287139893,"1067":0.3026334047317505,"1068":-0.5030039548873901,"1069":0.24642743170261383,"1070":0.07940981537103653,"1071":-0.41861119866371155,"1072":-1.3847955465316772,"1073":-1.0264047384262085,"1074":2.040156364440918,"1075":-0.6587621569633484,"1076":-0.8742955923080444,"1077":-1.202117681503296,"1078":1.1067253351211548,"1079":0.4165416359901428,"1080":0.30180424451828003,"1081":0.24656040966510773,"1082":1.0877047777175903,"1083":0.3512558341026306,"1084":-1.80446195602417,"1085":0.2754635512828827,"1086":-2.088412284851074,"1087":-1.576198935508728,"1088":1.4113621711730957,"1089":-0.163394957780838,"1090":-1.1445059776306152,"1091":1.2155917882919312,"1092":-1.0861670970916748,"1093":2.2047181129455566,"1094":-1.131859540939331,"1095":-2.085390090942383,"1096":-1.9770523309707642,"1097":0.7095259428024292,"1098":0.5929203033447266,"1099":-1.722206950187683,"1100":-0.7207661867141724,"1101":1.303747296333313,"1102":0.13819105923175812,"1103":-1.372444987297058,"1104":0.48111170530319214,"1105":1.7912958860397339,"1106":1.475036382675171,"1107":-1.6348545551300049,"1108":2.151228904724121,"1109":-0.8148449659347534,"1110":0.28653770685195923,"1111":-0.7407307028770447,"1112":-1.204148769378662,"1113":-1.8074705600738525,"1114":1.7452110052108765,"1115":0.6118435859680176,"1116":2.5609688758850098,"1117":-0.8216702342033386,"1118":0.5680223107337952,"1119":-1.3060554265975952,"1120":-2.3838419914245605,"1121":-1.6738513708114624,"1122":-0.21112221479415894,"1123":0.3348301649093628,"1124":-0.04698421061038971,"1125":1.108260154724121,"1126":-1.3218064308166504,"1127":-1.8926628828048706,"1128":1.1574738025665283,"1129":0.0071837278082966805,"1130":-0.34100133180618286,"1131":-1.387314796447754,"1132":-0.9095615148544312,"1133":-1.0666565895080566,"1134":1.0840041637420654,"1135":-1.697936773300171,"1136":1.1817364692687988,"1137":-1.2527477741241455,"1138":-0.4493374824523926,"1139":0.6217048168182373,"1140":-0.4291859567165375,"1141":1.4092572927474976,"1142":1.879473328590393,"1143":0.8884736895561218,"1144":1.8048917055130005,"1145":0.5760080218315125,"1146":0.926522970199585,"1147":-0.3665720522403717,"1148":2.3883891105651855,"1149":-1.408780813217163,"1150":-1.9582687616348267,"1151":-1.4990521669387817,"1152":1.9218765497207642,"1153":0.489898681640625,"1154":-0.45058730244636536,"1155":2.7056870460510254,"1156":-0.4202788770198822,"1157":-0.33057814836502075,"1158":-1.1083952188491821,"1159":0.35834312438964844,"1160":-1.8905656337738037,"1161":0.9170122742652893,"1162":0.06744617968797684,"1163":1.3301960229873657,"1164":-1.7703590393066406,"1165":-0.6185048222541809,"1166":-0.26261043548583984,"1167":1.7401224374771118,"1168":-2.182523488998413,"1169":-1.0086530447006226,"1170":-1.1177341938018799,"1171":-0.6646338105201721,"1172":-0.9119493365287781,"1173":-1.6863914728164673,"1174":-0.5999811887741089,"1175":0.3595030903816223,"1176":-0.11519549787044525,"1177":-1.0721569061279297,"1178":0.17083889245986938,"1179":-0.07196684181690216,"1180":-0.642711877822876,"1181":-1.8035491704940796,"1182":-0.23162052035331726,"1183":0.6644775867462158,"1184":-0.2489209622144699,"1185":0.41098877787590027,"1186":-0.49970659613609314,"1187":0.3300057649612427,"1188":-0.8970692753791809,"1189":-1.175842523574829,"1190":-0.6099516749382019,"1191":0.42280447483062744,"1192":0.7906453609466553,"1193":-0.18974092602729797,"1194":0.3376365005970001,"1195":0.445028156042099,"1196":-0.8940364122390747,"1197":0.20233911275863647,"1198":-0.31725558638572693,"1199":-0.755662202835083,"1200":0.4791148900985718,"1201":0.04395901411771774,"1202":-1.4426971673965454,"1203":0.16335560381412506,"1204":0.17827275395393372,"1205":-0.12031464278697968,"1206":0.6573745012283325,"1207":0.3743044137954712,"1208":-0.22336214780807495,"1209":0.5123237371444702,"1210":0.46904608607292175,"1211":0.34119078516960144,"1212":0.1953400820493698,"1213":-0.877814531326294,"1214":-0.2792283594608307,"1215":0.5786605477333069,"1216":0.5215812921524048,"1217":-0.3744015693664551,"1218":-1.4393401145935059,"1219":-0.6334024667739868,"1220":-1.0268070697784424,"1221":-0.17505040764808655,"1222":-0.4074171483516693,"1223":0.4344559907913208,"1224":0.7588778734207153,"1225":0.5597427487373352,"1226":-0.37174293398857117,"1227":0.17375950515270233,"1228":0.8463683128356934,"1229":-0.3611129820346832,"1230":0.706515371799469,"1231":1.1209651231765747,"1232":0.44236335158348083,"1233":-0.06674978137016296,"1234":0.814495861530304,"1235":0.265659898519516,"1236":-0.6786006093025208,"1237":-0.1511661261320114,"1238":0.8243228197097778,"1239":0.330020934343338,"1240":-0.37934646010398865,"1241":-0.2924134135246277,"1242":0.5191956162452698,"1243":0.2128579318523407,"1244":0.48951616883277893,"1245":-0.2497616559267044,"1246":0.4353921413421631,"1247":0.6723552942276001,"1248":-0.8690906167030334,"1249":-0.3444397747516632,"1250":-0.7568645477294922,"1251":0.28449055552482605,"1252":0.591445803642273,"1253":-0.0731072798371315,"1254":-0.4021860659122467,"1255":0.03900716453790665,"1256":-0.3117388188838959,"1257":-0.10247401893138885,"1258":0.22648882865905762,"1259":0.36280933022499084,"1260":0.6400549411773682,"1261":-0.35696741938591003,"1262":-0.3997774124145508,"1263":-0.9204261898994446,"1264":-0.6677234768867493,"1265":-0.8036395907402039,"1266":0.06907013803720474,"1267":0.5666803121566772,"1268":0.6738388538360596,"1269":-1.172265887260437,"1270":0.6612155437469482,"1271":0.4321925938129425,"1272":0.3615063428878784,"1273":-0.6639899015426636,"1274":-0.31073975563049316,"1275":0.5428268313407898,"1276":1.3934745788574219,"1277":0.5789045095443726,"1278":0.5458247065544128,"1279":-0.21941329538822174,"1280":-1.2813745737075806,"1281":0.827087938785553,"1282":-0.12407810986042023,"1283":0.21113994717597961,"1284":-0.5384874939918518,"1285":-1.2888487577438354,"1286":-0.44779378175735474,"1287":1.0096369981765747,"1288":-0.5799304246902466,"1289":-0.41942083835601807,"1290":0.3828166127204895,"1291":0.09602636843919754,"1292":0.6511507034301758,"1293":0.8002802729606628,"1294":1.4757658243179321,"1295":-0.7025048732757568,"1296":0.4825398325920105,"1297":-0.48804041743278503,"1298":-0.16958464682102203,"1299":0.3455955386161804,"1300":-0.31725698709487915,"1301":0.14600573480129242,"1302":-0.8128883838653564,"1303":0.31890472769737244,"1304":-0.5340459942817688,"1305":-0.8119811415672302,"1306":0.11365704238414764,"1307":0.05663955584168434,"1308":1.3406866788864136,"1309":0.7455773949623108,"1310":-0.41293609142303467,"1311":-0.12735550105571747,"1312":0.316259503364563,"1313":-0.6612796187400818,"1314":1.8045204877853394,"1315":0.37288805842399597,"1316":0.47102099657058716,"1317":0.5240660905838013,"1318":-0.6487717032432556,"1319":-0.5451561808586121,"1320":-0.8795588612556458,"1321":0.4965609908103943,"1322":0.40372204780578613,"1323":-0.5224930644035339,"1324":0.8503025770187378,"1325":0.5279316902160645,"1326":-0.9177554845809937,"1327":-0.6052314043045044,"1328":-0.6079210638999939,"1329":-0.503136157989502,"1330":-0.19734656810760498,"1331":0.29743099212646484,"1332":1.0081530809402466,"1333":-0.4143888056278229,"1334":0.9548806548118591,"1335":-0.24389293789863586,"1336":-0.4792014956474304,"1337":1.3352739810943604,"1338":-1.0184203386306763,"1339":0.3184669017791748,"1340":-0.8357442617416382,"1341":-0.017281007021665573,"1342":0.8701394200325012,"1343":0.1300298422574997,"1344":-0.291241854429245,"1345":-0.06460683792829514,"1346":-0.20441775023937225,"1347":0.5563043355941772,"1348":-0.5034586191177368,"1349":0.1772966831922531,"1350":0.7934139370918274,"1351":-0.13965128362178802,"1352":1.9672483205795288,"1353":0.08336743712425232,"1354":-0.6996516585350037,"1355":0.9126038551330566,"1356":0.4614065885543823,"1357":0.7687340974807739,"1358":-1.1752070188522339,"1359":0.1430264115333557,"1360":0.6135802268981934,"1361":-0.16417479515075684,"1362":-1.2743865251541138,"1363":-0.8891665935516357,"1364":0.26710399985313416,"1365":0.9137627482414246,"1366":0.11107823252677917,"1367":-0.9036982655525208,"1368":0.9552574753761292,"1369":1.2065114974975586,"1370":-0.9137465953826904,"1371":-0.19709371030330658,"1372":-0.11648622155189514,"1373":-0.08720206469297409,"1374":-0.029476739466190338,"1375":0.46167951822280884,"1376":0.3012083172798157,"1377":-0.23438760638237,"1378":-0.8784146904945374,"1379":0.15509715676307678,"1380":1.1707481145858765,"1381":0.2681594789028168,"1382":-0.808830738067627,"1383":1.5673835277557373,"1384":0.557514488697052,"1385":0.9313141107559204,"1386":0.00026049595908261836,"1387":0.19608250260353088,"1388":-0.19993220269680023,"1389":-1.4802485704421997,"1390":1.0382407903671265,"1391":1.6075901985168457,"1392":-0.11870699375867844,"1393":0.07526663690805435,"1394":0.14142321050167084,"1395":0.5182033777236938,"1396":-1.4168230295181274,"1397":0.13096407055854797,"1398":-1.0332484245300293,"1399":1.208675503730774,"1400":0.24991291761398315,"1401":-1.6709260940551758,"1402":-0.6316227912902832,"1403":1.3367218971252441,"1404":-1.7834835052490234,"1405":1.292243480682373,"1406":-0.08212121576070786,"1407":0.33265450596809387,"1408":0.32521381974220276,"1409":-0.9980112910270691,"1410":0.4904750883579254,"1411":-0.6891493201255798,"1412":0.1991674304008484,"1413":-0.8784095644950867,"1414":0.9880895018577576,"1415":0.7168797850608826,"1416":-0.017015788704156876,"1417":-1.253882884979248,"1418":1.0771162509918213,"1419":1.1328598260879517,"1420":1.024073600769043,"1421":-0.8453636765480042,"1422":0.5188518166542053,"1423":-0.6046625971794128,"1424":0.9240761399269104,"1425":0.9902414679527283,"1426":-0.026890870183706284,"1427":-0.9655832052230835,"1428":-0.31238803267478943,"1429":0.08650662004947662,"1430":-0.4924587309360504,"1431":-0.024891570210456848,"1432":-0.31174489855766296,"1433":-1.8028640747070312,"1434":-1.0211364030838013,"1435":1.236275553703308,"1436":0.12117764353752136,"1437":-0.4308885633945465,"1438":-0.2931366562843323,"1439":-0.47887173295021057,"1440":1.5025893449783325,"1441":1.400079607963562,"1442":0.4657019078731537,"1443":-0.24828818440437317,"1444":0.36940282583236694,"1445":-0.2838882803916931,"1446":-0.9431452751159668,"1447":0.21179930865764618,"1448":0.030061036348342896,"1449":-0.24429531395435333,"1450":-1.1122936010360718,"1451":0.9818452000617981,"1452":0.10886455327272415,"1453":-1.42169988155365,"1454":-0.05660127103328705,"1455":-0.7095328569412231,"1456":0.6735803484916687,"1457":0.3607696294784546,"1458":-0.7044187188148499,"1459":-0.10506049543619156,"1460":-0.3251175284385681,"1461":-1.2763557434082031,"1462":1.4881739616394043,"1463":0.4415540099143982,"1464":-0.1432703733444214,"1465":0.1085597574710846,"1466":0.6656219959259033,"1467":-0.7209128141403198,"1468":-1.4996479749679565,"1469":-0.10504099726676941,"1470":0.843153715133667,"1471":-1.247308611869812,"1472":0.9919003248214722,"1473":-0.14306239783763885,"1474":-1.41580069065094,"1475":-0.09763231128454208,"1476":0.1413261592388153,"1477":-0.33435866236686707,"1478":0.1565823256969452,"1479":-0.041053399443626404,"1480":0.3723790645599365,"1481":-0.3357864320278168,"1482":0.29167577624320984,"1483":1.04000723361969,"1484":-0.7108466625213623,"1485":-1.3195419311523438,"1486":-0.9866035580635071,"1487":0.23311887681484222,"1488":0.33568277955055237,"1489":-0.7446417212486267,"1490":0.47849318385124207,"1491":0.3243541717529297,"1492":-0.21898649632930756,"1493":-0.5152715444564819,"1494":-0.8904396891593933,"1495":-0.33487066626548767,"1496":0.17013947665691376,"1497":0.3003419041633606,"1498":-0.21217092871665955,"1499":-0.27061596512794495,"1500":0.25861164927482605,"1501":0.4540414810180664,"1502":-1.0268197059631348,"1503":0.6658209562301636,"1504":0.38780999183654785,"1505":0.6133169531822205,"1506":-0.12838110327720642,"1507":-0.7646884322166443,"1508":-1.0071206092834473,"1509":-0.37195631861686707,"1510":-0.5931153893470764,"1511":-0.5540814995765686,"1512":-0.45464983582496643,"1513":-0.5955729484558105,"1514":-1.1984962224960327,"1515":-0.437141090631485,"1516":0.6998147964477539,"1517":-0.08568717539310455,"1518":-0.7718210220336914,"1519":0.3348350524902344,"1520":2.140061140060425,"1521":0.6495152711868286,"1522":-0.03167661279439926,"1523":0.15746267139911652,"1524":0.09094380587339401,"1525":-0.6366772055625916,"1526":-0.20854413509368896,"1527":0.3018893599510193,"1528":0.6103628277778625,"1529":0.44014766812324524,"1530":1.524475336074829,"1531":0.6392267942428589,"1532":-0.5596845149993896,"1533":0.5340416431427002,"1534":0.9490023851394653,"1535":0.19685466587543488,"1536":1.2196061611175537,"1537":-0.3553023338317871,"1538":0.8241267800331116,"1539":0.2823604345321655,"1540":0.12162087857723236,"1541":0.060100048780441284,"1542":-0.1285814344882965,"1543":0.7994218468666077,"1544":-0.043827954679727554,"1545":-0.1247335895895958,"1546":-0.30454933643341064,"1547":0.5877036452293396,"1548":-0.10660509020090103,"1549":-0.2718729078769684,"1550":-0.653158962726593,"1551":0.5843609571456909,"1552":0.10928074270486832,"1553":0.04715217277407646,"1554":0.23795387148857117,"1555":0.10532144457101822,"1556":-0.7254979014396667,"1557":-0.42765703797340393,"1558":0.5498490929603577,"1559":0.35961446166038513,"1560":1.3791412115097046,"1561":-0.7255752682685852,"1562":0.46033748984336853,"1563":0.1197083592414856,"1564":-0.9532957077026367,"1565":-0.3560175597667694,"1566":0.3558286726474762,"1567":0.12250400334596634,"1568":0.10799997299909592,"1569":-0.3993735909461975,"1570":-0.3243672847747803,"1571":-1.0817639827728271,"1572":-0.04359811171889305,"1573":0.7162795662879944,"1574":-0.6727625131607056,"1575":-0.176876962184906,"1576":-0.22732628881931305,"1577":-0.6461222767829895,"1578":-0.8762365579605103,"1579":-1.0406492948532104,"1580":0.46075087785720825,"1581":-0.2810004651546478,"1582":-0.6188252568244934,"1583":0.6638365387916565,"1584":0.8975493907928467,"1585":0.7551464438438416,"1586":-1.3684372901916504,"1587":0.4498347342014313,"1588":0.4160095155239105,"1589":0.207724466919899,"1590":-0.24388764798641205,"1591":0.10966642200946808,"1592":0.7022261619567871,"1593":0.06300298124551773,"1594":-0.30419835448265076,"1595":-0.37935298681259155,"1596":1.0161879062652588,"1597":0.42261362075805664,"1598":-0.4113888144493103,"1599":0.30744799971580505,"1600":0.7239379286766052,"1601":-0.2520376145839691,"1602":-0.41059818863868713,"1603":-0.3766442537307739,"1604":-0.9212707281112671,"1605":-0.7873989939689636,"1606":-0.2754969596862793,"1607":0.16822542250156403,"1608":-0.7020752429962158,"1609":-0.19659283757209778,"1610":-0.7803955674171448,"1611":0.6277472376823425,"1612":-1.0358576774597168,"1613":-0.6229122281074524,"1614":-0.04826731979846954,"1615":0.016514578834176064,"1616":-0.30343082547187805,"1617":-1.245571494102478,"1618":0.33152878284454346,"1619":0.0007454456645064056,"1620":0.2613489031791687,"1621":-0.9734930992126465,"1622":-0.22164615988731384,"1623":0.81540846824646,"1624":1.153941035270691,"1625":-0.12798108160495758,"1626":0.4284783601760864,"1627":-0.6982858777046204,"1628":-0.2933965027332306,"1629":1.9654749631881714,"1630":-0.8105915188789368,"1631":1.3826218843460083,"1632":-3.9422712326049805,"1633":-0.9036409258842468,"1634":3.1485373973846436,"1635":0.5111967325210571,"1636":0.006276843138039112,"1637":-0.20423051714897156,"1638":0.6654612421989441,"1639":0.6585327982902527,"1640":-0.6592162847518921,"1641":-0.5497965812683105,"1642":-1.05849289894104,"1643":-2.129464626312256,"1644":2.4180569648742676,"1645":-0.49110737442970276,"1646":-1.9775595664978027,"1647":0.6407456398010254,"1648":0.10393115133047104,"1649":0.8202702403068542,"1650":1.6782913208007812,"1651":1.6069196462631226,"1652":-1.7649914026260376,"1653":0.6864328384399414,"1654":1.094718098640442,"1655":0.8794165253639221,"1656":-0.38532596826553345,"1657":-1.2758028507232666,"1658":-0.8728146553039551,"1659":-0.9632990956306458,"1660":-2.032909393310547,"1661":-2.4567742347717285,"1662":-1.317154884338379,"1663":-1.3287378549575806,"1664":-1.5917010307312012,"1665":-3.2263402938842773,"1666":-2.369216203689575,"1667":2.8290157318115234,"1668":1.5475759506225586,"1669":2.51318097114563,"1670":-2.7501683235168457,"1671":-2.5980446338653564,"1672":0.438228577375412,"1673":-0.9060960412025452,"1674":2.4820024967193604,"1675":1.2204256057739258,"1676":1.825482726097107,"1677":0.19583941996097565,"1678":1.6426241397857666,"1679":-0.0604618564248085,"1680":-0.5136913061141968,"1681":-1.0496875047683716,"1682":1.5166265964508057,"1683":0.5561615228652954,"1684":0.026135124266147614,"1685":-2.0701611042022705,"1686":1.0503047704696655,"1687":0.6981562376022339,"1688":2.8719725608825684,"1689":0.17168638110160828,"1690":0.9898873567581177,"1691":1.1864875555038452,"1692":0.38904985785484314,"1693":0.6748452186584473,"1694":-1.394791603088379,"1695":1.2481962442398071,"1696":0.8132107853889465,"1697":-0.05052376538515091,"1698":0.4075509011745453,"1699":2.7017550468444824,"1700":0.772415816783905,"1701":-1.4788943529129028,"1702":-0.09276231378316879,"1703":0.3498653173446655,"1704":-0.03219068422913551,"1705":-0.6050449013710022,"1706":0.21141530573368073,"1707":-0.2964975833892822,"1708":0.33996161818504333,"1709":-0.47026994824409485,"1710":0.258583664894104,"1711":1.1150553226470947,"1712":-0.14750716090202332,"1713":-0.6279814839363098,"1714":0.6767662167549133,"1715":0.6791560649871826,"1716":0.7291262745857239,"1717":-0.21927250921726227,"1718":0.24965983629226685,"1719":-0.3221052289009094,"1720":0.22174914181232452,"1721":0.3926470875740051,"1722":0.07814924418926239,"1723":-0.6155927181243896,"1724":-0.48142069578170776,"1725":-0.1634194552898407,"1726":0.36936646699905396,"1727":0.1895940899848938,"1728":0.041925448924303055,"1729":-0.7785168290138245,"1730":-0.47131866216659546,"1731":0.595003068447113,"1732":0.0050080749206244946,"1733":-0.13515807688236237,"1734":0.3982468247413635,"1735":-0.18889637291431427,"1736":0.862821638584137,"1737":0.7293076515197754,"1738":0.3660103380680084,"1739":-0.3040311634540558,"1740":0.214144766330719,"1741":-0.06507545709609985,"1742":-0.6884384751319885,"1743":0.3347221314907074,"1744":0.41833123564720154,"1745":-0.3461594879627228,"1746":-0.5731914639472961,"1747":0.8788769841194153,"1748":0.23160122334957123,"1749":-0.6559913754463196,"1750":-0.09335721284151077,"1751":-0.5495607256889343,"1752":1.2310572862625122,"1753":0.26891717314720154,"1754":-0.339548796415329,"1755":-0.20117627084255219,"1756":-0.26506081223487854,"1757":-0.6482543349266052,"1758":0.8429413437843323,"1759":0.2572062611579895,"1760":-0.20359061658382416,"1761":-0.04512330889701843,"1762":0.39417171478271484,"1763":-0.6213345527648926,"1764":-0.7156965732574463,"1765":0.13483557105064392,"1766":0.39259952306747437,"1767":-0.6479347348213196,"1768":0.5409021973609924,"1769":-0.09054629504680634,"1770":-0.723247766494751,"1771":-0.07736880332231522,"1772":0.24026064574718475,"1773":-0.20578886568546295,"1774":0.33698493242263794,"1775":-0.47943562269210815,"1776":-0.679773211479187,"1777":1.3403221368789673,"1778":-0.2762616276741028,"1779":0.6946194171905518,"1780":-0.9474918246269226,"1781":-1.3792411088943481,"1782":1.3173913955688477,"1783":-0.25886863470077515,"1784":0.4103449583053589,"1785":1.192574381828308,"1786":-0.20898780226707458,"1787":-0.20765723288059235,"1788":0.6708871722221375,"1789":0.05575728416442871,"1790":0.854445219039917,"1791":-0.7251803278923035,"1792":0.6360848546028137,"1793":-1.4806184768676758,"1794":-0.8122017979621887,"1795":-0.06246295943856239,"1796":-0.4364403486251831,"1797":-0.09117432683706284,"1798":-0.07801463454961777,"1799":-0.21546567976474762,"1800":-0.8608396053314209,"1801":-0.20609280467033386,"1802":0.39728203415870667,"1803":0.011931813322007656,"1804":-0.3396953046321869,"1805":0.22056074440479279,"1806":0.807107150554657,"1807":-0.46856170892715454,"1808":-1.5466315746307373,"1809":-0.9260203242301941,"1810":-0.6137264370918274,"1811":0.10640940070152283,"1812":-0.34890419244766235,"1813":-0.39579862356185913,"1814":-0.20677576959133148,"1815":1.0865849256515503,"1816":-0.36068400740623474,"1817":0.7990870475769043,"1818":0.4499543011188507,"1819":-0.42610666155815125,"1820":-0.5079576373100281,"1821":0.4996582567691803,"1822":0.9824666976928711,"1823":-0.38824984431266785,"1824":-0.12415953725576401,"1825":-0.6507534384727478,"1826":0.3995392322540283,"1827":-1.6524081230163574,"1828":-0.5661161541938782,"1829":-1.7035102844238281,"1830":-0.10713426023721695,"1831":-0.03394153341650963,"1832":0.27124589681625366,"1833":-0.34746459126472473,"1834":-0.11482898890972137,"1835":-0.6349543929100037,"1836":-0.025490960106253624,"1837":-0.07435736805200577,"1838":-0.08301036059856415,"1839":-0.13338716328144073,"1840":0.9491451978683472,"1841":-0.5587254166603088,"1842":0.277256578207016,"1843":-0.6257836222648621,"1844":-0.42501330375671387,"1845":1.238730549812317,"1846":0.9268456697463989,"1847":0.6623710989952087,"1848":0.739055335521698,"1849":-1.3951305150985718,"1850":-1.6864137649536133,"1851":2.2552270889282227,"1852":0.244625523686409,"1853":2.8818140029907227,"1854":-4.0601806640625,"1855":-2.835759162902832,"1856":0.18957656621932983,"1857":1.3222002983093262,"1858":1.7010183334350586,"1859":2.3702824115753174,"1860":-0.11796553432941437,"1861":1.3594356775283813,"1862":-0.13620515167713165,"1863":0.5186688899993896,"1864":-0.7835617065429688,"1865":-0.6715384721755981,"1866":3.0983216762542725,"1867":0.4860490560531616,"1868":-2.760540008544922,"1869":0.791496753692627,"1870":-1.0938860177993774,"1871":0.492554634809494,"1872":-0.20263880491256714,"1873":0.7571359872817993,"1874":-0.846025288105011,"1875":2.373973846435547,"1876":-0.6999672651290894,"1877":0.10352669656276703,"1878":-0.05801922082901001,"1879":0.8832447528839111,"1880":1.514057993888855,"1881":-1.1157236099243164,"1882":-3.4499194622039795,"1883":-3.634028196334839,"1884":-3.1751060485839844,"1885":-1.4284844398498535,"1886":-0.17224930226802826,"1887":2.073235273361206,"1888":-3.495445489883423,"1889":2.091383695602417,"1890":2.254055976867676,"1891":1.5747063159942627,"1892":0.3377881348133087,"1893":-2.3776280879974365,"1894":-1.0922691822052002,"1895":-0.555385172367096,"1896":0.6279945373535156,"1897":1.0703420639038086,"1898":2.3055508136749268,"1899":0.5402598977088928,"1900":3.6371171474456787,"1901":0.44549280405044556,"1902":-1.77922523021698,"1903":1.2043771743774414,"1904":0.48256972432136536,"1905":-1.3737510442733765,"1906":0.9784022569656372,"1907":-1.7615275382995605,"1908":0.8367023468017578,"1909":1.204314112663269,"1910":3.4034857749938965,"1911":1.4445180892944336,"1912":1.0289924144744873,"1913":0.9504664540290833,"1914":0.3641546070575714,"1915":-0.9011902213096619,"1916":-0.5465693473815918,"1917":0.23853084444999695,"1918":0.07951515167951584,"1919":-0.3978874981403351,"1920":2.1532070636749268,"1921":2.7942428588867188,"1922":1.7713384628295898,"1923":-0.684345006942749,"1924":5.2425994873046875,"1925":1.2078838348388672,"1926":-3.239166021347046,"1927":5.437328338623047,"1928":0.39845719933509827,"1929":5.5494465827941895,"1930":0.1503118872642517,"1931":4.505991458892822,"1932":-5.787342071533203,"1933":0.8396894931793213,"1934":-4.0832648277282715,"1935":-0.25919824838638306,"1936":-5.0907111167907715,"1937":-3.895448684692383,"1938":0.09421486407518387,"1939":5.683788299560547,"1940":2.299428701400757,"1941":-2.1254963874816895,"1942":3.959697961807251,"1943":-5.557741165161133,"1944":-2.5768134593963623,"1945":0.5339208245277405,"1946":3.032482624053955,"1947":-4.724639892578125,"1948":4.839433670043945,"1949":-2.790546178817749,"1950":2.7658932209014893,"1951":5.650135517120361,"1952":5.149990081787109,"1953":-5.334375858306885,"1954":3.1081960201263428,"1955":2.1070683002471924,"1956":5.651261329650879,"1957":-0.8627805709838867,"1958":-0.4397219717502594,"1959":-4.726789474487305,"1960":-4.486411094665527,"1961":-2.3740360736846924,"1962":2.065203905105591,"1963":1.1168535947799683,"1964":-3.991628885269165,"1965":0.8956335186958313,"1966":1.0627126693725586,"1967":-1.2632187604904175,"1968":5.506227493286133,"1969":2.1380441188812256,"1970":0.8503991365432739,"1971":5.518298149108887,"1972":-2.689668655395508,"1973":3.9278459548950195,"1974":-5.913888931274414,"1975":-3.072383403778076,"1976":5.127391815185547,"1977":-2.081143617630005,"1978":-3.7873733043670654,"1979":2.6962594985961914,"1980":-5.303789138793945,"1981":2.3514814376831055,"1982":-4.238536834716797,"1983":-3.086351156234741,"1984":-3.0532710552215576,"1985":-0.42845702171325684,"1986":5.174737453460693,"1987":-2.7785587310791016,"1988":-5.638294696807861,"1989":5.039218425750732,"1990":-4.562493801116943,"1991":-2.539893388748169,"1992":5.107940196990967,"1993":1.9973241090774536,"1994":2.6116220951080322,"1995":-2.2916743755340576,"1996":2.090571641921997,"1997":-2.1421303749084473,"1998":2.9037153720855713,"1999":2.746041774749756,"2000":-1.9149059057235718,"2001":2.412285804748535,"2002":-4.714528560638428,"2003":2.5811514854431152,"2004":-0.7324914932250977,"2005":1.7293211221694946,"2006":-1.5957181453704834,"2007":5.421574592590332,"2008":0.8612085580825806,"2009":1.2945553064346313,"2010":-0.9871379733085632,"2011":-1.5833325386047363,"2012":-0.7666313052177429,"2013":2.0071709156036377,"2014":3.386476516723633,"2015":-5.883355617523193,"2016":1.442313551902771,"2017":-0.9502562284469604,"2018":-4.359654903411865,"2019":1.0854687690734863,"2020":2.9104480743408203,"2021":-4.479864597320557,"2022":0.17615851759910583,"2023":-5.512385368347168,"2024":5.2987751960754395,"2025":2.6102004051208496,"2026":2.0691745281219482,"2027":-1.3158173561096191,"2028":5.86715030670166,"2029":1.1259844303131104,"2030":-5.593988418579102,"2031":-3.2473998069763184,"2032":-1.6452122926712036,"2033":-2.306849479675293,"2034":-5.446817398071289,"2035":-3.728792428970337,"2036":5.037349700927734,"2037":4.263030529022217,"2038":-5.6391282081604,"2039":2.440293550491333,"2040":3.965162515640259,"2041":-4.347304344177246,"2042":1.06317138671875,"2043":5.71138858795166,"2044":3.9954164028167725,"2045":1.3421664237976074,"2046":-4.560514450073242,"2047":1.9064104557037354,"2048":-5.408912658691406,"2049":-5.660931587219238,"2050":2.1869935989379883,"2051":-3.234563112258911,"2052":-5.040689468383789,"2053":1.3948076963424683,"2054":-2.285752534866333,"2055":4.186111927032471,"2056":-5.33343505859375,"2057":-5.012676239013672,"2058":-1.8726576566696167,"2059":1.5824635028839111,"2060":2.634092330932617,"2061":-5.4955620765686035,"2062":-1.580450177192688,"2063":3.17360520362854,"2064":-1.200736165046692,"2065":-5.632758617401123,"2066":1.7286571264266968,"2067":5.7651238441467285,"2068":5.583453178405762,"2069":-2.9168992042541504,"2070":4.5485005378723145,"2071":-4.376297950744629,"2072":4.065165042877197,"2073":2.482426643371582,"2074":-0.951506495475769,"2075":3.8501462936401367,"2076":-1.625009536743164,"2077":4.457839488983154,"2078":-5.23891019821167,"2079":3.7609424591064453,"2080":-3.987208604812622,"2081":0.41805312037467957,"2082":3.820075750350952,"2083":4.659489154815674,"2084":-4.2076263427734375,"2085":-4.407279968261719,"2086":-5.13956356048584,"2087":3.7599942684173584,"2088":4.367282390594482,"2089":-0.2548714578151703,"2090":3.5921874046325684,"2091":-5.032736778259277,"2092":-0.46086665987968445,"2093":4.9812092781066895,"2094":2.8538801670074463,"2095":-0.32810965180397034,"2096":4.155811309814453,"2097":-1.0327266454696655,"2098":2.159268379211426,"2099":3.9342288970947266,"2100":3.3818788528442383,"2101":-4.4032979011535645,"2102":0.3115267753601074,"2103":4.410678386688232,"2104":-1.470381498336792,"2105":-1.9596465826034546,"2106":-4.0549821853637695,"2107":-3.832791328430176,"2108":-1.281652569770813,"2109":-2.88084077835083,"2110":0.5854749083518982,"2111":2.2271275520324707,"2112":1.9070467948913574,"2113":2.3418941497802734,"2114":1.0952616930007935,"2115":-0.20818983018398285,"2116":4.971549987792969,"2117":0.04450684413313866,"2118":0.9242668151855469,"2119":4.712904453277588,"2120":-1.9248722791671753,"2121":3.7804133892059326,"2122":-1.7056151628494263,"2123":-0.9979655742645264,"2124":4.131140232086182,"2125":-2.979426622390747,"2126":4.896929740905762,"2127":4.808592319488525,"2128":-1.6401349306106567,"2129":2.574082374572754,"2130":-1.1455844640731812,"2131":-2.344918966293335,"2132":-3.150717258453369,"2133":4.574499607086182,"2134":4.020357131958008,"2135":-0.93812096118927,"2136":-4.149787902832031,"2137":3.5818417072296143,"2138":-4.447818279266357,"2139":-0.3068220019340515,"2140":4.106382369995117,"2141":0.7185179591178894,"2142":0.9161900281906128,"2143":-3.296807289123535,"2144":2.1276121139526367,"2145":-2.6050260066986084,"2146":0.3562678396701813,"2147":5.939019680023193,"2148":0.09093133360147476,"2149":2.5558691024780273,"2150":-5.8271026611328125,"2151":0.47245702147483826,"2152":-0.4681609272956848,"2153":4.1381707191467285,"2154":-4.426395893096924,"2155":0.15114028751850128,"2156":0.3186560273170471,"2157":3.0823683738708496,"2158":-2.9208450317382812,"2159":-5.343643665313721,"2160":-3.3721699714660645,"2161":4.876418113708496,"2162":5.858790874481201,"2163":1.4177677631378174,"2164":0.15424801409244537,"2165":-5.406182289123535,"2166":0.08810926228761673,"2167":5.113640308380127,"2168":4.506097316741943,"2169":-0.1036512702703476,"2170":5.900724411010742,"2171":0.04487206041812897,"2172":0.2909623682498932,"2173":4.918625831604004,"2174":3.270798683166504,"2175":-4.733256816864014,"2176":-0.36886289715766907,"2177":5.981508731842041,"2178":-5.901120185852051,"2179":-5.993889331817627,"2180":-1.9126337766647339,"2181":-4.309535980224609,"2182":-5.566186904907227,"2183":-5.935253620147705,"2184":1.7128418684005737,"2185":5.965246200561523,"2186":2.370816230773926,"2187":5.635307312011719,"2188":-0.3213336765766144,"2189":-0.32066619396209717,"2190":4.513637065887451,"2191":-0.45683684945106506,"2192":0.20960763096809387,"2193":4.712794303894043,"2194":-5.622921466827393,"2195":2.4711883068084717,"2196":-1.3928241729736328,"2197":0.07849647849798203,"2198":4.120064735412598,"2199":-6.128382682800293,"2200":3.892132043838501,"2201":4.78814697265625,"2202":-5.945793628692627,"2203":5.96474552154541,"2204":-0.922407329082489,"2205":-5.7659406661987305,"2206":-0.1763276308774948,"2207":5.070322036743164,"2208":2.985006809234619,"2209":-0.8931562900543213,"2210":-0.2718833088874817,"2211":3.432730197906494,"2212":-4.917366981506348,"2213":0.42786192893981934,"2214":5.131159782409668,"2215":0.02118626981973648,"2216":1.055281400680542,"2217":-5.933231830596924,"2218":5.983110427856445,"2219":-6.016290664672852,"2220":3.53568172454834,"2221":3.061689853668213,"2222":2.494471788406372,"2223":3.7022342681884766,"2224":-3.2201192378997803,"2225":3.3701224327087402,"2226":-4.000506401062012,"2227":2.333733320236206,"2228":-3.7293221950531006,"2229":4.20205545425415,"2230":4.401784420013428,"2231":3.441056251525879,"2232":-3.2792136669158936,"2233":-3.851609945297241,"2234":-3.2072176933288574,"2235":3.7278530597686768,"2236":0.9593603014945984,"2237":4.948572635650635,"2238":4.601320743560791,"2239":-3.0984771251678467,"2240":3.902167320251465,"2241":3.712667226791382,"2242":2.164687156677246,"2243":0.9437705278396606,"2244":3.3427517414093018,"2245":-2.9951610565185547,"2246":0.9820308089256287,"2247":2.9412333965301514,"2248":2.576969623565674,"2249":-2.3149333000183105,"2250":-5.000978469848633,"2251":2.286005735397339,"2252":-5.075993537902832,"2253":-2.1871092319488525,"2254":-3.486236333847046,"2255":-3.1689443588256836,"2256":-1.234585165977478,"2257":-3.0183489322662354,"2258":2.9227473735809326,"2259":2.560819387435913,"2260":4.8075385093688965,"2261":2.446202039718628,"2262":-4.7449951171875,"2263":-2.5772440433502197,"2264":2.8326241970062256,"2265":-4.610316276550293,"2266":-3.3824307918548584,"2267":2.691673755645752,"2268":-2.353867530822754,"2269":3.549318552017212,"2270":-4.322059631347656,"2271":0.8882081508636475,"2272":4.06810998916626,"2273":-2.711052417755127,"2274":4.4813551902771,"2275":4.131674289703369,"2276":-1.840022087097168,"2277":2.8033318519592285,"2278":-1.6464173793792725,"2279":-2.7478790283203125,"2280":-4.53211784362793,"2281":4.269284725189209,"2282":3.29451847076416,"2283":-1.9427716732025146,"2284":-1.9276131391525269,"2285":3.921060085296631,"2286":-2.4581799507141113,"2287":4.216959476470947,"2288":3.0426652431488037,"2289":-1.5377774238586426,"2290":1.7114183902740479,"2291":-2.9807116985321045,"2292":2.7211556434631348,"2293":-2.6856656074523926,"2294":3.2183640003204346,"2295":3.114210367202759,"2296":-2.3808434009552,"2297":3.2438502311706543,"2298":-3.041581153869629,"2299":3.2483882904052734,"2300":-3.1985652446746826,"2301":3.171553373336792,"2302":-3.22025728225708,"2303":1.7778314352035522,"2304":2.9646053314208984,"2305":3.1598165035247803,"2306":-3.196112871170044,"2307":-3.2142395973205566,"2308":-3.121124505996704,"2309":3.1851308345794678,"2310":2.597935676574707,"2311":2.68440318107605,"2312":3.1802995204925537,"2313":-3.268869161605835,"2314":-2.2583324909210205,"2315":3.1391642093658447,"2316":3.18084716796875,"2317":-2.83705472946167,"2318":3.1156625747680664,"2319":-3.0465450286865234,"2320":2.999600887298584,"2321":3.154189348220825,"2322":3.1348319053649902,"2323":-3.1370909214019775,"2324":0.06468822062015533,"2325":3.158102035522461,"2326":-3.025075674057007,"2327":-3.0461483001708984,"2328":-3.222304582595825,"2329":-3.205461263656616,"2330":-2.9616951942443848,"2331":-3.155634641647339,"2332":3.1463217735290527,"2333":3.1485166549682617,"2334":3.137730836868286,"2335":2.9577956199645996,"2336":-2.718876838684082,"2337":-1.3729522228240967,"2338":3.2462055683135986,"2339":-2.621839761734009,"2340":-0.40935632586479187,"2341":3.233699083328247,"2342":-3.1123199462890625,"2343":3.170278787612915,"2344":-3.24196457862854,"2345":-2.7936880588531494,"2346":3.11995005607605,"2347":-3.147632598876953,"2348":3.102084159851074,"2349":3.144468069076538,"2350":-3.159250259399414,"2351":3.199699640274048,"2352":-3.014894485473633,"2353":-3.208822250366211,"2354":-3.195206880569458,"2355":3.2539873123168945,"2356":3.154949188232422,"2357":-3.09721040725708,"2358":-3.133211612701416,"2359":3.217968702316284,"2360":-3.142110586166382,"2361":-0.817500114440918,"2362":3.2440083026885986,"2363":2.3968937397003174,"2364":3.0329079627990723,"2365":-3.144304037094116,"2366":3.1482019424438477,"2367":-3.184924602508545,"2368":5.9365234375,"2369":0.38710033893585205,"2370":5.794946193695068,"2371":4.455590724945068,"2372":-5.3607258796691895,"2373":0.7445667386054993,"2374":-6.0410237312316895,"2375":2.8071634769439697,"2376":-1.3767938613891602,"2377":-3.970735549926758,"2378":6.045788288116455,"2379":1.8673382997512817,"2380":-5.15798807144165,"2381":-4.842414379119873,"2382":-5.500679969787598,"2383":0.9605288505554199,"2384":-0.07261712104082108,"2385":5.95343542098999,"2386":6.030596733093262,"2387":-4.347446441650391,"2388":5.680243015289307,"2389":5.291470527648926,"2390":0.5083292722702026,"2391":4.651320457458496,"2392":0.7874942421913147,"2393":0.8020805716514587,"2394":-3.029237985610962,"2395":1.7686325311660767,"2396":3.6216654777526855,"2397":-4.214023590087891,"2398":-5.997655868530273,"2399":0.4455394446849823,"2400":-0.19798940420150757,"2401":-0.12903952598571777,"2402":-4.3217973709106445,"2403":-4.083547115325928,"2404":-0.17238806188106537,"2405":-2.03161358833313,"2406":0.37474527955055237,"2407":0.3420203924179077,"2408":5.929380416870117,"2409":0.03886483237147331,"2410":-5.990199089050293,"2411":1.601543664932251,"2412":3.8638415336608887,"2413":-6.02396297454834,"2414":-4.8165459632873535,"2415":4.651604175567627,"2416":-0.23448708653450012,"2417":5.1559929847717285,"2418":-0.1873915046453476,"2419":4.563304424285889,"2420":1.7177635431289673,"2421":-0.48195773363113403,"2422":5.571102619171143,"2423":3.1850733757019043,"2424":-0.3545786142349243,"2425":1.6816140413284302,"2426":0.4149482846260071,"2427":-0.13156920671463013,"2428":-5.980536937713623,"2429":2.9144084453582764,"2430":3.119040012359619,"2431":0.083485446870327,"2432":-6.054460525512695,"2433":3.755627393722534,"2434":-4.587710857391357,"2435":6.015676498413086,"2436":4.1980061531066895,"2437":-5.2986369132995605,"2438":-0.15362296998500824,"2439":-1.1236618757247925,"2440":0.2923223674297333,"2441":-0.4473622143268585,"2442":-0.16809621453285217,"2443":1.5456745624542236,"2444":0.6363059282302856,"2445":0.21048395335674286,"2446":-1.7288599014282227,"2447":-0.22176331281661987,"2448":0.11891111731529236,"2449":-2.942995548248291,"2450":3.7516088485717773,"2451":2.254418134689331,"2452":2.064537286758423,"2453":-1.1775767803192139,"2454":2.197491407394409,"2455":1.937135934829712,"2456":2.847730875015259,"2457":-3.2255146503448486,"2458":0.8838266134262085,"2459":-4.985856056213379,"2460":0.31335094571113586,"2461":3.1797378063201904,"2462":0.04077194258570671,"2463":-2.402005910873413,"2464":-0.784486711025238,"2465":0.9752585887908936,"2466":-3.8690454959869385,"2467":-0.12426072359085083,"2468":0.5564819574356079,"2469":-1.1670247316360474,"2470":-3.5518853664398193,"2471":2.6046440601348877,"2472":0.926839292049408,"2473":-1.5981158018112183,"2474":-2.84028959274292,"2475":-1.3711365461349487,"2476":-0.04762628301978111,"2477":1.8671061992645264,"2478":-1.6943168640136719,"2479":-1.7860873937606812,"2480":-0.7029120326042175,"2481":2.6627328395843506,"2482":-3.6630494594573975,"2483":0.9694048166275024,"2484":2.0053927898406982,"2485":-1.283453345298767,"2486":-2.8388442993164062,"2487":4.693970203399658,"2488":1.9515002965927124,"2489":-1.6314456462860107,"2490":0.8016214966773987,"2491":-2.6917612552642822,"2492":-0.026110704988241196,"2493":-3.837494373321533,"2494":-3.080111026763916,"2495":-2.8857738971710205,"2496":-1.7622175216674805,"2497":-2.8996739387512207,"2498":2.6616337299346924,"2499":-0.8316157460212708,"2500":1.3019095659255981,"2501":-0.07530293613672256,"2502":-1.9883205890655518,"2503":-2.2605340480804443,"2504":-1.135163426399231,"2505":0.5751934051513672,"2506":0.20633453130722046,"2507":-2.2114274501800537,"2508":2.629896640777588,"2509":-1.0378189086914062,"2510":-2.0516929626464844,"2511":2.0019516944885254,"2512":3.8283917903900146,"2513":1.0288748741149902,"2514":1.9839829206466675,"2515":-3.0197060108184814,"2516":3.1465961933135986,"2517":3.195323944091797,"2518":-2.090407371520996,"2519":3.2718424797058105,"2520":-3.1477935314178467,"2521":3.179691791534424,"2522":-3.1243326663970947,"2523":3.1810243129730225,"2524":-3.1597061157226562,"2525":2.9518134593963623,"2526":3.0881526470184326,"2527":3.090944528579712,"2528":-3.185687780380249,"2529":-3.1318745613098145,"2530":-3.175318717956543,"2531":3.067054271697998,"2532":3.0038604736328125,"2533":2.3499248027801514,"2534":3.0978050231933594,"2535":-3.2518343925476074,"2536":-0.9071119427680969,"2537":3.2002110481262207,"2538":3.2305681705474854,"2539":-2.931421995162964,"2540":3.2014589309692383,"2541":-3.1715140342712402,"2542":2.9275286197662354,"2543":3.2248287200927734,"2544":3.236802577972412,"2545":-3.119548797607422,"2546":-2.7880444526672363,"2547":3.2612690925598145,"2548":-2.7745556831359863,"2549":-3.19685697555542,"2550":-3.2427000999450684,"2551":-3.153663396835327,"2552":-3.073267936706543,"2553":-3.2059109210968018,"2554":3.1817119121551514,"2555":3.203272819519043,"2556":2.982527494430542,"2557":3.056136131286621,"2558":-2.4889872074127197,"2559":-2.488863229751587,"2560":3.1494569778442383,"2561":2.4049901962280273,"2562":1.466935157775879,"2563":3.186612844467163,"2564":-3.194185495376587,"2565":3.206613540649414,"2566":-2.9845354557037354,"2567":-1.4235650300979614,"2568":3.1579740047454834,"2569":-3.235067367553711,"2570":2.953233003616333,"2571":3.226470470428467,"2572":-3.2185628414154053,"2573":3.142320156097412,"2574":-3.122661828994751,"2575":-3.1852304935455322,"2576":-3.0445122718811035,"2577":3.2062456607818604,"2578":3.1766135692596436,"2579":-3.0956501960754395,"2580":-3.1285464763641357,"2581":3.257371187210083,"2582":-3.211576223373413,"2583":1.8906288146972656,"2584":3.2487101554870605,"2585":-2.19661808013916,"2586":3.0393319129943848,"2587":-3.1296939849853516,"2588":3.199883222579956,"2589":-3.2433969974517822,"2590":4.207819938659668,"2591":2.8670756816864014,"2592":-3.321042537689209,"2593":3.759392499923706,"2594":-3.0478038787841797,"2595":4.776665687561035,"2596":-3.883410692214966,"2597":2.99965500831604,"2598":-4.6397600173950195,"2599":1.8975250720977783,"2600":0.49682649970054626,"2601":0.19353419542312622,"2602":-2.917062997817993,"2603":-5.011012554168701,"2604":-5.304021835327148,"2605":2.651315212249756,"2606":4.949845314025879,"2607":-2.0133907794952393,"2608":2.8496482372283936,"2609":-4.745810031890869,"2610":-3.7439093589782715,"2611":4.206666469573975,"2612":2.447840452194214,"2613":-2.788116216659546,"2614":1.4220510721206665,"2615":-2.4438483715057373,"2616":3.8169569969177246,"2617":4.186333179473877,"2618":2.7329537868499756,"2619":-3.5376486778259277,"2620":-1.2676775455474854,"2621":4.184535026550293,"2622":0.6131728291511536,"2623":-2.4018425941467285,"2624":-2.6202392578125,"2625":-3.512488842010498,"2626":-2.0498361587524414,"2627":-3.2299747467041016,"2628":2.386230707168579,"2629":2.6439666748046875,"2630":-2.267974853515625,"2631":3.0986313819885254,"2632":5.377925395965576,"2633":-2.1609861850738525,"2634":5.178759574890137,"2635":1.6249561309814453,"2636":2.6762444972991943,"2637":4.821018218994141,"2638":-2.754847764968872,"2639":3.1929984092712402,"2640":4.077054500579834,"2641":-0.48332083225250244,"2642":5.121674060821533,"2643":-3.2795090675354004,"2644":-0.9768099188804626,"2645":5.216093063354492,"2646":-0.40632423758506775,"2647":3.1702685356140137,"2648":-1.9676018953323364,"2649":-3.3183345794677734,"2650":-1.068809986114502,"2651":4.930580139160156,"2652":4.419344425201416,"2653":-1.9861807823181152,"2654":-2.239380121231079,"2655":4.326156139373779,"2656":-3.217238426208496,"2657":-0.29079318046569824,"2658":3.4850144386291504,"2659":-0.7496700286865234,"2660":2.058237075805664,"2661":-3.409175157546997,"2662":2.9036030769348145,"2663":-3.636767864227295,"2664":5.951821327209473,"2665":0.18635374307632446,"2666":5.810249328613281,"2667":3.6347198486328125,"2668":-0.1654682755470276,"2669":5.920371055603027,"2670":-5.993062973022461,"2671":2.232851028442383,"2672":-1.6129515171051025,"2673":-5.745020389556885,"2674":6.005275249481201,"2675":3.3978145122528076,"2676":-3.6171138286590576,"2677":-1.2570741176605225,"2678":-4.097216606140137,"2679":1.8890167474746704,"2680":-2.9551637172698975,"2681":3.5045409202575684,"2682":5.96524715423584,"2683":-0.889117419719696,"2684":5.973491191864014,"2685":1.327879548072815,"2686":1.9553533792495728,"2687":5.688596725463867,"2688":0.5704477429389954,"2689":4.379783630371094,"2690":-3.4963080883026123,"2691":1.0127755403518677,"2692":2.6138076782226562,"2693":-1.5944427251815796,"2694":-5.869257926940918,"2695":0.5876375436782837,"2696":-0.6511698365211487,"2697":-0.09949958324432373,"2698":-3.9406864643096924,"2699":-2.063990592956543,"2700":-0.1366206258535385,"2701":-0.5471489429473877,"2702":0.1420210748910904,"2703":0.7762306332588196,"2704":2.920335292816162,"2705":-0.4738537669181824,"2706":-5.870988845825195,"2707":5.570008277893066,"2708":1.2159295082092285,"2709":-6.001133441925049,"2710":-5.668978214263916,"2711":2.423553228378296,"2712":-0.11301669478416443,"2713":4.622999668121338,"2714":-4.9471893310546875,"2715":5.940854549407959,"2716":1.8750642538070679,"2717":-0.2477143406867981,"2718":1.2036769390106201,"2719":1.3450231552124023,"2720":-0.5163900256156921,"2721":0.548110842704773,"2722":3.7904810905456543,"2723":0.10630644857883453,"2724":-5.88798713684082,"2725":1.6240161657333374,"2726":3.1743927001953125,"2727":-2.0581300258636475,"2728":-6.031534194946289,"2729":3.335282325744629,"2730":-1.3761175870895386,"2731":5.782459735870361,"2732":1.2615374326705933,"2733":-5.741765022277832,"2734":-5.117271423339844,"2735":-0.8325336575508118,"2736":0.23830194771289825,"2737":-0.3775404989719391,"2738":3.023949146270752,"2739":-2.5202457904815674,"2740":-0.8594810366630554,"2741":-2.333242893218994,"2742":1.7970887422561646,"2743":0.1340576708316803,"2744":1.5055015087127686,"2745":0.23049083352088928,"2746":3.863011121749878,"2747":1.2244349718093872,"2748":-0.08745414018630981,"2749":-2.8061232566833496,"2750":3.845977783203125,"2751":3.7643346786499023,"2752":3.4983232021331787,"2753":-3.7500407695770264,"2754":-2.0313668251037598,"2755":-2.2711760997772217,"2756":2.671694755554199,"2757":3.5556576251983643,"2758":-1.112623691558838,"2759":-2.573575735092163,"2760":0.04750652238726616,"2761":-0.18805734813213348,"2762":-3.6368470191955566,"2763":-1.7323170900344849,"2764":1.503438949584961,"2765":-3.3725314140319824,"2766":-2.0036532878875732,"2767":3.6479175090789795,"2768":1.1824129819869995,"2769":-1.2754288911819458,"2770":2.188803195953369,"2771":3.406189203262329,"2772":3.211303949356079,"2773":1.1957241296768188,"2774":3.509674072265625,"2775":-1.756441593170166,"2776":1.8544944524765015,"2777":-1.732550859451294,"2778":-1.9569779634475708,"2779":-0.1852949857711792,"2780":1.4426203966140747,"2781":2.3833961486816406,"2782":-3.6781182289123535,"2783":1.6916227340698242,"2784":-0.969393789768219,"2785":-3.7005112171173096,"2786":-1.407654881477356,"2787":-1.561301350593567,"2788":-0.18370188772678375,"2789":-0.6486842036247253,"2790":-3.1611430644989014,"2791":-1.7013550996780396,"2792":-1.919999361038208,"2793":-2.153630495071411,"2794":0.47256436944007874,"2795":2.166245460510254,"2796":-0.6554533243179321,"2797":-1.7114105224609375,"2798":-1.8888005018234253,"2799":-1.8786097764968872,"2800":-2.881661891937256,"2801":-1.1274635791778564,"2802":-1.3856972455978394,"2803":-1.3606899976730347,"2804":0.27786678075790405,"2805":-1.8445310592651367,"2806":-2.747600793838501,"2807":-0.7894379496574402,"2808":1.9821217060089111,"2809":-2.111323118209839,"2810":1.2241710424423218,"2811":-1.6422827243804932,"2812":1.8435550928115845,"2813":-0.8643814921379089,"2814":3.203418493270874,"2815":3.708472728729248,"2816":-4.6305084228515625,"2817":2.0676651000976562,"2818":-3.2611918449401855,"2819":3.5034472942352295,"2820":-3.4192636013031006,"2821":-2.671741485595703,"2822":2.8759121894836426,"2823":3.0763185024261475,"2824":-3.1742970943450928,"2825":-3.275182008743286,"2826":-3.3500568866729736,"2827":3.220930576324463,"2828":-0.5734702348709106,"2829":3.114253520965576,"2830":-4.69243049621582,"2831":-3.3569729328155518,"2832":2.5599565505981445,"2833":3.402374029159546,"2834":3.9934310913085938,"2835":2.7753939628601074,"2836":3.550095558166504,"2837":3.74055814743042,"2838":-2.4643917083740234,"2839":3.1453230381011963,"2840":3.3335750102996826,"2841":-3.289879560470581,"2842":-3.2538137435913086,"2843":4.041913986206055,"2844":-4.052612781524658,"2845":0.7923330068588257,"2846":-3.4838056564331055,"2847":-3.297318696975708,"2848":-5.19542121887207,"2849":2.05128812789917,"2850":-3.0361077785491943,"2851":5.784508228302002,"2852":3.6651558876037598,"2853":-1.359175682067871,"2854":-2.9655652046203613,"2855":1.6441072225570679,"2856":3.250985622406006,"2857":-3.2455906867980957,"2858":-1.7863397598266602,"2859":3.3125455379486084,"2860":3.1016547679901123,"2861":3.409792423248291,"2862":-2.766364812850952,"2863":3.7349722385406494,"2864":3.3586719036102295,"2865":2.093217372894287,"2866":3.6248342990875244,"2867":3.146038293838501,"2868":-3.109062671661377,"2869":-3.455852746963501,"2870":3.480271816253662,"2871":3.8349039554595947,"2872":-1.1063047647476196,"2873":3.5152602195739746,"2874":3.2868571281433105,"2875":3.496126651763916,"2876":-1.9802827835083008,"2877":3.3205137252807617,"2878":-3.4809415340423584,"2879":3.5796055793762207,"2880":3.075788736343384,"2881":-2.360924482345581,"2882":-3.900048017501831,"2883":2.3376212120056152,"2884":-1.6182085275650024,"2885":1.9655791521072388,"2886":3.734344482421875,"2887":-3.6956636905670166,"2888":3.479863405227661,"2889":-2.943218231201172,"2890":2.1095876693725586,"2891":-2.7668707370758057,"2892":2.8314380645751953,"2893":-3.33123779296875,"2894":3.339526653289795,"2895":-3.689305067062378,"2896":3.9577836990356445,"2897":-2.5442826747894287,"2898":2.747500419616699,"2899":-2.1261234283447266,"2900":-1.589154839515686,"2901":2.4858152866363525,"2902":-4.086793899536133,"2903":3.075151205062866,"2904":2.960423707962036,"2905":3.2350547313690186,"2906":3.566889762878418,"2907":3.271778106689453,"2908":-2.7752678394317627,"2909":3.6469521522521973,"2910":0.12059489637613297,"2911":3.4945309162139893,"2912":-3.5737876892089844,"2913":-2.622767448425293,"2914":-2.993074417114258,"2915":2.7105495929718018,"2916":-3.634746551513672,"2917":-3.171480178833008,"2918":-2.591080904006958,"2919":3.772186279296875,"2920":2.6196048259735107,"2921":2.6288845539093018,"2922":2.9874935150146484,"2923":3.640481472015381,"2924":-3.672278881072998,"2925":-3.3869757652282715,"2926":3.4269402027130127,"2927":-4.3397603034973145,"2928":-3.7446682453155518,"2929":-2.0573713779449463,"2930":-2.9050300121307373,"2931":-3.498196601867676,"2932":-3.634546995162964,"2933":-2.680877208709717,"2934":3.5766613483428955,"2935":-2.6610305309295654,"2936":-3.2652995586395264,"2937":3.5550458431243896,"2938":1.644723892211914,"2939":3.7224090099334717,"2940":-3.4213850498199463,"2941":-2.933821201324463,"2942":2.5995283126831055,"2943":-3.614933729171753,"2944":3.5670816898345947,"2945":3.5487937927246094,"2946":2.9441263675689697,"2947":3.5026869773864746,"2948":-2.4930903911590576,"2949":3.629277467727661,"2950":2.403259515762329,"2951":3.2387990951538086,"2952":2.6804685592651367,"2953":3.5442304611206055,"2954":-2.7529067993164062,"2955":-3.6439521312713623,"2956":-3.45455002784729,"2957":3.690253734588623,"2958":-3.5664031505584717,"2959":3.642998218536377,"2960":3.1621956825256348,"2961":-3.151768922805786,"2962":-1.8134093284606934,"2963":-3.3483965396881104,"2964":3.33434796333313,"2965":3.2187743186950684,"2966":3.1021642684936523,"2967":-4.535457611083984,"2968":-3.168043375015259,"2969":-3.163288116455078,"2970":-3.2022502422332764,"2971":3.193619966506958,"2972":-3.190789222717285,"2973":-3.1342544555664062,"2974":-3.1332263946533203,"2975":3.2030889987945557,"2976":-3.1406846046447754,"2977":3.25639009475708,"2978":3.172391414642334,"2979":-2.0065572261810303,"2980":3.4244863986968994,"2981":3.181779623031616,"2982":1.657976508140564,"2983":-2.9320497512817383,"2984":3.2023377418518066,"2985":-3.164898157119751,"2986":2.7085647583007812,"2987":3.125781774520874,"2988":2.0228776931762695,"2989":-3.194835662841797,"2990":-3.4036505222320557,"2991":3.1252615451812744,"2992":3.2192928791046143,"2993":3.2427926063537598,"2994":3.385742664337158,"2995":-3.0415616035461426,"2996":3.2327616214752197,"2997":3.345088481903076,"2998":3.2227373123168945,"2999":-3.2319376468658447,"3000":-3.317164659500122,"3001":-3.3228466510772705,"3002":3.228713035583496,"3003":3.392321825027466,"3004":3.198245048522949,"3005":-3.2903223037719727,"3006":-3.2264795303344727,"3007":3.104074478149414,"3008":3.702535390853882,"3009":3.103079319000244,"3010":-3.272907257080078,"3011":-2.91142201423645,"3012":3.24554443359375,"3013":3.3907904624938965,"3014":-3.350952625274658,"3015":3.1448264122009277,"3016":-3.108076810836792,"3017":2.3638908863067627,"3018":3.2731380462646484,"3019":3.5573301315307617,"3020":-3.1685733795166016,"3021":3.185743570327759,"3022":3.14363956451416,"3023":-2.9874982833862305,"3024":-3.176427125930786,"3025":3.2161600589752197,"3026":-3.0033316612243652,"3027":3.3853988647460938,"3028":3.090735912322998,"3029":-3.4683139324188232,"3030":-3.4895827770233154,"3031":3.2246265411376953,"3032":-3.2768807411193848,"3033":3.6599478721618652,"3034":2.704848289489746,"3035":3.355743408203125,"3036":-1.492768406867981,"3037":3.2253341674804688,"3038":-3.226940155029297,"3039":3.418583393096924,"3040":-2.929780960083008,"3041":3.2756431102752686,"3042":-3.1720221042633057,"3043":-2.9378955364227295,"3044":-4.50340461730957,"3045":3.1928906440734863,"3046":-3.2002322673797607,"3047":-3.2134110927581787,"3048":-3.082726001739502,"3049":3.165423631668091,"3050":3.343590497970581,"3051":3.1468095779418945,"3052":-2.9526095390319824,"3053":-3.209825038909912,"3054":3.209263801574707,"3055":3.215235710144043,"3056":3.2642712593078613,"3057":-4.2345099449157715,"3058":3.249055862426758,"3059":2.3021597862243652,"3060":3.054640769958496,"3061":3.134539842605591,"3062":3.2159311771392822,"3063":-3.181964159011841,"3064":-3.1792783737182617,"3065":3.0967767238616943,"3066":-3.2152419090270996,"3067":-3.347308397293091,"3068":-3.1963860988616943,"3069":-3.1768126487731934,"3070":-3.0215423107147217,"3071":-3.341024875640869,"3072":3.9891598224639893,"3073":3.2109217643737793,"3074":3.209104061126709,"3075":3.3614084720611572,"3076":3.3464293479919434,"3077":-3.5110576152801514,"3078":3.224069356918335,"3079":-3.183669328689575,"3080":3.3353042602539062,"3081":3.079519510269165,"3082":-3.758998155593872,"3083":3.1767404079437256,"3084":-3.2333521842956543,"3085":-4.629349708557129,"3086":3.228527545928955,"3087":-3.8064310550689697,"3088":3.28837251663208,"3089":3.2893922328948975,"3090":-3.123242139816284,"3091":3.564973831176758,"3092":2.4326770305633545,"3093":-4.8204851150512695,"3094":3.1628522872924805,"3095":3.1551520824432373,"3096":3.128326654434204,"3097":-3.346139907836914,"3098":5.868928909301758,"3099":3.2392115592956543,"3100":-3.2296464443206787,"3101":3.089958667755127,"3102":3.239438533782959,"3103":-1.8319541215896606,"3104":-3.115060567855835,"3105":2.8741676807403564,"3106":3.52595853805542,"3107":-3.301151752471924,"3108":4.061617851257324,"3109":-3.480315923690796,"3110":-1.1514966487884521,"3111":-2.022813320159912,"3112":3.451462984085083,"3113":3.9660794734954834,"3114":2.4507358074188232,"3115":-1.3273016214370728,"3116":-1.7246644496917725,"3117":-2.8042211532592773,"3118":-2.6352880001068115,"3119":1.959527850151062,"3120":1.9165196418762207,"3121":0.17198039591312408,"3122":1.1898876428604126,"3123":3.9606924057006836,"3124":-3.626809597015381,"3125":2.8009369373321533,"3126":2.8323986530303955,"3127":1.3203259706497192,"3128":1.8756753206253052,"3129":-0.8022129535675049,"3130":-1.6262850761413574,"3131":-2.939624309539795,"3132":3.5410919189453125,"3133":-2.9732048511505127,"3134":2.35837459564209,"3135":0.8610475659370422,"3136":-1.0593947172164917,"3137":1.463645577430725,"3138":3.0812337398529053,"3139":-0.8461793065071106,"3140":4.065349102020264,"3141":3.4002814292907715,"3142":2.359081506729126,"3143":1.057141661643982,"3144":2.036951780319214,"3145":-2.1971778869628906,"3146":2.6983413696289062,"3147":-2.224541187286377,"3148":-2.429905652999878,"3149":0.7083286046981812,"3150":2.5947248935699463,"3151":-1.667615294456482,"3152":0.18531128764152527,"3153":-0.6542295217514038,"3154":1.51113760471344,"3155":-0.6727951765060425,"3156":-1.4559712409973145,"3157":-1.135606288909912,"3158":-4.03587007522583,"3159":-2.7842986583709717,"3160":3.0815725326538086,"3161":-1.795957326889038,"3162":-1.3237602710723877,"3163":0.3434687852859497,"3164":-0.5534999370574951,"3165":2.4829447269439697,"3166":-2.253011703491211,"3167":-2.277740716934204,"3168":0.9899615049362183,"3169":-0.48728957772254944,"3170":-1.663313388824463,"3171":-2.932715654373169,"3172":1.0981156826019287,"3173":0.5990038514137268,"3174":1.0988785028457642,"3175":-3.192044734954834,"3176":-0.6532356142997742,"3177":-1.0704302787780762,"3178":3.0751755237579346,"3179":0.6266071200370789,"3180":1.581992506980896,"3181":-2.442383050918579,"3182":-3.119171142578125,"3183":3.097249984741211,"3184":-3.1454126834869385,"3185":-2.957437038421631,"3186":-3.080993175506592,"3187":3.6810009479522705,"3188":3.0637192726135254,"3189":3.576812505722046,"3190":-3.362037420272827,"3191":3.108734369277954,"3192":-3.2240381240844727,"3193":3.736443281173706,"3194":-0.009251616895198822,"3195":-3.425166130065918,"3196":-3.3731236457824707,"3197":3.4229931831359863,"3198":3.2263593673706055,"3199":3.3264293670654297,"3200":3.1911771297454834,"3201":-3.487643241882324,"3202":-3.149963855743408,"3203":3.4294323921203613,"3204":3.3168375492095947,"3205":-3.201139211654663,"3206":3.2770891189575195,"3207":-3.102682113647461,"3208":3.2392194271087646,"3209":3.310744047164917,"3210":-2.5781431198120117,"3211":-3.3242902755737305,"3212":3.079533576965332,"3213":3.1276094913482666,"3214":-3.1366665363311768,"3215":-3.072049379348755,"3216":3.153531551361084,"3217":-3.360034465789795,"3218":3.209179639816284,"3219":-3.1990387439727783,"3220":3.1805131435394287,"3221":3.1009879112243652,"3222":4.829206943511963,"3223":3.0686862468719482,"3224":3.230804443359375,"3225":-3.12369441986084,"3226":3.4186899662017822,"3227":0.6333691477775574,"3228":3.146836519241333,"3229":3.2987639904022217,"3230":-3.112377405166626,"3231":3.2676026821136475,"3232":-3.2314674854278564,"3233":-3.1926157474517822,"3234":3.3493235111236572,"3235":-3.1306257247924805,"3236":-3.0176172256469727,"3237":3.271277904510498,"3238":-3.2868306636810303,"3239":3.1891214847564697,"3240":-3.1419565677642822,"3241":-3.1248276233673096,"3242":3.0583314895629883,"3243":3.4030895233154297,"3244":3.840695381164551,"3245":-3.258521318435669,"3246":3.189058780670166,"3247":3.2361347675323486,"3248":-3.2558581829071045,"3249":-3.2261736392974854,"3250":3.348905086517334,"3251":3.141922950744629,"3252":3.181633949279785,"3253":-3.1023013591766357,"3254":3.1527607440948486,"3255":-3.1087427139282227,"3256":-0.44336724281311035,"3257":0.22582022845745087,"3258":-0.9805992841720581,"3259":0.6457188129425049,"3260":-0.08762862533330917,"3261":-1.1398086547851562,"3262":-0.9065981507301331,"3263":1.3943110704421997,"3264":-1.8898805379867554,"3265":-0.4202409088611603,"3266":-0.7878921031951904,"3267":1.4023208618164062,"3268":-1.133758306503296,"3269":-1.4798039197921753,"3270":-0.9053798317909241,"3271":1.9727561473846436,"3272":-0.23661155998706818,"3273":1.4817181825637817,"3274":0.8479781150817871,"3275":-1.4339268207550049,"3276":-0.5809134840965271,"3277":1.4912368059158325,"3278":-0.3204628825187683,"3279":-0.9239418506622314,"3280":1.9138942956924438,"3281":-0.6539942622184753,"3282":0.8870092034339905,"3283":1.2162946462631226,"3284":2.6243412494659424,"3285":-0.9615651965141296,"3286":0.6963878870010376,"3287":-0.5019009709358215,"3288":-0.06735723465681076,"3289":0.018185710534453392,"3290":-0.557047963142395,"3291":-0.8599688410758972,"3292":-0.9335647821426392,"3293":-1.112956166267395,"3294":1.0384467840194702,"3295":0.18286865949630737,"3296":0.933027982711792,"3297":0.035919561982154846,"3298":0.2755674719810486,"3299":-0.7576953172683716,"3300":1.6895313262939453,"3301":-2.5540053844451904,"3302":0.5627434849739075,"3303":1.1355032920837402,"3304":-0.9254475831985474,"3305":1.3239154815673828,"3306":-1.3226149082183838,"3307":-0.7613122463226318,"3308":1.7649039030075073,"3309":-0.8238246440887451,"3310":0.8755447864532471,"3311":1.3802531957626343,"3312":-1.7453861236572266,"3313":0.8332980871200562,"3314":-0.6807539463043213,"3315":-0.8447773456573486,"3316":-0.16213229298591614,"3317":1.3917258977890015,"3318":0.6664525270462036,"3319":-0.8111806511878967,"3320":0.47878298163414,"3321":1.4720863103866577,"3322":-0.9293773174285889,"3323":-0.7948805689811707,"3324":1.3328150510787964,"3325":0.8637990355491638,"3326":0.01352781243622303,"3327":-1.128141164779663,"3328":0.752402663230896,"3329":-0.791383683681488,"3330":-0.3130246698856354,"3331":-0.3385678827762604,"3332":-0.3594496548175812,"3333":1.9600268602371216,"3334":0.4604978561401367,"3335":-1.184329628944397,"3336":-0.8432064652442932,"3337":0.3731304109096527,"3338":0.5410338640213013,"3339":-1.7529689073562622,"3340":0.7443427443504333,"3341":0.6430920958518982,"3342":-1.158852219581604,"3343":-0.7574499249458313,"3344":-0.8362358808517456,"3345":-0.2225877344608307,"3346":-0.5200240015983582,"3347":0.40318408608436584,"3348":-1.5975981950759888,"3349":-0.5145673155784607,"3350":-0.46091410517692566,"3351":1.0215998888015747,"3352":1.1440597772598267,"3353":0.29472100734710693,"3354":-0.2627571225166321,"3355":0.2745673954486847,"3356":0.31261250376701355,"3357":0.43400686979293823,"3358":0.04478105902671814,"3359":-0.6369845867156982,"3360":-0.07332019507884979,"3361":0.3748670816421509,"3362":0.40706634521484375,"3363":-0.34188833832740784,"3364":-1.9491794109344482,"3365":-0.4166870415210724,"3366":-1.0878428220748901,"3367":-0.2069685459136963,"3368":-0.6828455924987793,"3369":-0.4410620331764221,"3370":1.8550347089767456,"3371":-1.2057750225067139,"3372":-1.1552520990371704,"3373":0.8107928037643433,"3374":-0.03246878460049629,"3375":-0.6822059750556946,"3376":0.24627748131752014,"3377":0.8401157259941101,"3378":0.3969869911670685,"3379":0.835232675075531,"3380":0.5965820550918579,"3381":-0.12751206755638123,"3382":-0.323432981967926,"3383":0.5194321274757385,"3384":1.6705385446548462,"3385":0.36200183629989624,"3386":0.44444137811660767,"3387":0.3629010319709778,"3388":0.4539038836956024,"3389":-0.461806982755661,"3390":-0.5165449380874634,"3391":0.6101356744766235,"3392":0.875763475894928,"3393":0.21962565183639526,"3394":-0.7475250363349915,"3395":0.5662592649459839,"3396":-0.08564406633377075,"3397":0.0930856391787529,"3398":0.6973831057548523,"3399":0.6669315099716187,"3400":-0.511893630027771,"3401":-0.308013916015625,"3402":0.36229777336120605,"3403":0.8372431397438049,"3404":-2.448132038116455,"3405":2.1941475868225098,"3406":0.6137941479682922,"3407":-2.6477034091949463,"3408":-1.643288254737854,"3409":-2.8007724285125732,"3410":3.296682596206665,"3411":-2.730250120162964,"3412":2.194089412689209,"3413":2.7394180297851562,"3414":-1.2397551536560059,"3415":-2.8111824989318848,"3416":2.733713150024414,"3417":2.297790288925171,"3418":2.3854146003723145,"3419":-2.747485637664795,"3420":1.7588586807250977,"3421":-0.6883367896080017,"3422":-2.1569507122039795,"3423":1.9047123193740845,"3424":1.1670435667037964,"3425":-2.4378349781036377,"3426":-0.41957131028175354,"3427":0.4358697831630707,"3428":-2.6566648483276367,"3429":3.443016767501831,"3430":1.4030898809432983,"3431":-2.4570274353027344,"3432":-2.579415798187256,"3433":2.3259334564208984,"3434":-2.485741138458252,"3435":-2.3845107555389404,"3436":-1.8065143823623657,"3437":-1.8371756076812744,"3438":2.656644344329834,"3439":2.6605772972106934,"3440":-0.09601335972547531,"3441":-1.0088306665420532,"3442":-1.7854658365249634,"3443":1.4699265956878662,"3444":-0.309770792722702,"3445":2.0243349075317383,"3446":2.8348822593688965,"3447":-2.2841033935546875,"3448":-2.0036425590515137,"3449":1.3078337907791138,"3450":2.2130417823791504,"3451":-2.4582550525665283,"3452":0.10545750707387924,"3453":-2.4748730659484863,"3454":3.4949958324432373,"3455":1.5586185455322266,"3456":-2.1918885707855225,"3457":-0.9433209896087646,"3458":0.102729432284832,"3459":-2.066171884536743,"3460":2.720160961151123,"3461":-1.5362869501113892,"3462":-0.32897233963012695,"3463":2.4213900566101074,"3464":2.032012939453125,"3465":-1.9334887266159058,"3466":-2.8475942611694336,"3467":2.3414463996887207,"3468":2.15354585647583,"3469":-2.829012393951416,"3470":2.354787826538086,"3471":2.7250049114227295,"3472":-2.338400363922119,"3473":-1.4521995782852173,"3474":1.948465347290039,"3475":2.426069736480713,"3476":1.786728858947754,"3477":-1.5114048719406128,"3478":1.332149624824524,"3479":-3.123224973678589,"3480":2.2921142578125,"3481":-0.650235652923584,"3482":3.0872011184692383,"3483":0.6147720813751221,"3484":-1.3153406381607056,"3485":0.09610150009393692,"3486":-0.07046817243099213,"3487":-0.9437873363494873,"3488":3.517866611480713,"3489":0.5711208581924438,"3490":-0.25778937339782715,"3491":-0.12415484338998795,"3492":-0.015814896672964096,"3493":0.38444429636001587,"3494":-3.437065839767456,"3495":-1.9812113046646118,"3496":0.1440506875514984,"3497":0.11342691630125046,"3498":-0.009052918292582035,"3499":-0.011409915052354336,"3500":-0.9062448143959045,"3501":0.7529388666152954,"3502":-1.0327718257904053,"3503":0.8174726366996765,"3504":-3.6854074001312256,"3505":0.38249683380126953,"3506":0.3634841740131378,"3507":0.2320559173822403,"3508":-0.10054381936788559,"3509":-1.2324962615966797,"3510":3.7910990715026855,"3511":3.1833643913269043,"3512":0.27826836705207825,"3513":-0.08441780507564545,"3514":-0.2886509895324707,"3515":2.8387386798858643,"3516":-0.2632925510406494,"3517":-3.3559305667877197,"3518":-1.105516791343689,"3519":-3.8221256732940674,"3520":-4.5565385818481445,"3521":3.585500717163086,"3522":0.22775261104106903,"3523":0.4857371747493744,"3524":-3.091636896133423,"3525":0.18537862598896027,"3526":-0.10904575139284134,"3527":0.01175703201442957,"3528":-0.3448377251625061,"3529":0.7648739814758301,"3530":0.3159544765949249,"3531":3.7056074142456055,"3532":-1.3953979015350342,"3533":0.18123355507850647,"3534":-0.33028778433799744,"3535":-1.9376388788223267,"3536":2.9555749893188477,"3537":0.210088312625885,"3538":-3.4646379947662354,"3539":0.055799346417188644,"3540":0.38956066966056824,"3541":0.7439404726028442,"3542":-4.609601974487305,"3543":0.32261645793914795,"3544":-0.19662220776081085,"3545":0.28038516640663147,"3546":0.1520911604166031,"3547":-0.529162585735321,"3548":-1.4645746946334839,"3549":-0.4277893900871277,"3550":-3.2210240364074707,"3551":4.222115516662598,"3552":-1.683529019355774,"3553":1.5458734035491943,"3554":-1.6542044878005981,"3555":-0.7811314463615417,"3556":-2.243457555770874,"3557":-1.9661815166473389,"3558":1.4564244747161865,"3559":0.1335199922323227,"3560":-1.2404736280441284,"3561":1.7297321557998657,"3562":-1.6312071084976196,"3563":-0.6794093251228333,"3564":1.1117675304412842,"3565":-2.1478986740112305,"3566":-1.5446909666061401,"3567":1.3622044324874878,"3568":1.5029243230819702,"3569":-0.9030008316040039,"3570":0.6038047075271606,"3571":-2.3930439949035645,"3572":-1.4060688018798828,"3573":3.0938234329223633,"3574":-1.1552449464797974,"3575":-1.552234411239624,"3576":1.9657819271087646,"3577":-1.2987163066864014,"3578":1.5418322086334229,"3579":2.1441099643707275,"3580":-1.1635137796401978,"3581":0.39473995566368103,"3582":1.382988452911377,"3583":1.279335379600525,"3584":-1.6044765710830688,"3585":-1.6326814889907837,"3586":1.2569911479949951,"3587":-1.8775097131729126,"3588":0.4489073157310486,"3589":-1.3775795698165894,"3590":1.3831963539123535,"3591":1.462451696395874,"3592":-0.6721219420433044,"3593":1.5888780355453491,"3594":1.3991246223449707,"3595":-1.654036283493042,"3596":3.0475080013275146,"3597":1.300744891166687,"3598":1.673302412033081,"3599":1.9806779623031616,"3600":-1.4743235111236572,"3601":-1.8606514930725098,"3602":-1.1964313983917236,"3603":-1.5530028343200684,"3604":1.6236686706542969,"3605":-1.5956977605819702,"3606":-0.6001576781272888,"3607":1.6630531549453735,"3608":-1.758279800415039,"3609":1.3768545389175415,"3610":-1.3234089612960815,"3611":-1.52772057056427,"3612":1.680628776550293,"3613":1.9033256769180298,"3614":-0.8006281852722168,"3615":-1.3190799951553345,"3616":1.5143071413040161,"3617":1.281212568283081,"3618":-1.7335916757583618,"3619":-1.3914767503738403,"3620":2.220510721206665,"3621":1.6244304180145264,"3622":1.347760558128357,"3623":-1.4003386497497559,"3624":1.5226699113845825,"3625":-1.5118263959884644,"3626":-3.4383859634399414,"3627":1.0279994010925293,"3628":-0.5340259671211243,"3629":1.6652051210403442,"3630":-3.5127346515655518,"3631":-0.8893380165100098,"3632":-0.27249887585639954,"3633":2.0261125564575195,"3634":-1.5908894538879395,"3635":-1.268379807472229,"3636":-3.3118932247161865,"3637":1.7110323905944824,"3638":-1.7274062633514404,"3639":-2.140326976776123,"3640":-2.1839256286621094,"3641":1.843233585357666,"3642":3.5939784049987793,"3643":2.533001184463501,"3644":-0.7311192750930786,"3645":-1.6835180521011353,"3646":-2.824329137802124,"3647":2.229198455810547,"3648":1.945721983909607,"3649":-3.038710117340088,"3650":2.389967679977417,"3651":0.8868740797042847,"3652":0.8152157068252563,"3653":1.8143699169158936,"3654":1.282059907913208,"3655":-2.162464141845703,"3656":2.6287262439727783,"3657":1.9329590797424316,"3658":-3.1439623832702637,"3659":-3.1229968070983887,"3660":-1.7553945779800415,"3661":-1.919643521308899,"3662":-0.8209599852561951,"3663":-0.6525369882583618,"3664":-0.3978326916694641,"3665":4.2700676918029785,"3666":2.1165781021118164,"3667":0.11816154420375824,"3668":-0.15939265489578247,"3669":-1.3220752477645874,"3670":1.6613800525665283,"3671":-2.2024948596954346,"3672":3.5454487800598145,"3673":1.8335803747177124,"3674":-2.7658579349517822,"3675":1.9099262952804565,"3676":-1.8449187278747559,"3677":-3.059518337249756,"3678":1.7710227966308594,"3679":0.429536908864975,"3680":2.0495834350585938,"3681":1.7240526676177979,"3682":-2.2909326553344727,"3683":3.016153335571289,"3684":0.4985351860523224,"3685":-2.561781167984009,"3686":5.369368553161621,"3687":2.1979777812957764,"3688":1.8721814155578613,"3689":-2.9466378688812256,"3690":0.43048766255378723,"3691":2.028911590576172,"3692":-2.4294819831848145,"3693":-2.4916350841522217,"3694":1.832505226135254,"3695":2.039741039276123,"3696":-1.2802414894104004,"3697":-2.7434427738189697,"3698":3.4022254943847656,"3699":-0.3203352093696594,"3700":3.115694761276245,"3701":-3.1462604999542236,