{"type":"LSTM","options":{"inputSize":33,"inputRange":33,"hiddenSizes":[20,20],"outputSize":33,"learningRate":0.01,"decayRate":0.999,"smoothEps":1e-8,"regc":0.000001,"clipval":5,"json":null,"dataFormatter":{"values":["Can I get some assistance to fix this issue?","Can I get some help?","Can I get some support on this bug?","Can I get some support on this issue?","Could you provide me some support to fix this issue?","Do I need to assist you to fix the issue?","Do I need to provide support to you regarding the issue?","Do you need assistance?","Do you need help?","Do you need some assistance?","Do you need some help with your issue?","Do you need some help?","Do you need some support?","Do you need support?","False","I could use some assistance with a bug I am currently facing","I could use some help with a bug I am currently facing","I need some assistance with a bug in my Rust code","I need some help with a bug I have in C++","True"],"indexTable":{"C":0,"a":1,"n":2," ":3,"I":4,"g":5,"e":6,"t":7,"s":8,"o":9,"m":10,"i":11,"c":12,"f":13,"x":14,"h":15,"u":16,"?":17,"l":18,"p":19,"r":20,"b":21,"d":22,"y":23,"v":24,"D":25,"w":26,"F":27,"R":28,"+":29,"T":30,"stop-input":31,"start-output":32},"characterTable":{"0":"C","1":"a","2":"n","3":" ","4":"I","5":"g","6":"e","7":"t","8":"s","9":"o","10":"m","11":"i","12":"c","13":"f","14":"x","15":"h","16":"u","17":"?","18":"l","19":"p","20":"r","21":"b","22":"d","23":"y","24":"v","25":"D","26":"w","27":"F","28":"R","29":"+","30":"T","31":"stop-input","32":"start-output"},"characters":["C","a","n"," ","I","g","e","t","s","o","m","i","c","f","x","h","u","?","l","p","r","b","d","y","v","D","w","F","R","+","T","stop-input","start-output"]}},"input":{"rows":34,"columns":33,"weights":{"0":1.14814031124115,"1":-0.9216152429580688,"2":-1.997036099433899,"3":1.7371619939804077,"4":2.3495941162109375,"5":1.1497076749801636,"6":-0.9728199243545532,"7":-0.10131118446588516,"8":0.8228355646133423,"9":-0.9904179573059082,"10":-1.652497410774231,"11":0.4594287574291229,"12":1.0445239543914795,"13":-0.3168891370296478,"14":-1.4218723773956299,"15":-0.5022265315055847,"16":0.613109827041626,"17":-0.9265264272689819,"18":-1.7517015933990479,"19":-1.012299656867981,"20":0.28531932830810547,"21":-0.6418765187263489,"22":-1.0087522268295288,"23":-0.3624447286128998,"24":0.36363330483436584,"25":-0.28756892681121826,"26":-0.8528403043746948,"27":-0.8235918283462524,"28":-3.103681802749634,"29":-0.4442766010761261,"30":-0.27107948064804077,"31":-1.3798012733459473,"32":0.4945443570613861,"33":0.9786834120750427,"34":0.37950146198272705,"35":4.280494213104248,"36":3.441892385482788,"37":-1.8427752256393433,"38":-2.3064560890197754,"39":3.372013807296753,"40":3.3683855533599854,"41":-1.1552156209945679,"42":-0.8471940159797668,"43":0.00945843942463398,"44":-2.543149471282959,"45":1.3303744792938232,"46":1.1523882150650024,"47":-0.8342621922492981,"48":0.732776939868927,"49":0.8419519662857056,"50":-3.118619680404663,"51":-1.1527727842330933,"52":-1.1680433750152588,"53":-3.6481406688690186,"54":2.90623140335083,"55":0.6293880343437195,"56":-1.6463359594345093,"57":-3.755000352859497,"58":7.48969841003418,"59":-2.971118688583374,"60":1.8013781309127808,"61":1.0184481143951416,"62":-1.4027469158172607,"63":-4.9223127365112305,"64":0.09763672947883606,"65":1.2739871740341187,"66":1.01177179813385,"67":0.10906880348920822,"68":1.5239994525909424,"69":1.0152164697647095,"70":1.1774475574493408,"71":2.2396039962768555,"72":-0.38103264570236206,"73":1.17724609375,"74":1.8527837991714478,"75":-2.3402059078216553,"76":-1.5231385231018066,"77":-0.174427330493927,"78":1.276231288909912,"79":-1.1430346965789795,"80":-0.600745677947998,"81":-0.05432542413473129,"82":1.1448209285736084,"83":-1.9350295066833496,"84":1.1402517557144165,"85":-1.3694130182266235,"86":-0.7229309678077698,"87":-2.6445069313049316,"88":-0.10807587951421738,"89":2.4160358905792236,"90":-0.16057594120502472,"91":0.0673922523856163,"92":-0.16551893949508667,"93":-3.2703042030334473,"94":-0.45888185501098633,"95":0.1454523801803589,"96":-1.615517258644104,"97":-0.57080078125,"98":-0.09381695836782455,"99":1.576939344406128,"100":-1.0380007028579712,"101":-1.9166886806488037,"102":-0.26864445209503174,"103":0.8958483338356018,"104":0.9158005714416504,"105":0.6865211725234985,"106":0.12835662066936493,"107":2.4183316230773926,"108":-2.7121405601501465,"109":-0.721046507358551,"110":-0.30974993109703064,"111":-1.0371299982070923,"112":-3.492316484451294,"113":-0.594231128692627,"114":-1.4307395219802856,"115":2.253070831298828,"116":-0.9401185512542725,"117":-1.0616031885147095,"118":1.0314879417419434,"119":0.6634519100189209,"120":-0.5050874352455139,"121":-1.973201036453247,"122":1.6572411060333252,"123":-0.19377489387989044,"124":0.6360628008842468,"125":0.08243899047374725,"126":-1.3449727296829224,"127":-1.439655065536499,"128":-0.2241111695766449,"129":-1.1875272989273071,"130":-3.305004835128784,"131":3.4060540199279785,"132":-1.4483749866485596,"133":-2.8683719635009766,"134":-1.892624020576477,"135":2.01706862449646,"136":-0.4043217599391937,"137":1.4607774019241333,"138":-1.8160218000411987,"139":-0.8210995197296143,"140":0.9475124478340149,"141":1.3822461366653442,"142":0.84342360496521,"143":-2.369946241378784,"144":2.5948872566223145,"145":0.4561215341091156,"146":-1.4080810546875,"147":0.49964940547943115,"148":1.0547789335250854,"149":-1.7173726558685303,"150":-2.931271553039551,"151":-1.6961790323257446,"152":1.6047346591949463,"153":-2.0918216705322266,"154":0.1763368397951126,"155":-0.3317112922668457,"156":-0.9356089234352112,"157":1.0029805898666382,"158":-0.7585686445236206,"159":-0.7393220663070679,"160":-1.5008745193481445,"161":2.439188003540039,"162":2.391864538192749,"163":1.0063560009002686,"164":0.4116811156272888,"165":-4.567184925079346,"166":1.2962785959243774,"167":0.0949096530675888,"168":-0.7569976449012756,"169":0.11124774068593979,"170":-0.6036699414253235,"171":1.2451419830322266,"172":-1.1789767742156982,"173":-3.4873011112213135,"174":-1.809975504875183,"175":2.249131202697754,"176":-0.9198226928710938,"177":0.9902273416519165,"178":3.95851731300354,"179":-2.896658420562744,"180":4.075098991394043,"181":-3.810089588165283,"182":0.2874465584754944,"183":-2.3964266777038574,"184":1.0149400234222412,"185":0.8560049533843994,"186":1.3810279369354248,"187":1.4406394958496094,"188":-1.7484636306762695,"189":-2.4414243698120117,"190":-2.1356279850006104,"191":0.2829650044441223,"192":2.9045934677124023,"193":0.7970985174179077,"194":-3.0112926959991455,"195":-2.3139941692352295,"196":0.671311616897583,"197":1.681725025177002,"198":-3.8164219856262207,"199":0.8025040626525879,"200":-0.27306002378463745,"201":-2.32592511177063,"202":0.7161981463432312,"203":0.2904123067855835,"204":0.04990166798233986,"205":-2.186755895614624,"206":-2.0248172283172607,"207":1.6092065572738647,"208":2.980879306793213,"209":1.679132103919983,"210":0.2331065684556961,"211":3.450714349746704,"212":-1.0006266832351685,"213":2.055040121078491,"214":-3.769092082977295,"215":0.4143712818622589,"216":-0.8138836026191711,"217":0.2729255259037018,"218":1.4550538063049316,"219":0.49223610758781433,"220":1.9667127132415771,"221":-1.1200567483901978,"222":0.5703348517417908,"223":-0.7782367467880249,"224":-0.3021891415119171,"225":0.07087526470422745,"226":1.9932879209518433,"227":-1.609458565711975,"228":1.2661447525024414,"229":-0.6553888916969299,"230":-2.3957393169403076,"231":1.0900613069534302,"232":0.6556586027145386,"233":-0.7831546068191528,"234":-2.0101277828216553,"235":0.24639274179935455,"236":-0.2609841823577881,"237":1.6430784463882446,"238":0.34377872943878174,"239":0.515307605266571,"240":0.08225718885660172,"241":-2.2711684703826904,"242":2.148750066757202,"243":-1.8777151107788086,"244":-1.3111003637313843,"245":-0.28578972816467285,"246":-2.3765029907226562,"247":0.16890956461429596,"248":1.283318042755127,"249":0.23702627420425415,"250":1.1217083930969238,"251":-1.602110743522644,"252":0.7308589220046997,"253":-0.4376641511917114,"254":0.10388963669538498,"255":1.1617411375045776,"256":-0.9975755214691162,"257":0.27417847514152527,"258":0.28637972474098206,"259":-0.6290565133094788,"260":0.041082896292209625,"261":-0.9808523654937744,"262":-2.5625250339508057,"263":0.6580246090888977,"264":-0.17488667368888855,"265":-0.12449901551008224,"266":3.3076682090759277,"267":-0.2992943823337555,"268":1.2067749500274658,"269":0.6563374996185303,"270":-0.0968802347779274,"271":1.9219483137130737,"272":-2.39389967918396,"273":-1.102421522140503,"274":0.7765291929244995,"275":-0.17306628823280334,"276":1.566406011581421,"277":0.16215649247169495,"278":-1.7209514379501343,"279":0.5632002949714661,"280":-1.3070588111877441,"281":-0.7098998427391052,"282":-0.07302951067686081,"283":-0.4885069727897644,"284":-1.088804841041565,"285":0.46093910932540894,"286":0.404488205909729,"287":0.9718421697616577,"288":0.06968086957931519,"289":-0.14649301767349243,"290":-2.017780065536499,"291":0.24028563499450684,"292":-0.6749218702316284,"293":-2.641535758972168,"294":-1.8380632400512695,"295":0.8400168418884277,"296":-0.24780583381652832,"297":-0.4425404667854309,"298":3.5238754749298096,"299":1.1524428129196167,"300":-1.8075249195098877,"301":-1.1027570962905884,"302":-2.711949348449707,"303":0.08970393240451813,"304":0.6221520304679871,"305":-0.3096514046192169,"306":-0.09234166890382767,"307":2.2871789932250977,"308":1.5610116720199585,"309":0.3224733769893646,"310":0.8512803912162781,"311":2.2753171920776367,"312":0.03812435641884804,"313":-1.6697190999984741,"314":1.3562601804733276,"315":0.4389299154281616,"316":0.7933197021484375,"317":1.6072417497634888,"318":2.6326165199279785,"319":-0.6293919086456299,"320":-0.8742226362228394,"321":1.0882381200790405,"322":-1.0755733251571655,"323":2.5593318939208984,"324":1.4591517448425293,"325":0.5077928900718689,"326":-1.9557816982269287,"327":-2.246737480163574,"328":0.4209898114204407,"329":-2.775991678237915,"330":1.041175365447998,"331":-1.9114677906036377,"332":-1.623875617980957,"333":0.46275565028190613,"334":2.0632259845733643,"335":0.5705094933509827,"336":-1.095062255859375,"337":0.7609919309616089,"338":0.05260637402534485,"339":-1.156010627746582,"340":-2.294309616088867,"341":-0.508090078830719,"342":1.061928391456604,"343":-1.5445144176483154,"344":-1.9085065126419067,"345":-1.46932053565979,"346":0.5018753409385681,"347":-1.6883574724197388,"348":-1.1831588745117188,"349":-0.5068871974945068,"350":0.4802948534488678,"351":-0.0780499055981636,"352":-1.576889991760254,"353":1.0285624265670776,"354":-0.5341330170631409,"355":1.5801178216934204,"356":-1.1528491973876953,"357":-0.3804938495159149,"358":-1.892256498336792,"359":0.3958095908164978,"360":-0.7413468956947327,"361":-2.305227518081665,"362":1.121055245399475,"363":0.6553047895431519,"364":0.6107807159423828,"365":-0.9649539589881897,"366":-1.3831950426101685,"367":-2.638404369354248,"368":-1.2242530584335327,"369":2.3680801391601562,"370":-2.9543943405151367,"371":0.5902191400527954,"372":0.8833429217338562,"373":1.1026949882507324,"374":-0.573543906211853,"375":0.21009820699691772,"376":-2.476022243499756,"377":2.7904679775238037,"378":-0.26078706979751587,"379":1.2208079099655151,"380":0.7451848387718201,"381":3.0527024269104004,"382":2.3205935955047607,"383":-3.2962610721588135,"384":2.191899299621582,"385":-2.036775827407837,"386":-2.0637950897216797,"387":0.01807260699570179,"388":-1.9543546438217163,"389":1.3371927738189697,"390":-0.6188070774078369,"391":-0.8677740693092346,"392":2.205169677734375,"393":1.4105453491210938,"394":-3.5956153869628906,"395":1.309401035308838,"396":-0.5512656569480896,"397":-1.9134700298309326,"398":-0.668921947479248,"399":-0.19825954735279083,"400":1.2230501174926758,"401":0.09165184199810028,"402":-1.032625436782837,"403":3.200671672821045,"404":-0.7771464586257935,"405":-2.2680089473724365,"406":-1.2077370882034302,"407":-0.744251549243927,"408":-0.007895249873399734,"409":0.5235974192619324,"410":-0.22788214683532715,"411":-0.43024271726608276,"412":-0.16371281445026398,"413":-0.305180162191391,"414":0.5085951685905457,"415":-0.8796921372413635,"416":4.263898849487305,"417":-0.2271702140569687,"418":-0.5796211957931519,"419":-0.54429692029953,"420":1.2643855810165405,"421":1.0225011110305786,"422":-0.08477115631103516,"423":0.6401230096817017,"424":2.957900047302246,"425":0.4225848615169525,"426":-2.2945632934570312,"427":-0.967719554901123,"428":1.8156201839447021,"429":-0.3167646825313568,"430":0.32265278697013855,"431":2.7326297760009766,"432":-1.9032325744628906,"433":-0.8706194758415222,"434":0.6506616473197937,"435":4.131458759307861,"436":-0.9154198169708252,"437":-3.7417542934417725,"438":-1.7162094116210938,"439":-0.01307265367358923,"440":2.4369447231292725,"441":-2.2762346267700195,"442":1.399430751800537,"443":1.9378896951675415,"444":0.820921003818512,"445":-0.2695656418800354,"446":1.8446165323257446,"447":2.319823741912842,"448":-0.07943358272314072,"449":-3.997237205505371,"450":-1.2361838817596436,"451":3.804372787475586,"452":-1.5285319089889526,"453":0.5102216005325317,"454":-6.041909217834473,"455":0.48615899682044983,"456":0.11678307503461838,"457":3.3677451610565186,"458":-4.522337913513184,"459":-0.5494583249092102,"460":0.4085312485694885,"461":-0.8536216020584106,"462":2.1165482997894287,"463":-0.8906046748161316,"464":-5.926606178283691,"465":0.869534432888031,"466":-2.4949512481689453,"467":-0.48689234256744385,"468":1.704923391342163,"469":-4.348730564117432,"470":7.474343299865723,"471":-2.6780478954315186,"472":1.0337207317352295,"473":-3.8186497688293457,"474":-1.7525219917297363,"475":-3.0568387508392334,"476":-0.8508477807044983,"477":-4.957822799682617,"478":1.2067509889602661,"479":-3.177433967590332,"480":-5.467733383178711,"481":1.8838120698928833,"482":2.0879080295562744,"483":-2.7526590824127197,"484":-1.7285600900650024,"485":-0.4643961191177368,"486":-4.787508964538574,"487":5.309427738189697,"488":-1.6944555044174194,"489":2.0547335147857666,"490":-7.459019184112549,"491":0.41085192561149597,"492":2.9985010623931885,"493":-3.736112117767334,"494":6.245890140533447,"495":5.651605129241943,"496":3.556929111480713,"497":-0.016793394461274147,"498":0.9316499829292297,"499":1.994570016860962,"500":3.688164710998535,"501":5.541788578033447,"502":2.2567076683044434,"503":1.3315306901931763,"504":-1.4408313035964966,"505":-5.630486965179443,"506":-0.6381661295890808,"507":-0.7806683778762817,"508":-0.9240217208862305,"509":-2.350468873977661,"510":0.41099485754966736,"511":-1.6161636114120483,"512":-0.8317501544952393,"513":-0.37197640538215637,"514":-1.2497825622558594,"515":-7.2297515869140625,"516":-0.7764574885368347,"517":-0.7263901233673096,"518":1.6172542572021484,"519":-5.330124855041504,"520":7.539799213409424,"521":1.9999061822891235,"522":-5.192512035369873,"523":-1.1289832592010498,"524":-3.5715925693511963,"525":-1.504328966140747,"526":-1.3183377981185913,"527":4.138228416442871,"528":-0.5053405165672302,"529":-1.4498960971832275,"530":-0.6333633661270142,"531":-0.8799710273742676,"532":-1.3635624647140503,"533":-4.147524833679199,"534":1.2960749864578247,"535":0.0481385812163353,"536":2.4406259059906006,"537":0.9882355332374573,"538":-2.9305644035339355,"539":1.6440905332565308,"540":-1.6250349283218384,"541":-0.3945367932319641,"542":0.5718455910682678,"543":-0.47397035360336304,"544":2.2412209510803223,"545":2.3827414512634277,"546":2.318169355392456,"547":0.2611677944660187,"548":-4.093111991882324,"549":0.008004967123270035,"550":2.6110754013061523,"551":-2.2008755207061768,"552":4.128633499145508,"553":0.031429655849933624,"554":-0.34818148612976074,"555":1.0927469730377197,"556":2.501760244369507,"557":1.321978211402893,"558":0.39297348260879517,"559":0.5970444083213806,"560":0.23578140139579773,"561":1.8740192651748657,"562":1.2674309015274048,"563":-1.5033235549926758,"564":-0.02987859956920147,"565":0.680186927318573,"566":1.1274480819702148,"567":0.84784996509552,"568":-1.597357988357544,"569":1.2916325330734253,"570":-0.5151563882827759,"571":-0.1674252599477768,"572":0.686823308467865,"573":-0.8236633539199829,"574":-0.10263071954250336,"575":-1.6097397804260254,"576":-0.5590454339981079,"577":0.7784062027931213,"578":0.8680872321128845,"579":-1.1918470859527588,"580":0.08622703701257706,"581":-0.8671101331710815,"582":-1.0533920526504517,"583":-0.8081187009811401,"584":0.11604446172714233,"585":-0.02361416257917881,"586":0.7404084205627441,"587":-0.44790780544281006,"588":-1.8610559701919556,"589":-2.0905094146728516,"590":-1.0248029232025146,"591":1.5552077293395996,"592":-0.85402911901474,"593":0.7821068167686462,"594":2.1792542934417725,"595":-1.3739866018295288,"596":-0.7180968523025513,"597":0.48095160722732544,"598":-2.1082348823547363,"599":0.6012071371078491,"600":-0.11623044312000275,"601":-1.1112496852874756,"602":2.2590606212615967,"603":-0.7685084342956543,"604":-0.3147486746311188,"605":-1.828763484954834,"606":1.4730937480926514,"607":-3.688948392868042,"608":0.3605164885520935,"609":-4.396581172943115,"610":2.868882894515991,"611":-2.048102378845215,"612":-1.3473764657974243,"613":-1.4790990352630615,"614":-0.6546521782875061,"615":-0.6697584390640259,"616":-2.1487770080566406,"617":1.0691245794296265,"618":-1.3487532138824463,"619":2.0314197540283203,"620":0.2620391845703125,"621":-0.3361881375312805,"622":-3.1983425617218018,"623":1.1352890729904175,"624":0.6557972431182861,"625":-2.3979854583740234,"626":1.352219581604004,"627":0.7519086599349976,"628":1.3269684314727783,"629":1.6594693660736084,"630":2.1411449909210205,"631":-1.1876002550125122,"632":0.027852201834321022,"633":3.530642509460449,"634":1.1018670797348022,"635":-0.6684401035308838,"636":-1.0010448694229126,"637":1.4040169715881348,"638":-0.4929090142250061,"639":1.4057468175888062,"640":0.5687498450279236,"641":1.689339280128479,"642":0.09716914594173431,"643":-0.7690062522888184,"644":-1.6275112628936768,"645":-0.07767854630947113,"646":-3.334977865219116,"647":0.7463368773460388,"648":-0.6024802923202515,"649":-0.07529113441705704,"650":1.5083825588226318,"651":0.045813459903001785,"652":4.2830810546875,"653":0.46948543190956116,"654":0.2791902422904968,"655":1.4943090677261353,"656":-4.916974067687988,"657":-2.4415299892425537,"658":0.6869440078735352,"659":0.4565989673137665,"660":-3.388378858566284,"661":0.7866796851158142,"662":0.41343575716018677,"663":5.396822929382324,"664":-1.6290768384933472,"665":-3.3464643955230713,"666":1.2665513753890991,"667":2.459926128387451,"668":0.9973235130310059,"669":-0.5006611943244934,"670":0.8256569504737854,"671":-6.041385650634766,"672":1.69316828250885,"673":3.545170783996582,"674":0.724276602268219,"675":2.561201333999634,"676":-1.4694737195968628,"677":-4.989279270172119,"678":-0.04375462606549263,"679":-2.350416898727417,"680":0.6639328002929688,"681":3.1256368160247803,"682":-0.1528237760066986,"683":-1.1692999601364136,"684":-3.367312431335449,"685":1.8105411529541016,"686":0.04969951510429382,"687":2.6028902530670166,"688":3.1923482418060303,"689":-0.4857753813266754,"690":-0.5481436848640442,"691":2.8893795013427734,"692":-2.132232427597046,"693":-2.5033071041107178,"694":0.6281650066375732,"695":-0.5264522433280945,"696":1.6500130891799927,"697":-1.1066304445266724,"698":-0.3420793116092682,"699":-0.4920378625392914,"700":1.7490465641021729,"701":-0.9778192043304443,"702":1.2382642030715942,"703":-0.21893203258514404,"704":-0.31859150528907776,"705":-0.4664877951145172,"706":2.7790770530700684,"707":-1.0412172079086304,"708":2.9758477210998535,"709":-1.5760750770568848,"710":-1.2607773542404175,"711":-2.0929009914398193,"712":-1.9215108156204224,"713":4.249581813812256,"714":-0.014142513275146484,"715":2.3791866302490234,"716":0.7466112971305847,"717":-3.9728753566741943,"718":0.14374880492687225,"719":-1.1633464097976685,"720":0.9209345579147339,"721":0.3691939413547516,"722":0.2589588463306427,"723":0.8970598578453064,"724":4.329248428344727,"725":-1.2969919443130493,"726":-3.811138153076172,"727":2.7438132762908936,"728":1.858384609222412,"729":-3.200301170349121,"730":5.026097297668457,"731":-3.005242347717285,"732":-4.056037902832031,"733":5.667186260223389,"734":-3.5084638595581055,"735":-0.47734978795051575,"736":0.11846162378787994,"737":1.4922566413879395,"738":2.9835190773010254,"739":5.1447319984436035,"740":0.5128614902496338,"741":2.138380527496338,"742":-8.864335060119629,"743":-0.22342275083065033,"744":1.8018935918807983,"745":-2.385040521621704,"746":5.005334377288818,"747":1.2685381174087524,"748":5.057651042938232,"749":-3.6445136070251465,"750":3.4862935543060303,"751":-1.284782886505127,"752":0.09941880404949188,"753":2.9517619609832764,"754":4.85806941986084,"755":-5.649888515472412,"756":-4.358030796051025,"757":2.004596710205078,"758":-1.5376651287078857,"759":1.0486040115356445,"760":2.0431506633758545,"761":-0.25087136030197144,"762":3.8825454711914062,"763":0.4242364168167114,"764":1.5246906280517578,"765":3.4274826049804688,"766":-1.2874064445495605,"767":0.9980822205543518,"768":-0.27501437067985535,"769":-2.5898613929748535,"770":-2.567556858062744,"771":1.1918680667877197,"772":-2.417245626449585,"773":1.1907116174697876,"774":1.8319453001022339,"775":3.1190755367279053,"776":-1.2342040538787842,"777":-0.1286594420671463,"778":-4.142885208129883,"779":-0.3684040606021881,"780":-1.4709250926971436,"781":2.01774263381958,"782":0.5047574639320374,"783":-2.2285497188568115,"784":2.8756136894226074,"785":-0.7510806918144226,"786":-2.0763003826141357,"787":-0.14488761126995087,"788":-1.655863881111145,"789":1.2088103294372559,"790":-1.3680657148361206,"791":0.10303708910942078,"792":3.2891037464141846,"793":2.2757015228271484,"794":1.4868522882461548,"795":1.4720820188522339,"796":-1.0337468385696411,"797":2.7774674892425537,"798":0.9809995889663696,"799":1.6007812023162842,"800":-0.340782105922699,"801":0.9736133813858032,"802":0.9275946021080017,"803":1.5146363973617554,"804":0.9939086437225342,"805":-0.7646585702896118,"806":1.839650273323059,"807":-2.729557991027832,"808":0.23625056445598602,"809":-0.16416989266872406,"810":-1.6513150930404663,"811":-1.8368878364562988,"812":-1.52364182472229,"813":-2.05434513092041,"814":-1.7689921855926514,"815":0.9982962608337402,"816":1.0591974258422852,"817":3.0609960556030273,"818":1.86907958984375,"819":-2.335951328277588,"820":1.333792805671692,"821":-2.285322427749634,"822":-3.60366153717041,"823":-0.06733740866184235,"824":-1.6547272205352783,"825":-0.520634651184082,"826":3.634305000305176,"827":-7.152840614318848,"828":-4.380821228027344,"829":-10.567028045654297,"830":1.578906774520874,"831":0.8898963332176208,"832":-2.979804515838623,"833":6.593687057495117,"834":-5.701704025268555,"835":7.95421838760376,"836":2.7150349617004395,"837":-5.706201076507568,"838":1.6238160133361816,"839":5.993416786193848,"840":0.5446112751960754,"841":-3.797203302383423,"842":2.166369915008545,"843":3.0682644844055176,"844":3.382436513900757,"845":2.08750319480896,"846":1.8472235202789307,"847":-1.9591326713562012,"848":0.9368982911109924,"849":0.8928661346435547,"850":0.9664773344993591,"851":6.515373706817627,"852":4.317782402038574,"853":1.3384779691696167,"854":-0.01582731492817402,"855":3.700486421585083,"856":1.2918893098831177,"857":0.1010204553604126,"858":0.20385488867759705,"859":-0.4792369306087494,"860":-0.5283304452896118,"861":2.499114513397217,"862":0.9272423982620239,"863":0.6341171860694885,"864":-1.9387195110321045,"865":-0.9560077786445618,"866":1.4785233736038208,"867":0.013576562516391277,"868":-1.925089716911316,"869":-2.202072858810425,"870":0.9850327968597412,"871":-0.7984089255332947,"872":-1.4142149686813354,"873":1.37980055809021,"874":0.911760151386261,"875":-2.621478319168091,"876":-1.4710522890090942,"877":-3.7992360591888428,"878":-3.447434663772583,"879":-1.559852123260498,"880":-0.6589360237121582,"881":0.9672316312789917,"882":-1.8903084993362427,"883":2.22550892829895,"884":-1.2180874347686768,"885":-0.9322472214698792,"886":-0.7903021574020386,"887":0.5485852956771851,"888":1.515824317932129,"889":0.37439993023872375,"890":1.1638367176055908,"891":1.557173490524292,"892":-0.47585082054138184,"893":-1.0069935321807861,"894":3.1856281757354736,"895":0.014597252942621708,"896":-0.6714274883270264,"897":-4.107476234436035,"898":-1.0135308504104614,"899":0.20900440216064453,"900":2.2885780334472656,"901":0.6045305728912354,"902":-2.0863709449768066,"903":4.681938171386719,"904":0.054877959191799164,"905":-0.9168983697891235,"906":-3.0332071781158447,"907":-1.1605963706970215,"908":-6.339078903198242,"909":-2.4591171741485596,"910":-2.171229839324951,"911":-3.0077097415924072,"912":1.482177734375,"913":-1.4359447956085205,"914":0.22455182671546936,"915":-1.9028624296188354,"916":0.8277468681335449,"917":-0.18599987030029297,"918":-0.11328539252281189,"919":-0.737230658531189,"920":2.7937426567077637,"921":1.4378472566604614,"922":-2.031907796859741,"923":-0.6493650078773499,"924":0.8550161719322205,"925":0.5077921152114868,"926":1.6043442487716675,"927":-0.3647564649581909,"928":-2.0496156215667725,"929":-0.3265514671802521,"930":5.12666130065918,"931":0.29007184505462646,"932":-1.8652403354644775,"933":-3.3506836891174316,"934":2.816298246383667,"935":0.6406569480895996,"936":-0.5122466087341309,"937":3.5631163120269775,"938":0.27993911504745483,"939":4.295477390289307,"940":-0.08016996830701828,"941":1.0916903018951416,"942":3.051487445831299,"943":1.1255968809127808,"944":0.5853328704833984,"945":0.8756260275840759,"946":1.3542802333831787,"947":0.47691047191619873,"948":0.060302574187517166,"949":-0.277117520570755,"950":1.7688703536987305,"951":-2.0618226528167725,"952":2.6987111568450928,"953":-4.850901126861572,"954":-3.1696157455444336,"955":2.711787462234497,"956":2.611041784286499,"957":-5.09891414642334,"958":12.95086669921875,"959":9.689277648925781,"960":-2.201991319656372,"961":-7.565195083618164,"962":-6.7459869384765625,"963":2.932265281677246,"964":2.046807050704956,"965":-3.44720196723938,"966":-0.3612321615219116,"967":-0.03811797499656677,"968":4.385834217071533,"969":-5.216370105743408,"970":-5.0955047607421875,"971":18.48997688293457,"972":2.3933348655700684,"973":-1.8740592002868652,"974":4.411466121673584,"975":5.8766679763793945,"976":-2.4295923709869385,"977":-2.59906268119812,"978":6.257140636444092,"979":2.7117631435394287,"980":-6.39769172668457,"981":5.192114353179932,"982":-4.930254936218262,"983":15.250892639160156,"984":3.8778529167175293,"985":20.79339599609375,"986":-3.9049367904663086,"987":-0.5238426923751831,"988":2.3664028644561768,"989":-9.911977767944336,"990":0.752041220664978,"991":-2.0788252353668213,"992":-9.204214096069336,"993":-5.275507926940918,"994":-0.4357594847679138,"995":2.522167921066284,"996":-7.377163887023926,"997":-2.319598913192749,"998":3.3841700553894043,"999":6.226134300231934,"1000":0.8992744088172913,"1001":6.928347110748291,"1002":-7.048009395599365,"1003":-7.703118801116943,"1004":-7.266963958740234,"1005":-8.382972717285156,"1006":-2.1144092082977295,"1007":6.429411888122559,"1008":-0.5373749136924744,"1009":4.6364874839782715,"1010":-0.494503915309906,"1011":-1.6723278760910034,"1012":-5.103682994842529,"1013":-2.1805856227874756,"1014":5.656452655792236,"1015":-13.732166290283203,"1016":-4.109260082244873,"1017":0.6363110542297363,"1018":-6.353224754333496,"1019":14.908924102783203,"1020":7.581552028656006,"1021":-6.561764240264893,"1022":-1.8171937465667725,"1023":0.3668997585773468,"1024":1.6856505870819092,"1025":-0.6076900959014893,"1026":2.6885056495666504,"1027":1.7620962858200073,"1028":-3.753847599029541,"1029":1.4289342164993286,"1030":1.6085306406021118,"1031":3.781863212585449,"1032":-1.6391059160232544,"1033":-4.579207897186279,"1034":-3.827796220779419,"1035":-0.9884227514266968,"1036":-1.4942400455474854,"1037":0.2749411463737488,"1038":-1.943710446357727,"1039":1.4309604167938232,"1040":-3.126197338104248,"1041":-2.772120237350464,"1042":-0.5840446949005127,"1043":1.47601318359375,"1044":1.9494740962982178,"1045":1.4910242557525635,"1046":0.0150448651984334,"1047":-1.4773808717727661,"1048":3.134876012802124,"1049":-0.17225448787212372,"1050":2.1469531059265137,"1051":0.33615148067474365,"1052":-0.23041048645973206,"1053":-0.12085963785648346,"1054":1.3073664903640747,"1055":1.799504041671753,"1056":1.1458481550216675,"1057":-2.095005750656128,"1058":0.4776303172111511,"1059":-0.46498918533325195,"1060":1.5338108539581299,"1061":3.743440866470337,"1062":-1.1756625175476074,"1063":1.2646347284317017,"1064":0.21075332164764404,"1065":-2.532646417617798,"1066":-2.1479878425598145,"1067":-0.2097584754228592,"1068":-1.4061323404312134,"1069":-0.9025601744651794,"1070":-2.4756031036376953,"1071":-0.7270734310150146,"1072":2.4114701747894287,"1073":-1.0160036087036133,"1074":1.4008983373641968,"1075":0.748740017414093,"1076":1.5981550216674805,"1077":-3.4837636947631836,"1078":1.3585960865020752,"1079":3.1670985221862793,"1080":1.2565175294876099,"1081":-0.1732095181941986,"1082":-2.898505687713623,"1083":-3.873412847518921,"1084":-0.6971215605735779,"1085":0.8210042715072632,"1086":-2.598473072052002,"1087":-2.3904340267181396,"1088":-0.46718236804008484,"1089":-0.10937369614839554,"1090":0.046496178954839706,"1091":-0.24361556768417358,"1092":-2.9295074939727783,"1093":-0.6666827201843262,"1094":-1.690131425857544,"1095":1.3155847787857056,"1096":-0.43270981311798096,"1097":-1.2043712139129639,"1098":-1.5136687755584717,"1099":1.112529993057251,"1100":0.005152388010174036,"1101":-3.877000570297241,"1102":0.30307793617248535,"1103":0.899010419845581,"1104":-0.18915438652038574,"1105":-1.4524959325790405,"1106":1.8435311317443848,"1107":4.086559295654297,"1108":1.032496452331543,"1109":2.375837564468384,"1110":-1.262359857559204,"1111":0.2802688181400299,"1112":1.5256245136260986,"1113":1.2419906854629517,"1114":-0.4320557117462158,"1115":1.2834744453430176,"1116":0.8139830827713013,"1117":1.6677260398864746,"1118":1.6491048336029053,"1119":1.685925841331482,"1120":1.6518019437789917,"1121":1.3151178359985352}},"hiddenLayers":[{"inputMatrix":{"rows":20,"columns":33,"weights":{"0":-0.4920949637889862,"1":1.6055406332015991,"2":0.5874073505401611,"3":0.2955317795276642,"4":-0.796941339969635,"5":-3.099363327026367,"6":0.5752601623535156,"7":-0.8204432725906372,"8":-0.28146517276763916,"9":2.3831095695495605,"10":2.1056368350982666,"11":0.20802965760231018,"12":0.9734691381454468,"13":0.09579786658287048,"14":2.141716957092285,"15":-1.666778564453125,"16":-1.9500740766525269,"17":0.2197255641222,"18":-1.1611038446426392,"19":0.28369778394699097,"20":-0.28276586532592773,"21":2.7559566497802734,"22":-0.05239486321806908,"23":-2.6679744720458984,"24":0.5167935490608215,"25":0.3262815773487091,"26":2.6523594856262207,"27":-0.061193373054265976,"28":1.1142414808273315,"29":-0.1967284232378006,"30":-0.8076272010803223,"31":-1.414488673210144,"32":-2.3307602405548096,"33":2.7805097103118896,"34":1.2815779447555542,"35":0.4155427813529968,"36":-0.6531582474708557,"37":-1.4802957773208618,"38":3.24381685256958,"39":2.497152328491211,"40":-0.5317469239234924,"41":2.074652910232544,"42":-0.600531816482544,"43":0.16682972013950348,"44":0.7434754371643066,"45":-2.570601224899292,"46":-1.0384800434112549,"47":1.6165541410446167,"48":-0.447602778673172,"49":1.349635362625122,"50":0.6128956079483032,"51":2.2308506965637207,"52":0.7237956523895264,"53":-0.3923974931240082,"54":-1.6677091121673584,"55":0.18374033272266388,"56":1.3867493867874146,"57":0.8493531346321106,"58":-0.12762795388698578,"59":1.3343218564987183,"60":-1.706045150756836,"61":-0.23803655803203583,"62":-0.9345147609710693,"63":0.20600847899913788,"64":-0.6879618763923645,"65":0.223994180560112,"66":1.167459487915039,"67":-0.18257702887058258,"68":-1.0596592426300049,"69":-0.2570672929286957,"70":0.6760604977607727,"71":0.3389953374862671,"72":-1.269468903541565,"73":1.2647093534469604,"74":1.6117664575576782,"75":0.027171438559889793,"76":-2.3317792415618896,"77":0.6267896294593811,"78":-0.19387030601501465,"79":-1.3860505819320679,"80":-0.2313234955072403,"81":-1.0660400390625,"82":1.609261155128479,"83":0.4901975691318512,"84":0.16479074954986572,"85":0.3440355360507965,"86":0.6679930090904236,"87":-0.8161417841911316,"88":0.14765867590904236,"89":-0.166936993598938,"90":-0.1295812577009201,"91":-0.48195579648017883,"92":-0.04221928119659424,"93":-0.727329671382904,"94":-0.6766414642333984,"95":0.4601471722126007,"96":-1.442887544631958,"97":-1.6281696557998657,"98":0.7281351089477539,"99":-0.6933599710464478,"100":0.10120279341936111,"101":-0.39888104796409607,"102":-3.4362032413482666,"103":-0.3557531535625458,"104":-1.4425842761993408,"105":-0.20964421331882477,"106":0.4028610587120056,"107":0.209804505109787,"108":1.5722659826278687,"109":0.020172422751784325,"110":1.2491161823272705,"111":-1.0409048795700073,"112":0.2021317332983017,"113":1.5432310104370117,"114":-0.9890622496604919,"115":-2.3467934131622314,"116":0.7415885925292969,"117":-0.9837356805801392,"118":-0.14109337329864502,"119":2.108710527420044,"120":0.22755582630634308,"121":-0.2762792408466339,"122":-3.611020088195801,"123":1.4210861921310425,"124":-0.2023288756608963,"125":1.5571599006652832,"126":2.2672336101531982,"127":0.9570649266242981,"128":0.5040857195854187,"129":-1.1604975461959839,"130":-2.2775866985321045,"131":-0.27168217301368713,"132":-0.936694324016571,"133":2.419950008392334,"134":-0.8555023670196533,"135":-0.9844050407409668,"136":-3.361921548843384,"137":-1.009147047996521,"138":2.645562171936035,"139":-1.5200306177139282,"140":-1.1516480445861816,"141":3.0114405155181885,"142":0.7543066740036011,"143":1.7737808227539062,"144":-2.0780282020568848,"145":-0.11733657121658325,"146":0.24526454508304596,"147":0.13103117048740387,"148":0.06794954091310501,"149":1.755971908569336,"150":-1.3488056659698486,"151":2.487668514251709,"152":1.8516172170639038,"153":0.7689846158027649,"154":0.36349478363990784,"155":-2.1423919200897217,"156":-0.6751148700714111,"157":-1.4868158102035522,"158":0.8856897354125977,"159":0.28145480155944824,"160":-1.3811513185501099,"161":-0.21424123644828796,"162":0.2083323895931244,"163":-0.18239331245422363,"164":-1.699509859085083,"165":-1.0540919303894043,"166":-1.2895907163619995,"167":0.7963775396347046,"168":0.8592235445976257,"169":-2.1320960521698,"170":-0.5082268714904785,"171":1.7066963911056519,"172":-2.294301748275757,"173":-1.0367422103881836,"174":0.7525596022605896,"175":1.0318201780319214,"176":-1.5858417749404907,"177":-0.5115181803703308,"178":0.4286130964756012,"179":0.19881127774715424,"180":-0.3907466530799866,"181":0.03989489749073982,"182":-0.8030480146408081,"183":1.220025658607483,"184":-0.25528451800346375,"185":-0.6273590326309204,"186":-0.8402820229530334,"187":1.8177257776260376,"188":-0.1720159351825714,"189":-0.8507581949234009,"190":0.3912769854068756,"191":-0.014659076929092407,"192":-0.29129886627197266,"193":0.713758111000061,"194":1.5402055978775024,"195":2.4671499729156494,"196":0.5794069766998291,"197":0.2560683786869049,"198":0.05553242564201355,"199":-0.28368523716926575,"200":3.042875051498413,"201":2.5198254585266113,"202":0.10461094975471497,"203":0.24149534106254578,"204":-0.21458475291728973,"205":3.5917608737945557,"206":0.6020019054412842,"207":0.739944577217102,"208":-1.0142719745635986,"209":-0.7569031715393066,"210":2.686253547668457,"211":-0.06819713860750198,"212":1.2833995819091797,"213":-0.9616578817367554,"214":-0.2364177405834198,"215":-0.6256313323974609,"216":0.5694262385368347,"217":-2.7165122032165527,"218":1.0903756618499756,"219":-0.4341595470905304,"220":-1.5216922760009766,"221":0.717464804649353,"222":0.31146159768104553,"223":1.8658983707427979,"224":0.9653943181037903,"225":-0.3280795216560364,"226":0.9763669967651367,"227":0.6177035570144653,"228":-2.0446105003356934,"229":1.4629451036453247,"230":-1.7626996040344238,"231":0.387754887342453,"232":0.8400773406028748,"233":0.23907944560050964,"234":-1.5842846632003784,"235":-1.2906808853149414,"236":-1.3572404384613037,"237":-0.2309587150812149,"238":0.835787832736969,"239":-0.1328851580619812,"240":-0.1373436003923416,"241":0.7343642115592957,"242":3.407921552658081,"243":1.2851648330688477,"244":-0.686753511428833,"245":0.312786728143692,"246":-1.1381237506866455,"247":-1.098512053489685,"248":3.0585529804229736,"249":1.519848346710205,"250":0.15352895855903625,"251":-0.16054008901119232,"252":0.3691047132015228,"253":-0.01324815209954977,"254":-0.29827970266342163,"255":3.1549999713897705,"256":-2.1940078735351562,"257":0.4349546432495117,"258":-0.4249584376811981,"259":0.21490222215652466,"260":-0.03478747606277466,"261":-1.2157914638519287,"262":-0.8645755052566528,"263":-3.254891872406006,"264":-0.5366685390472412,"265":0.5144239068031311,"266":1.4445046186447144,"267":-0.35068047046661377,"268":-1.2176800966262817,"269":0.08445035666227341,"270":2.0391383171081543,"271":0.899808406829834,"272":-1.851059079170227,"273":-0.28164374828338623,"274":1.649541974067688,"275":-0.1397113800048828,"276":0.3666520416736603,"277":1.6119909286499023,"278":0.683566153049469,"279":0.5602140426635742,"280":-2.783318042755127,"281":-0.25605612993240356,"282":0.3686957061290741,"283":-0.7709278464317322,"284":2.482954740524292,"285":-0.4625800848007202,"286":1.0565121173858643,"287":0.656837522983551,"288":-0.00296144955791533,"289":-0.43382999300956726,"290":0.13324609398841858,"291":0.7974926829338074,"292":0.6963376998901367,"293":-0.594697892665863,"294":-0.6410917043685913,"295":1.2515509128570557,"296":-0.8942286372184753,"297":-0.9047355651855469,"298":3.2696878910064697,"299":-0.5312689542770386,"300":0.4649610221385956,"301":-1.3543728590011597,"302":-4.008021831512451,"303":0.2502896785736084,"304":-2.0698699951171875,"305":0.5782377123832703,"306":0.21273566782474518,"307":0.38025450706481934,"308":-0.2784377336502075,"309":-1.4012117385864258,"310":0.27708700299263,"311":1.280126690864563,"312":0.7930908799171448,"313":-0.421989381313324,"314":0.9208439588546753,"315":0.09310248494148254,"316":0.5325050354003906,"317":0.9950304627418518,"318":2.1414663791656494,"319":1.2625528573989868,"320":-1.5932799577713013,"321":-0.8366608619689941,"322":-0.8772578835487366,"323":2.374505043029785,"324":0.3832434117794037,"325":0.7755277752876282,"326":0.7239969372749329,"327":1.2487409114837646,"328":0.8959572911262512,"329":-0.13810765743255615,"330":-0.40481099486351013,"331":1.318956971168518,"332":0.19987280666828156,"333":-3.11293888092041,"334":-1.1813386678695679,"335":-1.0017536878585815,"336":0.12394163012504578,"337":0.6481406688690186,"338":-0.3242820203304291,"339":1.3614299297332764,"340":0.5639892816543579,"341":2.5656039714813232,"342":-1.9765504598617554,"343":0.7939431071281433,"344":1.6134381294250488,"345":0.2916925549507141,"346":-1.0412325859069824,"347":2.2456977367401123,"348":3.3197853565216064,"349":1.2371786832809448,"350":-0.07716193795204163,"351":1.5455806255340576,"352":0.29824021458625793,"353":-0.3574061691761017,"354":2.153648614883423,"355":-1.975999116897583,"356":1.2808581590652466,"357":1.3567900657653809,"358":1.202001690864563,"359":0.9266448020935059,"360":-0.6552972197532654,"361":0.7693434357643127,"362":-0.5932550430297852,"363":0.1427251100540161,"364":1.0653115510940552,"365":2.7266013622283936,"366":0.4419732093811035,"367":-0.068072609603405,"368":0.7994188070297241,"369":-1.6540684700012207,"370":1.4709104299545288,"371":-1.2619211673736572,"372":-0.8052650094032288,"373":2.1140758991241455,"374":-0.13460096716880798,"375":0.331670343875885,"376":3.2423017024993896,"377":-0.7212427258491516,"378":2.1458728313446045,"379":-3.076655626296997,"380":-0.6766367554664612,"381":-0.7242835760116577,"382":-1.0341569185256958,"383":-0.8141546845436096,"384":-1.2590943574905396,"385":0.5082727074623108,"386":0.6713606715202332,"387":-0.18472692370414734,"388":-0.8758108019828796,"389":-0.43782946467399597,"390":0.08928334712982178,"391":1.6826839447021484,"392":-0.8550647497177124,"393":-1.5331825017929077,"394":1.1873631477355957,"395":-3.191246747970581,"396":-1.769963026046753,"397":2.434922456741333,"398":-1.28899085521698,"399":1.2265177965164185,"400":-2.6828017234802246,"401":-3.3163840770721436,"402":-0.5863286852836609,"403":-1.3888416290283203,"404":0.9638737440109253,"405":2.7540087699890137,"406":1.301749348640442,"407":0.07153698056936264,"408":0.7567597031593323,"409":0.35631847381591797,"410":0.03437221795320511,"411":-0.12908384203910828,"412":0.04362558200955391,"413":0.2985365688800812,"414":-1.3337457180023193,"415":0.46997612714767456,"416":1.3829121589660645,"417":2.89416766166687,"418":0.29493120312690735,"419":-3.2060091495513916,"420":-0.4741990566253662,"421":0.34188875555992126,"422":0.9673418402671814,"423":0.5072506666183472,"424":-0.9426840543746948,"425":0.8228408694267273,"426":0.15245848894119263,"427":-0.32624512910842896,"428":-1.9066040515899658,"429":1.5731099843978882,"430":-0.9633183479309082,"431":-1.3461352586746216,"432":-1.4243658781051636,"433":1.3623095750808716,"434":0.4904802143573761,"435":-1.915529489517212,"436":0.4558819532394409,"437":0.4573734402656555,"438":-0.9043742418289185,"439":-0.8267008066177368,"440":0.8603134751319885,"441":-0.3896879553794861,"442":-0.3121970593929291,"443":-0.526900053024292,"444":-1.8359606266021729,"445":0.40400248765945435,"446":0.7401003837585449,"447":-0.32580941915512085,"448":0.5885076522827148,"449":-0.21609295904636383,"450":-1.64792799949646,"451":-1.5615602731704712,"452":2.303305149078369,"453":0.495260089635849,"454":1.0830161571502686,"455":0.22576119005680084,"456":-1.7446322441101074,"457":0.2140733152627945,"458":0.8516412973403931,"459":-0.9027718901634216,"460":-0.5708686113357544,"461":1.2020610570907593,"462":-1.2359483242034912,"463":0.7221339344978333,"464":-2.7251930236816406,"465":-1.67659592628479,"466":0.7686850428581238,"467":-2.6798558235168457,"468":-1.4857559204101562,"469":-1.0917572975158691,"470":0.7555928230285645,"471":2.252431631088257,"472":-0.678774356842041,"473":1.2812811136245728,"474":1.1845917701721191,"475":-0.687289834022522,"476":-1.7922260761260986,"477":-0.3522399365901947,"478":0.19352848827838898,"479":0.6729083061218262,"480":-1.677344799041748,"481":1.9871597290039062,"482":-1.1951647996902466,"483":3.3955726623535156,"484":-0.6240503191947937,"485":-2.603942394256592,"486":-0.26323509216308594,"487":-1.8608020544052124,"488":-0.2041429728269577,"489":1.4821432828903198,"490":-0.5898305773735046,"491":-0.0822678729891777,"492":-0.9772658348083496,"493":-2.3640990257263184,"494":-0.9113348126411438,"495":0.24715487658977509,"496":-3.8818657398223877,"497":1.0444426536560059,"498":-0.6057702898979187,"499":2.615978240966797,"500":2.724703073501587,"501":0.21917252242565155,"502":1.1455074548721313,"503":-0.2506753206253052,"504":-2.9738752841949463,"505":-2.0294666290283203,"506":-0.45864829421043396,"507":-1.2337712049484253,"508":-0.2366965264081955,"509":-1.5214744806289673,"510":-0.5437089800834656,"511":0.535014808177948,"512":0.0359879769384861,"513":0.8527206182479858,"514":0.35365504026412964,"515":1.2281838655471802,"516":-1.2394862174987793,"517":-1.1226636171340942,"518":3.1559231281280518,"519":0.8294327855110168,"520":-0.5022354125976562,"521":-1.2976641654968262,"522":-0.06224452331662178,"523":-1.1117037534713745,"524":0.571907639503479,"525":1.191246509552002,"526":0.2721783220767975,"527":2.4878926277160645,"528":-0.6578831076622009,"529":-0.18896281719207764,"530":-0.6081797480583191,"531":0.0497756153345108,"532":-2.029435396194458,"533":-1.1616897583007812,"534":-1.5711193084716797,"535":-1.469448208808899,"536":0.6724472045898438,"537":1.7240016460418701,"538":2.915268898010254,"539":-1.6961756944656372,"540":2.4308536052703857,"541":0.3253643214702606,"542":0.09375011175870895,"543":-0.4655624330043793,"544":-2.117792844772339,"545":-0.7440263032913208,"546":-1.1736685037612915,"547":0.37030962109565735,"548":0.13870316743850708,"549":1.5724092721939087,"550":-1.9192485809326172,"551":-1.5716389417648315,"552":-1.9799262285232544,"553":-0.5805121064186096,"554":-0.8720641136169434,"555":1.3879777193069458,"556":-2.8237552642822266,"557":2.4132752418518066,"558":0.5311046242713928,"559":0.033864039927721024,"560":-3.3905029296875,"561":-1.9836047887802124,"562":1.5911595821380615,"563":0.980562150478363,"564":0.1350354254245758,"565":-1.2795746326446533,"566":-0.7296496629714966,"567":-0.8433012366294861,"568":0.995482325553894,"569":-0.7059528231620789,"570":1.0987261533737183,"571":3.6780760288238525,"572":0.6082509160041809,"573":1.741515874862671,"574":1.272810697555542,"575":-0.7752817869186401,"576":0.7151848673820496,"577":-3.0677297115325928,"578":0.8713198304176331,"579":-1.7379114627838135,"580":0.5694665908813477,"581":-0.8410854935646057,"582":0.04321858659386635,"583":0.2435593605041504,"584":1.3421903848648071,"585":0.3967462480068207,"586":-1.3176507949829102,"587":-0.6887352466583252,"588":1.3351037502288818,"589":0.00826424639672041,"590":-1.4277483224868774,"591":-1.6339575052261353,"592":2.4208827018737793,"593":-3.708076000213623,"594":0.28962281346321106,"595":-2.5570404529571533,"596":-0.9248433709144592,"597":-0.9902580976486206,"598":0.9190493822097778,"599":0.953430712223053,"600":-0.2262941598892212,"601":1.1624990701675415,"602":0.34218382835388184,"603":-1.8640573024749756,"604":-1.2211469411849976,"605":0.48163896799087524,"606":-1.7084016799926758,"607":-0.4260386824607849,"608":-3.2236521244049072,"609":-0.8512654304504395,"610":-0.1892695277929306,"611":0.25850218534469604,"612":0.23968155682086945,"613":1.5404330492019653,"614":-2.035738229751587,"615":-1.314223289489746,"616":-1.206838846206665,"617":2.338268995285034,"618":0.4910740256309509,"619":1.0920997858047485,"620":-4.052984237670898,"621":0.05663318932056427,"622":-0.5393100380897522,"623":0.5932726263999939,"624":-1.4980615377426147,"625":-0.7182660698890686,"626":1.5049363374710083,"627":-1.0469179153442383,"628":0.2667807340621948,"629":-0.9554063081741333,"630":1.2811506986618042,"631":-3.21834135055542,"632":-1.398311734199524,"633":-0.6738236546516418,"634":-1.4798368215560913,"635":1.5309722423553467,"636":3.6291637420654297,"637":-1.1470881700515747,"638":-0.4997211694717407,"639":-0.9168789386749268,"640":-1.528875470161438,"641":0.5644733905792236,"642":0.4699508845806122,"643":1.7672890424728394,"644":-1.109477162361145,"645":-2.81953763961792,"646":-0.5897583961486816,"647":-1.5542548894882202,"648":0.8581570386886597,"649":1.2456246614456177,"650":-1.7581713199615479,"651":-2.1053388118743896,"652":0.8056841492652893,"653":-0.2128189504146576,"654":1.46382474899292,"655":-0.8774787783622742,"656":2.401165246963501,"657":1.2941044569015503,"658":0.07562586665153503,"659":0.26316583156585693}},"inputHidden":{"rows":20,"columns":20,"weights":{"0":3.7166411876678467,"1":0.5401043891906738,"2":-2.292724132537842,"3":0.08289752900600433,"4":0.36466944217681885,"5":0.2975732684135437,"6":4.332982540130615,"7":-0.7352617383003235,"8":-0.5425652265548706,"9":-2.3093502521514893,"10":-0.5273109078407288,"11":-4.453697681427002,"12":-2.138944149017334,"13":-0.6173076033592224,"14":-0.8030681014060974,"15":0.08543741703033447,"16":0.8646295070648193,"17":-1.1937053203582764,"18":0.27704739570617676,"19":1.3783882856369019,"20":0.26278385519981384,"21":-0.27791571617126465,"22":-2.4558541774749756,"23":-3.245011806488037,"24":1.779860019683838,"25":-3.134145498275757,"26":2.2561569213867188,"27":-0.7597376108169556,"28":-1.3549150228500366,"29":-0.8000298142433167,"30":2.349879503250122,"31":-0.2701064944267273,"32":-2.3325119018554688,"33":-1.5564426183700562,"34":1.602828025817871,"35":-0.6179635524749756,"36":-0.9268196821212769,"37":-2.5699141025543213,"38":2.653437376022339,"39":-0.17386019229888916,"40":2.8821096420288086,"41":0.3755713999271393,"42":-0.9716748595237732,"43":0.48801669478416443,"44":0.4915563762187958,"45":2.8048386573791504,"46":6.125537872314453,"47":-0.14461372792720795,"48":-0.49855837225914,"49":0.5187077522277832,"50":-0.009429107420146465,"51":-4.09218692779541,"52":-1.4403183460235596,"53":-1.4127925634384155,"54":0.6753286123275757,"55":-2.3497071266174316,"56":6.711162090301514,"57":-2.2215514183044434,"58":1.8293890953063965,"59":3.3413174152374268,"60":2.130526304244995,"61":-1.5242401361465454,"62":-1.436238408088684,"63":0.6691362261772156,"64":-0.9432304501533508,"65":0.7426355481147766,"66":1.079224944114685,"67":-1.144837737083435,"68":0.8721345663070679,"69":-0.2900712192058563,"70":-2.2454018592834473,"71":-2.218154191970825,"72":0.07472942024469376,"73":2.517728328704834,"74":-0.31443604826927185,"75":0.5343188643455505,"76":0.13642752170562744,"77":-1.6914608478546143,"78":-1.473703384399414,"79":1.9079127311706543,"80":0.345132976770401,"81":0.961862325668335,"82":0.683906614780426,"83":3.0531909465789795,"84":0.44089388847351074,"85":-0.03952731564640999,"86":1.377434492111206,"87":0.02899731509387493,"88":-1.553701639175415,"89":0.2561178207397461,"90":-1.7820433378219604,"91":-1.4925198554992676,"92":-1.2405413389205933,"93":1.183503270149231,"94":-1.2906885147094727,"95":1.5086767673492432,"96":1.2910735607147217,"97":-0.8666440844535828,"98":-0.6375477910041809,"99":-0.8995554447174072,"100":0.5242612957954407,"101":2.4738264083862305,"102":3.9402287006378174,"103":0.7531936764717102,"104":0.4120878577232361,"105":-2.3999013900756836,"106":3.0062735080718994,"107":2.2776081562042236,"108":-2.769275665283203,"109":-3.452578544616699,"110":0.35118135809898376,"111":-0.08938461542129517,"112":-3.0396432876586914,"113":0.9458194375038147,"114":0.22532595694065094,"115":1.4637762308120728,"116":0.5251473784446716,"117":-3.199193239212036,"118":-0.9405303001403809,"119":1.915536642074585,"120":-3.812502861022949,"121":0.5074115991592407,"122":-0.1452644318342209,"123":-0.30915695428848267,"124":-2.7279303073883057,"125":1.2504719495773315,"126":0.1141887977719307,"127":-0.6480536460876465,"128":2.174931526184082,"129":1.1034467220306396,"130":-1.0277941226959229,"131":0.7874290347099304,"132":-0.6356829404830933,"133":2.345313549041748,"134":-2.9456145763397217,"135":1.2363061904907227,"136":-1.0952447652816772,"137":2.8717644214630127,"138":0.1740502119064331,"139":0.7038711309432983,"140":1.1569852828979492,"141":1.917833924293518,"142":-2.313512086868286,"143":0.7460257411003113,"144":-2.5295369625091553,"145":-1.113051176071167,"146":1.6901319026947021,"147":0.13740624487400055,"148":2.2438337802886963,"149":1.4236094951629639,"150":-0.41679292917251587,"151":0.6623390316963196,"152":3.971512794494629,"153":-2.9292008876800537,"154":-1.563434362411499,"155":-2.444544792175293,"156":-3.559161424636841,"157":-1.5599439144134521,"158":-3.1256303787231445,"159":-1.9904710054397583,"160":3.4849627017974854,"161":2.0666866302490234,"162":2.1279258728027344,"163":4.129734039306641,"164":-3.3103909492492676,"165":0.2282877415418625,"166":0.7999738454818726,"167":-1.7748006582260132,"168":0.3248709738254547,"169":-3.4254331588745117,"170":-1.5360511541366577,"171":-2.168787717819214,"172":-0.9363749623298645,"173":2.0557150840759277,"174":-3.200601100921631,"175":2.248939037322998,"176":0.4892042875289917,"177":0.89173424243927,"178":0.6059631705284119,"179":0.7471421957015991,"180":-1.4938539266586304,"181":0.14855073392391205,"182":1.7080442905426025,"183":3.336007833480835,"184":0.8081981539726257,"185":-1.6013712882995605,"186":-0.08225475996732712,"187":0.9576752185821533,"188":-3.59686541557312,"189":-1.997575044631958,"190":-2.8638994693756104,"191":-0.24889735877513885,"192":-0.8558477759361267,"193":2.3187928199768066,"194":-3.1321535110473633,"195":-1.20425546169281,"196":-1.0202505588531494,"197":0.9921445846557617,"198":-1.0531219244003296,"199":-1.0540995597839355,"200":0.9298964142799377,"201":0.7664902210235596,"202":-0.5672973394393921,"203":1.9375230073928833,"204":0.5149916410446167,"205":0.1432468742132187,"206":0.8095302581787109,"207":-1.7788586616516113,"208":-0.6245339512825012,"209":-0.470093697309494,"210":-0.09686410427093506,"211":-1.429331660270691,"212":1.2784717082977295,"213":0.016247227787971497,"214":0.5404800176620483,"215":-0.40933939814567566,"216":0.29576578736305237,"217":-0.251488596200943,"218":-1.5316917896270752,"219":1.1247837543487549,"220":-0.3093627989292145,"221":-0.4491743743419647,"222":0.026175102218985558,"223":1.7473312616348267,"224":-0.24263618886470795,"225":1.7690564393997192,"226":0.7411304116249084,"227":-1.3410760164260864,"228":0.7093047499656677,"229":1.7604780197143555,"230":-1.967405915260315,"231":-1.1006730794906616,"232":1.7819608449935913,"233":1.0593295097351074,"234":-0.9283146262168884,"235":3.614542007446289,"236":2.2047712802886963,"237":-0.4297201633453369,"238":-0.7314625978469849,"239":1.5867193937301636,"240":0.2590997517108917,"241":-0.6013571619987488,"242":0.05452960729598999,"243":-1.5374515056610107,"244":2.5046586990356445,"245":-1.0447752475738525,"246":3.592508316040039,"247":2.132789373397827,"248":-1.9500430822372437,"249":-3.479962110519409,"250":0.7445340752601624,"251":-1.2520519495010376,"252":-1.87369966506958,"253":-0.6192739605903625,"254":2.9990084171295166,"255":-1.3442375659942627,"256":1.3460417985916138,"257":-0.5768417119979858,"258":-1.0026726722717285,"259":-0.46257662773132324,"260":-2.9655306339263916,"261":0.8283118009567261,"262":4.27153205871582,"263":5.081568717956543,"264":-1.8553290367126465,"265":1.003657579421997,"266":-1.2440980672836304,"267":-1.10368812084198,"268":0.9352786540985107,"269":4.893069267272949,"270":-3.3824775218963623,"271":1.5517821311950684,"272":4.358381271362305,"273":1.5075467824935913,"274":-1.8450136184692383,"275":-0.15119017660617828,"276":-0.10023235529661179,"277":2.593083620071411,"278":-1.0783668756484985,"279":-0.08534570783376694,"280":0.1287446767091751,"281":1.8583900928497314,"282":-0.6970383524894714,"283":0.4967842698097229,"284":1.0535510778427124,"285":0.07895991206169128,"286":0.7047337889671326,"287":-0.23657003045082092,"288":0.7956261038780212,"289":-0.855443000793457,"290":-0.9213047027587891,"291":-0.21453087031841278,"292":-0.8705902695655823,"293":-1.1699641942977905,"294":-0.8393576145172119,"295":-1.1219284534454346,"296":-0.5602141618728638,"297":-0.6463389992713928,"298":-0.9245538711547852,"299":3.6174683570861816,"300":1.2043782472610474,"301":2.6723008155822754,"302":1.971177577972412,"303":-0.10681779682636261,"304":-1.5489104986190796,"305":-1.097701907157898,"306":0.048358380794525146,"307":-3.18141508102417,"308":0.3769524395465851,"309":1.8754429817199707,"310":-0.26148590445518494,"311":-0.4014025032520294,"312":-0.7483024001121521,"313":0.2990812063217163,"314":-1.610374927520752,"315":0.7787123322486877,"316":0.4947909712791443,"317":1.197445034980774,"318":-1.415062427520752,"319":0.11249454319477081,"320":-0.8397077322006226,"321":1.4593592882156372,"322":-1.7685586214065552,"323":0.258925199508667,"324":-0.3051670789718628,"325":0.8154065608978271,"326":0.5508642196655273,"327":-2.037712335586548,"328":0.22892038524150848,"329":-0.6989294290542603,"330":-1.1409815549850464,"331":-0.32311883568763733,"332":-0.9630948305130005,"333":-0.1372123509645462,"334":0.42340952157974243,"335":1.5480897426605225,"336":0.623557984828949,"337":-0.914576530456543,"338":-1.1546140909194946,"339":2.585623025894165,"340":2.1219542026519775,"341":-1.0171059370040894,"342":-0.9948816895484924,"343":-2.0407347679138184,"344":0.6590328812599182,"345":-0.2569566071033478,"346":1.3414678573608398,"347":2.8679633140563965,"348":-1.897623896598816,"349":-1.6796609163284302,"350":-0.24957174062728882,"351":-2.1099677085876465,"352":-1.8579703569412231,"353":-2.005507707595825,"354":0.03989984467625618,"355":0.24131494760513306,"356":2.981609344482422,"357":-2.5957469940185547,"358":0.4188214838504791,"359":1.0195374488830566,"360":-0.1952240765094757,"361":2.0730838775634766,"362":-1.8210053443908691,"363":-0.3076622486114502,"364":-1.3555774688720703,"365":1.041243314743042,"366":-0.3076719045639038,"367":-2.235039472579956,"368":0.8027186393737793,"369":0.5375195145606995,"370":-1.8440771102905273,"371":1.341901421546936,"372":-0.3896394371986389,"373":-0.5345086455345154,"374":0.7569718956947327,"375":0.4427899122238159,"376":0.23530960083007812,"377":0.49863705039024353,"378":-1.7993913888931274,"379":-0.6938303112983704,"380":-2.039048671722412,"381":1.2757518291473389,"382":-0.2818320095539093,"383":-1.641559362411499,"384":-1.0409232378005981,"385":-0.7511767745018005,"386":1.1683894395828247,"387":0.23749403655529022,"388":1.9522730112075806,"389":0.061846405267715454,"390":1.2698081731796265,"391":-2.150623321533203,"392":2.2466790676116943,"393":-0.3749719262123108,"394":-1.0193157196044922,"395":-1.1956453323364258,"396":0.017155520617961884,"397":1.5722217559814453,"398":0.4955126941204071,"399":-1.6157983541488647}},"inputBias":{"rows":20,"columns":1,"weights":{"0":-1.2317155599594116,"1":-3.0438928604125977,"2":-0.9340225458145142,"3":0.07062505185604095,"4":0.3416423499584198,"5":-0.984133780002594,"6":-0.6526075601577759,"7":-0.16658438742160797,"8":0.6761135458946228,"9":-0.24123749136924744,"10":0.01054060086607933,"11":-0.9659738540649414,"12":0.9584382176399231,"13":0.005782325752079487,"14":0.22185373306274414,"15":-0.45360299944877625,"16":-0.4455415606498718,"17":-0.7130095362663269,"18":-2.670060873031616,"19":-3.141986846923828}},"forgetMatrix":{"rows":20,"columns":33,"weights":{"0":1.5646427869796753,"1":1.6224409341812134,"2":0.6604812741279602,"3":-0.7450667023658752,"4":1.4787577390670776,"5":-0.5750053524971008,"6":0.3050173223018646,"7":2.501075506210327,"8":-0.6946505308151245,"9":-1.6908787488937378,"10":-1.091569423675537,"11":-0.024905288591980934,"12":0.4309011399745941,"13":-0.7608598470687866,"14":0.2118384689092636,"15":-0.88076251745224,"16":-0.39537137746810913,"17":0.37748268246650696,"18":0.4133547246456146,"19":-0.09223387390375137,"20":-1.909176230430603,"21":1.2873013019561768,"22":-0.10107169300317764,"23":0.2809046804904938,"24":0.49333322048187256,"25":0.8416383862495422,"26":-0.10319390147924423,"27":0.3800288736820221,"28":1.6532747745513916,"29":-1.1265615224838257,"30":-1.480720043182373,"31":-0.6765469908714294,"32":-1.0175176858901978,"33":-1.3084946870803833,"34":-1.8760257959365845,"35":-4.030297756195068,"36":-1.772551417350769,"37":0.9608399271965027,"38":1.5839499235153198,"39":-0.5927028656005859,"40":-1.4803450107574463,"41":-0.17190402746200562,"42":-0.30874112248420715,"43":-0.0601639449596405,"44":-0.4442102611064911,"45":-1.7306715250015259,"46":-0.16507288813591003,"47":0.23492945730686188,"48":-0.8880502581596375,"49":0.5107547044754028,"50":0.844373345375061,"51":-0.3459102511405945,"52":1.5934592485427856,"53":3.3350377082824707,"54":-0.5092750787734985,"55":-0.23701252043247223,"56":-1.8779327869415283,"57":0.5439727902412415,"58":-0.12066440284252167,"59":-0.7305520176887512,"60":1.2970234155654907,"61":-2.1344761848449707,"62":-0.5864546298980713,"63":-0.17640142142772675,"64":-1.3672765493392944,"65":2.3353943824768066,"66":0.7598955035209656,"67":-0.7507122755050659,"68":1.0240445137023926,"69":-0.4656033515930176,"70":0.8901914954185486,"71":4.565222263336182,"72":-0.606408953666687,"73":0.5162222385406494,"74":1.4980535507202148,"75":-0.5607153177261353,"76":-1.4364123344421387,"77":0.14355333149433136,"78":1.3797370195388794,"79":-1.3679783344268799,"80":-0.8046481609344482,"81":-0.7867430448532104,"82":0.9857138991355896,"83":-0.3207026422023773,"84":0.023891307413578033,"85":0.3782603442668915,"86":-1.567026138305664,"87":-2.4249184131622314,"88":-1.123208999633789,"89":1.769903540611267,"90":-0.45070791244506836,"91":-0.02430683933198452,"92":-0.8564111590385437,"93":-2.574646472930908,"94":-1.9048569202423096,"95":0.15449829399585724,"96":-0.015377742238342762,"97":-0.8537293076515198,"98":0.5115645527839661,"99":-0.7691185474395752,"100":0.5897997617721558,"101":2.492478370666504,"102":1.5504004955291748,"103":-0.960101842880249,"104":-0.2693631052970886,"105":-0.44463974237442017,"106":0.09604402631521225,"107":0.04570288956165314,"108":-0.08607635647058487,"109":1.2465896606445312,"110":0.18825663626194,"111":1.8607442378997803,"112":0.1393449753522873,"113":0.5759310722351074,"114":1.5035492181777954,"115":-0.297882616519928,"116":-0.2054561972618103,"117":2.336622476577759,"118":-0.9872418642044067,"119":-2.420928716659546,"120":0.1883683204650879,"121":2.1225802898406982,"122":0.7359651923179626,"123":-1.004317045211792,"124":-1.6600054502487183,"125":0.03065519966185093,"126":0.46610119938850403,"127":0.6928179860115051,"128":0.9652197957038879,"129":-0.13962876796722412,"130":2.739048480987549,"131":-1.9262441396713257,"132":-0.29701635241508484,"133":-0.409039705991745,"134":0.36226361989974976,"135":0.8094691038131714,"136":0.7139567732810974,"137":0.825535774230957,"138":-1.4190770387649536,"139":-0.4470668137073517,"140":-0.5058385133743286,"141":0.9729252457618713,"142":0.6237713098526001,"143":-1.2040425539016724,"144":-0.22942949831485748,"145":0.2085733711719513,"146":-1.6587750911712646,"147":2.617141008377075,"148":0.7025988698005676,"149":-0.3948904573917389,"150":-0.9398516416549683,"151":0.21404337882995605,"152":-0.8320268988609314,"153":-0.21518570184707642,"154":1.5012110471725464,"155":0.9126253128051758,"156":-1.5944269895553589,"157":-1.154018759727478,"158":-1.9258865118026733,"159":-0.26004523038864136,"160":-1.4117299318313599,"161":1.1043450832366943,"162":2.0029537677764893,"163":0.5392711162567139,"164":-0.39987286925315857,"165":-0.2850798964500427,"166":-1.0484070777893066,"167":-0.4307546615600586,"168":1.2940852642059326,"169":0.8236703872680664,"170":2.094372272491455,"171":-1.0785706043243408,"172":0.14072763919830322,"173":0.5594750046730042,"174":-1.8235609531402588,"175":-0.03469856455922127,"176":-1.4928903579711914,"177":0.43827489018440247,"178":-0.1759655624628067,"179":0.2845999300479889,"180":0.2496696561574936,"181":0.0009161700727418065,"182":-1.2668485641479492,"183":0.7415730953216553,"184":-0.6904805302619934,"185":-0.018817150965332985,"186":-2.2467448711395264,"187":-0.9243095517158508,"188":1.5406043529510498,"189":-1.5821112394332886,"190":1.8193778991699219,"191":-1.9370450973510742,"192":-0.257170170545578,"193":-0.36915260553359985,"194":-0.12283094972372055,"195":0.15841789543628693,"196":0.5947564244270325,"197":2.0973997116088867,"198":0.11158257722854614,"199":1.9518448114395142,"200":1.1435036659240723,"201":-1.2430694103240967,"202":0.7729312181472778,"203":0.7030556797981262,"204":-0.6570972800254822,"205":1.7423723936080933,"206":-1.2069463729858398,"207":-1.2087888717651367,"208":0.5362433791160583,"209":1.6190948486328125,"210":-0.03767900913953781,"211":-0.22109539806842804,"212":0.9375438690185547,"213":-0.0006840067799203098,"214":-1.7296833992004395,"215":0.42953816056251526,"216":1.5711629390716553,"217":0.505547046661377,"218":1.0793731212615967,"219":-0.31326133012771606,"220":-0.12238333374261856,"221":1.1294496059417725,"222":1.2851868867874146,"223":-0.5529013276100159,"224":0.9982537627220154,"225":-0.41048869490623474,"226":0.4596191942691803,"227":-2.111844539642334,"228":-2.2997899055480957,"229":-0.503086507320404,"230":0.3105524182319641,"231":-3.325472831726074,"232":1.832775354385376,"233":1.9161180257797241,"234":-0.8768455982208252,"235":0.4015958607196808,"236":-1.0578986406326294,"237":-0.3983398377895355,"238":0.35343700647354126,"239":-3.031393527984619,"240":1.4590703248977661,"241":1.641156792640686,"242":1.974891185760498,"243":2.1841421127319336,"244":1.070780634880066,"245":0.3359076678752899,"246":2.4122977256774902,"247":-2.6143720149993896,"248":0.24712276458740234,"249":2.2431724071502686,"250":-1.5917679071426392,"251":-0.5904011130332947,"252":1.5329092741012573,"253":2.9382574558258057,"254":0.7001531720161438,"255":0.567082405090332,"256":-2.404534339904785,"257":0.2827659845352173,"258":0.44737300276756287,"259":0.1926247626543045,"260":-1.7206140756607056,"261":-0.6784924268722534,"262":1.9163107872009277,"263":-2.30948543548584,"264":1.5806101560592651,"265":-1.3110268115997314,"266":-1.4651179313659668,"267":-1.0109304189682007,"268":0.15201804041862488,"269":0.42046695947647095,"270":-1.3479063510894775,"271":-1.5572539567947388,"272":0.5914129018783569,"273":-0.4236217737197876,"274":-1.5829215049743652,"275":-0.640505313873291,"276":0.21458658576011658,"277":-1.7615830898284912,"278":-0.08138439804315567,"279":-1.0428515672683716,"280":2.1751813888549805,"281":1.2575187683105469,"282":-0.0690016821026802,"283":1.2837086915969849,"284":-3.015315532684326,"285":-0.2190246731042862,"286":-1.0780245065689087,"287":1.0027714967727661,"288":-0.45898863673210144,"289":-0.7574390769004822,"290":-1.0925437211990356,"291":-1.2814340591430664,"292":-1.0678086280822754,"293":1.5295891761779785,"294":1.3254435062408447,"295":-0.8167127370834351,"296":1.4297881126403809,"297":1.2437211275100708,"298":-1.982933759689331,"299":-0.6553268432617188,"300":-1.6653639078140259,"301":1.070999026298523,"302":-0.9867821931838989,"303":-1.117877721786499,"304":0.48201608657836914,"305":0.21642205119132996,"306":-1.4404085874557495,"307":-0.5810766816139221,"308":0.627161979675293,"309":-0.5262059569358826,"310":-0.10917814821004868,"311":1.9335089921951294,"312":-1.691031813621521,"313":-0.11282607167959213,"314":0.5608484148979187,"315":0.20930390059947968,"316":0.7987834811210632,"317":1.2794575691223145,"318":0.3108430802822113,"319":-1.0419609546661377,"320":-1.4872074127197266,"321":1.5349349975585938,"322":0.10770560801029205,"323":2.0352373123168945,"324":0.6588687896728516,"325":1.1607505083084106,"326":0.18374256789684296,"327":-1.242327332496643,"328":-2.5080764293670654,"329":0.5938275456428528,"330":-1.1124436855316162,"331":1.6495068073272705,"332":1.773055911064148,"333":1.253029227256775,"334":-0.8108701705932617,"335":-1.1965659856796265,"336":0.6134928464889526,"337":2.379180669784546,"338":-1.1529031991958618,"339":2.0670924186706543,"340":-0.059026431292295456,"341":-0.6982486844062805,"342":1.61649751663208,"343":-0.12911249697208405,"344":2.5052640438079834,"345":0.2183908224105835,"346":-1.2930502891540527,"347":-0.7749077081680298,"348":-0.9644390940666199,"349":-0.6508299708366394,"350":0.8498547077178955,"351":0.8956157565116882,"352":1.0485492944717407,"353":-2.250826597213745,"354":-0.9891807436943054,"355":0.6863759756088257,"356":1.216322660446167,"357":1.4478635787963867,"358":1.2534347772598267,"359":-1.6116863489151,"360":-2.051792621612549,"361":0.5246070027351379,"362":-0.8840233683586121,"363":-3.0100269317626953,"364":-0.5770524740219116,"365":0.1629212498664856,"366":0.14150524139404297,"367":-0.7416431903839111,"368":-1.3057482242584229,"369":-0.8492987155914307,"370":0.785092830657959,"371":-0.7361761331558228,"372":-0.06273104250431061,"373":-1.6309361457824707,"374":0.47807350754737854,"375":1.088714361190796,"376":0.016024768352508545,"377":-0.49603304266929626,"378":2.2028822898864746,"379":0.7235603928565979,"380":-0.19082826375961304,"381":1.14374577999115,"382":-0.6150100827217102,"383":0.25342580676078796,"384":0.9534242153167725,"385":2.9039969444274902,"386":-1.0153818130493164,"387":-0.46358025074005127,"388":-1.0508278608322144,"389":-1.0155606269836426,"390":1.4905587434768677,"391":-0.5557528138160706,"392":0.6606624722480774,"393":0.36845189332962036,"394":0.37634366750717163,"395":-1.3482167720794678,"396":-0.34616219997406006,"397":-1.1631807088851929,"398":-1.3589166402816772,"399":-1.6457685232162476,"400":0.6803914904594421,"401":-0.8605190515518188,"402":-1.4437581300735474,"403":-0.4895203113555908,"404":-0.8924692869186401,"405":1.6180908679962158,"406":-0.03085094876587391,"407":1.1644072532653809,"408":-1.712028980255127,"409":0.5252244472503662,"410":-0.16214334964752197,"411":1.2413944005966187,"412":0.7335463166236877,"413":1.2459694147109985,"414":0.14497347176074982,"415":1.1817889213562012,"416":2.1577231884002686,"417":1.390943169593811,"418":-0.6496856808662415,"419":-0.8134323358535767,"420":1.4939931631088257,"421":-1.125817060470581,"422":-0.5700410604476929,"423":1.355593204498291,"424":0.2519797682762146,"425":0.7204545736312866,"426":0.7430055141448975,"427":0.0795297920703888,"428":0.34306108951568604,"429":-1.9755159616470337,"430":-1.475824236869812,"431":2.008308172225952,"432":0.8629931211471558,"433":0.1288035660982132,"434":-0.04605787992477417,"435":1.6220390796661377,"436":2.1850032806396484,"437":-0.8630248308181763,"438":-0.39615797996520996,"439":-0.303507924079895,"440":-0.5492958426475525,"441":0.7999886870384216,"442":0.8197510838508606,"443":0.7056587338447571,"444":0.08616476505994797,"445":1.5549089908599854,"446":-1.0139425992965698,"447":-0.36597228050231934,"448":-1.6258492469787598,"449":0.05915771797299385,"450":-0.5482499003410339,"451":1.6014251708984375,"452":-0.9849141240119934,"453":-0.3615095317363739,"454":-1.291560411453247,"455":0.9964903593063354,"456":-0.9396429061889648,"457":2.2561073303222656,"458":-3.4852280616760254,"459":-4.224046230316162,"460":0.5197914242744446,"461":-0.022538987919688225,"462":0.032373085618019104,"463":-0.5279856324195862,"464":1.0499616861343384,"465":0.1861758828163147,"466":-0.27113616466522217,"467":-0.6688135266304016,"468":-0.23963771760463715,"469":1.66781485080719,"470":-0.19274869561195374,"471":-0.4302360713481903,"472":-0.10676544159650803,"473":1.534781575202942,"474":1.158252239227295,"475":0.040062885731458664,"476":-1.5633803606033325,"477":-0.763597846031189,"478":0.106305330991745,"479":0.7794602513313293,"480":1.2475780248641968,"481":0.2991730570793152,"482":-4.312258243560791,"483":1.0144658088684082,"484":0.2858261168003082,"485":-0.43392708897590637,"486":0.38579264283180237,"487":-1.478864312171936,"488":-1.5891040563583374,"489":0.8925159573554993,"490":-0.1321035623550415,"491":0.3798176944255829,"492":-1.2536507844924927,"493":-0.626943051815033,"494":-0.3784032166004181,"495":-1.3561042547225952,"496":-0.17120930552482605,"497":-0.5625036358833313,"498":2.7087249755859375,"499":-1.5799148082733154,"500":1.651066780090332,"501":1.3948267698287964,"502":-0.2669121026992798,"503":0.20389312505722046,"504":1.6424065828323364,"505":0.7280293107032776,"506":-2.145785331726074,"507":0.23102757334709167,"508":1.9640700817108154,"509":-1.6094313859939575,"510":-0.10200757533311844,"511":-0.2844788730144501,"512":-1.9302213191986084,"513":-1.3374148607254028,"514":-1.417502760887146,"515":-0.37910568714141846,"516":-0.9069512486457825,"517":-0.09134133905172348,"518":0.8973641395568848,"519":-1.8303276300430298,"520":0.6065478324890137,"521":-2.2611095905303955,"522":1.2944809198379517,"523":0.02184111624956131,"524":0.17702408134937286,"525":1.1793580055236816,"526":1.7045152187347412,"527":-0.6425027251243591,"528":0.8093931078910828,"529":-0.7844533920288086,"530":0.30702489614486694,"531":-1.0504708290100098,"532":2.561399459838867,"533":0.5956000089645386,"534":-0.2362034022808075,"535":0.6824256181716919,"536":0.4016214609146118,"537":-1.4358493089675903,"538":-2.749326467514038,"539":0.48921704292297363,"540":0.25011342763900757,"541":-1.808537244796753,"542":-0.9432399272918701,"543":0.053859464824199677,"544":0.34882810711860657,"545":-0.0855691209435463,"546":2.1208083629608154,"547":0.38753074407577515,"548":0.18207402527332306,"549":-0.857761561870575,"550":0.4370976686477661,"551":1.6764440536499023,"552":0.8455997109413147,"553":0.5350821614265442,"554":-1.4009369611740112,"555":-0.154155895113945,"556":-0.37677791714668274,"557":0.4885624647140503,"558":-0.11300347745418549,"559":-2.9312541484832764,"560":1.8612653017044067,"561":1.2893946170806885,"562":-1.6654974222183228,"563":0.004513097926974297,"564":-0.15517202019691467,"565":0.9917331337928772,"566":2.7918543815612793,"567":0.33174967765808105,"568":-0.8715285062789917,"569":1.957839012145996,"570":0.036616817116737366,"571":-1.187437891960144,"572":0.26372000575065613,"573":-0.9136149287223816,"574":-1.6177918910980225,"575":-2.5202689170837402,"576":0.6072378158569336,"577":1.2578394412994385,"578":0.1324516087770462,"579":0.2673199474811554,"580":1.1460130214691162,"581":-2.111421585083008,"582":-1.1526315212249756,"583":0.256738543510437,"584":2.792490005493164,"585":-0.5646120309829712,"586":-0.04013543576002121,"587":-3.6566357612609863,"588":-1.3622491359710693,"589":-2.6430749893188477,"590":-0.20256662368774414,"591":1.368114948272705,"592":-0.6955147385597229,"593":-0.3975064754486084,"594":-0.40328940749168396,"595":0.7861283421516418,"596":-1.2355867624282837,"597":0.21081793308258057,"598":1.9767125844955444,"599":2.397193431854248,"600":0.6822646856307983,"601":0.7119461894035339,"602":0.5849136114120483,"603":0.22289122641086578,"604":-2.6093013286590576,"605":-0.6664583683013916,"606":-0.19872133433818817,"607":-0.6963915228843689,"608":-2.0358407497406006,"609":-0.3551808297634125,"610":0.6571217179298401,"611":-1.1621073484420776,"612":-1.4257941246032715,"613":-1.2010114192962646,"614":0.18508405983448029,"615":-1.4543434381484985,"616":-0.11943989992141724,"617":0.39092570543289185,"618":-0.6457192897796631,"619":0.7246415019035339,"620":-1.3393381834030151,"621":0.28085556626319885,"622":-1.5269213914871216,"623":-1.371248722076416,"624":-1.4869612455368042,"625":-1.9156901836395264,"626":0.7989874482154846,"627":0.5635761022567749,"628":-0.25538375973701477,"629":-0.10425381362438202,"630":1.4805643558502197,"631":0.19178618490695953,"632":0.5455374717712402,"633":-0.15507417917251587,"634":0.6795989274978638,"635":0.405065655708313,"636":-0.6368197798728943,"637":-0.2384905070066452,"638":-2.0549328327178955,"639":0.9634323120117188,"640":-0.39506858587265015,"641":-1.1381478309631348,"642":-0.4575622081756592,"643":-0.13825790584087372,"644":-2.094526529312134,"645":-1.4484726190567017,"646":-1.4525476694107056,"647":0.2935689091682434,"648":-0.3525354266166687,"649":0.18750283122062683,"650":0.09661862999200821,"651":-1.9106123447418213,"652":1.3691877126693726,"653":-1.0829148292541504,"654":-0.14631158113479614,"655":0.177036315202713,"656":0.02466139756143093,"657":-0.5123231410980225,"658":0.1544950157403946,"659":0.24795515835285187}},"forgetHidden":{"rows":20,"columns":20,"weights":{"0":-1.0055691003799438,"1":-1.2424824237823486,"2":-0.750369131565094,"3":-0.9761849641799927,"4":-1.8325650691986084,"5":1.6866228580474854,"6":-4.276766777038574,"7":-2.3389973640441895,"8":1.0504138469696045,"9":4.574136257171631,"10":-0.5346752405166626,"11":2.307521343231201,"12":2.7726285457611084,"13":1.4355778694152832,"14":-1.8959786891937256,"15":0.8131034970283508,"16":-1.4570889472961426,"17":2.5566177368164062,"18":1.0343824625015259,"19":-2.4189233779907227,"20":0.8378807306289673,"21":1.9584633111953735,"22":-1.6549421548843384,"23":-0.29185035824775696,"24":0.5362778902053833,"25":-1.034862756729126,"26":0.10521578043699265,"27":-1.0281041860580444,"28":-1.1090139150619507,"29":-0.021052943542599678,"30":-0.6484533548355103,"31":0.3404999375343323,"32":-0.2663259506225586,"33":-0.9513232707977295,"34":-2.0646369457244873,"35":-0.8989772796630859,"36":-0.5843896865844727,"37":-2.451500177383423,"38":-0.026435647159814835,"39":-0.4416150748729706,"40":-2.859192371368408,"41":0.5599169135093689,"42":0.21204125881195068,"43":2.7424685955047607,"44":-0.9870241284370422,"45":-0.8445257544517517,"46":-3.3328967094421387,"47":-0.8368241786956787,"48":-0.08500250428915024,"49":1.7359607219696045,"50":-0.13493898510932922,"51":0.29122084379196167,"52":0.21260613203048706,"53":0.804480254650116,"54":-1.387913703918457,"55":1.9065864086151123,"56":-1.4639371633529663,"57":-0.2880736291408539,"58":-0.9907094836235046,"59":0.214231476187706,"60":1.3809882402420044,"61":-0.4356479346752167,"62":2.6545982360839844,"63":-0.329780638217926,"64":-1.0526643991470337,"65":-1.6584519147872925,"66":1.3046197891235352,"67":-0.45154500007629395,"68":0.8150270581245422,"69":0.5902901291847229,"70":1.185355305671692,"71":-2.3730363845825195,"72":-0.025266630575060844,"73":0.49443355202674866,"74":-0.5995447635650635,"75":-0.11307830363512039,"76":2.305706262588501,"77":-4.2520623207092285,"78":2.6039795875549316,"79":3.1614651679992676,"80":1.32326078414917,"81":-1.8984909057617188,"82":2.0648295879364014,"83":1.8963984251022339,"84":-1.6855238676071167,"85":2.593005657196045,"86":-0.43477147817611694,"87":-1.7888479232788086,"88":1.983530879020691,"89":2.969987392425537,"90":-0.29621002078056335,"91":0.470947802066803,"92":1.496022343635559,"93":2.8182990550994873,"94":0.25283288955688477,"95":2.792600154876709,"96":0.3109740614891052,"97":1.0072948932647705,"98":0.9316824674606323,"99":-2.65985369682312,"100":1.0585401058197021,"101":1.2969634532928467,"102":1.1062239408493042,"103":1.8555309772491455,"104":-1.6209255456924438,"105":2.1437697410583496,"106":-1.2677642107009888,"107":-1.1458625793457031,"108":2.355788230895996,"109":0.9246655702590942,"110":-1.749720811843872,"111":-0.39941179752349854,"112":2.5366616249084473,"113":1.517365574836731,"114":-2.919602394104004,"115":1.0443110466003418,"116":0.8667294383049011,"117":-0.5168173313140869,"118":-0.3806942105293274,"119":1.1444249153137207,"120":0.1316070407629013,"121":0.40922218561172485,"122":0.7781707644462585,"123":0.6761252284049988,"124":-0.880195140838623,"125":0.6668375134468079,"126":-0.1479051262140274,"127":-0.2815069556236267,"128":0.5735924243927002,"129":0.8839021921157837,"130":-1.4190700054168701,"131":-0.25090447068214417,"132":-0.3213195502758026,"133":0.8659353852272034,"134":-1.0295401811599731,"135":0.0936659425497055,"136":-0.19388122856616974,"137":0.9147011637687683,"138":-0.6200202107429504,"139":-0.02143685333430767,"140":-1.653096318244934,"141":-1.2521430253982544,"142":0.2933948338031769,"143":-0.9108111262321472,"144":1.0047014951705933,"145":-0.07628118991851807,"146":-0.09842196851968765,"147":1.173123836517334,"148":0.1629568487405777,"149":0.16249632835388184,"150":-0.06424883008003235,"151":-0.26915088295936584,"152":-0.22106601297855377,"153":0.5239546298980713,"154":0.727878749370575,"155":2.578552722930908,"156":-0.8243094086647034,"157":-0.36472436785697937,"158":1.6299543380737305,"159":-0.8128059506416321,"160":0.41243845224380493,"161":0.9179615378379822,"162":0.10722536593675613,"163":0.23242835700511932,"164":-0.22270865738391876,"165":-0.10946918278932571,"166":0.6205552816390991,"167":-0.22289444506168365,"168":0.2856576442718506,"169":0.18606555461883545,"170":-0.5889886617660522,"171":-0.5396241545677185,"172":-0.2269434779882431,"173":0.46384263038635254,"174":-0.6907105445861816,"175":0.9576071500778198,"176":0.4083499610424042,"177":-0.6110981106758118,"178":-0.6832922697067261,"179":0.813200831413269,"180":2.702476739883423,"181":0.3462638854980469,"182":-0.1987794190645218,"183":0.4030681550502777,"184":-0.7616727948188782,"185":0.19296586513519287,"186":1.6500850915908813,"187":-0.7438487410545349,"188":-0.13245771825313568,"189":0.025745941326022148,"190":-2.5212314128875732,"191":-1.7143877744674683,"192":0.15685562789440155,"193":0.6774792671203613,"194":-1.850462555885315,"195":1.668450951576233,"196":1.4930412769317627,"197":-2.6153578758239746,"198":0.9516438245773315,"199":2.203754186630249,"200":0.8698234558105469,"201":-0.7113311290740967,"202":0.5564775466918945,"203":0.607872486114502,"204":0.24191515147686005,"205":0.7349331378936768,"206":-0.19363056123256683,"207":0.17685438692569733,"208":-0.13916870951652527,"209":-0.3071993291378021,"210":-0.955085039138794,"211":-0.4810774326324463,"212":-0.7379016876220703,"213":0.350654274225235,"214":-0.6020168662071228,"215":-0.4900127649307251,"216":-0.27017828822135925,"217":-1.2618026733398438,"218":-0.7724050879478455,"219":-0.44469955563545227,"220":0.411618709564209,"221":6.023831367492676,"222":0.14281590282917023,"223":1.6216926574707031,"224":-1.857971429824829,"225":1.0316485166549683,"226":-0.36917832493782043,"227":-1.7689208984375,"228":0.7297662496566772,"229":1.1212525367736816,"230":-1.2390435934066772,"231":0.6066763997077942,"232":0.23806196451187134,"233":0.16045954823493958,"234":-1.1187310218811035,"235":-0.3884936273097992,"236":1.2465665340423584,"237":1.9558151960372925,"238":-5.390300273895264,"239":-0.486145555973053,"240":-0.7212692499160767,"241":2.574087619781494,"242":0.5589713454246521,"243":2.753915548324585,"244":-1.6927440166473389,"245":0.07491227239370346,"246":-2.310633420944214,"247":-3.8675148487091064,"248":2.25559401512146,"249":1.2985788583755493,"250":-1.0996562242507935,"251":1.434607744216919,"252":1.1534491777420044,"253":2.7200706005096436,"254":-3.226036787033081,"255":0.7328554391860962,"256":-1.9870214462280273,"257":3.2071783542633057,"258":-5.726722717285156,"259":0.24520115554332733,"260":1.1147035360336304,"261":-1.066362977027893,"262":1.4478758573532104,"263":1.079458236694336,"264":0.8909544944763184,"265":1.6238726377487183,"266":0.22906102240085602,"267":3.0366809368133545,"268":1.7136459350585938,"269":2.186534881591797,"270":1.488654375076294,"271":-2.309812068939209,"272":0.23379068076610565,"273":0.42162901163101196,"274":-0.9175349473953247,"275":2.6001439094543457,"276":3.387273073196411,"277":-0.6645579934120178,"278":1.8513150215148926,"279":1.2934831380844116,"280":0.9255874752998352,"281":1.7539879083633423,"282":-0.33916524052619934,"283":1.9619125127792358,"284":-3.5320403575897217,"285":3.168545961380005,"286":-1.4068541526794434,"287":0.18532487750053406,"288":3.6958868503570557,"289":2.4975943565368652,"290":-1.4310873746871948,"291":-0.08577007055282593,"292":2.813697576522827,"293":0.0772087574005127,"294":-4.056081295013428,"295":1.168655514717102,"296":5.6771321296691895,"297":-1.6054904460906982,"298":-0.4439389705657959,"299":-0.866869330406189,"300":2.5685157775878906,"301":-1.2976912260055542,"302":2.1469411849975586,"303":0.9854147434234619,"304":1.2448089122772217,"305":0.5447115898132324,"306":-0.029411468654870987,"307":0.3478418290615082,"308":0.6986400485038757,"309":-1.0151424407958984,"310":0.058321513235569,"311":-2.445875406265259,"312":0.5486375689506531,"313":1.1622554063796997,"314":-0.7953463792800903,"315":1.3570442199707031,"316":-0.002348601818084717,"317":-1.0725384950637817,"318":1.1422624588012695,"319":-0.5368040204048157,"320":-0.879757821559906,"321":2.612989902496338,"322":-1.1863690614700317,"323":2.002392530441284,"324":-2.4075233936309814,"325":1.873603105545044,"326":-1.428392767906189,"327":-0.32771769165992737,"328":0.3835243880748749,"329":0.9154289960861206,"330":-0.6578540802001953,"331":0.3018379211425781,"332":0.9665330648422241,"333":0.9682058691978455,"334":-1.8044416904449463,"335":0.5559765100479126,"336":0.619291365146637,"337":0.27691134810447693,"338":-1.893884301185608,"339":-0.3599647283554077,"340":-0.9794929623603821,"341":-1.4340957403182983,"342":-3.520787000656128,"343":-0.4192766845226288,"344":0.316060334444046,"345":-1.4643744230270386,"346":-0.29226040840148926,"347":-1.0574705600738525,"348":0.9215406179428101,"349":-0.9918277859687805,"350":1.7723802328109741,"351":1.029418706893921,"352":-1.3900635242462158,"353":0.2137560248374939,"354":-0.37901341915130615,"355":-3.2150323390960693,"356":-2.0905203819274902,"357":1.0364810228347778,"358":-0.4989575445652008,"359":-2.11543607711792,"360":-1.4332759380340576,"361":-3.052675724029541,"362":0.4144044816493988,"363":-0.8142075538635254,"364":0.9003934860229492,"365":0.4385657012462616,"366":-0.3516893684864044,"367":-0.06006139516830444,"368":-0.3802540898323059,"369":-1.5158965587615967,"370":1.3544803857803345,"371":-0.09538152813911438,"372":-0.21901968121528625,"373":0.27791935205459595,"374":1.7770906686782837,"375":1.195136547088623,"376":0.09051557630300522,"377":1.6546108722686768,"378":3.3857674598693848,"379":-1.343996524810791,"380":-0.5061848759651184,"381":2.5131165981292725,"382":0.980819046497345,"383":2.3352694511413574,"384":-2.8995742797851562,"385":1.3764444589614868,"386":-1.2119040489196777,"387":-1.356469988822937,"388":0.3752785325050354,"389":0.9595904350280762,"390":0.9432182312011719,"391":0.39852792024612427,"392":0.6913137435913086,"393":5.339807987213135,"394":-2.3538873195648193,"395":2.2024757862091064,"396":2.277320146560669,"397":2.276756525039673,"398":0.4640033543109894,"399":0.9698447585105896}},"forgetBias":{"rows":20,"columns":1,"weights":{"0":0,"1":0,"2":0,"3":0,"4":0,"5":0,"6":0,"7":0,"8":0,"9":0,"10":0,"11":0,"12":0,"13":0,"14":0,"15":0,"16":0,"17":0,"18":0,"19":0}},"outputMatrix":{"rows":20,"columns":33,"weights":{"0":-0.2978140413761139,"1":0.5571274161338806,"2":1.2728649377822876,"3":0.9511352181434631,"4":1.4603513479232788,"5":0.3571641147136688,"6":-0.4985034465789795,"7":4.094203472137451,"8":-0.27876415848731995,"9":-0.8115143179893494,"10":0.15787270665168762,"11":-1.7235757112503052,"12":2.369643449783325,"13":1.8611303567886353,"14":-0.8690192699432373,"15":0.36782512068748474,"16":-2.9876835346221924,"17":-2.398205518722534,"18":-1.5118781328201294,"19":-1.315173864364624,"20":1.1408121585845947,"21":0.4917986989021301,"22":1.3716421127319336,"23":1.890355110168457,"24":-0.8685822486877441,"25":2.0253984928131104,"26":-0.7759907841682434,"27":0.230964794754982,"28":1.0066834688186646,"29":-2.700443744659424,"30":-2.6934847831726074,"31":1.987958550453186,"32":-1.9636980295181274,"33":-0.02060222066938877,"34":-1.3017672300338745,"35":0.4093608558177948,"36":2.6513242721557617,"37":-0.9366186261177063,"38":1.1250256299972534,"39":0.7838732004165649,"40":1.984501600265503,"41":-0.1863294392824173,"42":-1.8064289093017578,"43":0.19790950417518616,"44":-3.1973624229431152,"45":1.6707323789596558,"46":-0.18266290426254272,"47":-0.6831894516944885,"48":0.4279324412345886,"49":0.14114129543304443,"50":-1.9483360052108765,"51":-0.9057150483131409,"52":-1.686292290687561,"53":0.22652462124824524,"54":-0.615291178226471,"55":0.21414217352867126,"56":1.1974058151245117,"57":-1.9637229442596436,"58":0.2759019732475281,"59":-0.10087541490793228,"60":-0.37323397397994995,"61":-0.5639426708221436,"62":-0.8292160630226135,"63":-1.7968765497207642,"64":0.7812151312828064,"65":0.7092490792274475,"66":-1.761749029159546,"67":0.3297384977340698,"68":4.580690860748291,"69":-0.4401739537715912,"70":0.5296526551246643,"71":0.5827974081039429,"72":-1.1400479078292847,"73":1.8911811113357544,"74":-1.1527068614959717,"75":-0.6722553968429565,"76":0.6411173939704895,"77":-0.04089975357055664,"78":0.06218886002898216,"79":1.0381947755813599,"80":-0.1768965721130371,"81":2.7420907020568848,"82":-0.21870870888233185,"83":0.16150639951229095,"84":1.2514190673828125,"85":0.36462652683258057,"86":1.2282073497772217,"87":-0.8689951300621033,"88":2.2659084796905518,"89":1.3869343996047974,"90":0.22620801627635956,"91":-1.5463851690292358,"92":-1.0850354433059692,"93":0.08995017409324646,"94":1.3821752071380615,"95":0.34554702043533325,"96":-1.5236221551895142,"97":1.7615582942962646,"98":-1.7554199695587158,"99":-0.3105015456676483,"100":-1.4374606609344482,"101":0.7506628632545471,"102":-2.515753984451294,"103":2.776779890060425,"104":1.2875744104385376,"105":-0.10362038761377335,"106":1.7930179834365845,"107":-1.6641831398010254,"108":-2.686694383621216,"109":-1.1268484592437744,"110":1.5546761751174927,"111":-2.128298759460449,"112":0.48236897587776184,"113":-2.3350703716278076,"114":0.8160058259963989,"115":-0.4481518268585205,"116":0.8419374823570251,"117":1.3522629737854004,"118":0.08262716233730316,"119":-0.9448649883270264,"120":-0.27604830265045166,"121":0.9655637741088867,"122":-0.47282859683036804,"123":2.863898992538452,"124":-1.0992323160171509,"125":-2.339252233505249,"126":0.7362436652183533,"127":0.4118047058582306,"128":-1.3984695672988892,"129":-1.0921151638031006,"130":0.5231235027313232,"131":1.2785059213638306,"132":-2.786996603012085,"133":-0.7165846824645996,"134":0.7510180473327637,"135":-0.6004269123077393,"136":-1.060014247894287,"137":-0.4404086172580719,"138":0.5713785886764526,"139":0.2749788463115692,"140":-1.9060949087142944,"141":-1.5762584209442139,"142":-0.016676854342222214,"143":0.48105084896087646,"144":-0.9200129508972168,"145":1.7376189231872559,"146":-0.9185984134674072,"147":1.9367541074752808,"148":-1.0413789749145508,"149":0.054293856024742126,"150":0.6911440491676331,"151":-0.5349894165992737,"152":-0.6678717136383057,"153":0.315229207277298,"154":1.9318280220031738,"155":0.7378828525543213,"156":-0.10010753571987152,"157":-0.9227250814437866,"158":-0.9695727825164795,"159":3.101226806640625,"160":1.0484505891799927,"161":-0.06743186712265015,"162":0.2704748213291168,"163":2.257333993911743,"164":0.02410440519452095,"165":0.394281804561615,"166":-0.40768963098526,"167":-0.02741006575524807,"168":-1.6191773414611816,"169":0.906170129776001,"170":-2.097541332244873,"171":-0.4657967984676361,"172":0.09269795566797256,"173":0.14363639056682587,"174":-1.8316254615783691,"175":-1.4349478483200073,"176":0.6101081371307373,"177":-0.5870979428291321,"178":-1.6827095746994019,"179":0.8543165326118469,"180":-0.8018446564674377,"181":0.3710479736328125,"182":1.5424399375915527,"183":1.4388492107391357,"184":1.0297030210494995,"185":-0.6686143279075623,"186":0.46962279081344604,"187":-0.9611997008323669,"188":0.493125855922699,"189":1.4131460189819336,"190":-1.179487705230713,"191":0.9257703423500061,"192":0.46525973081588745,"193":0.7162842154502869,"194":0.9373871684074402,"195":-0.10993889719247818,"196":-0.8453441858291626,"197":0.23690153658390045,"198":0.1475830376148224,"199":0.4092680811882019,"200":1.8055464029312134,"201":-0.4380780756473541,"202":-0.0036836930084973574,"203":-0.11983387917280197,"204":0.7268144488334656,"205":0.27202221751213074,"206":-1.630818247795105,"207":0.4827257990837097,"208":1.4836119413375854,"209":-0.0528528094291687,"210":-0.1748485416173935,"211":-0.08661646395921707,"212":2.058091878890991,"213":-0.03129881992936134,"214":-1.803158164024353,"215":0.1995631754398346,"216":-0.653519868850708,"217":0.5535975694656372,"218":1.0546684265136719,"219":0.04401140287518501,"220":-0.2910902500152588,"221":-0.2530577480792999,"222":-0.0926559716463089,"223":-0.146388441324234,"224":0.6034367680549622,"225":0.995155394077301,"226":0.30023249983787537,"227":-0.6070387959480286,"228":-1.3784416913986206,"229":0.7503652572631836,"230":-0.6504010558128357,"231":-1.4267678260803223,"232":0.6435496807098389,"233":0.2015509456396103,"234":-0.31116703152656555,"235":0.3544313907623291,"236":-1.646964192390442,"237":-0.375478059053421,"238":1.9824246168136597,"239":-0.04915118217468262,"240":-0.9648535251617432,"241":0.332308828830719,"242":-2.1246731281280518,"243":0.6788023710250854,"244":1.5855289697647095,"245":0.09411079436540604,"246":0.8731129169464111,"247":-1.7604092359542847,"248":-1.1519724130630493,"249":-0.18022920191287994,"250":0.4337451159954071,"251":4.087510585784912,"252":0.9585391283035278,"253":1.5899308919906616,"254":0.8564258813858032,"255":-0.22804801166057587,"256":0.2582623064517975,"257":-0.2293190211057663,"258":1.9211044311523438,"259":0.5455330610275269,"260":0.6234493255615234,"261":-0.37402796745300293,"262":2.0775768756866455,"263":0.36184704303741455,"264":-1.8929572105407715,"265":1.8684974908828735,"266":-1.169588565826416,"267":-1.3488069772720337,"268":-1.3541687726974487,"269":-3.7896177768707275,"270":-0.2817099988460541,"271":-0.5280017852783203,"272":0.27627837657928467,"273":1.6901907920837402,"274":0.9083121418952942,"275":2.4002182483673096,"276":-0.609980583190918,"277":1.314719557762146,"278":0.5219078063964844,"279":0.9523861408233643,"280":-1.260411024093628,"281":2.0479917526245117,"282":0.02142423205077648,"283":1.4800574779510498,"284":0.28643378615379333,"285":3.332815647125244,"286":1.5659717321395874,"287":-2.360774517059326,"288":0.06564553081989288,"289":-2.0994088649749756,"290":0.82940274477005,"291":0.8048297762870789,"292":0.5361416935920715,"293":0.29544809460639954,"294":-0.5603556036949158,"295":0.549160361289978,"296":-1.316170334815979,"297":-1.4205644130706787,"298":1.0833289623260498,"299":1.0167533159255981,"300":-1.1652133464813232,"301":-0.922538161277771,"302":-0.4789121747016907,"303":0.8489555716514587,"304":1.7343381643295288,"305":-1.3310827016830444,"306":0.15745270252227783,"307":0.7060546278953552,"308":-1.1578187942504883,"309":-0.4340236485004425,"310":1.4202038049697876,"311":0.37408366799354553,"312":1.3364533185958862,"313":-1.6251015663146973,"314":-1.325361728668213,"315":-0.3086632192134857,"316":-0.40642249584198,"317":3.7035179138183594,"318":0.26475489139556885,"319":1.2810418605804443,"320":-1.2024331092834473,"321":-2.0097978115081787,"322":0.7425204515457153,"323":-0.05754588916897774,"324":2.372446298599243,"325":0.7144607901573181,"326":-1.4585117101669312,"327":-1.8965719938278198,"328":2.1600563526153564,"329":-0.19364497065544128,"330":-0.7701225876808167,"331":-3.3962554931640625,"332":-3.612570285797119,"333":-1.0842626094818115,"334":-1.046008825302124,"335":-1.7721542119979858,"336":-1.0377336740493774,"337":0.46403905749320984,"338":2.3474738597869873,"339":1.149876356124878,"340":-1.7353569269180298,"341":2.0702409744262695,"342":-3.6337647438049316,"343":-0.15751050412654877,"344":-1.6721636056900024,"345":-2.9283840656280518,"346":0.9116100668907166,"347":0.6144644021987915,"348":0.2963505685329437,"349":1.84849214553833,"350":-1.9685646295547485,"351":1.4473538398742676,"352":0.7207772731781006,"353":0.342017263174057,"354":1.9311858415603638,"355":-0.9941970109939575,"356":-0.324031800031662,"357":0.9035367369651794,"358":-1.9888064861297607,"359":1.313067078590393,"360":-0.02815387025475502,"361":0.43961068987846375,"362":-0.6547998785972595,"363":-0.2906475067138672,"364":3.4257633686065674,"365":0.985152006149292,"366":2.4661917686462402,"367":-3.4330782890319824,"368":-2.373581886291504,"369":1.947450876235962,"370":-0.8616642951965332,"371":0.7008441686630249,"372":1.424742579460144,"373":1.8268356323242188,"374":0.571864664554596,"375":-0.5956095457077026,"376":2.5689878463745117,"377":2.183506727218628,"378":0.4209641218185425,"379":-1.4197951555252075,"380":0.9899082183837891,"381":0.16761276125907898,"382":0.748481035232544,"383":-0.2479923814535141,"384":0.2129146009683609,"385":1.1739325523376465,"386":-0.33002108335494995,"387":0.28232598304748535,"388":-0.6792437434196472,"389":1.0500311851501465,"390":-0.32608139514923096,"391":2.4040939807891846,"392":0.6172911524772644,"393":0.29229533672332764,"394":2.2801578044891357,"395":-3.3494088649749756,"396":1.2499486207962036,"397":1.2138288021087646,"398":-0.27778443694114685,"399":-1.5956538915634155,"400":0.7678346037864685,"401":-2.451704263687134,"402":2.5190536975860596,"403":0.05428822338581085,"404":-0.2237555980682373,"405":-0.7650050520896912,"406":-0.31856590509414673,"407":0.14104460179805756,"408":-1.5861711502075195,"409":-0.32929670810699463,"410":0.9003117084503174,"411":-0.8256625533103943,"412":-0.06703457236289978,"413":1.7881250381469727,"414":0.19897250831127167,"415":1.1354252099990845,"416":0.4044555127620697,"417":1.3602526187896729,"418":-0.6698972582817078,"419":-1.3522825241088867,"420":0.34386610984802246,"421":0.17956310510635376,"422":0.8147746920585632,"423":0.05693337693810463,"424":0.08890753984451294,"425":-1.7265429496765137,"426":-1.2346237897872925,"427":-0.48356691002845764,"428":2.4140126705169678,"429":-1.1984596252441406,"430":0.044154055416584015,"431":3.406391143798828,"432":0.05812324583530426,"433":1.2004022598266602,"434":1.714575171470642,"435":2.1463587284088135,"436":1.3500208854675293,"437":-2.4735066890716553,"438":-0.7147772908210754,"439":-0.5164451599121094,"440":-0.7797941565513611,"441":-1.0724728107452393,"442":1.1882104873657227,"443":-0.716888427734375,"444":2.898221731185913,"445":-0.7620233297348022,"446":-0.5283126831054688,"447":1.35953688621521,"448":-1.2262080907821655,"449":-0.5656858682632446,"450":-2.1631360054016113,"451":1.647161841392517,"452":1.9160534143447876,"453":0.12603983283042908,"454":1.1511422395706177,"455":-1.0701438188552856,"456":-0.5459684729576111,"457":2.7938194274902344,"458":-2.295813798904419,"459":-1.3396461009979248,"460":1.6204720735549927,"461":0.22043997049331665,"462":-2.3591115474700928,"463":0.25571924448013306,"464":1.474596619606018,"465":-2.2631077766418457,"466":-0.19769658148288727,"467":-1.9625132083892822,"468":-0.33151504397392273,"469":-0.8090131878852844,"470":-2.377493143081665,"471":1.0508147478103638,"472":0.31144118309020996,"473":1.334336280822754,"474":-0.7625704407691956,"475":-0.02676432579755783,"476":-0.8059324622154236,"477":0.7156277894973755,"478":0.3114975094795227,"479":1.0711928606033325,"480":2.562453508377075,"481":0.8128820657730103,"482":-2.976120710372925,"483":1.919784426689148,"484":0.720391035079956,"485":-1.9855258464813232,"486":1.8502408266067505,"487":-2.6590561866760254,"488":-1.6563405990600586,"489":1.4518283605575562,"490":-0.3178171217441559,"491":-0.4793533980846405,"492":-1.4488344192504883,"493":0.12892507016658783,"494":-0.2963314652442932,"495":-1.0527182817459106,"496":0.5062961578369141,"497":1.162670612335205,"498":-0.14737875759601593,"499":0.716492235660553,"500":-2.0344505310058594,"501":0.39725261926651,"502":1.7638919353485107,"503":-2.3277504444122314,"504":-0.584839403629303,"505":0.47295472025871277,"506":-0.6822873950004578,"507":-0.11831925064325333,"508":0.532188892364502,"509":0.454929381608963,"510":0.4902857542037964,"511":-1.688253402709961,"512":-0.10113329440355301,"513":0.2548714876174927,"514":0.2612640857696533,"515":2.810868740081787,"516":1.1722626686096191,"517":1.3577772378921509,"518":0.6257953643798828,"519":0.336100310087204,"520":0.3562617897987366,"521":0.19937248528003693,"522":1.5518149137496948,"523":1.3509423732757568,"524":-0.6081483364105225,"525":-0.5243093371391296,"526":1.9205050468444824,"527":-0.3965400457382202,"528":2.2478227615356445,"529":0.9375583529472351,"530":-0.8191463947296143,"531":-1.4325237274169922,"532":-1.3731533288955688,"533":0.8151041269302368,"534":2.5223865509033203,"535":0.06786712259054184,"536":1.4085407257080078,"537":-2.2628867626190186,"538":0.4180727005004883,"539":0.6178204417228699,"540":-1.754897117614746,"541":-0.5307382941246033,"542":4.146024227142334,"543":-1.6995799541473389,"544":-0.8850399851799011,"545":1.0668504238128662,"546":0.9610216617584229,"547":1.1837255954742432,"548":1.2522249221801758,"549":-0.3647688329219818,"550":-1.8713830709457397,"551":1.2259663343429565,"552":1.060927152633667,"553":1.5995670557022095,"554":4.207357406616211,"555":-0.3398883044719696,"556":0.8915009498596191,"557":-2.517882823944092,"558":-0.9765813946723938,"559":-0.15351228415966034,"560":1.811956524848938,"561":0.9098201990127563,"562":2.9043209552764893,"563":1.291085958480835,"564":-0.7398359775543213,"565":1.453693151473999,"566":3.858243465423584,"567":0.9941396713256836,"568":0.37068840861320496,"569":-0.6366297006607056,"570":-1.0208033323287964,"571":1.1407283544540405,"572":0.4201582670211792,"573":-0.5562284588813782,"574":0.5188670754432678,"575":0.8923497796058655,"576":2.024109125137329,"577":-1.6317282915115356,"578":1.597055196762085,"579":-0.0021467632614076138,"580":-0.18490175902843475,"581":1.5953010320663452,"582":-2.5129494667053223,"583":0.7305861711502075,"584":2.316197633743286,"585":-0.07377409189939499,"586":-0.6116340160369873,"587":1.3610118627548218,"588":-2.3145439624786377,"589":0.47339022159576416,"590":-3.3945488929748535,"591":0.1935412734746933,"592":2.179161787033081,"593":-1.186452031135559,"594":2.6836321353912354,"595":0.3950212895870209,"596":-0.1471211165189743,"597":0.912021279335022,"598":-0.01903129555284977,"599":0.4641076326370239,"600":1.389400839805603,"601":-0.07767932862043381,