<<<<<<< HEAD
{"type":"LSTM","options":{"inputSize":33,"inputRange":33,"hiddenSizes":[20,20],"outputSize":33,"learningRate":0.01,"decayRate":0.999,"smoothEps":1e-8,"regc":0.000001,"clipval":5,"json":null,"dataFormatter":{"values":["Can I get some assistance to fix this issue?","Can I get some help?","Can I get some support on this bug?","Can I get some support on this issue?","Could you provide me some support to fix this issue?","Do I need to assist you to fix the issue?","Do I need to provide support to you regarding the issue?","Do you need assistance?","Do you need help?","Do you need some assistance?","Do you need some help with your issue?","Do you need some help?","Do you need some support?","Do you need support?","False","I could use some assistance with a bug I am currently facing","I need some assistance with a bug in my Rust code","I need some help with a bug I have in C++","True"],"indexTable":{"C":0,"a":1,"n":2," ":3,"I":4,"g":5,"e":6,"t":7,"s":8,"o":9,"m":10,"i":11,"c":12,"f":13,"x":14,"h":15,"u":16,"?":17,"l":18,"p":19,"r":20,"b":21,"d":22,"y":23,"v":24,"D":25,"w":26,"F":27,"R":28,"+":29,"T":30,"stop-input":31,"start-output":32},"characterTable":{"0":"C","1":"a","2":"n","3":" ","4":"I","5":"g","6":"e","7":"t","8":"s","9":"o","10":"m","11":"i","12":"c","13":"f","14":"x","15":"h","16":"u","17":"?","18":"l","19":"p","20":"r","21":"b","22":"d","23":"y","24":"v","25":"D","26":"w","27":"F","28":"R","29":"+","30":"T","31":"stop-input","32":"start-output"},"characters":["C","a","n"," ","I","g","e","t","s","o","m","i","c","f","x","h","u","?","l","p","r","b","d","y","v","D","w","F","R","+","T","stop-input","start-output"]}},"input":{"rows":34,"columns":33,"weights":{"0":0.41483569145202637,"1":0.5283921957015991,"2":-0.5849018692970276,"3":0.6003813743591309,"4":-0.5617839694023132,"5":0.600884199142456,"6":-0.4598962664604187,"7":0.5534644722938538,"8":0.5422597527503967,"9":-0.6007838249206543,"10":-0.5310688614845276,"11":-0.6420601010322571,"12":0.15940110385417938,"13":-0.47033658623695374,"14":0.6814910173416138,"15":-0.6160878539085388,"16":-0.2264755219221115,"17":-0.5639371275901794,"18":0.0102018928155303,"19":0.3775389492511749,"20":0.5939775109291077,"21":0.7275435328483582,"22":0.5256199836730957,"23":-0.6652865409851074,"24":0.4736170470714569,"25":-0.35288748145103455,"26":0.6471660733222961,"27":0.061958227306604385,"28":0.4554787874221802,"29":-0.7352342009544373,"30":-0.2823227047920227,"31":0.6383369565010071,"32":0.1520446538925171,"33":1.5050171613693237,"34":3.7972512245178223,"35":-2.8927836418151855,"36":3.2212696075439453,"37":-2.1827392578125,"38":-1.0206588506698608,"39":-2.510585069656372,"40":0.3214482069015503,"41":-0.4676819145679474,"42":-2.053420305252075,"43":3.4554319381713867,"44":-1.8612689971923828,"45":3.0953822135925293,"46":-3.128195285797119,"47":1.0509181022644043,"48":-0.7424024343490601,"49":2.0296833515167236,"50":2.1189162731170654,"51":1.294478178024292,"52":2.7344441413879395,"53":1.9691150188446045,"54":3.780308485031128,"55":1.8935126066207886,"56":0.4073773920536041,"57":-0.41107454895973206,"58":-2.650063991546631,"59":-0.12542669475078583,"60":0.08282038569450378,"61":-0.4553608298301697,"62":-1.2829543352127075,"63":4.009842872619629,"64":2.9752438068389893,"65":-1.6892833709716797,"66":-0.11187463998794556,"67":0.3920378088951111,"68":-1.0768191814422607,"69":0.7925641536712646,"70":-0.6008248329162598,"71":0.039138443768024445,"72":-0.5108875632286072,"73":-0.4889756739139557,"74":1.007683277130127,"75":-1.4363173246383667,"76":0.6856651306152344,"77":-0.809814453125,"78":-0.04676348343491554,"79":-0.04020191729068756,"80":0.8449181914329529,"81":-0.7122794389724731,"82":0.5219346284866333,"83":0.502285897731781,"84":-0.2519383430480957,"85":0.7827743887901306,"86":1.0740891695022583,"87":0.5732862949371338,"88":0.5350844264030457,"89":1.1697793006896973,"90":-0.7746034264564514,"91":-1.3950740098953247,"92":-0.6077580451965332,"93":0.7455845475196838,"94":-0.7440314292907715,"95":-1.142072081565857,"96":0.15880179405212402,"97":1.2622212171554565,"98":-0.8406752347946167,"99":0.6861661672592163,"100":0.17611771821975708,"101":0.18885956704616547,"102":0.4295811653137207,"103":-0.10266108065843582,"104":-0.8558357954025269,"105":-0.10741611570119858,"106":-1.025253176689148,"107":-0.8258720636367798,"108":-0.17628931999206543,"109":0.9312916994094849,"110":-0.24103645980358124,"111":0.3180036246776581,"112":-0.31157106161117554,"113":-0.7919754981994629,"114":-0.02636454999446869,"115":0.5251867175102234,"116":0.8894485235214233,"117":0.7794320583343506,"118":0.13017427921295166,"119":-0.06819090992212296,"120":0.3265983462333679,"121":0.5828585028648376,"122":1.0442348718643188,"123":-0.8973171710968018,"124":0.04687151312828064,"125":-1.0046546459197998,"126":0.8604885339736938,"127":-1.057356595993042,"128":-0.8599386811256409,"129":0.553899347782135,"130":-0.49685725569725037,"131":-0.7155891060829163,"132":0.12642785906791687,"133":0.15625371038913727,"134":-0.0020005647093057632,"135":0.0805601179599762,"136":0.28005486726760864,"137":0.20710907876491547,"138":-0.23900507390499115,"139":1.0729457139968872,"140":-0.13915249705314636,"141":0.9574320316314697,"142":-0.6197080612182617,"143":-0.17248669266700745,"144":0.3349668085575104,"145":-0.17810311913490295,"146":0.1335175335407257,"147":0.26673388481140137,"148":-1.2899998426437378,"149":-1.2083507776260376,"150":-0.9960818290710449,"151":0.06515093892812729,"152":-0.016170937567949295,"153":-1.140670895576477,"154":0.11343181878328323,"155":-1.45135498046875,"156":1.8792904615402222,"157":-0.14308638870716095,"158":0.9688498973846436,"159":-1.0020794868469238,"160":1.9331483840942383,"161":1.2528588771820068,"162":-0.1541559398174286,"163":-0.12204327434301376,"164":1.5614590644836426,"165":-1.3037796020507812,"166":-1.0580265522003174,"167":1.122973918914795,"168":-1.717698097229004,"169":1.4678559303283691,"170":2.600080728530884,"171":1.3559813499450684,"172":-0.5280714631080627,"173":2.0460991859436035,"174":-0.7893613576889038,"175":0.23547150194644928,"176":1.3219184875488281,"177":-1.4035171270370483,"178":1.3812363147735596,"179":-0.6693286299705505,"180":1.3260475397109985,"181":0.8793172240257263,"182":0.40840643644332886,"183":0.9330812692642212,"184":-1.4405163526535034,"185":-1.151477336883545,"186":0.799206554889679,"187":-1.6582586765289307,"188":0.2593954801559448,"189":-0.36268213391304016,"190":1.4233300685882568,"191":-0.32577988505363464,"192":0.49116674065589905,"193":-0.48292437195777893,"194":-0.3350423276424408,"195":-1.2200627326965332,"196":-1.2562733888626099,"197":-0.6312456130981445,"198":1.0110876560211182,"199":1.845625638961792,"200":-1.7323490381240845,"201":1.7775799036026,"202":-0.4577043652534485,"203":-2.013792037963867,"204":-1.6960476636886597,"205":0.2884558141231537,"206":-1.8117055892944336,"207":-0.107691690325737,"208":1.3385177850723267,"209":-1.589590072631836,"210":1.7818090915679932,"211":-1.6632124185562134,"212":0.6539240479469299,"213":-0.5047066807746887,"214":0.3014855682849884,"215":-0.09434952586889267,"216":0.07624807953834534,"217":1.717168927192688,"218":1.3503917455673218,"219":0.28015390038490295,"220":1.6898454427719116,"221":-0.23528935015201569,"222":0.24199852347373962,"223":-3.383584499359131,"224":0.33420035243034363,"225":-0.5576730966567993,"226":0.26017436385154724,"227":0.19516824185848236,"228":1.954508662223816,"229":1.6009361743927002,"230":-0.1669824719429016,"231":-0.1792491376399994,"232":-0.47282060980796814,"233":0.24615751206874847,"234":-0.3704831898212433,"235":0.7053132057189941,"236":0.14593470096588135,"237":0.49358582496643066,"238":0.04424741491675377,"239":0.13707396388053894,"240":0.8865197896957397,"241":-0.8803009986877441,"242":0.2487974315881729,"243":-0.5397471189498901,"244":0.45795515179634094,"245":-0.5041568279266357,"246":0.9711634516716003,"247":-0.592646598815918,"248":-0.24370117485523224,"249":0.004425949417054653,"250":-0.1472979187965393,"251":-0.36175736784935,"252":-0.6320173144340515,"253":-0.5174382925033569,"254":0.1655873954296112,"255":0.018159978091716766,"256":0.8167040944099426,"257":0.04092634841799736,"258":-0.251364529132843,"259":0.10374438762664795,"260":0.021505791693925858,"261":-0.3741520047187805,"262":-0.9706089496612549,"263":0.4915007948875427,"264":0.5149433612823486,"265":0.9033254384994507,"266":-0.9126458764076233,"267":0.7009405493736267,"268":-0.42256230115890503,"269":0.294338196516037,"270":-0.6688267588615417,"271":0.2535073161125183,"272":-0.9866092801094055,"273":-0.5026143789291382,"274":0.0875152200460434,"275":-0.4468682110309601,"276":0.9079120755195618,"277":-0.7362335920333862,"278":0.7580277323722839,"279":-0.584636390209198,"280":-0.06010944023728371,"281":0.04504790157079697,"282":-0.22475910186767578,"283":0.5569255352020264,"284":0.8137799501419067,"285":0.218693345785141,"286":0.39313408732414246,"287":-0.17989949882030487,"288":0.3247550129890442,"289":-0.9054387807846069,"290":0.17748627066612244,"291":-0.3252660036087036,"292":0.25954023003578186,"293":-0.3763294219970703,"294":-0.4400303065776825,"295":1.0351723432540894,"296":0.15515325963497162,"297":-0.83296799659729,"298":-1.448791265487671,"299":1.7844752073287964,"300":-1.5099469423294067,"301":0.9293996095657349,"302":1.3279732465744019,"303":1.2151585817337036,"304":0.6563186049461365,"305":1.1765495538711548,"306":0.5750800371170044,"307":-0.38083794713020325,"308":1.5565825700759888,"309":-0.6048563718795776,"310":1.0029397010803223,"311":-0.5169830322265625,"312":1.7128874063491821,"313":-0.32524409890174866,"314":-0.00020709387899842113,"315":-0.0693594291806221,"316":-1.6111819744110107,"317":-1.7881691455841064,"318":-0.3033609986305237,"319":-1.3831305503845215,"320":-0.5324532389640808,"321":0.8148100972175598,"322":2.2919859886169434,"323":0.5311115980148315,"324":-0.1140078753232956,"325":0.4032903015613556,"326":-0.027306828647851944,"327":-1.4122930765151978,"328":-1.6179429292678833,"329":-0.06337232142686844,"330":-0.7439321279525757,"331":-0.8285919427871704,"332":0.5070053935050964,"333":-1.0080974102020264,"334":0.3527640104293823,"335":0.7359276413917542,"336":0.9247677326202393,"337":-0.06437128782272339,"338":0.8016787767410278,"339":0.327828973531723,"340":-0.34437301754951477,"341":0.7073584198951721,"342":-0.8936098217964172,"343":0.9465341567993164,"344":0.01440815906971693,"345":0.3313318192958832,"346":-0.010802386328577995,"347":-0.3594520688056946,"348":0.39799097180366516,"349":-0.7652121186256409,"350":-0.533810019493103,"351":-0.18336758017539978,"352":-0.9392215609550476,"353":0.0003766347945202142,"354":0.023829709738492966,"355":0.5095551609992981,"356":-0.09483012557029724,"357":-0.2446233034133911,"358":0.14306096732616425,"359":0.12544864416122437,"360":-0.106630839407444,"361":-0.2781103253364563,"362":-0.03019867278635502,"363":-1.5106358528137207,"364":-1.279892921447754,"365":1.3055880069732666,"366":-1.3648792505264282,"367":1.451637625694275,"368":1.4683647155761719,"369":1.496777892112732,"370":-1.8699889183044434,"371":1.4777865409851074,"372":0.6580871343612671,"373":0.5445908308029175,"374":1.547354817390442,"375":-1.6895662546157837,"376":1.5423779487609863,"377":-1.2120397090911865,"378":1.40858793258667,"379":0.4112786054611206,"380":1.1770195960998535,"381":1.6066629886627197,"382":-1.3298133611679077,"383":-1.377139925956726,"384":-0.5964004397392273,"385":-1.3354699611663818,"386":1.5870656967163086,"387":-1.4182149171829224,"388":1.2744354009628296,"389":-1.7905421257019043,"390":1.1702735424041748,"391":-1.2666478157043457,"392":-0.8001185059547424,"393":-0.9241248965263367,"394":-1.3340003490447998,"395":-0.8660842180252075,"396":-0.4397404193878174,"397":-0.301540344953537,"398":-0.37952688336372375,"399":0.1445191651582718,"400":-1.1583995819091797,"401":-0.08405116945505142,"402":-0.13204441964626312,"403":-0.4553365111351013,"404":1.8902416229248047,"405":-1.5554367303848267,"406":0.7166978716850281,"407":-0.026277923956513405,"408":-0.02240264229476452,"409":0.15111924707889557,"410":1.6263283491134644,"411":-0.1176876574754715,"412":0.4852050840854645,"413":1.1282659769058228,"414":0.764423131942749,"415":0.3788319528102875,"416":0.22199822962284088,"417":0.8456635475158691,"418":0.4791935384273529,"419":1.1335047483444214,"420":-0.5035802721977234,"421":-0.8130666017532349,"422":-0.6340823769569397,"423":0.2250918298959732,"424":-0.9313463568687439,"425":-1.220781922340393,"426":-0.8092983365058899,"427":0.5950835347175598,"428":-1.2231388092041016,"429":-1.0271631479263306,"430":-0.5570446848869324,"431":1.6325173377990723,"432":-0.904310941696167,"433":2.3379836082458496,"434":0.612712562084198,"435":-0.06742498278617859,"436":-0.5964544415473938,"437":-0.36195501685142517,"438":-0.40546831488609314,"439":1.4951664209365845,"440":0.47629621624946594,"441":0.552671492099762,"442":-0.02395683526992798,"443":-2.0787484645843506,"444":2.7545101642608643,"445":0.4973084032535553,"446":1.7478399276733398,"447":0.16143150627613068,"448":-0.9300847053527832,"449":-1.8680754899978638,"450":0.5319178700447083,"451":-0.4439429044723511,"452":0.26650509238243103,"453":-0.41829198598861694,"454":0.8631640076637268,"455":-0.5533583760261536,"456":0.9044988751411438,"457":-0.8586985468864441,"458":-0.6342170834541321,"459":-1.3961621522903442,"460":-2.149461269378662,"461":-1.2350976467132568,"462":1.2335972785949707,"463":3.5082805156707764,"464":-2.2246017456054688,"465":3.3121559619903564,"466":-0.9304999709129333,"467":-1.9360679388046265,"468":-2.998351812362671,"469":-0.7075128555297852,"470":-2.021611213684082,"471":-1.9888569116592407,"472":2.1611452102661133,"473":-3.04730224609375,"474":3.1817994117736816,"475":-3.604519844055176,"476":-0.83430016040802,"477":-0.44892245531082153,"478":2.50472092628479,"479":1.4454927444458008,"480":1.7118468284606934,"481":3.863170623779297,"482":1.639715313911438,"483":3.67398738861084,"484":1.916215181350708,"485":0.04503218084573746,"486":-1.3338404893875122,"487":-3.6763041019439697,"488":-0.0177755169570446,"489":0.7091532945632935,"490":0.1046120822429657,"491":-0.3432214558124542,"492":2.686995267868042,"493":1.5754494667053223,"494":-0.9186698198318481,"495":3.5091631412506104,"496":1.1315745115280151,"497":-0.4779435098171234,"498":1.68699049949646,"499":-0.13285334408283234,"500":-1.786130428314209,"501":-1.7263081073760986,"502":0.16020607948303223,"503":-3.118497848510742,"504":0.616237223148346,"505":0.8192973136901855,"506":-0.20979036390781403,"507":2.2178754806518555,"508":-2.549630880355835,"509":1.2032487392425537,"510":-1.2521089315414429,"511":-1.5598253011703491,"512":0.12189222872257233,"513":-2.520009756088257,"514":0.910172700881958,"515":0.815169632434845,"516":-0.9277701377868652,"517":1.7141896486282349,"518":-0.6815140843391418,"519":0.5482706427574158,"520":-0.8961580991744995,"521":0.16990084946155548,"522":-0.018811644986271858,"523":0.7440682649612427,"524":0.7111786007881165,"525":-0.9867033958435059,"526":0.25494900345802307,"527":1.3548526763916016,"528":0.689601719379425,"529":1.1260991096496582,"530":-1.1464955806732178,"531":1.0429095029830933,"532":-0.5739466547966003,"533":-0.5317903757095337,"534":-0.8785795569419861,"535":0.6924110054969788,"536":-0.33233803510665894,"537":0.4643276631832123,"538":-0.7266194820404053,"539":-1.0737520456314087,"540":0.09707698225975037,"541":-0.7162586450576782,"542":-0.7323271632194519,"543":-0.26616451144218445,"544":-0.784898042678833,"545":-0.9102168083190918,"546":-0.874995768070221,"547":1.3512524366378784,"548":1.3172211647033691,"549":-0.19896700978279114,"550":0.8710938692092896,"551":-0.08073687553405762,"552":0.3238567113876343,"553":-0.9311535954475403,"554":0.542218029499054,"555":-0.6792412400245667,"556":0.5098755955696106,"557":1.0832934379577637,"558":1.1569969654083252,"559":1.065765142440796,"560":1.085597276687622,"561":-0.02606659010052681,"562":0.186532124876976,"563":-0.22885285317897797,"564":0.1582064926624298,"565":-0.1418989598751068,"566":-0.45002132654190063,"567":-0.05826533958315849,"568":-0.6997764706611633,"569":0.32013988494873047,"570":-0.7979902625083923,"571":0.6910558342933655,"572":-0.0015276544727385044,"573":0.05425889417529106,"574":0.022278541699051857,"575":-0.174217090010643,"576":-0.04788772389292717,"577":0.7388308644294739,"578":0.7344697117805481,"579":0.6403874158859253,"580":0.15657661855220795,"581":0.3224518895149231,"582":0.7833496928215027,"583":0.010813282802700996,"584":0.8096079230308533,"585":-0.7139752507209778,"586":-0.20939959585666656,"587":-0.7408624291419983,"588":0.6840653419494629,"589":-0.7969327569007874,"590":-0.8029201626777649,"591":1.1887054443359375,"592":0.26794010400772095,"593":-0.7593662142753601,"594":-0.5403879284858704,"595":-0.29865482449531555,"596":0.06910206377506256,"597":-0.7122206091880798,"598":0.5465834736824036,"599":1.031397819519043,"600":0.6819722652435303,"601":1.1797975301742554,"602":1.1852186918258667,"603":1.4334909915924072,"604":-1.8255195617675781,"605":0.2770195007324219,"606":-0.816004753112793,"607":0.6648730635643005,"608":1.8377470970153809,"609":0.23305509984493256,"610":-0.7080391049385071,"611":-2.2709267139434814,"612":-1.2774940729141235,"613":-0.4955050051212311,"614":-0.1323464959859848,"615":-0.728260338306427,"616":-0.4683987498283386,"617":-0.565121591091156,"618":1.632546305656433,"619":0.765943169593811,"620":1.703241229057312,"621":-1.8843183517456055,"622":1.4727990627288818,"623":1.4696431159973145,"624":0.11434491723775864,"625":-0.4488081634044647,"626":1.76162588596344,"627":0.23161815106868744,"628":0.7958952784538269,"629":-1.1220893859863281,"630":0.936568558216095,"631":-0.2147165834903717,"632":-0.6166906952857971,"633":-0.3443146049976349,"634":-0.623173713684082,"635":0.7000337839126587,"636":-0.444549024105072,"637":0.44427490234375,"638":-1.5723172426223755,"639":-0.19001807272434235,"640":-0.0716179832816124,"641":-0.5505634546279907,"642":-0.4879741072654724,"643":1.0778886079788208,"644":0.1014232411980629,"645":0.8151674270629883,"646":0.9271456599235535,"647":1.0604875087738037,"648":0.5468010902404785,"649":0.8677743673324585,"650":0.881873369216919,"651":-0.7313105463981628,"652":-1.1077812910079956,"653":-0.6553519368171692,"654":0.5090029239654541,"655":-0.5672299265861511,"656":-0.7118352651596069,"657":1.8219130039215088,"658":0.3709869682788849,"659":-0.5502520203590393,"660":-0.6069667935371399,"661":0.8882927298545837,"662":-0.763279914855957,"663":1.011562705039978,"664":1.6209684610366821,"665":0.4692244529724121,"666":0.35594114661216736,"667":0.2619885802268982,"668":1.1212191581726074,"669":-1.6181833744049072,"670":0.23233579099178314,"671":-0.3319845497608185,"672":-0.20487236976623535,"673":-0.3000433146953583,"674":-0.007510500960052013,"675":0.6515949964523315,"676":1.4341315031051636,"677":0.09433108568191528,"678":0.9728333950042725,"679":-0.0596889890730381,"680":0.37385308742523193,"681":1.8438917398452759,"682":-0.36475059390068054,"683":0.46784836053848267,"684":0.4248146712779999,"685":-0.7888930439949036,"686":0.1180373951792717,"687":-0.6556443572044373,"688":0.31851130723953247,"689":-0.8392223715782166,"690":1.9582399129867554,"691":0.88247150182724,"692":-0.5466523766517639,"693":-1.7841936349868774,"694":-0.7078897953033447,"695":1.0866694450378418,"696":-0.8182078003883362,"697":1.2178815603256226,"698":1.4034757614135742,"699":0.24820241332054138,"700":-0.12343717366456985,"701":1.246358036994934,"702":-1.2932840585708618,"703":0.6659349203109741,"704":0.7720543742179871,"705":-0.4467482566833496,"706":0.7218918800354004,"707":-0.5199695825576782,"708":1.2195351123809814,"709":0.8129478693008423,"710":1.0409051179885864,"711":0.201411634683609,"712":-0.8783561587333679,"713":-1.2887383699417114,"714":1.0579876899719238,"715":-0.7457000017166138,"716":-0.12454476207494736,"717":0.07001099735498428,"718":0.3183525800704956,"719":0.009119667112827301,"720":0.516640305519104,"721":-0.39331576228141785,"722":-1.0773574113845825,"723":-1.5159668922424316,"724":-0.7780137062072754,"725":-1.2702049016952515,"726":-1.786180019378662,"727":2.1101856231689453,"728":-2.1254806518554688,"729":2.1076157093048096,"730":-2.1193323135375977,"731":1.4551740884780884,"732":-2.095731735229492,"733":1.8844404220581055,"734":-2.2190825939178467,"735":-2.2182083129882812,"736":-1.4541293382644653,"737":-2.087205410003662,"738":2.8429977893829346,"739":-2.5807411670684814,"740":1.8836171627044678,"741":-1.7767257690429688,"742":-1.501268744468689,"743":2.291490316390991,"744":-1.8409473896026611,"745":2.1504476070404053,"746":2.103564977645874,"747":2.2354774475097656,"748":2.2134130001068115,"749":-1.6192704439163208,"750":1.6645606756210327,"751":-2.150550603866577,"752":1.6718273162841797,"753":-1.6332229375839233,"754":1.675091028213501,"755":-2.1010658740997314,"756":-1.828844428062439,"757":2.1608057022094727,"758":-2.196101427078247,"759":0.12645646929740906,"760":-0.12688001990318298,"761":-0.0014582471922039986,"762":0.2810644805431366,"763":-0.10190609097480774,"764":0.3407938480377197,"765":0.31871166825294495,"766":0.467609703540802,"767":-0.18888725340366364,"768":-0.050820522010326385,"769":-0.4461668133735657,"770":0.12683145701885223,"771":-0.5383182764053345,"772":0.1605595350265503,"773":1.001592755317688,"774":-0.9102292060852051,"775":-0.01262099388986826,"776":-0.15213941037654877,"777":0.3785553276538849,"778":-0.07525908201932907,"779":0.1378336399793625,"780":0.030034054070711136,"781":0.11703713983297348,"782":-0.39245977997779846,"783":0.47241702675819397,"784":-0.03080986812710762,"785":0.47500574588775635,"786":-0.29970404505729675,"787":0.44816404581069946,"788":-0.2251272052526474,"789":1.5061966180801392,"790":0.3369753658771515,"791":0.19316023588180542,"792":0.289699912071228,"793":-0.22274497151374817,"794":0.10253196209669113,"795":-0.4203472137451172,"796":-0.4209538996219635,"797":0.36733171343803406,"798":-0.10685659945011139,"799":-0.5003811120986938,"800":1.1149848699569702,"801":0.8422272205352783,"802":0.4469636380672455,"803":0.008751499466598034,"804":-0.10146132856607437,"805":0.1761714369058609,"806":-0.3658312261104584,"807":-0.8642458915710449,"808":0.1485384702682495,"809":-0.05671988055109978,"810":0.7365676164627075,"811":-0.06789474934339523,"812":0.23830030858516693,"813":0.8751627802848816,"814":0.0853615403175354,"815":0.41216301918029785,"816":-0.766656756401062,"817":0.3346050977706909,"818":-0.5139779448509216,"819":1.0169605016708374,"820":-0.5905382633209229,"821":-0.29875367879867554,"822":-1.21578049659729,"823":0.02664298005402088,"824":0.1313958764076233,"825":-2.1730785369873047,"826":-1.0894445180892944,"827":-0.43758291006088257,"828":-2.2100095748901367,"829":2.653747320175171,"830":2.44637131690979,"831":4.002501010894775,"832":-1.4420642852783203,"833":5.2593584060668945,"834":-1.8766403198242188,"835":-4.5772929191589355,"836":2.9445395469665527,"837":-2.455146074295044,"838":2.151581048965454,"839":-0.6180001497268677,"840":1.1722393035888672,"841":2.4748787879943848,"842":-0.9961027503013611,"843":2.8689732551574707,"844":-0.8144708275794983,"845":0.4485985338687897,"846":0.5011327266693115,"847":-3.030540943145752,"848":0.8988510966300964,"849":-0.23737841844558716,"850":-0.7657199501991272,"851":-0.36130595207214355,"852":1.2402406930923462,"853":-0.42260921001434326,"854":3.065492630004883,"855":0.012734762392938137,"856":2.1954894065856934,"857":-0.9682241082191467,"858":-0.9692683815956116,"859":-0.6008302569389343,"860":-0.09427688270807266,"861":-0.5331965684890747,"862":-1.045677661895752,"863":0.24505679309368134,"864":1.1202486753463745,"865":-0.6897010803222656,"866":0.6897814273834229,"867":-0.6169107556343079,"868":-0.5389178991317749,"869":0.9503169655799866,"870":-1.2879058122634888,"871":1.3806194067001343,"872":-0.600502073764801,"873":-1.6963056325912476,"874":1.118820071220398,"875":0.005143024958670139,"876":0.9146961569786072,"877":-0.628267765045166,"878":0.8870514035224915,"879":0.879831075668335,"880":-0.924239993095398,"881":1.2311811447143555,"882":-0.3166598677635193,"883":-0.3916396498680115,"884":-0.5183030962944031,"885":0.4035831689834595,"886":-0.5983313322067261,"887":-0.6971457004547119,"888":0.9304542541503906,"889":1.4412211179733276,"890":-0.21270878612995148,"891":-0.7277704477310181,"892":0.254281222820282,"893":-0.04569226875901222,"894":-0.2592436671257019,"895":0.7906317710876465,"896":0.5530997514724731,"897":0.2667634189128876,"898":-1.2890629768371582,"899":0.4300115704536438,"900":-2.598433256149292,"901":2.804483652114868,"902":0.3361852169036865,"903":-0.5860863924026489,"904":0.31375962495803833,"905":-2.1401195526123047,"906":1.8929392099380493,"907":2.001554489135742,"908":1.134254813194275,"909":1.6089982986450195,"910":0.07618054747581482,"911":-0.30382418632507324,"912":2.274233102798462,"913":-0.6651800870895386,"914":1.0994157791137695,"915":-1.4475163221359253,"916":-0.0904131606221199,"917":-1.256623387336731,"918":1.2447212934494019,"919":-0.9150745272636414,"920":-1.6472805738449097,"921":-0.23982946574687958,"922":-0.19601859152317047,"923":-1.6640207767486572,"924":0.783294141292572,"925":0.4793345332145691,"926":-1.036509394645691,"927":0.676521897315979,"928":-2.3353097438812256,"929":-0.44432663917541504,"930":-1.0481836795806885,"931":0.4560435712337494,"932":0.21567250788211823,"933":-0.22301356494426727,"934":0.6531292796134949,"935":-0.7549670338630676,"936":0.39736974239349365,"937":-0.586079478263855,"938":0.04763305187225342,"939":-1.5334930419921875,"940":-0.9566665887832642,"941":0.06908378005027771,"942":-0.7810173630714417,"943":0.6444886922836304,"944":1.0975030660629272,"945":-0.5200055837631226,"946":0.8056960701942444,"947":-0.32630249857902527,"948":-0.2671179175376892,"949":-0.7362295389175415,"950":0.4000264108181,"951":0.38037770986557007,"952":-0.013869724236428738,"953":-0.17050452530384064,"954":0.19198349118232727,"955":0.5923477411270142,"956":0.3571445345878601,"957":2.649369716644287,"958":1.5142182111740112,"959":-0.9857195019721985,"960":2.0865540504455566,"961":-1.076993703842163,"962":-5.458442211151123,"963":-1.1162846088409424,"964":1.564815878868103,"965":-2.5223052501678467,"966":4.419025421142578,"967":-2.255476474761963,"968":-1.4058853387832642,"969":2.0318706035614014,"970":-1.8513572216033936,"971":0.9870210886001587,"972":-1.1699209213256836,"973":-2.167433977127075,"974":-1.4077023267745972,"975":-1.9744884967803955,"976":1.177054762840271,"977":1.1384642124176025,"978":-2.8760929107666016,"979":1.9856196641921997,"980":-1.4178756475448608,"981":1.2091656923294067,"982":-0.8490439653396606,"983":1.6286648511886597,"984":-1.5643442869186401,"985":1.1416054964065552,"986":2.407526969909668,"987":-1.7675284147262573,"988":0.6262620687484741,"989":1.6579484939575195,"990":1.4229248762130737,"991":1.3188892602920532,"992":-3.8091092109680176,"993":2.415329694747925,"994":-4.767391681671143,"995":-2.0463740825653076,"996":-3.1393730640411377,"997":-1.6797730922698975,"998":4.773377418518066,"999":-1.6616789102554321,"1000":1.2420018911361694,"1001":-1.8040990829467773,"1002":1.0519912242889404,"1003":-1.406042456626892,"1004":4.123525619506836,"1005":-3.987422227859497,"1006":-0.3339824378490448,"1007":1.6951324939727783,"1008":-3.2320759296417236,"1009":2.7796390056610107,"1010":4.580173492431641,"1011":0.8305651545524597,"1012":3.2221314907073975,"1013":2.754807472229004,"1014":-3.0678746700286865,"1015":-3.497053384780884,"1016":-2.420482873916626,"1017":3.3932135105133057,"1018":-2.7396204471588135,"1019":-2.974194049835205,"1020":0.20078198611736298,"1021":4.734189987182617,"1022":-1.4877378940582275,"1023":-1.8605139255523682,"1024":-1.2563616037368774,"1025":1.4072325229644775,"1026":-1.4657704830169678,"1027":2.399601459503174,"1028":1.8755642175674438,"1029":1.2120776176452637,"1030":-0.952739417552948,"1031":1.5882232189178467,"1032":-1.4557337760925293,"1033":-1.8357611894607544,"1034":1.392270803451538,"1035":-1.5124813318252563,"1036":1.4772592782974243,"1037":-0.5587897896766663,"1038":2.2394211292266846,"1039":1.3304362297058105,"1040":1.029285192489624,"1041":0.9810267090797424,"1042":-1.2152196168899536,"1043":-1.6702123880386353,"1044":1.2976467609405518,"1045":-1.6001421213150024,"1046":0.7396168112754822,"1047":-0.7658942341804504,"1048":-1.5136456489562988,"1049":-0.8635868430137634,"1050":0.9292128086090088,"1051":-0.7828898429870605,"1052":-1.2633376121520996,"1053":-1.6229568719863892,"1054":-1.1499176025390625,"1055":-1.4313653707504272,"1056":0.9924078583717346,"1057":1.5827583074569702,"1058":-0.6199235916137695,"1059":1.2587789297103882,"1060":-1.2604618072509766,"1061":-1.3997846841812134,"1062":-2.199213981628418,"1063":-0.15063878893852234,"1064":-0.2018309086561203,"1065":-0.25446492433547974,"1066":1.379705786705017,"1067":-0.9550783634185791,"1068":1.8178443908691406,"1069":-1.6918323040008545,"1070":-0.5681717991828918,"1071":0.3672429621219635,"1072":0.501934826374054,"1073":0.4835527241230011,"1074":0.5055848360061646,"1075":1.6538516283035278,"1076":0.6505961418151855,"1077":0.7697758674621582,"1078":1.4673316478729248,"1079":0.32381531596183777,"1080":-0.22039131820201874,"1081":-0.07531072199344635,"1082":-0.2395462691783905,"1083":0.16049619019031525,"1084":-0.3609381914138794,"1085":-0.29629799723625183,"1086":1.2729036808013916,"1087":-0.28320178389549255,"1088":-0.3509138524532318,"1089":0.43640732765197754,"1090":0.5132939219474792,"1091":-0.6804718375205994,"1092":0.6485115885734558,"1093":-0.767957866191864,"1094":0.2755177617073059,"1095":-0.4028588831424713,"1096":0.1771993488073349,"1097":0.15161918103694916,"1098":0.16162337362766266,"1099":-0.12289229035377502,"1100":-0.5216044187545776,"1101":0.3621801733970642,"1102":-0.42642372846603394,"1103":0.1749582290649414,"1104":-0.3832387626171112,"1105":-0.12970739603042603,"1106":-0.09045494347810745,"1107":-0.30166441202163696,"1108":0.6918269991874695,"1109":0.7214595675468445,"1110":-0.0473206490278244,"1111":0.5868492722511292,"1112":0.05551820248365402,"1113":-0.07085283100605011,"1114":-0.6893792152404785,"1115":0.02888774685561657,"1116":-0.15445463359355927,"1117":-0.024254826828837395,"1118":0.00755332363769412,"1119":0.9609745144844055,"1120":0.5909078121185303,"1121":0.3697115182876587}},"hiddenLayers":[{"inputMatrix":{"rows":20,"columns":33,"weights":{"0":0.1345161646604538,"1":0.0324578694999218,"2":-0.019861649721860886,"3":0.0706062763929367,"4":-0.29881176352500916,"5":-0.03197689354419708,"6":-0.06284972280263901,"7":0.4936067461967468,"8":-0.5370042324066162,"9":0.2666109502315521,"10":-0.11064793169498444,"11":-0.16212593019008636,"12":0.14291170239448547,"13":-0.15115571022033691,"14":0.40088051557540894,"15":-0.27563154697418213,"16":-0.4786090552806854,"17":-0.10284315049648285,"18":-0.6301899552345276,"19":-0.0815156027674675,"20":0.08945709466934204,"21":-0.3653981387615204,"22":0.013059242628514767,"23":-0.6322455406188965,"24":0.4506993293762207,"25":-0.22498086094856262,"26":0.5196623206138611,"27":-0.19420687854290009,"28":0.36889031529426575,"29":0.27317193150520325,"30":-0.5629429221153259,"31":0.0870136022567749,"32":0.5220844149589539,"33":-0.6444007158279419,"34":-0.734507143497467,"35":0.5959203243255615,"36":-0.8386291265487671,"37":0.5368903279304504,"38":0.3087789714336395,"39":0.31270352005958557,"40":0.08719702064990997,"41":0.5975654125213623,"42":0.45226624608039856,"43":-0.24286134541034698,"44":0.40094462037086487,"45":-0.3282404839992523,"46":0.46756869554519653,"47":-0.11641177535057068,"48":1.1988661289215088,"49":-0.34875017404556274,"50":-0.11751023679971695,"51":-0.30859148502349854,"52":-0.5106701850891113,"53":-0.9194723963737488,"54":-0.426400750875473,"55":-0.6985204219818115,"56":-0.2685171365737915,"57":0.15743932127952576,"58":0.781588613986969,"59":0.10454383492469788,"60":-0.3487730026245117,"61":0.3195994198322296,"62":0.47108596563339233,"63":-0.9872447848320007,"64":-1.1456290483474731,"65":0.18950720131397247,"66":0.41856300830841064,"67":1.0712840557098389,"68":-1.4233248233795166,"69":1.1461848020553589,"70":-1.209359049797058,"71":-0.6526095867156982,"72":-0.22900937497615814,"73":-0.17695915699005127,"74":-0.05150528624653816,"75":-1.0146803855895996,"76":0.49618029594421387,"77":-0.7521255016326904,"78":-0.1350366473197937,"79":-0.19991497695446014,"80":0.28372541069984436,"81":-0.02437482587993145,"82":0.3768163025379181,"83":0.2632398009300232,"84":0.15454667806625366,"85":1.233963966369629,"86":1.284387230873108,"87":0.6584165096282959,"88":0.2828926146030426,"89":0.427523672580719,"90":-0.4993312358856201,"91":-0.8699629306793213,"92":-0.3727560341358185,"93":0.014631086960434914,"94":-0.27728915214538574,"95":-0.7856011986732483,"96":0.5929120182991028,"97":0.9357278347015381,"98":-0.29356226325035095,"99":0.23552536964416504,"100":-0.4604472219944,"101":-0.027086086571216583,"102":-0.537251353263855,"103":-0.9869295954704285,"104":0.4815138578414917,"105":0.47415691614151,"106":0.5161809921264648,"107":0.6493289470672607,"108":1.2484853267669678,"109":-1.0499838590621948,"110":0.3286650776863098,"111":-0.6416631937026978,"112":0.612293004989624,"113":0.4385358989238739,"114":-1.4066691398620605,"115":-1.2762432098388672,"116":-1.4631004333496094,"117":-0.9537470936775208,"118":-0.3355776071548462,"119":0.19458867609500885,"120":-1.4850021600723267,"121":-0.3551068603992462,"122":-0.46336373686790466,"123":0.5662302374839783,"124":0.9078271389007568,"125":0.4680388569831848,"126":-0.5196567177772522,"127":0.6056444048881531,"128":1.4718530178070068,"129":-0.5060760378837585,"130":0.2589300274848938,"131":1.6536612510681152,"132":0.031215332448482513,"133":0.005438288673758507,"134":-0.3358079791069031,"135":0.3721109926700592,"136":-0.07594051957130432,"137":0.21077010035514832,"138":-0.2600191533565521,"139":0.9249691963195801,"140":-0.3378477990627289,"141":0.3586622476577759,"142":-0.48447877168655396,"143":-0.2699560821056366,"144":0.29236266016960144,"145":-0.22621595859527588,"146":0.1422083079814911,"147":0.5667781233787537,"148":-1.5319312810897827,"149":-0.23197384178638458,"150":-1.4662961959838867,"151":0.6495968699455261,"152":0.2299415022134781,"153":-1.001157522201538,"154":0.03917456045746803,"155":-1.0682973861694336,"156":1.01985764503479,"157":-0.19479544460773468,"158":0.9233148694038391,"159":-0.7697293758392334,"160":0.9016010761260986,"161":0.701774001121521,"162":-0.5216665267944336,"163":-0.04824161157011986,"164":0.6649199724197388,"165":0.10906726121902466,"166":0.8438883423805237,"167":-0.8768998980522156,"168":0.8954722285270691,"169":-0.583954930305481,"170":-0.1497909128665924,"171":0.09915339201688766,"172":-0.13399620354175568,"173":0.43514570593833923,"174":-0.857542872428894,"175":-0.29537662863731384,"176":-0.6224151253700256,"177":-0.19884981215000153,"178":-0.09561070799827576,"179":0.5915606617927551,"180":-0.4807190001010895,"181":0.8872997760772705,"182":-0.3698659837245941,"183":0.15127944946289062,"184":0.6624488830566406,"185":0.7847057580947876,"186":0.9353041648864746,"187":-0.10265666991472244,"188":0.9991948008537292,"189":-0.033046696335077286,"190":-0.7872160077095032,"191":-0.04230643808841705,"192":-0.3405560255050659,"193":0.219110906124115,"194":-0.26218950748443604,"195":2.024963617324829,"196":1.1501070261001587,"197":0.16971246898174286,"198":-0.2254096269607544,"199":-0.5385093092918396,"200":1.4391934871673584,"201":-0.7419368624687195,"202":0.5136897563934326,"203":0.11652350425720215,"204":-0.09770894050598145,"205":0.3079501688480377,"206":-0.18327775597572327,"207":0.8713487386703491,"208":0.2146865725517273,"209":-0.1418263167142868,"210":-0.10835261642932892,"211":0.25798600912094116,"212":0.042706362903118134,"213":1.3134911060333252,"214":-0.8873264193534851,"215":-0.2515413165092468,"216":-0.8808300495147705,"217":-0.6709645986557007,"218":-1.9113669395446777,"219":-0.5072779655456543,"220":-0.31785938143730164,"221":-0.35941508412361145,"222":0.19305971264839172,"223":1.955528736114502,"224":0.13829971849918365,"225":-0.38117870688438416,"226":0.3172127306461334,"227":0.05135972425341606,"228":-1.099414587020874,"229":-2.5219528675079346,"230":0.4776528477668762,"231":-0.16748759150505066,"232":-0.2673862874507904,"233":0.6123806834220886,"234":-0.32618963718414307,"235":0.49080637097358704,"236":0.6027432084083557,"237":0.22374676167964935,"238":0.4356610178947449,"239":0.5198679566383362,"240":0.7562190294265747,"241":-0.4186873733997345,"242":0.15008875727653503,"243":-0.1724465787410736,"244":0.18737852573394775,"245":0.506112813949585,"246":0.33216047286987305,"247":-0.684790313243866,"248":-0.34394338726997375,"249":-0.6721236109733582,"250":-0.4099436402320862,"251":-0.5315856337547302,"252":-0.42502743005752563,"253":-0.19747097790241241,"254":-0.7130593657493591,"255":0.39272210001945496,"256":0.5574367046356201,"257":0.5197811722755432,"258":-0.19534900784492493,"259":0.41441860795021057,"260":0.44854405522346497,"261":-0.8120907545089722,"262":-0.7063021659851074,"263":0.508887529373169,"264":0.7348271012306213,"265":0.3910605311393738,"266":-0.4561946988105774,"267":0.3236525058746338,"268":0.0994204729795456,"269":-0.7381723523139954,"270":0.016134973615407944,"271":-1.1882754564285278,"272":-0.0455230213701725,"273":0.16694046556949615,"274":-0.1503351479768753,"275":-0.1440204530954361,"276":-0.2601681351661682,"277":-0.13649746775627136,"278":0.3489691913127899,"279":-0.06929488480091095,"280":0.6651437282562256,"281":-0.1142241433262825,"282":1.0654726028442383,"283":0.44647884368896484,"284":0.4055957794189453,"285":-0.16684535145759583,"286":0.41432440280914307,"287":1.0786712169647217,"288":-1.1609336137771606,"289":-0.695197343826294,"290":-1.1689497232437134,"291":0.3498571515083313,"292":-0.5083880424499512,"293":0.06600068509578705,"294":1.0271943807601929,"295":0.39875829219818115,"296":-0.04537033662199974,"297":-0.26850396394729614,"298":-0.7057083249092102,"299":0.14911578595638275,"300":-0.4176174998283386,"301":-0.4824734926223755,"302":0.6349365711212158,"303":0.30823636054992676,"304":0.24513943493366241,"305":1.5502861738204956,"306":0.33304259181022644,"307":-0.4971136450767517,"308":0.42109161615371704,"309":-0.6891805529594421,"310":0.7474434971809387,"311":1.0149236917495728,"312":-0.6247286200523376,"313":-0.6931458115577698,"314":-0.5385811924934387,"315":-0.47426971793174744,"316":-0.2382725328207016,"317":-0.002283544046804309,"318":-0.656177282333374,"319":-0.26592716574668884,"320":-0.08195402473211288,"321":0.26076409220695496,"322":0.21510423719882965,"323":0.1903935819864273,"324":-0.17221298813819885,"325":0.18604332208633423,"326":0.21877677738666534,"327":-0.7868227362632751,"328":0.1526579111814499,"329":0.5407619476318359,"330":0.12666144967079163,"331":0.07102823257446289,"332":-0.9037925004959106,"333":0.7720975279808044,"334":-1.1264666318893433,"335":-0.2542456090450287,"336":-0.6328892707824707,"337":0.14277034997940063,"338":0.4945121705532074,"339":-0.1688835620880127,"340":-0.0034215408377349377,"341":-0.9472021460533142,"342":0.4302254915237427,"343":-0.6052246689796448,"344":2.2018589973449707,"345":-0.5811972618103027,"346":-0.40419694781303406,"347":0.2939421832561493,"348":-0.27584874629974365,"349":0.9380431771278381,"350":0.5390384197235107,"351":-0.19215840101242065,"352":1.1896893978118896,"353":0.227352112531662,"354":0.1495668590068817,"355":-0.9859507083892822,"356":0.1284559816122055,"357":-0.5120276808738708,"358":-0.05132617801427841,"359":-0.25514569878578186,"360":-0.5504243969917297,"361":0.6029236912727356,"362":-0.2432827353477478,"363":0.29480093717575073,"364":-0.1121818944811821,"365":-0.46850329637527466,"366":-0.2033776044845581,"367":0.2333863377571106,"368":-0.1369398981332779,"369":-0.18112990260124207,"370":1.1233938932418823,"371":-0.4213544428348541,"372":2.545581340789795,"373":-0.5373706817626953,"374":-0.048911839723587036,"375":0.177191823720932,"376":-0.18857410550117493,"377":0.3016929030418396,"378":0.07250874489545822,"379":-2.1166560649871826,"380":-0.38386768102645874,"381":-0.7969177961349487,"382":0.016561515629291534,"383":0.4903784394264221,"384":-1.3267669677734375,"385":0.022071123123168945,"386":-0.7161991596221924,"387":0.7205919623374939,"388":0.06255752593278885,"389":0.773978054523468,"390":-0.6310873031616211,"391":0.6808379292488098,"392":0.39712250232696533,"393":-1.2580537796020508,"394":0.16159598529338837,"395":1.391575574874878,"396":-0.3979586958885193,"397":-0.3775768578052521,"398":0.2499263435602188,"399":-0.36261728405952454,"400":0.23211254179477692,"401":0.19225525856018066,"402":0.13552547991275787,"403":0.7980571985244751,"404":0.28611627221107483,"405":0.12488493323326111,"406":-1.077237606048584,"407":0.10510236024856567,"408":-0.31764084100723267,"409":0.32298746705055237,"410":0.405429482460022,"411":0.5353885889053345,"412":-0.6777220964431763,"413":-0.738048255443573,"414":-1.0701085329055786,"415":-0.08995131403207779,"416":-0.3959120512008667,"417":-0.3458559215068817,"418":-0.397208034992218,"419":-1.1339781284332275,"420":0.856778621673584,"421":-0.1947757452726364,"422":0.7732521891593933,"423":-0.6764476895332336,"424":0.8965057730674744,"425":0.6423661112785339,"426":-0.6304766535758972,"427":-0.281194269657135,"428":0.6421222686767578,"429":0.06504445523023605,"430":0.4460744559764862,"431":-1.0611534118652344,"432":0.7996669411659241,"433":-0.8982608914375305,"434":-0.23715592920780182,"435":-0.5377064347267151,"436":0.2883462905883789,"437":-0.4820818603038788,"438":0.27783456444740295,"439":-0.10964040458202362,"440":-0.9208893179893494,"441":0.2689472734928131,"442":-0.3308992087841034,"443":1.3708299398422241,"444":-1.311321496963501,"445":-0.1646462380886078,"446":0.0012422725558280945,"447":-0.36675912141799927,"448":0.8502082228660583,"449":1.1604127883911133,"450":-0.05076434090733528,"451":0.6457380652427673,"452":0.08988990634679794,"453":0.13332989811897278,"454":-1.132723093032837,"455":0.1209392175078392,"456":-0.3542500436306,"457":0.06893690675497055,"458":0.2826283276081085,"459":0.2760534882545471,"460":1.1510114669799805,"461":0.3333168029785156,"462":0.6216459274291992,"463":0.4960642158985138,"464":-0.4374653697013855,"465":0.7528461217880249,"466":-0.40097787976264954,"467":-0.31451988220214844,"468":-0.632574737071991,"469":0.026549076661467552,"470":-0.8119802474975586,"471":-0.22491218149662018,"472":0.11767862737178802,"473":-0.7233824133872986,"474":0.5080190896987915,"475":-0.715827226638794,"476":0.2611819803714752,"477":-0.21411632001399994,"478":-0.06012701988220215,"479":0.2641344666481018,"480":0.06210168078541756,"481":0.6357368230819702,"482":0.5427465438842773,"483":0.11692512035369873,"484":0.6964840888977051,"485":0.18946057558059692,"486":-0.22488892078399658,"487":-0.6329516768455505,"488":-0.09519807249307632,"489":0.08449940383434296,"490":-0.2001570165157318,"491":-0.3101710379123688,"492":-0.02085914835333824,"493":0.27752402424812317,"494":-0.1457059383392334,"495":-0.3563612997531891,"496":-0.40180325508117676,"497":0.8022063970565796,"498":-0.713211715221405,"499":0.511638343334198,"500":0.34898966550827026,"501":-0.059642691165208817,"502":0.23567140102386475,"503":-0.13034191727638245,"504":0.7576715350151062,"505":-0.12384115159511566,"506":-0.01993609592318535,"507":-0.09256011247634888,"508":0.12922285497188568,"509":-0.11530670523643494,"510":0.6461489796638489,"511":-0.7246569395065308,"512":-0.08852566033601761,"513":-0.8984501957893372,"514":-0.5371766090393066,"515":-0.8712366819381714,"516":-0.5057867169380188,"517":-0.2728537917137146,"518":-0.4927837550640106,"519":0.1877700835466385,"520":1.1303925514221191,"521":0.09403298050165176,"522":-0.154621422290802,"523":0.28620675206184387,"524":0.2610319256782532,"525":-1.1452672481536865,"526":-1.2224518060684204,"527":0.3168295621871948,"528":-0.4051941931247711,"529":-0.5039125084877014,"530":0.37596869468688965,"531":-0.7514803409576416,"532":0.6279876232147217,"533":0.32589292526245117,"534":0.16952794790267944,"535":0.08411334455013275,"536":0.5921286344528198,"537":0.6035062074661255,"538":-0.5320975184440613,"539":0.3902173936367035,"540":-0.1841416358947754,"541":0.34154558181762695,"542":-0.1487169712781906,"543":0.8337647914886475,"544":-0.5138224363327026,"545":-0.29399344325065613,"546":-0.37262001633644104,"547":-0.31410640478134155,"548":-0.5372212529182434,"549":-0.7759783864021301,"550":-0.5039764046669006,"551":-0.4732571840286255,"552":0.3895944356918335,"553":0.4967617988586426,"554":0.10691076517105103,"555":-0.22668837010860443,"556":0.34983450174331665,"557":0.8337043523788452,"558":-0.6859021186828613,"559":-0.6489384174346924,"560":0.4172531068325043,"561":0.008374758064746857,"562":0.5321938991546631,"563":-0.41228339076042175,"564":0.505402684211731,"565":-0.3975282311439514,"566":-0.3965553939342499,"567":-0.5709348917007446,"568":0.016795791685581207,"569":0.7028027176856995,"570":0.2522028982639313,"571":0.18395303189754486,"572":-1.0633665323257446,"573":0.26518937945365906,"574":-0.419148713350296,"575":-1.3081378936767578,"576":-0.1933194249868393,"577":0.1788434535264969,"578":0.2112223207950592,"579":0.21787309646606445,"580":0.6136234402656555,"581":0.2685575485229492,"582":0.13922515511512756,"583":0.6187765598297119,"584":0.2000245898962021,"585":-0.38271021842956543,"586":-0.04199244827032089,"587":-0.11035600304603577,"588":0.26611584424972534,"589":-0.24770024418830872,"590":-0.1420224905014038,"591":0.6455994248390198,"592":0.004060771781951189,"593":-0.4998418092727661,"594":-0.5945959091186523,"595":-0.4874464273452759,"596":0.5330284237861633,"597":-0.721807599067688,"598":0.6862250566482544,"599":0.33276039361953735,"600":0.18338751792907715,"601":0.13972699642181396,"602":0.500947117805481,"603":0.3854822814464569,"604":-0.23900867998600006,"605":0.37246423959732056,"606":-0.2534957528114319,"607":0.35950037837028503,"608":-0.1270483434200287,"609":1.1415655612945557,"610":-0.45019206404685974,"611":-0.33522024750709534,"612":-0.3994496464729309,"613":-0.41332119703292847,"614":-0.6828786730766296,"615":-0.5130558609962463,"616":-0.46771302819252014,"617":-0.4639361500740051,"618":0.3236665725708008,"619":0.2171778678894043,"620":0.16114793717861176,"621":-0.2773105502128601,"622":0.4983730614185333,"623":0.5512308478355408,"624":-0.9997090697288513,"625":-0.8171823620796204,"626":0.30097702145576477,"627":0.614185094833374,"628":0.6109065413475037,"629":-0.6989608407020569,"630":0.8986170887947083,"631":-0.7902861833572388,"632":-0.4435223639011383,"633":-0.5056519508361816,"634":-0.3387368619441986,"635":-0.9318903088569641,"636":-0.21155241131782532,"637":0.2669598162174225,"638":-0.6895433664321899,"639":0.21716442704200745,"640":-0.45029911398887634,"641":0.03143243491649628,"642":-1.00008225440979,"643":0.39949890971183777,"644":0.47534236311912537,"645":0.34727227687835693,"646":0.6828834414482117,"647":0.8338199257850647,"648":0.5043180584907532,"649":0.7480588555335999,"650":0.3761652708053589,"651":-0.6133459210395813,"652":-0.7597031593322754,"653":-0.3950161039829254,"654":0.4678158164024353,"655":-0.5606776475906372,"656":-0.6027815341949463,"657":0.6482500433921814,"658":0.7698862552642822,"659":-0.43877360224723816}},"inputHidden":{"rows":20,"columns":20,"weights":{"0":2.368543863296509,"1":-0.634040355682373,"2":0.3618164658546448,"3":1.6880897283554077,"4":-1.6986507177352905,"5":-0.748473048210144,"6":1.7366821765899658,"7":-0.7856032252311707,"8":0.7244648933410645,"9":0.2930087447166443,"10":0.2458406686782837,"11":-0.3505106270313263,"12":1.5265733003616333,"13":-1.8686647415161133,"14":-0.9118381142616272,"15":0.14669695496559143,"16":0.5193464756011963,"17":0.9965935349464417,"18":0.48828667402267456,"19":-0.9181346893310547,"20":0.04626048728823662,"21":-0.5109490156173706,"22":0.6743453145027161,"23":1.1947258710861206,"24":-0.35022178292274475,"25":-0.44563812017440796,"26":-0.5482155680656433,"27":1.115928292274475,"28":-0.03916420042514801,"29":0.9102150201797485,"30":0.07581400871276855,"31":-1.2682201862335205,"32":-0.38876619935035706,"33":-0.37836310267448425,"34":-0.35856273770332336,"35":-0.6438166499137878,"36":0.013880399987101555,"37":0.259492963552475,"38":-0.19429965317249298,"39":-0.4254313111305237,"40":-0.10622268170118332,"41":-0.9741770029067993,"42":-0.3831198215484619,"43":0.584520697593689,"44":-0.19304655492305756,"45":0.19048607349395752,"46":-1.083035945892334,"47":0.6141135692596436,"48":-0.5574190020561218,"49":0.5493389964103699,"50":-1.0173288583755493,"51":-1.1912567615509033,"52":-0.4406728744506836,"53":1.03367280960083,"54":1.1252923011779785,"55":-0.12978225946426392,"56":0.7152889370918274,"57":-0.6242596507072449,"58":0.9391742944717407,"59":0.6277393102645874,"60":-0.39685484766960144,"61":0.7777931690216064,"62":0.4103974997997284,"63":-0.17000605165958405,"64":0.0864328071475029,"65":0.23699302971363068,"66":-1.1212613582611084,"67":0.7672027349472046,"68":0.9385759830474854,"69":0.4156726598739624,"70":-0.03144609183073044,"71":0.024284331128001213,"72":-0.6890802979469299,"73":-0.6678527593612671,"74":-0.274369478225708,"75":-0.8087554574012756,"76":-0.4437062442302704,"77":0.7164605855941772,"78":-0.7247153520584106,"79":-0.9479720592498779,"80":1.1374703645706177,"81":-0.35588136315345764,"82":0.5937091708183289,"83":0.7587806582450867,"84":-1.7150707244873047,"85":-0.4779320955276489,"86":2.4900424480438232,"87":-0.46891865134239197,"88":0.9936599135398865,"89":-0.2792838513851166,"90":1.1787513494491577,"91":-0.5107028484344482,"92":1.490393042564392,"93":-1.7026151418685913,"94":-0.7973907589912415,"95":0.14301085472106934,"96":0.37336641550064087,"97":1.0471731424331665,"98":0.1875084936618805,"99":-0.8537394404411316,"100":0.2254134565591812,"101":-1.3315194845199585,"102":-0.6323791742324829,"103":-0.9822645783424377,"104":-0.3819241523742676,"105":-1.2496293783187866,"106":0.29174503684043884,"107":-0.42596638202667236,"108":-0.273624062538147,"109":-1.7109566926956177,"110":-0.04657355695962906,"111":-0.19085614383220673,"112":0.6323127150535583,"113":0.46919262409210205,"114":0.8729750514030457,"115":0.6901370882987976,"116":2.3087427616119385,"117":-0.6806551218032837,"118":1.4168246984481812,"119":1.1585723161697388,"120":-0.15799963474273682,"121":0.10118472576141357,"122":0.17425687611103058,"123":0.5943021774291992,"124":-0.07899922132492065,"125":-0.9195458889007568,"126":-0.649281919002533,"127":1.0461528301239014,"128":0.42929041385650635,"129":0.509154200553894,"130":0.19577370584011078,"131":-0.855675458908081,"132":-0.33431440591812134,"133":0.12036487460136414,"134":-0.274226576089859,"135":-0.9479897022247314,"136":-0.6888003349304199,"137":0.23852026462554932,"138":-0.12233522534370422,"139":-0.4901881217956543,"140":0.615704357624054,"141":0.05641024187207222,"142":0.2315518707036972,"143":0.5642725825309753,"144":-0.6267461180686951,"145":-0.8106250762939453,"146":-0.7220821380615234,"147":0.4882403612136841,"148":0.16118362545967102,"149":0.23052486777305603,"150":0.29749956727027893,"151":-0.4463585615158081,"152":0.3387316167354584,"153":0.42371347546577454,"154":0.05711688473820686,"155":-0.43937191367149353,"156":-0.06962810456752777,"157":-0.18037565052509308,"158":-0.18178974092006683,"159":-0.2624342143535614,"160":0.0003041539457626641,"161":-1.2031446695327759,"162":2.1779046058654785,"163":0.6099742650985718,"164":0.8446853756904602,"165":-0.40158164501190186,"166":1.0042282342910767,"167":0.6000431180000305,"168":-1.9885026216506958,"169":0.825779139995575,"170":-0.06790602952241898,"171":0.050485286861658096,"172":1.5539003610610962,"173":-1.266050934791565,"174":-1.0579077005386353,"175":0.04418332502245903,"176":1.1165413856506348,"177":1.5777100324630737,"178":1.4219753742218018,"179":-1.474305510520935,"180":-1.1200071573257446,"181":-0.022801032289862633,"182":0.7010583281517029,"183":-0.4129059910774231,"184":0.31323328614234924,"185":-0.28473204374313354,"186":-1.0673096179962158,"187":0.9759220480918884,"188":0.7813576459884644,"189":0.12813030183315277,"190":0.05020126327872276,"191":1.195108413696289,"192":-0.3618849217891693,"193":-0.5615610480308533,"194":0.3102722764015198,"195":-0.536069393157959,"196":0.9271933436393738,"197":0.4992842376232147,"198":-0.1190616637468338,"199":-0.23585230112075806,"200":-0.6619004607200623,"201":0.9172790050506592,"202":-1.0165482759475708,"203":-1.0681886672973633,"204":0.29851165413856506,"205":0.1478988230228424,"206":-0.04716157168149948,"207":0.6462496519088745,"208":0.22148466110229492,"209":0.6078691482543945,"210":-0.44856229424476624,"211":1.6104317903518677,"212":-0.3475424647331238,"213":1.0211986303329468,"214":0.4779968559741974,"215":-1.1084402799606323,"216":-0.2755749523639679,"217":-1.023081660270691,"218":-0.8941619992256165,"219":0.8710190057754517,"220":0.8186925053596497,"221":-0.875440776348114,"222":0.32130515575408936,"223":0.4661605954170227,"224":-0.7880048751831055,"225":-1.6741451025009155,"226":-0.32630228996276855,"227":1.2933467626571655,"228":2.748582363128662,"229":0.5094316005706787,"230":-1.040985107421875,"231":-1.361275553703308,"232":1.4581066370010376,"233":-0.7507627606391907,"234":-0.23832152783870697,"235":-1.1810070276260376,"236":0.5848535895347595,"237":0.389626145362854,"238":0.22255246341228485,"239":0.5897210240364075,"240":0.5143948197364807,"241":-1.0954476594924927,"242":0.3088878393173218,"243":1.101610541343689,"244":-0.533539891242981,"245":-0.797087550163269,"246":0.502493143081665,"247":0.49114200472831726,"248":-0.5318853855133057,"249":-0.03884901851415634,"250":-0.18104662001132965,"251":-1.095720648765564,"252":0.5253999829292297,"253":-0.6061348915100098,"254":-0.34913238883018494,"255":-0.25033944845199585,"256":0.799175500869751,"257":0.12416225671768188,"258":1.5764116048812866,"259":-0.39268752932548523,"260":-0.9193394780158997,"261":0.3246028423309326,"262":-0.6856155395507812,"263":0.3703860640525818,"264":0.8604892492294312,"265":0.1372555047273636,"266":-1.3044356107711792,"267":1.047969937324524,"268":0.19766020774841309,"269":1.757997989654541,"270":-1.159419059753418,"271":0.4817713499069214,"272":-1.0260356664657593,"273":0.9102011322975159,"274":0.9948844313621521,"275":-0.7563983798027039,"276":-0.8345532417297363,"277":-1.0065412521362305,"278":-0.43565288186073303,"279":0.8841676712036133,"280":-0.5960988998413086,"281":1.2354583740234375,"282":0.14679086208343506,"283":0.30290013551712036,"284":0.48016467690467834,"285":0.6279736757278442,"286":0.02408681996166706,"287":0.005380423739552498,"288":-0.8742970824241638,"289":0.33425644040107727,"290":0.5888145565986633,"291":1.9268226623535156,"292":-0.5553011894226074,"293":-0.01545044407248497,"294":-0.3055354952812195,"295":-0.2917329668998718,"296":-1.8200714588165283,"297":-0.020504150539636612,"298":-1.8939014673233032,"299":-0.3684547245502472,"300":0.5981371998786926,"301":0.31276944279670715,"302":0.10296575725078583,"303":1.0258713960647583,"304":-0.5404820442199707,"305":-1.0596989393234253,"306":-0.728196382522583,"307":1.0896497964859009,"308":0.3318842053413391,"309":1.1084189414978027,"310":0.3125177323818207,"311":-0.39915385842323303,"312":0.015335137955844402,"313":0.22114050388336182,"314":-0.028903977945446968,"315":-0.9249122738838196,"316":-0.3821515738964081,"317":0.13636288046836853,"318":-0.4489084482192993,"319":-0.07488101720809937,"320":1.0291695594787598,"321":-1.3097466230392456,"322":0.717349648475647,"323":1.0832505226135254,"324":-0.9222031831741333,"325":-0.7511041760444641,"326":-0.2720654308795929,"327":1.2395581007003784,"328":0.4774963855743408,"329":0.7745934724807739,"330":-0.010538631118834019,"331":-0.1376117318868637,"332":-0.10962475091218948,"333":-0.708941638469696,"334":-0.1682668924331665,"335":-0.47909867763519287,"336":0.40102648735046387,"337":0.17248253524303436,"338":0.33491554856300354,"339":-0.3167908489704132,"340":-0.6460339426994324,"341":1.0306923389434814,"342":-0.07462047040462494,"343":1.1392717361450195,"344":0.7425009608268738,"345":0.9655667543411255,"346":-1.2712249755859375,"347":1.5903582572937012,"348":-0.986518383026123,"349":1.538932204246521,"350":-0.8215935826301575,"351":0.5628994107246399,"352":-1.1027016639709473,"353":0.2334286868572235,"354":0.41836389899253845,"355":-1.0028393268585205,"356":-0.37806785106658936,"357":-0.318024605512619,"358":-1.1024094820022583,"359":0.11638708412647247,"360":0.1458350121974945,"361":-0.45869532227516174,"362":0.5108283758163452,"363":0.9698686599731445,"364":-0.4947144091129303,"365":-0.7233355045318604,"366":-0.26612943410873413,"367":0.7968125343322754,"368":0.6049867272377014,"369":0.7525293231010437,"370":-0.04259197413921356,"371":-1.0923408269882202,"372":-0.2717636227607727,"373":-0.24790619313716888,"374":-0.25068214535713196,"375":-0.7850943207740784,"376":0.0377182736992836,"377":0.26418134570121765,"378":-0.18345655500888824,"379":-0.28681832551956177,"380":-0.4155402183532715,"381":0.38188326358795166,"382":-0.2561781704425812,"383":0.19710588455200195,"384":0.5625534653663635,"385":0.023729654029011726,"386":-0.30064523220062256,"387":-0.09797375649213791,"388":-0.32709255814552307,"389":0.42507341504096985,"390":-0.37010353803634644,"391":0.5471071004867554,"392":0.12713709473609924,"393":0.2553951144218445,"394":0.39666369557380676,"395":0.14256121218204498,"396":-0.9261757731437683,"397":-0.5012502670288086,"398":-0.5978898406028748,"399":0.3722717761993408}},"inputBias":{"rows":20,"columns":1,"weights":{"0":1.0545529127120972,"1":-0.2007744461297989,"2":-0.15349987149238586,"3":1.8209590911865234,"4":0.20711296796798706,"5":0.2885606288909912,"6":0.3255707919597626,"7":2.006223440170288,"8":-0.5845131874084473,"9":2.0366265773773193,"10":-0.3079591691493988,"11":0.32894474267959595,"12":0.05802827328443527,"13":-0.20568735897541046,"14":-0.08676586300134659,"15":1.2189627885818481,"16":-0.223362535238266,"17":-0.08756252378225327,"18":-0.2686651945114136,"19":-0.08066599071025848}},"forgetMatrix":{"rows":20,"columns":33,"weights":{"0":-0.7343069314956665,"1":-1.0341354608535767,"2":1.5790849924087524,"3":-1.0672537088394165,"4":0.40714046359062195,"5":0.9737837910652161,"6":0.7601589560508728,"7":0.4863171875476837,"8":0.17423436045646667,"9":0.6733652353286743,"10":-0.21301120519638062,"11":1.1056677103042603,"12":-0.018152449280023575,"13":1.0914793014526367,"14":-0.22941336035728455,"15":1.029197096824646,"16":-0.20593197643756866,"17":-0.5997018814086914,"18":0.2534175217151642,"19":-1.2753429412841797,"20":-1.2413783073425293,"21":-0.09719930589199066,"22":-0.9519224762916565,"23":-0.7171341776847839,"24":0.826361894607544,"25":0.6213460564613342,"26":0.5570468306541443,"27":-0.5373107194900513,"28":0.9177924990653992,"29":0.1547926515340805,"30":-1.3589290380477905,"31":-0.5885615348815918,"32":0.12988369166851044,"33":0.08103268593549728,"34":0.17254295945167542,"35":-0.26393723487854004,"36":0.06173768639564514,"37":-0.5440149307250977,"38":-0.1490577906370163,"39":-0.31232863664627075,"40":-1.1008554697036743,"41":-0.2891116738319397,"42":-1.2146345376968384,"43":1.7408459186553955,"44":-0.12703660130500793,"45":0.3959585130214691,"46":-0.04964228346943855,"47":-0.8553915619850159,"48":0.1632959395647049,"49":0.8286938667297363,"50":1.3645192384719849,"51":0.8098642826080322,"52":0.13492491841316223,"53":-0.4903613030910492,"54":1.097858190536499,"55":0.14080870151519775,"56":1.0434585809707642,"57":-1.0093212127685547,"58":-0.350106418132782,"59":-1.1421992778778076,"60":1.0868594646453857,"61":-1.0631110668182373,"62":-1.2357922792434692,"63":-0.160278782248497,"64":0.24460312724113464,"65":-1.1471538543701172,"66":0.5901050567626953,"67":0.7110510468482971,"68":-0.5483595132827759,"69":0.8717048168182373,"70":-1.718627691268921,"71":-0.7031216621398926,"72":-0.9191387295722961,"73":-0.6302698254585266,"74":-0.21317368745803833,"75":-0.7949842810630798,"76":0.1421751230955124,"77":-1.0696908235549927,"78":0.6921117901802063,"79":-0.38644471764564514,"80":0.8085967898368835,"81":-0.6599658131599426,"82":-0.6685146689414978,"83":1.030685544013977,"84":-0.797612726688385,"85":0.9133625626564026,"86":0.4089980721473694,"87":-0.6644799709320068,"88":1.2723108530044556,"89":0.14937400817871094,"90":-0.1641780138015747,"91":-0.6407272219657898,"92":-0.23118241131305695,"93":0.7723757028579712,"94":-0.7194797992706299,"95":-0.6468695998191833,"96":-0.8539743423461914,"97":1.1015307903289795,"98":-0.915063202381134,"99":-1.2407431602478027,"100":0.01482128445059061,"101":-0.09426011890172958,"102":-0.002397848293185234,"103":0.14397317171096802,"104":0.5437650084495544,"105":0.1439475268125534,"106":-0.17527103424072266,"107":0.2603335976600647,"108":-1.8344565629959106,"109":0.2632747292518616,"110":0.5100516080856323,"111":-0.32620617747306824,"112":0.19379569590091705,"113":-0.1943812519311905,"114":0.8141444325447083,"115":0.6652306318283081,"116":1.0954420566558838,"117":0.20644225180149078,"118":-0.25911974906921387,"119":-0.15379032492637634,"120":1.161653995513916,"121":-0.3263011574745178,"122":0.4614487886428833,"123":-0.2626499533653259,"124":-0.7476565837860107,"125":-0.23685729503631592,"126":0.3222483992576599,"127":-0.3949863016605377,"128":-0.927508533000946,"129":0.22003379464149475,"130":0.45360806584358215,"131":-1.4697476625442505,"132":-0.3286062479019165,"133":-0.5056544542312622,"134":0.4844224154949188,"135":-0.39574727416038513,"136":-0.1856301724910736,"137":0.1771017611026764,"138":0.35898277163505554,"139":0.8052367568016052,"140":-0.49342599511146545,"141":0.2811131775379181,"142":-0.5429590344429016,"143":0.3548654317855835,"144":-0.16636615991592407,"145":0.33741435408592224,"146":0.3252546787261963,"147":-0.1281019002199173,"148":-0.6186202168464661,"149":-0.6965720057487488,"150":-0.07007034122943878,"151":-0.3728411793708801,"152":-0.4615447223186493,"153":-0.5541605353355408,"154":-0.38224250078201294,"155":-1.0501526594161987,"156":0.8964757919311523,"157":0.3335612118244171,"158":0.8023096919059753,"159":-0.6015174984931946,"160":0.7791623473167419,"161":0.6709405183792114,"162":-0.7475273013114929,"163":-0.2302115112543106,"164":0.6578508019447327,"165":-1.375993013381958,"166":-1.457428216934204,"167":0.47690659761428833,"168":-1.172503113746643,"169":0.661102294921875,"170":0.44750314950942993,"171":1.4805253744125366,"172":0.3602643609046936,"173":0.6489516496658325,"174":0.1705348640680313,"175":0.16324961185455322,"176":1.8602204322814941,"177":-0.6740487813949585,"178":1.2402478456497192,"179":0.7557825446128845,"180":0.5850443840026855,"181":-0.5729936957359314,"182":0.11370467394590378,"183":0.27168357372283936,"184":-1.1518069505691528,"185":-0.6812374591827393,"186":-0.10957774519920349,"187":-1.6547939777374268,"188":-0.4714187979698181,"189":0.13983720541000366,"190":0.8491945266723633,"191":-0.16787295043468475,"192":-0.008322968147695065,"193":-0.20537623763084412,"194":0.24471235275268555,"195":-0.738277018070221,"196":-0.4151487350463867,"197":-0.2656843662261963,"198":0.3028544783592224,"199":0.1462136059999466,"200":-0.03888451308012009,"201":0.4661029279232025,"202":-0.2474025934934616,"203":0.06529547274112701,"204":0.02680923417210579,"205":-0.22666619718074799,"206":-0.270249605178833,"207":-0.6786304712295532,"208":0.2703295648097992,"209":0.06345532834529877,"210":-0.2469964176416397,"211":-0.06106608733534813,"212":-0.28931695222854614,"213":-0.11495762318372726,"214":0.5740756988525391,"215":0.2967558801174164,"216":0.6985224485397339,"217":0.1537705361843109,"218":-0.3620493412017822,"219":0.5700659155845642,"220":0.28869035840034485,"221":0.34222981333732605,"222":-0.04347241297364235,"223":-0.25718364119529724,"224":-0.2711350917816162,"225":0.36525407433509827,"226":-0.2231176197528839,"227":-0.5456427335739136,"228":0.6312276721000671,"229":0.46685898303985596,"230":-0.4062294661998749,"231":-0.13813897967338562,"232":-0.009103375487029552,"233":-0.5781989693641663,"234":0.45113605260849,"235":-0.29293328523635864,"236":-0.3382296562194824,"237":0.1895163506269455,"238":-0.4621361494064331,"239":0.2238447219133377,"240":-1.0905890464782715,"241":-0.21478299796581268,"242":0.08563132584095001,"243":-0.48358646035194397,"244":0.1327493041753769,"245":0.41713663935661316,"246":-0.5779750943183899,"247":0.8051964044570923,"248":0.08469546586275101,"249":1.056024193763733,"250":0.3692815899848938,"251":0.3028676211833954,"252":0.17974792420864105,"253":0.10455134510993958,"254":0.5824548602104187,"255":-0.23899078369140625,"256":-0.46288183331489563,"257":-0.41436097025871277,"258":-0.11256841570138931,"259":-0.12872456014156342,"260":-0.8531420230865479,"261":1.555006742477417,"262":0.4611356556415558,"263":-0.4857891798019409,"264":-0.07582758367061615,"265":-0.23693545162677765,"266":0.15919390320777893,"267":-0.0809234082698822,"268":0.5073026418685913,"269":-0.09043899923563004,"270":0.2633207440376282,"271":0.3486429750919342,"272":-0.6682779788970947,"273":1.3538625240325928,"274":-1.1328892707824707,"275":-0.11825313419103622,"276":-0.29854750633239746,"277":0.12657633423805237,"278":0.18104010820388794,"279":0.568487286567688,"280":-1.2341161966323853,"281":-1.7458915710449219,"282":-0.8448368906974792,"283":-0.008884742856025696,"284":-0.32998430728912354,"285":-1.1954302787780762,"286":-0.35567182302474976,"287":-0.393727570772171,"288":0.12034684419631958,"289":0.5005171298980713,"290":0.14023257791996002,"291":-1.4359443187713623,"292":0.9726433753967285,"293":1.3640860319137573,"294":-0.22106532752513885,"295":-0.4875367283821106,"296":1.768094778060913,"297":0.10677186399698257,"298":-0.03292267397046089,"299":0.2466452568769455,"300":0.20970922708511353,"301":0.6464606523513794,"302":-0.044476885348558426,"303":0.12340331822633743,"304":0.09819111227989197,"305":0.10767395794391632,"306":0.18520045280456543,"307":-0.2533825635910034,"308":0.2288287878036499,"309":-0.32794392108917236,"310":0.2198144793510437,"311":0.0947023332118988,"312":0.39137616753578186,"313":-0.08700142055749893,"314":-0.5919850468635559,"315":-0.3912527561187744,"316":-0.22379542887210846,"317":-0.26041510701179504,"318":-0.2738582491874695,"319":-0.02129453979432583,"320":0.2540034055709839,"321":0.175955668091774,"322":0.07089835405349731,"323":-0.06518205255270004,"324":-0.10849815607070923,"325":0.11999987065792084,"326":0.1040465235710144,"327":0.08299986273050308,"328":-0.39551374316215515,"329":0.5810496211051941,"330":-0.47113949060440063,"331":-0.26812997460365295,"332":-0.04740549996495247,"333":0.29602912068367004,"334":0.057942431420087814,"335":0.4727315902709961,"336":0.5628968477249146,"337":-0.2973202168941498,"338":0.5841392874717712,"339":-0.6265550255775452,"340":0.11643578112125397,"341":-0.12849034368991852,"342":-1.0406635999679565,"343":0.7811188101768494,"344":-0.37762659788131714,"345":-0.7346669435501099,"346":-0.013457603752613068,"347":0.043861448764801025,"348":-0.2787761986255646,"349":-0.4011038541793823,"350":-0.11486200243234634,"351":-0.18149489164352417,"352":0.13979008793830872,"353":0.44233351945877075,"354":-1.3282177448272705,"355":0.020984817296266556,"356":-0.42369210720062256,"357":1.284071683883667,"358":-0.5733123421669006,"359":-0.377854585647583,"360":1.7439943552017212,"361":0.24046778678894043,"362":-0.19266007840633392,"363":-0.372173547744751,"364":-0.39302149415016174,"365":0.10722723603248596,"366":-0.36268892884254456,"367":0.5257253646850586,"368":0.8267738223075867,"369":0.42134982347488403,"370":0.9417315721511841,"371":-0.3703851103782654,"372":0.7040083408355713,"373":-0.9888635873794556,"374":0.23940138518810272,"375":-0.36443042755126953,"376":0.3944762349128723,"377":0.06909751147031784,"378":0.2592104375362396,"379":-1.032391905784607,"380":-0.580253005027771,"381":-0.7584623694419861,"382":-0.11575111001729965,"383":-0.22228194773197174,"384":-1.1431002616882324,"385":-0.4998137056827545,"386":-1.0663044452667236,"387":1.0528063774108887,"388":0.2543998956680298,"389":0.7545733451843262,"390":-0.6800549030303955,"391":1.3665915727615356,"392":1.209538221359253,"393":-0.7162948250770569,"394":-0.21167714893817902,"395":1.0265260934829712,"396":0.05528299883008003,"397":0.29953208565711975,"398":-0.2867918610572815,"399":-0.08547243475914001,"400":-0.191894069314003,"401":-0.003178912680596113,"402":-0.24384187161922455,"403":-1.0565123558044434,"404":0.2259925752878189,"405":-0.9794461131095886,"406":0.9910199642181396,"407":0.043863557279109955,"408":0.3135830760002136,"409":-0.20454101264476776,"410":-0.852250337600708,"411":-0.22327826917171478,"412":1.0193239450454712,"413":1.0451231002807617,"414":0.996063232421875,"415":0.12557032704353333,"416":0.2753719389438629,"417":1.0300724506378174,"418":0.1392444372177124,"419":0.7756617069244385,"420":-0.76585453748703,"421":-0.4870948791503906,"422":-0.9244217872619629,"423":0.9547802209854126,"424":-0.841157853603363,"425":-0.6820637583732605,"426":-0.6356375217437744,"427":0.5148255228996277,"428":-1.244608998298645,"429":-0.7853922247886658,"430":-0.8813297748565674,"431":0.7807174921035767,"432":-1.3508366346359253,"433":0.41766369342803955,"434":0.8941121697425842,"435":0.7629141211509705,"436":0.20007513463497162,"437":1.0026910305023193,"438":0.7626297473907471,"439":-0.5318546295166016,"440":1.1577956676483154,"441":-0.6720656752586365,"442":0.8790872693061829,"443":0.21170316636562347,"444":-0.7548133730888367,"445":-0.17158278822898865,"446":-0.5962634086608887,"447":-0.14532315731048584,"448":-0.9790623784065247,"449":-0.5970171093940735,"450":-0.32418638467788696,"451":-1.4454103708267212,"452":-0.37418678402900696,"453":0.11985361576080322,"454":1.1421347856521606,"455":0.28206777572631836,"456":-0.10559401661157608,"457":0.29138365387916565,"458":0.45795947313308716,"459":-1.2534034252166748,"460":-0.5293532013893127,"461":0.4849453568458557,"462":-0.573590874671936,"463":0.11225128918886185,"464":-0.37939560413360596,"465":-0.005906251724809408,"466":-0.2896052300930023,"467":0.08978936076164246,"468":-0.14718995988368988,"469":-1.0975881814956665,"470":1.6613260507583618,"471":-0.6702151298522949,"472":0.7876081466674805,"473":-0.29953593015670776,"474":-0.6286752223968506,"475":0.7081140875816345,"476":-0.3079056739807129,"477":-0.42703500390052795,"478":0.8127254247665405,"479":0.620607852935791,"480":0.45259785652160645,"481":0.3157171308994293,"482":0.20400555431842804,"483":0.9493431448936462,"484":0.08143977075815201,"485":0.9263372421264648,"486":-1.6472578048706055,"487":-0.4452132284641266,"488":-0.8577790856361389,"489":1.6244827508926392,"490":-1.5551891326904297,"491":-0.4615638852119446,"492":1.291178584098816,"493":0.6687009334564209,"494":-1.2943816184997559,"495":-0.048395682126283646,"496":0.2928133010864258,"497":-0.5931877493858337,"498":0.667681097984314,"499":0.12298813462257385,"500":0.06510663777589798,"501":0.22388097643852234,"502":-0.4821726679801941,"503":0.13816946744918823,"504":-0.9201671481132507,"505":-0.40643808245658875,"506":-0.17378462851047516,"507":-0.4271787405014038,"508":0.08583700656890869,"509":0.17685875296592712,"510":-0.10519079118967056,"511":0.9492634534835815,"512":-0.026547471061348915,"513":1.0643337965011597,"514":0.34774720668792725,"515":0.5524866580963135,"516":0.7254003882408142,"517":-0.0035679135471582413,"518":0.7493594288825989,"519":-0.44971635937690735,"520":-0.4520701766014099,"521":-0.31348294019699097,"522":0.07509087771177292,"523":-0.3006134629249573,"524":-0.7955420017242432,"525":1.3434879779815674,"526":0.553572416305542,"527":-0.4027397930622101,"528":-0.1602253019809723,"529":0.005256945732980967,"530":-0.16839686036109924,"531":-0.09469294548034668,"532":-0.055412571877241135,"533":-0.023430943489074707,"534":-0.24614651501178741,"535":-1.266522765159607,"536":0.5421087741851807,"537":-1.0806430578231812,"538":0.9444106221199036,"539":0.017747830599546432,"540":-0.0029131837654858828,"541":0.008867158554494381,"542":-0.9485725164413452,"543":0.12902450561523438,"544":1.161036729812622,"545":0.8008095026016235,"546":1.3151885271072388,"547":0.032211046665906906,"548":0.03389095887541771,"549":0.9043452739715576,"550":0.04101045802235603,"551":0.8967695832252502,"552":-0.7476744651794434,"553":-0.5244443416595459,"554":-0.8729820847511292,"555":0.8980579376220703,"556":-0.8552610874176025,"557":-0.691494882106781,"558":-0.08561407029628754,"559":0.5144056081771851,"560":-1.2142224311828613,"561":-0.5244119763374329,"562":-0.4317980706691742,"563":0.3808998763561249,"564":0.21051734685897827,"565":0.33092543482780457,"566":0.8745149970054626,"567":0.5316603779792786,"568":0.7776585817337036,"569":0.1914391815662384,"570":0.733218252658844,"571":-0.9759184718132019,"572":0.3960527777671814,"573":-0.7185795903205872,"574":0.4927815794944763,"575":0.20606021583080292,"576":-0.4446983337402344,"577":-0.8226336240768433,"578":-0.7103543877601624,"579":-0.5931704044342041,"580":-0.32341402769088745,"581":-0.3750830292701721,"582":-0.6927794814109802,"583":0.24859003722667694,"584":-0.6920129656791687,"585":0.8135108947753906,"586":0.49402302503585815,"587":0.7508421540260315,"588":-0.8090546131134033,"589":0.765038788318634,"590":0.852314829826355,"591":0.2729223966598511,"592":-0.25471535325050354,"593":0.674341082572937,"594":0.09684903919696808,"595":0.2437751144170761,"596":-0.5883604288101196,"597":0.13934248685836792,"598":-0.9437903165817261,"599":-0.11843132972717285,"600":-0.26444876194000244,"601":-0.7668747305870056,"602":0.19199427962303162,"603":-1.0646182298660278,"604":0.931195855140686,"605":-0.16583183407783508,"606":0.07460486143827438,"607":-0.07468117773532867,"608":-0.0705922544002533,"609":-0.9477117657661438,"610":0.7571285367012024,"611":0.4959503412246704,"612":0.769393265247345,"613":0.3246774971485138,"614":0.5794197916984558,"615":0.745593249797821,"616":0.30842018127441406,"617":0.4701971411705017,"618":-0.41574999690055847,"619":-0.9283261299133301,"620":-0.6115952730178833,"621":0.5637855529785156,"622":-0.4069857895374298,"623":-0.7740651965141296,"624":0.28985193371772766,"625":1.0807898044586182,"626":-0.7473349571228027,"627":-0.9596501588821411,"628":-0.7464379668235779,"629":-0.1620519757270813,"630":-0.15344613790512085,"631":0.35517942905426025,"632":0.9358747601509094,"633":1.0299489498138428,"634":-0.22161662578582764,"635":0.6178081035614014,"636":-0.7801244854927063,"637":-0.5587155818939209,"638":-0.17554070055484772,"639":-1.4436386823654175,"640":1.2119377851486206,"641":-0.7340412735939026,"642":-0.39602652192115784,"643":0.08082927018404007,"644":-0.26877978444099426,"645":0.05286000669002533,"646":-0.6277574300765991,"647":-0.019199488684535027,"648":-0.2794981300830841,"649":-0.4131185710430145,"650":0.3531533181667328,"651":-0.5311444401741028,"652":-0.00010220077820122242,"653":-0.04465007781982422,"654":0.3317076563835144,"655":-0.21035417914390564,"656":-0.3074042499065399,"657":1.5134625434875488,"658":-0.03754807263612747,"659":-0.4623167812824249}},"forgetHidden":{"rows":20,"columns":20,"weights":{"0":-1.0089956521987915,"1":0.7319108247756958,"2":-0.5467151403427124,"3":0.35016167163848877,"4":0.2997082471847534,"5":0.8308993577957153,"6":0.47414812445640564,"7":0.11762314289808273,"8":1.138397216796875,"9":0.27213746309280396,"10":-0.352230966091156,"11":0.3825129568576813,"12":-0.2901943027973175,"13":0.3916577994823456,"14":0.8163790106773376,"15":-1.0142590999603271,"16":-1.0245081186294556,"17":-0.5188536643981934,"18":-0.851871132850647,"19":0.4856094717979431,"20":-0.608703076839447,"21":-0.03135397285223007,"22":-0.2940094769001007,"23":-0.8032534122467041,"24":0.7411814332008362,"25":-0.10492507368326187,"26":-0.28906574845314026,"27":0.1512252390384674,"28":0.9314113259315491,"29":0.20571064949035645,"30":-0.2773037254810333,"31":-0.08755694329738617,"32":-0.012567412108182907,"33":0.10789499431848526,"34":0.17121058702468872,"35":-0.19197764992713928,"36":0.12800517678260803,"37":-0.06690502911806107,"38":0.1498829871416092,"39":0.33961597084999084,"40":-0.0610593780875206,"41":-0.23358900845050812,"42":-0.06653008610010147,"43":-0.7026627659797668,"44":0.5572603344917297,"45":-0.7818059325218201,"46":0.4373067617416382,"47":-0.6895691156387329,"48":0.655146598815918,"49":-0.6652588248252869,"50":-0.582434356212616,"51":-0.3161359429359436,"52":0.1193956658244133,"53":0.24126189947128296,"54":0.14299295842647552,"55":0.5386599898338318,"56":0.49278324842453003,"57":-0.05531314015388489,"58":0.37672170996665955,"59":-0.09103699028491974,"60":0.13177445530891418,"61":-0.9294258952140808,"62":-1.7897741794586182,"63":-1.3845150470733643,"64":-0.6951954364776611,"65":-0.46561646461486816,"66":1.0122231245040894,"67":-1.070335030555725,"68":0.47765904664993286,"69":-1.1805202960968018,"70":-2.1416091918945312,"71":-0.4548650085926056,"72":0.872317373752594,"73":0.3578817844390869,"74":0.7688501477241516,"75":1.0220954418182373,"76":0.6351117491722107,"77":-1.318090796470642,"78":0.9054161906242371,"79":1.7100952863693237,"80":1.0241508483886719,"81":0.8547825813293457,"82":0.22166818380355835,"83":0.21497859060764313,"84":-0.7519465684890747,"85":0.1044531986117363,"86":0.15376773476600647,"87":0.5651479959487915,"88":0.44412773847579956,"89":0.6554833650588989,"90":0.5562941431999207,"91":-0.07309866696596146,"92":-0.24424470961093903,"93":-0.8971801996231079,"94":-1.132102608680725,"95":-0.6123784184455872,"96":-0.690984308719635,"97":1.0307902097702026,"98":-0.9756815433502197,"99":-1.1571834087371826,"100":0.4504363536834717,"101":-0.41041985154151917,"102":-0.24147003889083862,"103":-0.8599494695663452,"104":-0.16062334179878235,"105":0.2914745807647705,"106":1.7438321113586426,"107":-1.7038471698760986,"108":-0.26006895303726196,"109":-0.9057880640029907,"110":0.4020216464996338,"111":0.5037859678268433,"112":-0.055979855358600616,"113":-1.153661847114563,"114":-0.8245366215705872,"115":1.2880797386169434,"116":-0.11141297966241837,"117":0.7674888372421265,"118":0.1981668770313263,"119":0.21191799640655518,"120":0.5998544692993164,"121":-0.8709239959716797,"122":0.8832994699478149,"123":-1.5003997087478638,"124":-0.4230128824710846,"125":0.1428924947977066,"126":1.146016001701355,"127":-1.2074261903762817,"128":-0.20748105645179749,"129":-1.2456414699554443,"130":0.47419774532318115,"131":-0.6955430507659912,"132":1.2408294677734375,"133":0.06909459084272385,"134":-0.18137551844120026,"135":1.050539493560791,"136":1.6174967288970947,"137":-0.18756495416164398,"138":1.1183607578277588,"139":-0.2513316869735718,"140":-0.11675064265727997,"141":-0.344634473323822,"142":0.17948316037654877,"143":-0.7277531027793884,"144":-0.04967262223362923,"145":-0.3310653269290924,"146":0.9957390427589417,"147":-1.700199842453003,"148":-1.5832579135894775,"149":-1.2849409580230713,"150":-0.14754219353199005,"151":0.04874534532427788,"152":0.6583384871482849,"153":0.4735577404499054,"154":0.016418080776929855,"155":1.3206005096435547,"156":0.38255804777145386,"157":-0.34981995820999146,"158":0.5569106936454773,"159":0.2741989493370056,"160":0.13252140581607819,"161":0.06511324644088745,"162":-1.0046941041946411,"163":1.1458628177642822,"164":-0.42877769470214844,"165":-0.6501953601837158,"166":0.20316429436206818,"167":0.4567853808403015,"168":0.2963101267814636,"169":-0.03550587594509125,"170":0.5181360244750977,"171":-0.529106080532074,"172":-0.017010977491736412,"173":-1.684556245803833,"174":-0.17574481666088104,"175":-0.03137071430683136,"176":-0.7006019353866577,"177":0.8959073424339294,"178":-0.0459294430911541,"179":-0.7013755440711975,"180":0.5728716254234314,"181":-0.7216793298721313,"182":0.045832812786102295,"183":-1.4614514112472534,"184":-0.4740016758441925,"185":-0.46715670824050903,"186":2.1979594230651855,"187":-2.1152875423431396,"188":-0.20463931560516357,"189":-2.5273990631103516,"190":0.4366588294506073,"191":-0.08371514827013016,"192":1.5081552267074585,"193":-0.03700464591383934,"194":-0.37615838646888733,"195":1.2675015926361084,"196":0.29900285601615906,"197":0.07041896879673004,"198":0.7256720662117004,"199":-0.601341187953949,"200":-0.7850855588912964,"201":-0.5592987537384033,"202":0.4810786843299866,"203":-0.057326268404722214,"204":1.170873761177063,"205":1.4675133228302002,"206":0.5481042861938477,"207":-0.3250262439250946,"208":-1.1009061336517334,"209":-0.270061194896698,"210":-1.2677862644195557,"211":0.22336223721504211,"212":0.5084021687507629,"213":-1.161335825920105,"214":0.9669678211212158,"215":0.27046453952789307,"216":0.5357730388641357,"217":-0.59992516040802,"218":0.4133375287055969,"219":-0.1684122532606125,"220":0.10260944813489914,"221":-0.9573726058006287,"222":-0.6498792171478271,"223":-0.017291028052568436,"224":-0.14173056185245514,"225":-0.28896090388298035,"226":1.1655163764953613,"227":-0.6458019614219666,"228":-0.35043275356292725,"229":-0.6422980427742004,"230":-0.2680199444293976,"231":-1.0514767169952393,"232":0.9106767773628235,"233":-0.2762518525123596,"234":0.1851433515548706,"235":1.1584759950637817,"236":0.8491201400756836,"237":0.0036249393597245216,"238":1.0281717777252197,"239":0.36728528141975403,"240":-0.7764691710472107,"241":-0.3131970465183258,"242":-0.7095961570739746,"243":-0.4149273931980133,"244":1.3061264753341675,"245":-0.5182659029960632,"246":0.011074822396039963,"247":-0.2779058814048767,"248":0.1481015831232071,"249":-0.08120688050985336,"250":-0.37689709663391113,"251":-0.6250354647636414,"252":0.4446083605289459,"253":0.5770062804222107,"254":0.2806524336338043,"255":0.08339396864175797,"256":0.319192498922348,"257":-0.47121694684028625,"258":0.2368229180574417,"259":0.4119633734226227,"260":0.5465698838233948,"261":0.30146798491477966,"262":-0.1539609432220459,"263":-0.459212988615036,"264":-0.5537033677101135,"265":-1.0899033546447754,"266":-0.21518312394618988,"267":-0.06980922818183899,"268":0.39041438698768616,"269":0.18081915378570557,"270":0.2347094863653183,"271":0.08519057184457779,"272":-0.13466082513332367,"273":0.6780487895011902,"274":-0.3647017478942871,"275":0.20955750346183777,"276":-0.12062542140483856,"277":-0.0996970534324646,"278":-0.2885819971561432,"279":-0.2474544495344162,"280":0.08261717855930328,"281":-0.3263682723045349,"282":0.22365312278270721,"283":-0.13735918700695038,"284":0.6342198252677917,"285":-0.04132009670138359,"286":-0.062329456210136414,"287":-0.004992157686501741,"288":0.08253468573093414,"289":0.19768524169921875,"290":-1.2520521879196167,"291":-0.31630992889404297,"292":0.2538363039493561,"293":-0.1540091633796692,"294":0.2946315407752991,"295":0.11760103702545166,"296":0.09676706790924072,"297":-0.1160874217748642,"298":0.27132976055145264,"299":-0.17265349626541138,"300":0.6798214316368103,"301":-1.0103245973587036,"302":0.2806472182273865,"303":-1.248839259147644,"304":-0.5142154097557068,"305":-0.4926815330982208,"306":0.8781418800354004,"307":-1.2650835514068604,"308":-0.839411735534668,"309":-1.1163287162780762,"310":-0.08008240163326263,"311":-0.15713387727737427,"312":0.7670090198516846,"313":0.5541360974311829,"314":0.22163332998752594,"315":0.5316210389137268,"316":0.9544400572776794,"317":-0.2594320774078369,"318":1.0110201835632324,"319":0.1891418993473053,"320":-1.3200701475143433,"321":-0.28653520345687866,"322":-0.45802041888237,"323":-0.6234510540962219,"324":1.5142275094985962,"325":-0.3544207513332367,"326":-0.14845038950443268,"327":-0.06626316159963608,"328":-0.04632200300693512,"329":0.12347044050693512,"330":-0.4582657814025879,"331":-0.49297896027565,"332":0.3902372717857361,"333":0.21391727030277252,"334":0.5721210837364197,"335":0.088240846991539,"336":0.23962242901325226,"337":-0.1259385198354721,"338":0.1671203076839447,"339":0.441142737865448,"340":0.5163479447364807,"341":0.027732547372579575,"342":0.07532670348882675,"343":0.02047835849225521,"344":-0.19885960221290588,"345":0.44059622287750244,"346":0.049724794924259186,"347":-0.07885907590389252,"348":0.5837826132774353,"349":-0.6925328969955444,"350":-1.2188987731933594,"351":-0.12110587954521179,"352":0.1274803876876831,"353":-0.15509764850139618,"354":0.10478857904672623,"355":0.1224936693906784,"356":0.29575982689857483,"357":-0.41824206709861755,"358":0.1803855001926422,"359":0.20201213657855988,"360":-0.3301351070404053,"361":-0.5559544563293457,"362":-0.43798112869262695,"363":-0.6575371026992798,"364":0.5971667766571045,"365":-0.9189243316650391,"366":0.1427881419658661,"367":-0.42452678084373474,"368":-0.3128165900707245,"369":-0.37351322174072266,"370":-0.31469640135765076,"371":-0.8326483368873596,"372":0.6636695861816406,"373":0.0005021386896260083,"374":0.22250892221927643,"375":0.415149450302124,"376":0.5639832615852356,"377":-0.17373599112033844,"378":0.6384375095367432,"379":0.4504832625389099,"380":0.0022970158606767654,"381":-0.37255212664604187,"382":0.45066431164741516,"383":0.4937899708747864,"384":-0.09824950993061066,"385":0.6016020774841309,"386":0.37376925349235535,"387":-0.19202740490436554,"388":-0.835883378982544,"389":0.21459487080574036,"390":-0.6892942786216736,"391":-0.10061313211917877,"392":0.41018837690353394,"393":-0.30057230591773987,"394":-0.27301087975502014,"395":0.1320209950208664,"396":0.32932519912719727,"397":0.1087314561009407,"398":0.2861398160457611,"399":-0.30939781665802}},"forgetBias":{"rows":20,"columns":1,"weights":{"0":0,"1":0,"2":0,"3":0,"4":0,"5":0,"6":0,"7":0,"8":0,"9":0,"10":0,"11":0,"12":0,"13":0,"14":0,"15":0,"16":0,"17":0,"18":0,"19":0}},"outputMatrix":{"rows":20,"columns":33,"weights":{"0":0.2021157294511795,"1":-0.3025030791759491,"2":0.31211057305336,"3":-0.06440065801143646,"4":0.0033062591683119535,"5":0.26815980672836304,"6":0.03897077217698097,"7":0.7968496084213257,"8":-0.35016247630119324,"9":0.7757242321968079,"10":-0.5007229447364807,"11":0.14346951246261597,"12":-0.15611086785793304,"13":0.09586625546216965,"14":0.4868932068347931,"15":-0.023185905069112778,"16":-1.0558006763458252,"17":-0.7441185116767883,"18":-1.2973355054855347,"19":-0.30886581540107727,"20":-0.4272533357143402,"21":-0.8718835711479187,"22":-0.11678848415613174,"23":-0.7891287803649902,"24":0.5377696752548218,"25":0.32007771730422974,"26":0.6093214154243469,"27":-0.3970479667186737,"28":0.5935646295547485,"29":0.21653781831264496,"30":-0.822568416595459,"31":-0.5876243710517883,"32":1.2712308168411255,"33":-0.31080204248428345,"34":-0.3872731626033783,"35":0.5636774897575378,"36":-0.6835418343544006,"37":0.5830920934677124,"38":0.22876644134521484,"39":0.2192816436290741,"40":0.19074101746082306,"41":0.6325404644012451,"42":0.03802492097020149,"43":-0.427120566368103,"44":0.38353854417800903,"45":-0.27085864543914795,"46":0.2462041676044464,"47":0.2900809049606323,"48":1.4158546924591064,"49":-0.17212212085723877,"50":-0.12878228724002838,"51":-0.3257919251918793,"52":-0.35785916447639465,"53":-0.9367996454238892,"54":-0.2200368046760559,"55":-0.3952634036540985,"56":-0.31570321321487427,"57":0.2853851020336151,"58":0.40158921480178833,"59":0.19601698219776154,"60":-0.25536617636680603,"61":0.3626543879508972,"62":0.34833580255508423,"63":-0.08007745444774628,"64":-0.6353480815887451,"65":0.12155347317457199,"66":0.32829219102859497,"67":-0.09583739191293716,"68":-0.33801141381263733,"69":0.20783084630966187,"70":-1.3454899787902832,"71":-1.073858618736267,"72":-0.4973112642765045,"73":-1.1069108247756958,"74":-0.08865205943584442,"75":-0.6516838073730469,"76":0.962128758430481,"77":-0.1973637342453003,"78":0.18319086730480194,"79":-0.003697766223922372,"80":-0.29795214533805847,"81":-0.12657283246517181,"82":0.5778191685676575,"83":0.8787045478820801,"84":0.47268909215927124,"85":0.6021813154220581,"86":0.4981938302516937,"87":0.10154426842927933,"88":0.6165370941162109,"89":1.117050290107727,"90":-1.2233121395111084,"91":-0.7728914022445679,"92":-0.9647818803787231,"93":1.1759523153305054,"94":-1.1841356754302979,"95":-0.8211312294006348,"96":0.4890170991420746,"97":-0.1368780881166458,"98":-0.945184588432312,"99":-0.9578821659088135,"100":-0.05253343656659126,"101":-0.8094168901443481,"102":-0.22532634437084198,"103":-0.49940723180770874,"104":1.0570429563522339,"105":0.20503945648670197,"106":0.36658862233161926,"107":1.1868541240692139,"108":-1.260273814201355,"109":-0.11276295781135559,"110":-0.049476251006126404,"111":-0.7208089828491211,"112":0.5795983672142029,"113":0.8104291558265686,"114":-0.750549852848053,"115":0.35211077332496643,"116":-0.4835681915283203,"117":0.2012023627758026,"118":0.30525827407836914,"119":0.7787694334983826,"120":0.6736182570457458,"121":-0.48769980669021606,"122":-0.46946629881858826,"123":0.2968752980232239,"124":-1.2989004850387573,"125":0.31989172101020813,"126":-0.38756486773490906,"127":0.6528849601745605,"128":-0.011271202005445957,"129":-0.1429257094860077,"130":1.5714627504348755,"131":-0.022194774821400642,"132":0.4594470262527466,"133":-0.25819864869117737,"134":0.40096867084503174,"135":-0.055016037076711655,"136":0.12130039930343628,"137":0.11507084220647812,"138":0.04259325936436653,"139":1.0372943878173828,"140":-0.1731409728527069,"141":1.3079860210418701,"142":-0.5206027626991272,"143":0.2549835741519928,"144":-0.20592400431632996,"145":0.03804698586463928,"146":0.150459885597229,"147":0.13608571887016296,"148":-1.7937850952148438,"149":-0.9288662672042847,"150":-1.6581480503082275,"151":-0.08662602305412292,"152":0.04962344467639923,"153":-1.416896939277649,"154":-0.06974492222070694,"155":-0.7873404026031494,"156":0.784938633441925,"157":0.173831045627594,"158":0.7685019373893738,"159":-0.6524369716644287,"160":0.8444650173187256,"161":1.0022609233856201,"162":-0.46641120314598083,"163":-0.2923307418823242,"164":1.8030747175216675,"165":0.005060543771833181,"166":1.0496596097946167,"167":-1.2895748615264893,"168":0.8323480486869812,"169":-0.8793479800224304,"170":-0.04302762448787689,"171":-0.19399207830429077,"172":0.1314198523759842,"173":1.1603856086730957,"174":-0.6980886459350586,"175":-0.29019835591316223,"176":-1.2004828453063965,"177":-0.17671507596969604,"178":0.01537648681551218,"179":0.7482448816299438,"180":-0.8522377610206604,"181":0.8229795694351196,"182":-0.5913399457931519,"183":0.3999716639518738,"184":0.7937207221984863,"185":0.946944534778595,"186":0.5735828280448914,"187":0.09327109158039093,"188":0.9654297232627869,"189":0.13192380964756012,"190":-0.607511043548584,"191":0.16324999928474426,"192":-0.4726059138774872,"193":0.15614113211631775,"194":0.11412421613931656,"195":2.293241500854492,"196":1.3225423097610474,"197":0.295370489358902,"198":-0.39158302545547485,"199":-0.13099581003189087,"200":-0.6553221940994263,"201":-0.46335646510124207,"202":0.022577781230211258,"203":0.4127931296825409,"204":0.37075525522232056,"205":0.13750143349170685,"206":0.6775127053260803,"207":0.3408261835575104,"208":-0.7302356362342834,"209":0.01997881382703781,"210":-0.623508095741272,"211":0.5939568281173706,"212":0.42756322026252747,"213":0.2272818386554718,"214":0.01037520170211792,"215":-0.9277949929237366,"216":0.5556223392486572,"217":-0.06712101399898529,"218":0.6833129525184631,"219":-0.27502167224884033,"220":-0.33168408274650574,"221":-0.22092176973819733,"222":0.29051947593688965,"223":-1.044002652168274,"224":0.035254042595624924,"225":-0.714282751083374,"226":0.6562930345535278,"227":0.7768192291259766,"228":0.8932031393051147,"229":0.7523529529571533,"230":0.7339918613433838,"231":-0.7021297812461853,"232":-0.3722732663154602,"233":0.089263916015625,"234":-0.26079288125038147,"235":0.8781135082244873,"236":0.7449842095375061,"237":0.4905649423599243,"238":0.05417380854487419,"239":1.6857564449310303,"240":-0.5789279937744141,"241":-0.2650538980960846,"242":0.2659740746021271,"243":-0.7965608835220337,"244":0.5517211556434631,"245":0.40711846947669983,"246":0.591511607170105,"247":0.5637216567993164,"248":0.007698537316173315,"249":0.5219330787658691,"250":-0.33506157994270325,"251":-0.07577447593212128,"252":0.531648576259613,"253":-0.43243804574012756,"254":0.15916170179843903,"255":0.06788609176874161,"256":0.14737187325954437,"257":0.13200092315673828,"258":-0.09613020718097687,"259":0.08494705706834793,"260":-0.8367530703544617,"261":0.2221197783946991,"262":-0.13011957705020905,"263":-0.4454742968082428,"264":-0.47230350971221924,"265":-0.4586790204048157,"266":0.28408846259117126,"267":-0.40855661034584045,"268":0.48655250668525696,"269":0.7837228775024414,"270":1.26478910446167,"271":-0.3163447678089142,"272":0.24350926280021667,"273":0.21025364100933075,"274":-0.7699524164199829,"275":0.22683939337730408,"276":-1.0298781394958496,"277":1.0115200281143188,"278":-0.3616970479488373,"279":0.13659235835075378,"280":0.5430744290351868,"281":-0.6160136461257935,"282":0.4763544797897339,"283":-0.3579545021057129,"284":-0.16118942201137543,"285":0.07780151814222336,"286":-0.70287024974823,"287":0.7468477487564087,"288":0.06844586133956909,"289":0.16671504080295563,"290":-0.19600267708301544,"291":-0.14350663125514984,"292":0.043853580951690674,"293":-0.2036338448524475,"294":0.5058947205543518,"295":-0.2341768592596054,"296":0.20186854898929596,"297":-0.43247777223587036,"298":-0.35466647148132324,"299":-0.17849069833755493,"300":-0.33504369854927063,"301":-0.12159687280654907,"302":1.1683564186096191,"303":0.6348255276679993,"304":-0.054143086075782776,"305":1.7463562488555908,"306":-0.20410148799419403,"307":-0.6051638722419739,"308":0.4208034873008728,"309":-0.7965466976165771,"310":0.7763104438781738,"311":0.5720593929290771,"312":-0.22214554250240326,"313":0.26332998275756836,"314":-0.37883374094963074,"315":0.7974128723144531,"316":-0.30272752046585083,"317":0.2021293193101883,"318":0.24576005339622498,"319":-0.49450889229774475,"320":0.10577799379825592,"321":0.1580965667963028,"322":0.21247506141662598,"323":0.030421612784266472,"324":-0.27091625332832336,"325":0.18943043053150177,"326":-0.7294155955314636,"327":-0.4743404686450958,"328":0.13646291196346283,"329":-0.17371352016925812,"330":0.5284338593482971,"331":0.6701265573501587,"332":-0.9683432579040527,"333":1.1011065244674683,"334":-0.8166797757148743,"335":-0.6280684471130371,"336":-0.33978602290153503,"337":-0.2802024483680725,"338":-0.21397490799427032,"339":-0.9781001806259155,"340":-0.2225610762834549,"341":-0.4397560656070709,"342":0.2760653495788574,"343":-0.5370893478393555,"344":1.3985143899917603,"345":-0.7846528887748718,"346":0.2619309425354004,"347":0.3666931390762329,"348":-0.011191935278475285,"349":0.8996246457099915,"350":0.853992760181427,"351":0.10756732523441315,"352":0.8064699172973633,"353":0.5263035893440247,"354":-0.12191557884216309,"355":-1.2129267454147339,"356":-0.21840912103652954,"357":-0.1310056746006012,"358":-0.46304237842559814,"359":-0.6409664750099182,"360":1.888928771018982,"361":1.0588282346725464,"362":-0.5760608315467834,"363":-0.5818095803260803,"364":-0.668421745300293,"365":0.12179480493068695,"366":-1.0480574369430542,"367":0.6667774319648743,"368":0.36326131224632263,"369":0.6620025038719177,"370":-0.026809830218553543,"371":0.7860323786735535,"372":0.3933391869068146,"373":-0.5183764100074768,"374":0.787354052066803,"375":-0.580480694770813,"376":0.7396818995475769,"377":0.39936426281929016,"378":0.6591083407402039,"379":0.027278700843453407,"380":-0.30840837955474854,"381":0.355333536863327,"382":-0.6390542387962341,"383":0.04856685921549797,"384":-0.18295782804489136,"385":-0.846359133720398,"386":0.25005531311035156,"387":0.260576993227005,"388":1.2441692352294922,"389":0.1764671802520752,"390":-0.41790756583213806,"391":0.28495392203330994,"392":0.2773583233356476,"393":-0.7178164720535278,"394":-0.16060557961463928,"395":0.281535267829895,"396":-0.5371407270431519,"397":-0.7098344564437866,"398":1.0991201400756836,"399":-0.986493706703186,"400":0.9081876277923584,"401":0.5100133419036865,"402":0.2711600363254547,"403":0.2580370008945465,"404":0.6447077989578247,"405":0.05630170926451683,"406":0.043548356741666794,"407":0.586814820766449,"408":-0.39351651072502136,"409":0.5768667459487915,"410":-0.18007051944732666,"411":1.7525348663330078,"412":-0.38882124423980713,"413":-0.24832935631275177,"414":-0.09750133007764816,"415":-0.46634534001350403,"416":-1.203188180923462,"417":-0.27225053310394287,"418":-0.3880673348903656,"419":-0.4481937885284424,"420":0.38696005940437317,"421":0.8168531656265259,"422":0.2789674401283264,"423":-0.25617310404777527,"424":0.41948220133781433,"425":0.34563228487968445,"426":-0.6436551809310913,"427":-1.4701873064041138,"428":0.27572065591812134,"429":0.43706753849983215,"430":0.6451305150985718,"431":-0.7695585489273071,"432":0.8873305916786194,"433":-0.3306281864643097,"434":-0.3704734444618225,"435":-0.62520831823349,"436":0.03046584688127041,"437":-0.6485031247138977,"438":0.18233343958854675,"439":-0.03615973889827728,"440":-0.9872989654541016,"441":0.4084039032459259,"442":-0.5753470063209534,"443":-0.5169282555580139,"444":-0.1018068790435791,"445":-0.009064407087862492,"446":-0.09063113480806351,"447":-0.24317185580730438,"448":0.8341537117958069,"449":0.8864153027534485,"450":0.05856560915708542,"451":0.564735472202301,"452":0.3159489631652832,"453":-0.1519102156162262,"454":-0.7224419713020325,"455":-0.09255507588386536,"456":0.09455671906471252,"457":-0.08688782900571823,"458":-0.08011961728334427,"459":0.6134814620018005,"460":0.5311336517333984,"461":0.09855779260396957,"462":0.04730086028575897,"463":0.4923819303512573,"464":-0.9596195220947266,"465":0.4137430191040039,"466":-0.9954805970191956,"467":-0.159165158867836,"468":-0.48971638083457947,"469":0.5258890986442566,"470":-0.21034002304077148,"471":0.10377635806798935,"472":-0.540195643901825,"473":-0.8503673076629639,"474":0.13301783800125122,"475":-0.1266452521085739,"476":1.2571606636047363,"477":-1.481388807296753,"478":-0.147532656788826,"479":-0.2792506217956543,"480":-0.4244344234466553,"481":0.7031567692756653,"482":1.0958380699157715,"483":-0.07610904425382614,"484":0.3274023234844208,"485":-0.16704821586608887,"486":-0.026888960972428322,"487":-1.0049247741699219,"488":0.26486706733703613,"489":-0.3032483756542206,"490":-0.0614742748439312,"491":0.1175854429602623,"492":0.7062988877296448,"493":1.092592477798462,"494":0.24807941913604736,"495":-0.5231128334999084,"496":-0.15170744061470032,"497":0.3088524043560028,"498":-0.05475081875920296,"499":1.4131468534469604,"500":0.3514634668827057,"501":0.39615580439567566,"502":-0.14997565746307373,"503":1.170148253440857,"504":-0.48553815484046936,"505":-0.02764872834086418,"506":0.016838427633047104,"507":-0.5650801658630371,"508":0.3594922423362732,"509":-0.7286167144775391,"510":1.3509280681610107,"511":0.561116099357605,"512":-0.08410079032182693,"513":0.5565680265426636,"514":-0.4421412944793701,"515":-0.5944575071334839,"516":0.40531229972839355,"517":-0.40998873114585876,"518":-0.03508669510483742,"519":0.04646351933479309,"520":0.1975424885749817,"521":0.0755414143204689,"522":0.0656125396490097,"523":0.07853919267654419,"524":-0.5010011196136475,"525":0.6839213371276855,"526":-0.6740365028381348,"527":-0.39655715227127075,"528":-0.45212501287460327,"529":-0.19301703572273254,"530":0.2872587740421295,"531":-0.40221330523490906,"532":0.9056135416030884,"533":0.4222034215927124,"534":0.12386199086904526,"535":0.1447509527206421,"536":1.0025300979614258,"537":0.21543781459331512,"538":-0.4033941924571991,"539":0.5011361241340637,"540":-0.15985117852687836,"541":0.1106005311012268,"542":-0.7860701084136963,"543":1.3073313236236572,"544":-0.22409583628177643,"545":-0.3204052448272705,"546":-0.3702738881111145,"547":-0.3203763961791992,"548":-0.5340283513069153,"549":-0.161249577999115,"550":-0.6717005372047424,"551":-0.2737582325935364,"552":0.29470399022102356,"553":0.7228452563285828,"554":0.21081016957759857,"555":-0.43606388568878174,"556":0.46250250935554504,"557":0.26131701469421387,"558":-0.40020179748535156,