{"type":"LSTM","options":{"inputSize":33,"inputRange":33,"hiddenSizes":[20,20],"outputSize":33,"learningRate":0.01,"decayRate":0.999,"smoothEps":1e-8,"regc":0.000001,"clipval":5,"json":null,"dataFormatter":{"values":["Can I get some assistance to fix this issue?","Can I get some help?","Can I get some support on this bug?","Can I get some support on this issue?","Could you provide me some support to fix this issue?","Do I need to assist you to fix the issue?","Do I need to provide support to you regarding the issue?","Do you need assistance?","Do you need help?","Do you need some assistance?","Do you need some help with your issue?","Do you need some help?","Do you need some support?","Do you need support?","False","I could use some assistance with a bug I am currently facing","I need some assistance with a bug in my Rust code","I need some help with a bug I have in C++","True"],"indexTable":{"C":0,"a":1,"n":2," ":3,"I":4,"g":5,"e":6,"t":7,"s":8,"o":9,"m":10,"i":11,"c":12,"f":13,"x":14,"h":15,"u":16,"?":17,"l":18,"p":19,"r":20,"b":21,"d":22,"y":23,"v":24,"D":25,"w":26,"F":27,"R":28,"+":29,"T":30,"stop-input":31,"start-output":32},"characterTable":{"0":"C","1":"a","2":"n","3":" ","4":"I","5":"g","6":"e","7":"t","8":"s","9":"o","10":"m","11":"i","12":"c","13":"f","14":"x","15":"h","16":"u","17":"?","18":"l","19":"p","20":"r","21":"b","22":"d","23":"y","24":"v","25":"D","26":"w","27":"F","28":"R","29":"+","30":"T","31":"stop-input","32":"start-output"},"characters":["C","a","n"," ","I","g","e","t","s","o","m","i","c","f","x","h","u","?","l","p","r","b","d","y","v","D","w","F","R","+","T","stop-input","start-output"]}},"input":{"rows":34,"columns":33,"weights":{"0":-0.519142746925354,"1":0.04116316884756088,"2":0.7219675183296204,"3":0.0649496465921402,"4":-0.36576104164123535,"5":-0.32410314679145813,"6":0.0652642473578453,"7":-0.34412357211112976,"8":-0.5776949524879456,"9":0.5491921901702881,"10":0.17004087567329407,"11":1.1538686752319336,"12":-0.0028220785316079855,"13":-0.4089830815792084,"14":0.22282133996486664,"15":-0.7466652989387512,"16":-0.8473469614982605,"17":-0.14769674837589264,"18":0.4038366377353668,"19":0.5548580288887024,"20":-0.07021293044090271,"21":0.15048910677433014,"22":-0.5022433400154114,"23":-0.15493708848953247,"24":0.6550344824790955,"25":-0.5468752980232239,"26":1.0299626588821411,"27":0.20301520824432373,"28":-0.47624245285987854,"29":-0.38601821660995483,"30":-0.33701497316360474,"31":0.44784629344940186,"32":0.23027172684669495,"33":-2.030409097671509,"34":0.6076264977455139,"35":-2.1775970458984375,"36":-1.8074522018432617,"37":0.29782021045684814,"38":0.47671034932136536,"39":-0.8556637763977051,"40":0.902824878692627,"41":1.2484983205795288,"42":-0.8132461309432983,"43":-0.05254284664988518,"44":-0.37323856353759766,"45":2.2974703311920166,"46":-1.1387239694595337,"47":-0.44189900159835815,"48":-2.3138275146484375,"49":-2.3785433769226074,"50":1.4280349016189575,"51":2.248940944671631,"52":1.189821481704712,"53":0.44232335686683655,"54":0.6634954214096069,"55":-1.769020676612854,"56":-0.43303951621055603,"57":2.325017213821411,"58":-2.303948163986206,"59":-1.0918208360671997,"60":1.608136534690857,"61":-1.1450440883636475,"62":-0.805568277835846,"63":-2.2307519912719727,"64":1.1802536249160767,"65":-1.4219714403152466,"66":-0.11918999999761581,"67":-0.0659080371260643,"68":-0.12017200142145157,"69":-0.39422011375427246,"70":0.8259188532829285,"71":0.6646292209625244,"72":-0.48632603883743286,"73":0.7770767211914062,"74":0.3388250768184662,"75":-0.5908406376838684,"76":-0.64069002866745,"77":-0.2115178257226944,"78":-0.3035620152950287,"79":-0.3498331904411316,"80":-0.417119562625885,"81":-0.20782306790351868,"82":0.36956503987312317,"83":-0.11972396820783615,"84":0.47495320439338684,"85":0.08543863147497177,"86":0.3811650574207306,"87":0.38461387157440186,"88":0.5031205415725708,"89":-0.3960632085800171,"90":-0.3242650330066681,"91":-0.34651026129722595,"92":-0.24291203916072845,"93":-0.04141632094979286,"94":0.0942879393696785,"95":0.14784923195838928,"96":-0.108766108751297,"97":0.11299451440572739,"98":-0.41786137223243713,"99":0.0353458896279335,"100":-0.15860961377620697,"101":0.30631324648857117,"102":1.4193626642227173,"103":-1.1427983045578003,"104":-1.0033735036849976,"105":1.229512095451355,"106":-1.012279748916626,"107":-1.4315693378448486,"108":1.5583258867263794,"109":0.8790248036384583,"110":0.37095725536346436,"111":0.7126418948173523,"112":0.0038617844693362713,"113":1.2826110124588013,"114":-0.3567829728126526,"115":-0.34735167026519775,"116":-1.416695237159729,"117":0.11520961672067642,"118":-0.1114349216222763,"119":-0.876918375492096,"120":-1.0008212327957153,"121":-1.0397428274154663,"122":1.1617048978805542,"123":0.16022048890590668,"124":0.23405782878398895,"125":0.5395324230194092,"126":-1.1669034957885742,"127":0.17557483911514282,"128":-0.2455732375383377,"129":0.16199921071529388,"130":-0.028646405786275864,"131":1.075398325920105,"132":0.6532655954360962,"133":0.25614696741104126,"134":-0.07754344493150711,"135":0.24905700981616974,"136":0.3168799579143524,"137":-0.5648292899131775,"138":0.10725145041942596,"139":-0.3786008954048157,"140":-0.5885965824127197,"141":0.37761974334716797,"142":0.28214433789253235,"143":-0.5119167566299438,"144":-0.8155304193496704,"145":1.3834549188613892,"146":0.007815488614141941,"147":0.572858452796936,"148":0.8213505744934082,"149":0.007819769904017448,"150":-0.5699010491371155,"151":-0.35355615615844727,"152":-0.012614370323717594,"153":0.026153335347771645,"154":0.1442170888185501,"155":0.046620577573776245,"156":-0.6848557591438293,"157":0.891205906867981,"158":0.3593762516975403,"159":-0.4198228716850281,"160":0.1919272541999817,"161":0.6223336458206177,"162":0.4960815906524658,"163":-0.9312094449996948,"164":0.27860182523727417,"165":-0.8879968523979187,"166":1.0547764301300049,"167":1.128126859664917,"168":-1.1261277198791504,"169":-1.0384302139282227,"170":0.840785801410675,"171":1.2043708562850952,"172":1.3069449663162231,"173":-1.1853681802749634,"174":-0.8809272646903992,"175":-1.0383881330490112,"176":0.9865039587020874,"177":0.9728006720542908,"178":-0.9323196411132812,"179":1.1517502069473267,"180":-0.6308297514915466,"181":1.4867236614227295,"182":-1.174216866493225,"183":1.1176230907440186,"184":0.7996382117271423,"185":-1.1743780374526978,"186":-0.17722000181674957,"187":1.676818609237671,"188":1.3415086269378662,"189":0.7134268879890442,"190":-1.1096876859664917,"191":0.40384188294410706,"192":-1.3534140586853027,"193":-0.8032578229904175,"194":-0.9088276624679565,"195":-0.9257091879844666,"196":0.9711945056915283,"197":0.9870588183403015,"198":1.711045742034912,"199":0.44851362705230713,"200":0.182057723402977,"201":0.5404645204544067,"202":0.10590608417987823,"203":-0.4321179986000061,"204":-0.5597597360610962,"205":-1.5989240407943726,"206":-0.23112960159778595,"207":0.10479135811328888,"208":1.1225297451019287,"209":-1.5182408094406128,"210":-0.7522816061973572,"211":1.4721031188964844,"212":-0.24953854084014893,"213":0.11733543872833252,"214":0.08302699029445648,"215":0.7326282262802124,"216":-1.4138442277908325,"217":-1.638177514076233,"218":0.5254426598548889,"219":0.41120272874832153,"220":-1.9834190607070923,"221":-0.41824543476104736,"222":0.1158754974603653,"223":1.89529287815094,"224":-1.0350583791732788,"225":0.0027369919698685408,"226":1.3365288972854614,"227":1.7447099685668945,"228":1.7568058967590332,"229":-2.042872428894043,"230":0.004949771333485842,"231":1.2178117036819458,"232":-1.2836533784866333,"233":0.8536868095397949,"234":0.2574611306190491,"235":-0.32501959800720215,"236":0.03157627582550049,"237":0.09307949244976044,"238":0.09341892600059509,"239":0.42254045605659485,"240":-0.5848536491394043,"241":0.08856376260519028,"242":-1.0960280895233154,"243":-0.45461350679397583,"244":0.7956730127334595,"245":0.017625754699110985,"246":1.3906173706054688,"247":0.7085993885993958,"248":-0.26112502813339233,"249":-0.9332083463668823,"250":-1.4568852186203003,"251":0.08405817300081253,"252":-0.2568528652191162,"253":0.07807125896215439,"254":0.02316237986087799,"255":-0.9624761939048767,"256":1.2027859687805176,"257":-0.6082239151000977,"258":0.20476293563842773,"259":0.6389186382293701,"260":1.0227717161178589,"261":0.8707607984542847,"262":-1.0431197881698608,"263":0.27661851048469543,"264":-0.7040526270866394,"265":0.8490439653396606,"266":-1.0346163511276245,"267":0.08752318471670151,"268":0.6182355880737305,"269":-0.2743659019470215,"270":0.429664671421051,"271":-0.350958913564682,"272":-0.34331831336021423,"273":0.4680456519126892,"274":0.3650604486465454,"275":0.9080761075019836,"276":0.7024458646774292,"277":-1.2228583097457886,"278":0.11031311750411987,"279":-1.0360181331634521,"280":-0.8848934173583984,"281":0.9617152810096741,"282":0.6302425265312195,"283":0.8864165544509888,"284":-0.10632460564374924,"285":0.14432868361473083,"286":-0.5827694535255432,"287":-0.09177535027265549,"288":1.0751677751541138,"289":0.1855514645576477,"290":0.37232616543769836,"291":-0.17594848573207855,"292":-0.09325427561998367,"293":-0.9329982399940491,"294":-0.8889395594596863,"295":0.041181180626153946,"296":-0.933685302734375,"297":0.32421717047691345,"298":-0.058284882456064224,"299":0.39338889718055725,"300":0.04069128632545471,"301":-0.08380258828401566,"302":-0.7721119523048401,"303":0.5397747755050659,"304":0.044074926525354385,"305":-0.24063734710216522,"306":1.0425541400909424,"307":0.5959115624427795,"308":-0.0028097399044781923,"309":-0.7301493287086487,"310":0.5523824095726013,"311":0.32684609293937683,"312":0.06581193953752518,"313":0.22700756788253784,"314":-0.8095692992210388,"315":-0.34785252809524536,"316":-0.16827237606048584,"317":-0.21611696481704712,"318":-0.38261836767196655,"319":0.11496599018573761,"320":0.05234291031956673,"321":-0.13482683897018433,"322":0.261059045791626,"323":0.5131419897079468,"324":-0.4042075574398041,"325":0.8082709908485413,"326":0.11384523659944534,"327":0.4226974844932556,"328":0.02777477167546749,"329":0.7870688438415527,"330":-0.3979937732219696,"331":-0.45425689220428467,"332":-0.17509406805038452,"333":1.0431574583053589,"334":-1.020856499671936,"335":-1.2517796754837036,"336":0.31395313143730164,"337":-0.9984068870544434,"338":-0.08315477520227432,"339":1.194821834564209,"340":0.5578663945198059,"341":0.08720521628856659,"342":0.16466857492923737,"343":-0.21668413281440735,"344":0.9446660280227661,"345":-0.5984504222869873,"346":-0.5731228590011597,"347":0.02404770255088806,"348":0.6610493063926697,"349":-0.4323258399963379,"350":-0.8038634061813354,"351":-1.1537282466888428,"352":-1.3913826942443848,"353":0.9808826446533203,"354":0.5602394938468933,"355":0.06893811374902725,"356":0.22610697150230408,"357":-0.4561358094215393,"358":1.1395487785339355,"359":-0.4535837769508362,"360":-0.22976234555244446,"361":-0.6033032536506653,"362":-0.04192294180393219,"363":1.7266709804534912,"364":-1.7638013362884521,"365":1.519776463508606,"366":0.6727297306060791,"367":-0.9359498023986816,"368":-0.8114656805992126,"369":0.8738240599632263,"370":-0.668021023273468,"371":-0.6370167136192322,"372":0.6271626949310303,"373":0.7972270250320435,"374":-1.3447345495224,"375":-1.3794260025024414,"376":1.8328263759613037,"377":0.7383918166160583,"378":1.4606658220291138,"379":1.4889875650405884,"380":-0.9638440012931824,"381":-1.2369223833084106,"382":-1.7948540449142456,"383":-0.808257520198822,"384":-0.7315173149108887,"385":-0.5305715799331665,"386":0.6254451870918274,"387":-1.6017193794250488,"388":1.7878719568252563,"389":0.4896400272846222,"390":-0.8487286567687988,"391":0.6837615966796875,"392":1.4738250970840454,"393":1.759473443031311,"394":-1.5141570568084717,"395":1.1162971258163452,"396":1.0957502126693726,"397":-0.9705143570899963,"398":-0.19204473495483398,"399":-0.737240731716156,"400":0.2544965445995331,"401":0.5417561531066895,"402":-0.4444710314273834,"403":0.45357510447502136,"404":0.3300930857658386,"405":-0.7686596512794495,"406":-0.318588525056839,"407":-0.8687140345573425,"408":-0.9680915474891663,"409":1.0857338905334473,"410":-0.4694780707359314,"411":1.2843984365463257,"412":1.168715238571167,"413":0.3976864218711853,"414":-1.332798957824707,"415":-1.0955535173416138,"416":0.8370711207389832,"417":1.31842839717865,"418":0.6994621753692627,"419":-0.5739724636077881,"420":-1.2940644025802612,"421":0.8860671520233154,"422":-0.5066592693328857,"423":0.6217370629310608,"424":0.10447239130735397,"425":1.1788402795791626,"426":1.134886384010315,"427":-0.9462530016899109,"428":-0.4514785706996918,"429":-0.5163533091545105,"430":0.2901902198791504,"431":-1.8414757251739502,"432":-1.8149522542953491,"433":1.8511066436767578,"434":1.8899532556533813,"435":-1.6528372764587402,"436":1.9015246629714966,"437":1.1466162204742432,"438":-1.8123892545700073,"439":-1.8314411640167236,"440":0.5100469589233398,"441":0.4662463366985321,"442":-0.5230819582939148,"443":-1.7953394651412964,"444":-0.5804488062858582,"445":-0.672860324382782,"446":1.6166802644729614,"447":-0.8349616527557373,"448":0.549782395362854,"449":1.9194239377975464,"450":1.8517324924468994,"451":-0.617384135723114,"452":-1.8909109830856323,"453":0.5742127895355225,"454":-0.47645196318626404,"455":0.4516468346118927,"456":1.9690508842468262,"457":-1.8361566066741943,"458":-0.3752136826515198,"459":-0.6691598296165466,"460":0.4805804491043091,"461":-1.8021788597106934,"462":1.4475934505462646,"463":-1.674320936203003,"464":-0.6867096424102783,"465":-0.29441019892692566,"466":0.214230477809906,"467":-0.016745001077651978,"468":2.0007007122039795,"469":0.2983335554599762,"470":-0.34353119134902954,"471":0.03936342895030975,"472":-0.8369243741035461,"473":0.527959406375885,"474":-0.2297384887933731,"475":2.2801826000213623,"476":1.4265085458755493,"477":1.051419973373413,"478":1.865071177482605,"479":-2.247366428375244,"480":-0.9680054783821106,"481":-1.842167615890503,"482":-0.5959798693656921,"483":0.6148590445518494,"484":2.012934923171997,"485":-0.30778148770332336,"486":-0.08187694847583771,"487":-0.9080130457878113,"488":-0.9432966113090515,"489":-1.0061771869659424,"490":-0.8213714957237244,"491":0.18126451969146729,"492":1.8999069929122925,"493":-1.6592998504638672,"494":1.9941284656524658,"495":0.9807347059249878,"496":0.9163522124290466,"497":-0.4608103334903717,"498":1.4555720090866089,"499":-0.6774346828460693,"500":-1.3913757801055908,"501":1.5149519443511963,"502":-1.692055583000183,"503":-1.7115368843078613,"504":0.6229110360145569,"505":1.9106135368347168,"506":0.28313973546028137,"507":-0.6190283298492432,"508":1.1072697639465332,"509":1.5703284740447998,"510":-0.46527591347694397,"511":0.32066231966018677,"512":-1.1892555952072144,"513":-0.44489187002182007,"514":-1.348799705505371,"515":-0.5300873517990112,"516":0.04219234734773636,"517":-0.2376493364572525,"518":1.2202298641204834,"519":0.6097308397293091,"520":0.5750357508659363,"521":0.627738893032074,"522":-1.4303380250930786,"523":-0.3079514801502228,"524":-0.0214510690420866,"525":0.9172852039337158,"526":-1.44257390499115,"527":1.600434422492981,"528":1.2176616191864014,"529":-1.2966477870941162,"530":0.39710506796836853,"531":-0.44590675830841064,"532":0.13815101981163025,"533":0.32528847455978394,"534":-0.6486678719520569,"535":0.2992614507675171,"536":0.8785805106163025,"537":-0.5936405658721924,"538":0.14960595965385437,"539":-1.0138684511184692,"540":-1.3620147705078125,"541":1.2147490978240967,"542":-0.42121925950050354,"543":1.1484888792037964,"544":1.0085886716842651,"545":0.2381795048713684,"546":-1.054935336112976,"547":-0.8859946131706238,"548":0.45717158913612366,"549":0.15199019014835358,"550":-0.27159541845321655,"551":-0.49946850538253784,"552":-1.0666427612304688,"553":0.9879024624824524,"554":0.009644761681556702,"555":0.9965710043907166,"556":0.6891713738441467,"557":1.4056600332260132,"558":1.397177815437317,"559":-0.8582581877708435,"560":-0.30324915051460266,"561":-0.9602396488189697,"562":0.8142257928848267,"563":-0.4900680482387543,"564":-0.5575047135353088,"565":0.7268532514572144,"566":0.6775799989700317,"567":-0.25712770223617554,"568":0.6081874370574951,"569":0.2188410609960556,"570":-0.33542442321777344,"571":-0.5246039628982544,"572":0.577701985836029,"573":0.06345370411872864,"574":-0.9302389621734619,"575":-0.46756982803344727,"576":-0.6164012551307678,"577":-0.37395229935646057,"578":0.2822325527667999,"579":0.5938803553581238,"580":1.2567076683044434,"581":0.44639697670936584,"582":0.29701414704322815,"583":0.20394080877304077,"584":-0.3509327471256256,"585":0.27581197023391724,"586":-0.5433085560798645,"587":0.3170957863330841,"588":0.5230359435081482,"589":-0.22388924658298492,"590":-0.37000852823257446,"591":-0.8322389125823975,"592":0.7859386801719666,"593":-0.5947679877281189,"594":-0.31653469800949097,"595":1.3188568353652954,"596":0.5118390917778015,"597":0.7478132247924805,"598":-0.2906317710876465,"599":-0.813006579875946,"600":-0.11911679804325104,"601":-0.7709727883338928,"602":-0.2230357825756073,"603":0.7893404364585876,"604":0.6537359356880188,"605":-0.169538676738739,"606":-0.2518293261528015,"607":-0.41975364089012146,"608":0.33307215571403503,"609":-0.14973583817481995,"610":-0.31008878350257874,"611":0.21122430264949799,"612":0.21674412488937378,"613":0.36758190393447876,"614":-0.5807468891143799,"615":-0.835961639881134,"616":-0.5436559915542603,"617":0.6974745988845825,"618":0.5456261038780212,"619":0.02129215933382511,"620":0.8266317844390869,"621":-0.6175655126571655,"622":1.2588430643081665,"623":0.10770715773105621,"624":-0.4099653661251068,"625":0.02270909957587719,"626":-0.0036743616219609976,"627":0.9238362312316895,"628":-0.42085033655166626,"629":0.04681459441781044,"630":0.967060923576355,"631":-0.9905356168746948,"632":-0.7658858299255371,"633":1.0139704942703247,"634":-1.0374585390090942,"635":-0.18071475625038147,"636":-0.05558512732386589,"637":0.7306559085845947,"638":0.06341776251792908,"639":-0.07691594213247299,"640":0.0945235937833786,"641":0.817715048789978,"642":0.44225776195526123,"643":-0.19310404360294342,"644":-0.16029059886932373,"645":-0.7064349055290222,"646":-0.8085617423057556,"647":-1.0148704051971436,"648":-0.39769110083580017,"649":-0.7585525512695312,"650":0.7967709898948669,"651":-0.05467049032449722,"652":0.2996324300765991,"653":-0.08650655299425125,"654":-0.27676668763160706,"655":-0.014259195886552334,"656":-0.04503713920712471,"657":0.13525766134262085,"658":-0.8798865079879761,"659":0.19312028586864471,"660":0.7025231122970581,"661":-0.613066554069519,"662":0.2783609628677368,"663":0.115213543176651,"664":0.0948936715722084,"665":-0.48759689927101135,"666":0.06892308592796326,"667":0.5716065168380737,"668":0.7227386832237244,"669":-0.17950820922851562,"670":0.6537037491798401,"671":0.03514181822538376,"672":-0.7216041684150696,"673":0.5014588236808777,"674":0.05183183401823044,"675":0.646715521812439,"676":0.6705096364021301,"677":-0.5200992226600647,"678":-0.46438363194465637,"679":-0.5644550323486328,"680":-0.14446784555912018,"681":-1.0183402299880981,"682":0.2019205242395401,"683":0.42155295610427856,"684":-0.3640730381011963,"685":0.4183425307273865,"686":-0.25588521361351013,"687":0.04950853809714317,"688":0.8954228162765503,"689":0.19779543578624725,"690":0.5893457531929016,"691":-0.4117858111858368,"692":0.26401257514953613,"693":1.7459352016448975,"694":-1.5313918590545654,"695":-1.1526321172714233,"696":-0.4295235574245453,"697":1.0195157527923584,"698":-0.03616352751851082,"699":-0.07052188366651535,"700":0.2608743906021118,"701":0.24470825493335724,"702":-0.12119371443986893,"703":-0.25180819630622864,"704":-1.6026012897491455,"705":-1.229988694190979,"706":2.2435803413391113,"707":-0.6724242568016052,"708":1.2326959371566772,"709":1.357107400894165,"710":0.3539845645427704,"711":-1.5724493265151978,"712":-1.4674028158187866,"713":0.7985790967941284,"714":0.8512142896652222,"715":1.028657078742981,"716":-1.2611098289489746,"717":-1.4629625082015991,"718":1.035422682762146,"719":-0.15538987517356873,"720":0.6119164228439331,"721":-0.1542542725801468,"722":1.610535979270935,"723":1.7467536926269531,"724":-1.4401782751083374,"725":-0.4932519495487213,"726":2.3388419151306152,"727":-2.3885953426361084,"728":-1.3538742065429688,"729":-1.2642664909362793,"730":1.5095490217208862,"731":1.2526097297668457,"732":-1.4908419847488403,"733":1.2287789583206177,"734":1.6055554151535034,"735":-1.1178683042526245,"736":-0.9310306906700134,"737":-1.9898451566696167,"738":-2.1377673149108887,"739":2.4153785705566406,"740":-1.4111181497573853,"741":2.4703023433685303,"742":2.4187474250793457,"743":1.4827661514282227,"744":-2.3919460773468018,"745":-2.3228871822357178,"746":1.3880778551101685,"747":1.1564146280288696,"748":1.0597984790802002,"749":-1.568894386291504,"750":-2.451179265975952,"751":2.299360752105713,"752":-1.4564886093139648,"753":1.5310150384902954,"754":2.311570882797241,"755":2.2023544311523438,"756":2.346935272216797,"757":-2.279263496398926,"758":-1.2543095350265503,"759":0.035781435668468475,"760":1.0611165761947632,"761":-0.36724165081977844,"762":0.17286382615566254,"763":0.3208281695842743,"764":-0.08153309673070908,"765":0.0492883063852787,"766":0.21387141942977905,"767":0.027114208787679672,"768":0.2973417639732361,"769":0.03910481929779053,"770":0.4050694704055786,"771":-0.12224122136831284,"772":-0.19651010632514954,"773":0.11192620545625687,"774":-0.3691476583480835,"775":-0.34194883704185486,"776":0.18728846311569214,"777":0.39895200729370117,"778":0.23753724992275238,"779":-0.4603218734264374,"780":-0.7581143379211426,"781":-0.16856051981449127,"782":0.7760729789733887,"783":0.5599842071533203,"784":0.3310689628124237,"785":-0.20096200704574585,"786":-0.28474968671798706,"787":0.35332560539245605,"788":-0.6502746343612671,"789":-0.23450377583503723,"790":0.007605193182826042,"791":-0.025317508727312088,"792":0.2305101603269577,"793":-0.9931392669677734,"794":-0.2320452183485031,"795":1.0435017347335815,"796":0.3825644254684448,"797":-0.26736176013946533,"798":-0.573358416557312,"799":-0.35271817445755005,"800":0.7039112448692322,"801":0.5181306600570679,"802":0.68729168176651,"803":0.15110138058662415,"804":-0.5206130743026733,"805":-0.11368689686059952,"806":-0.7570046186447144,"807":-0.6258761286735535,"808":-0.9305069446563721,"809":0.5054537057876587,"810":0.0625695064663887,"811":-0.6312172412872314,"812":-0.4541555345058441,"813":-1.4974100589752197,"814":-1.770452857017517,"815":0.1384943127632141,"816":0.1248018890619278,"817":0.1758914291858673,"818":0.3181956112384796,"819":0.48406729102134705,"820":1.0355050563812256,"821":0.19147919118404388,"822":-0.20245060324668884,"823":-0.6446060538291931,"824":-0.7365673184394836,"825":2.1549437046051025,"826":-2.5103678703308105,"827":1.6064434051513672,"828":-0.3650178611278534,"829":-0.25326454639434814,"830":-0.26895207166671753,"831":-0.062053434550762177,"832":0.6060681939125061,"833":0.4840560853481293,"834":-0.6766791939735413,"835":-0.27736255526542664,"836":-2.096043109893799,"837":-2.6325926780700684,"838":2.5901167392730713,"839":-0.14875316619873047,"840":2.534623384475708,"841":2.4944727420806885,"842":0.1138664111495018,"843":-2.6653547286987305,"844":-1.9599528312683105,"845":0.2281395047903061,"846":0.0390559546649456,"847":1.4803881645202637,"848":-0.30926254391670227,"849":-2.6158666610717773,"850":2.1040968894958496,"851":-1.050273060798645,"852":0.08003389835357666,"853":0.48159757256507874,"854":2.5332894325256348,"855":2.5164451599121094,"856":-1.9574114084243774,"857":-0.3190348446369171,"858":-0.6115460991859436,"859":-0.11221444606781006,"860":-0.5173212289810181,"861":0.15714596211910248,"862":-0.013713831081986427,"863":-0.34599658846855164,"864":0.10325676202774048,"865":-0.1751449853181839,"866":-0.9302983283996582,"867":0.63468337059021,"868":0.2168695330619812,"869":0.3281646966934204,"870":0.07266753166913986,"871":-0.21682767570018768,"872":0.28209325671195984,"873":-0.38872042298316956,"874":-0.2931551933288574,"875":-0.30544689297676086,"876":0.3265576958656311,"877":-0.1464502215385437,"878":-0.18410909175872803,"879":-0.3164551258087158,"880":-0.7145338654518127,"881":0.29026904702186584,"882":0.4355742037296295,"883":0.47378748655319214,"884":0.021792752668261528,"885":-0.6791101098060608,"886":1.0475361347198486,"887":-0.4027959108352661,"888":-0.1187233179807663,"889":-0.3819107711315155,"890":0.29216158390045166,"891":0.6483209729194641,"892":-0.5947400331497192,"893":-0.1727267950773239,"894":-0.44928011298179626,"895":0.24327398836612701,"896":0.7841848134994507,"897":-0.37549853324890137,"898":-0.007054641842842102,"899":0.38010990619659424,"900":-0.9065465331077576,"901":-0.16717489063739777,"902":-0.21649786829948425,"903":-0.3945344388484955,"904":0.3758260905742645,"905":-0.40617626905441284,"906":0.14034155011177063,"907":-0.06628991663455963,"908":0.26843589544296265,"909":-0.6409435868263245,"910":-0.4654764235019684,"911":0.1408367156982422,"912":-0.11949843168258667,"913":-0.17743146419525146,"914":-0.15565624833106995,"915":0.11783312261104584,"916":0.7655169367790222,"917":-1.2164766788482666,"918":0.5147849321365356,"919":0.7933697700500488,"920":0.06324315816164017,"921":0.4470592141151428,"922":-0.9952756762504578,"923":-0.705231785774231,"924":-1.1062347888946533,"925":1.0930808782577515,"926":0.08904428035020828,"927":0.46819210052490234,"928":0.21935120224952698,"929":0.3336490988731384,"930":0.1434485912322998,"931":-0.032368361949920654,"932":-0.015779368579387665,"933":0.617061972618103,"934":-0.2236783355474472,"935":0.09127722680568695,"936":0.09264721721410751,"937":-0.17315135896205902,"938":0.517591655254364,"939":-0.24396394193172455,"940":0.14172784984111786,"941":-0.8825438618659973,"942":0.6834900975227356,"943":1.167909026145935,"944":-0.28222164511680603,"945":-1.2306967973709106,"946":0.05849074199795723,"947":0.642816960811615,"948":0.18988047540187836,"949":-0.3921768367290497,"950":0.37752199172973633,"951":0.07662700861692429,"952":1.161441445350647,"953":-0.6848087310791016,"954":-0.30450981855392456,"955":1.5721440315246582,"956":0.35253801941871643,"957":2.053123712539673,"958":-2.0141358375549316,"959":-2.086535692214966,"960":-1.592970609664917,"961":2.0449917316436768,"962":1.8287863731384277,"963":-2.0266273021698,"964":0.7175926566123962,"965":2.0899598598480225,"966":1.7886263132095337,"967":2.038741111755371,"968":-2.0829086303710938,"969":-2.095957040786743,"970":2.025763511657715,"971":-2.0789732933044434,"972":0.6100387573242188,"973":-1.939739465713501,"974":2.0305845737457275,"975":-1.1250475645065308,"976":-2.0296685695648193,"977":2.0308938026428223,"978":1.6771044731140137,"979":-2.0167922973632812,"980":-2.061063528060913,"981":-1.8597371578216553,"982":2.0205225944519043,"983":-2.0317420959472656,"984":2.035168409347534,"985":1.954032301902771,"986":2.0517325401306152,"987":1.9973338842391968,"988":-2.0645904541015625,"989":-2.0369603633880615,"990":-2.135895252227783,"991":0.7178056836128235,"992":-2.0114641189575195,"993":-1.8690587282180786,"994":2.038334369659424,"995":2.034895896911621,"996":-2.099177122116089,"997":1.6919573545455933,"998":1.8698872327804565,"999":-1.8412985801696777,"1000":-1.4868557453155518,"1001":-1.7351369857788086,"1002":1.8575756549835205,"1003":-1.983479380607605,"1004":-2.0445425510406494,"1005":-2.105961799621582,"1006":-2.023953676223755,"1007":1.9971199035644531,"1008":1.9146443605422974,"1009":2.089860200881958,"1010":2.1387667655944824,"1011":2.1478593349456787,"1012":-1.2547308206558228,"1013":-2.0282201766967773,"1014":1.8612452745437622,"1015":-1.9891544580459595,"1016":-0.018715016543865204,"1017":2.1299142837524414,"1018":-2.107624053955078,"1019":0.5417273640632629,"1020":-2.0630335807800293,"1021":1.9928146600723267,"1022":-1.8642208576202393,"1023":1.677537441253662,"1024":-0.718894362449646,"1025":-0.787212610244751,"1026":-0.8177841901779175,"1027":0.907272219657898,"1028":0.5231554508209229,"1029":-1.3904978036880493,"1030":0.7212026715278625,"1031":1.0986536741256714,"1032":-0.8379732966423035,"1033":-0.34982967376708984,"1034":-1.8003792762756348,"1035":-1.9116398096084595,"1036":1.6078306436538696,"1037":-1.3563778400421143,"1038":1.114895224571228,"1039":0.5256248712539673,"1040":1.4017055034637451,"1041":-1.5026355981826782,"1042":-1.3409889936447144,"1043":1.781314492225647,"1044":1.5903096199035645,"1045":1.1916818618774414,"1046":-1.5992649793624878,"1047":-1.3161234855651855,"1048":1.8523753881454468,"1049":-0.5069477558135986,"1050":1.1949176788330078,"1051":0.2535063922405243,"1052":1.7476296424865723,"1053":1.4812328815460205,"1054":-1.393304705619812,"1055":-1.4237343072891235,"1056":-0.28544363379478455,"1057":-0.1795782595872879,"1058":-1.4552416801452637,"1059":0.09257036447525024,"1060":0.3152916431427002,"1061":-0.23320868611335754,"1062":0.4460746645927429,"1063":-0.34850502014160156,"1064":-0.00559245515614748,"1065":0.2537274956703186,"1066":0.10421580821275711,"1067":0.15166378021240234,"1068":1.4519147872924805,"1069":-0.5727232098579407,"1070":-0.5211430788040161,"1071":-0.8565634489059448,"1072":-1.0116230249404907,"1073":0.8560160994529724,"1074":0.5277489423751831,"1075":0.15993700921535492,"1076":-0.6625604629516602,"1077":-0.3286135196685791,"1078":-0.9122410416603088,"1079":0.3547370135784149,"1080":0.7138353586196899,"1081":0.4218556582927704,"1082":-0.19702070951461792,"1083":-0.04041634872555733,"1084":0.05523386597633362,"1085":-0.47960567474365234,"1086":-0.59566730260849,"1087":-0.3244062066078186,"1088":-0.6164826154708862,"1089":0.301274836063385,"1090":0.32815635204315186,"1091":-0.027458032593131065,"1092":0.425381600856781,"1093":0.10109550505876541,"1094":-0.19573193788528442,"1095":-0.13229075074195862,"1096":-0.2720785439014435,"1097":0.46942517161369324,"1098":-0.03470315411686897,"1099":0.915011465549469,"1100":-0.8000961542129517,"1101":-0.720754861831665,"1102":0.04063012823462486,"1103":-0.3072156608104706,"1104":-0.6280350089073181,"1105":-0.8507379293441772,"1106":0.775213360786438,"1107":0.41914665699005127,"1108":0.33700913190841675,"1109":1.3197526931762695,"1110":0.3213947117328644,"1111":-0.20882096886634827,"1112":-0.765789806842804,"1113":0.033553656190633774,"1114":0.8521209955215454,"1115":0.8289446234703064,"1116":0.2506953179836273,"1117":-0.10440342873334885,"1118":0.47453323006629944,"1119":0.024162039160728455,"1120":0.041811004281044006,"1121":-0.29614192247390747}},"hiddenLayers":[{"inputMatrix":{"rows":20,"columns":33,"weights":{"0":0.13725794851779938,"1":0.329184353351593,"2":-0.658649206161499,"3":0.9904388785362244,"4":-0.3945046067237854,"5":-0.4497221112251282,"6":-0.20146533846855164,"7":-1.149883508682251,"8":-0.046817466616630554,"9":0.412820428609848,"10":0.8730902075767517,"11":0.4920783042907715,"12":0.6161290407180786,"13":-0.3214399814605713,"14":0.09647943824529648,"15":-0.9102654457092285,"16":-1.3595502376556396,"17":0.4543531537055969,"18":0.36649826169013977,"19":-0.1605403870344162,"20":-0.11835683137178421,"21":-0.10730201750993729,"22":-1.2631925344467163,"23":0.09468589723110199,"24":0.9999942779541016,"25":0.11166028678417206,"26":-0.057857856154441833,"27":-0.0030553245451301336,"28":0.1406714767217636,"29":-0.3578316867351532,"30":-0.2220112830400467,"31":-0.3534333109855652,"32":-0.4569378197193146,"33":-0.9967793226242065,"34":0.27489301562309265,"35":-0.42203158140182495,"36":-0.24198496341705322,"37":0.6055494546890259,"38":-0.10164185613393784,"39":-0.339642733335495,"40":0.22211211919784546,"41":-0.10481780022382736,"42":0.3879558742046356,"43":-0.3865562975406647,"44":0.5590525269508362,"45":0.5455914735794067,"46":-1.0745253562927246,"47":-0.4409058690071106,"48":-0.8936216235160828,"49":-0.6128453016281128,"50":0.30546486377716064,"51":0.650130569934845,"52":0.4013042151927948,"53":-0.43869057297706604,"54":-0.24432410299777985,"55":-0.4091797173023224,"56":-0.09628724306821823,"57":0.38903748989105225,"58":-0.9090529084205627,"59":-0.009283062070608139,"60":0.19494187831878662,"61":-0.42301028966903687,"62":-0.48687615990638733,"63":-1.0367165803909302,"64":0.18581563234329224,"65":-0.6999706029891968,"66":0.19021645188331604,"67":0.005359731614589691,"68":0.7002835273742676,"69":1.6151033639907837,"70":-0.509992778301239,"71":-0.8105576038360596,"72":1.0048421621322632,"73":-0.3898092806339264,"74":-0.8320503234863281,"75":0.7622772455215454,"76":0.3446120023727417,"77":0.441496342420578,"78":-0.21743053197860718,"79":0.032936643809080124,"80":1.107224464416504,"81":0.6069525480270386,"82":0.583412766456604,"83":-0.8261269330978394,"84":0.01586408168077469,"85":-0.4029463529586792,"86":-1.655638575553894,"87":-1.8727673292160034,"88":-0.6935346126556396,"89":1.3907077312469482,"90":0.08982479572296143,"91":0.3462603688240051,"92":0.14089208841323853,"93":-1.511851191520691,"94":0.8880080580711365,"95":-0.36688661575317383,"96":0.09083201736211777,"97":-0.2659018337726593,"98":1.0076662302017212,"99":-0.43568122386932373,"100":0.5620285272598267,"101":-0.2922482490539551,"102":-0.011631390079855919,"103":0.3163696825504303,"104":0.4845673143863678,"105":0.11864349991083145,"106":0.31192857027053833,"107":0.2866747975349426,"108":-0.3785684406757355,"109":-0.09839460998773575,"110":-0.7061436176300049,"111":0.07651820033788681,"112":-0.028821732848882675,"113":0.024099811911582947,"114":-0.14370468258857727,"115":0.2023942470550537,"116":-0.16631612181663513,"117":0.4711587131023407,"118":0.555364727973938,"119":0.31870076060295105,"120":0.009255040436983109,"121":1.051016092300415,"122":0.08505316823720932,"123":0.04410533234477043,"124":-0.30927667021751404,"125":-0.017046192660927773,"126":0.09331072121858597,"127":-0.06349965184926987,"128":-0.1721307635307312,"129":-0.276777446269989,"130":0.7172952890396118,"131":-0.037028033286333084,"132":0.46734189987182617,"133":-0.6860018372535706,"134":0.0453464612364769,"135":0.2905612587928772,"136":-0.38457340002059937,"137":-0.29545292258262634,"138":0.41853049397468567,"139":-0.3868347406387329,"140":-0.38499715924263,"141":0.23415440320968628,"142":0.1654079109430313,"143":-0.4792765974998474,"144":-0.04865703359246254,"145":0.4958164095878601,"146":0.35050514340400696,"147":0.26957014203071594,"148":0.35419708490371704,"149":-0.3568381369113922,"150":-0.5101779103279114,"151":-0.4306221008300781,"152":-0.21818576753139496,"153":-0.09443213790655136,"154":-0.32511866092681885,"155":0.11287646740674973,"156":-0.5959346294403076,"157":0.3594854772090912,"158":-0.14546601474285126,"159":-0.2784612774848938,"160":0.017034759745001793,"161":0.5406436324119568,"162":0.45936161279678345,"163":-0.4486898183822632,"164":0.36621230840682983,"165":0.14064669609069824,"166":-0.5333884358406067,"167":-0.5566933155059814,"168":-0.038137760013341904,"169":0.1132454127073288,"170":-0.10047528892755508,"171":0.7000797986984253,"172":-0.35765358805656433,"173":-0.40450718998908997,"174":0.14182540774345398,"175":-0.4449350833892822,"176":0.43894293904304504,"177":0.21488648653030396,"178":0.38292476534843445,"179":0.798904299736023,"180":0.057714927941560745,"181":0.669058620929718,"182":-0.7299985885620117,"183":0.015546124428510666,"184":-0.46166476607322693,"185":-0.6775153875350952,"186":-0.25640669465065,"187":-0.22208568453788757,"188":0.5150012969970703,"189":0.11100079864263535,"190":-0.18827825784683228,"191":-0.309713751077652,"192":-0.6591301560401917,"193":0.29249125719070435,"194":-0.017117666080594063,"195":0.2716851532459259,"196":-0.5216819047927856,"197":0.4721733033657074,"198":0.287223756313324,"199":-0.9637298583984375,"200":-0.9469587206840515,"201":0.4057285189628601,"202":-0.45304393768310547,"203":-0.17658697068691254,"204":0.4757595360279083,"205":-0.09528069198131561,"206":0.17699167132377625,"207":0.060561422258615494,"208":0.3914910852909088,"209":0.20882509648799896,"210":0.9817445874214172,"211":0.006302873603999615,"212":0.08652044832706451,"213":-0.7224947810173035,"214":-0.7329652309417725,"215":-0.5468418598175049,"216":0.4159967005252838,"217":-0.5082240104675293,"218":-0.3456128239631653,"219":-0.3475787937641144,"220":-0.4403102993965149,"221":0.29578226804733276,"222":0.4251684546470642,"223":0.2028057873249054,"224":-0.7476164102554321,"225":-0.20663195848464966,"226":0.19199997186660767,"227":-0.9775440692901611,"228":0.09671366959810257,"229":-0.36565420031547546,"230":0.3613321781158447,"231":0.5466791987419128,"232":-0.9758302569389343,"233":-0.492392897605896,"234":0.07255038619041443,"235":0.01100593525916338,"236":-0.12735992670059204,"237":0.056890446692705154,"238":0.09874439239501953,"239":0.12353497743606567,"240":-0.14354923367500305,"241":-0.060398828238248825,"242":-0.3255283534526825,"243":0.30772408843040466,"244":0.34862738847732544,"245":-0.2616143524646759,"246":0.35017433762550354,"247":-0.15551543235778809,"248":0.04983905702829361,"249":0.20341907441616058,"250":-0.6955261826515198,"251":-0.26110705733299255,"252":-0.19131825864315033,"253":0.07818598300218582,"254":0.2262323796749115,"255":-0.09733890742063522,"256":0.6604858040809631,"257":-1.0740485191345215,"258":-0.2382432371377945,"259":0.40551260113716125,"260":0.14952857792377472,"261":0.43256163597106934,"262":-0.7602899670600891,"263":-0.17190314829349518,"264":0.12169970571994781,"265":-0.1291777491569519,"266":0.19656497240066528,"267":0.26463428139686584,"268":0.664982259273529,"269":0.0000777472960180603,"270":-0.7190095782279968,"271":0.14499075710773468,"272":0.582075297832489,"273":-0.0055877817794680595,"274":0.29130634665489197,"275":-1.1321773529052734,"276":-1.2633037567138672,"277":0.27006658911705017,"278":-0.4570773243904114,"279":0.19341227412223816,"280":0.3033103346824646,"281":0.13923382759094238,"282":0.0009924395708367229,"283":-0.14794789254665375,"284":0.6393548846244812,"285":-0.4118660092353821,"286":0.06504977494478226,"287":-0.3105769157409668,"288":-1.1957863569259644,"289":0.3743404746055603,"290":0.4468272924423218,"291":0.10409463196992874,"292":0.8559058308601379,"293":0.968410849571228,"294":0.18395161628723145,"295":-0.16137941181659698,"296":-0.050627220422029495,"297":0.7294245362281799,"298":-0.7924193143844604,"299":0.08580543100833893,"300":-0.061017829924821854,"301":-0.19488362967967987,"302":-0.131565660238266,"303":0.07504038512706757,"304":-0.045905496925115585,"305":-0.04745250195264816,"306":-0.04227326810359955,"307":0.09270089119672775,"308":-0.8503695726394653,"309":0.15565989911556244,"310":0.6304450631141663,"311":0.0877961590886116,"312":0.5502772927284241,"313":0.5552001595497131,"314":0.06224137917160988,"315":-0.9125419855117798,"316":-0.6928583979606628,"317":-0.10442298650741577,"318":0.11917515099048615,"319":-0.10840441286563873,"320":0.028471218422055244,"321":-0.8430381417274475,"322":0.49843645095825195,"323":-0.20445486903190613,"324":-0.02514970861375332,"325":-0.12733882665634155,"326":0.7760688066482544,"327":0.5372399687767029,"328":-0.6671236753463745,"329":0.012815545313060284,"330":0.48784011602401733,"331":-0.3930187225341797,"332":0.27292561531066895,"333":0.26991721987724304,"334":-0.165513813495636,"335":-0.24693350493907928,"336":0.3631686568260193,"337":-0.01609066314995289,"338":-0.15703698992729187,"339":-0.003239808138459921,"340":0.2138410359621048,"341":-0.40240368247032166,"342":-0.05263286456465721,"343":0.5192336440086365,"344":0.23077349364757538,"345":0.6074891090393066,"346":0.6331685185432434,"347":-0.29035699367523193,"348":-1.0821508169174194,"349":-0.5632779598236084,"350":-0.12148890644311905,"351":-0.1864747554063797,"352":0.20451009273529053,"353":0.25528883934020996,"354":-1.1214054822921753,"355":0.5548598170280457,"356":0.14328449964523315,"357":-0.39360707998275757,"358":0.21967379748821259,"359":0.8288773894309998,"360":0.4197334945201874,"361":-0.38022616505622864,"362":0.0769566223025322,"363":-0.4516308903694153,"364":0.9942161440849304,"365":-0.5527576208114624,"366":-0.32153311371803284,"367":0.4409662187099457,"368":0.5553186535835266,"369":0.01129960734397173,"370":0.5788528919219971,"371":0.1725892573595047,"372":-0.3618287444114685,"373":-0.6002222895622253,"374":0.6848258972167969,"375":0.6156163215637207,"376":-0.4538540542125702,"377":-0.07002817094326019,"378":-0.18589827418327332,"379":-0.03644571825861931,"380":0.0176045261323452,"381":0.573307454586029,"382":0.5898057818412781,"383":-0.010320063680410385,"384":-0.07807192206382751,"385":0.9285064935684204,"386":0.08840467780828476,"387":0.5851075649261475,"388":-0.2321043461561203,"389":-0.7964214086532593,"390":0.10133576393127441,"391":0.05272054672241211,"392":-1.158307433128357,"393":-0.46728208661079407,"394":0.6850264072418213,"395":-0.06962253898382187,"396":0.5600076913833618,"397":-0.013843885622918606,"398":0.3799063563346863,"399":0.47278663516044617,"400":-0.23607222735881805,"401":-0.3816530108451843,"402":0.12862522900104523,"403":-0.21820706129074097,"404":-0.3994961082935333,"405":0.26463696360588074,"406":0.4077482223510742,"407":-1.083025336265564,"408":-0.30147919058799744,"409":0.5774780511856079,"410":0.17760704457759857,"411":0.5778741836547852,"412":0.6176621317863464,"413":-0.2614491581916809,"414":-0.6496841907501221,"415":-0.5710848569869995,"416":-0.19307512044906616,"417":-0.45823436975479126,"418":-0.11544608324766159,"419":0.49444493651390076,"420":-0.7230193018913269,"421":0.7662843465805054,"422":0.15857498347759247,"423":-0.49730706214904785,"424":0.7384358644485474,"425":0.8076354265213013,"426":0.5160734057426453,"427":-0.4130059778690338,"428":0.267107218503952,"429":-0.04660670459270477,"430":-0.45545679330825806,"431":0.08472340553998947,"432":0.3243410289287567,"433":-0.3004826307296753,"434":-0.11477503180503845,"435":0.27453112602233887,"436":-0.27029505372047424,"437":-0.16544736921787262,"438":0.2726536691188812,"439":0.1440371870994568,"440":0.08629678189754486,"441":0.25996360182762146,"442":-0.044348448514938354,"443":0.3025685250759125,"444":-0.041496798396110535,"445":0.045131511986255646,"446":-0.38643884658813477,"447":0.08695192635059357,"448":-0.17184817790985107,"449":-0.20239180326461792,"450":-0.27217817306518555,"451":-0.3853815793991089,"452":0.3285122811794281,"453":0.05332740768790245,"454":-0.12679916620254517,"455":0.13919048011302948,"456":-0.14793534576892853,"457":0.21959689259529114,"458":-0.02896115742623806,"459":0.21672950685024261,"460":-0.05379662662744522,"461":0.15214841067790985,"462":-0.480790913105011,"463":0.4362777769565582,"464":-0.2607792317867279,"465":-0.27287426590919495,"466":0.04302211105823517,"467":0.3322887420654297,"468":-0.07390535622835159,"469":0.27156275510787964,"470":-0.17916738986968994,"471":-0.27685025334358215,"472":-0.38817885518074036,"473":0.6119198799133301,"474":0.5969518423080444,"475":-0.45737847685813904,"476":0.013380070216953754,"477":-0.48632511496543884,"478":-0.2081642597913742,"479":-0.0081612728536129,"480":0.5296630859375,"481":0.3360459804534912,"482":-0.025562146678566933,"483":0.39046329259872437,"484":0.24817733466625214,"485":-0.07222502678632736,"486":0.4659396708011627,"487":-0.6423929929733276,"488":-0.08809716254472733,"489":-0.089219830930233,"490":-0.45765170454978943,"491":-0.5691143870353699,"492":-0.5490349531173706,"493":0.4726966917514801,"494":-0.231257364153862,"495":0.14821690320968628,"496":-0.16630882024765015,"497":0.9093530774116516,"498":0.8813632726669312,"499":-0.7623119354248047,"500":-0.8463249206542969,"501":0.6638199687004089,"502":-0.5384376645088196,"503":-0.4547833204269409,"504":0.6885491609573364,"505":0.9303521513938904,"506":-0.21606189012527466,"507":0.28885576128959656,"508":0.2747470736503601,"509":0.7662985324859619,"510":0.17943884432315826,"511":0.24334126710891724,"512":-0.761509358882904,"513":-0.013413364067673683,"514":-0.293888658285141,"515":-0.8130096197128296,"516":-1.2182148694992065,"517":-0.5589355230331421,"518":1.0558066368103027,"519":-0.07485062628984451,"520":0.2541976571083069,"521":0.15964624285697937,"522":-0.8992406725883484,"523":1.2472823858261108,"524":0.10082077980041504,"525":0.18740558624267578,"526":-0.337485134601593,"527":0.753833532333374,"528":-0.684638261795044,"529":0.7363836765289307,"530":-0.4715717136859894,"531":-0.08717767149209976,"532":0.10176941007375717,"533":0.09172733128070831,"534":0.11110500246286392,"535":0.008009462617337704,"536":0.03400532528758049,"537":-0.03856200724840164,"538":-0.05187790095806122,"539":-0.26375266909599304,"540":0.660395085811615,"541":-0.6006646752357483,"542":-0.032565727829933167,"543":-0.6867247223854065,"544":-0.5012407898902893,"545":0.1360032856464386,"546":0.7011109590530396,"547":0.5878011584281921,"548":0.000035823391954181716,"549":0.014965960755944252,"550":0.45594972372055054,"551":0.15769313275814056,"552":0.5127184391021729,"553":-0.5246866345405579,"554":-0.2241511195898056,"555":-0.14542627334594727,"556":-0.4783884882926941,"557":-0.4881940484046936,"558":-0.6326352953910828,"559":0.5507440567016602,"560":-0.16890013217926025,"561":-0.6682952642440796,"562":0.5062593817710876,"563":-0.31650179624557495,"564":-0.30333778262138367,"565":0.4274287223815918,"566":0.33501988649368286,"567":-0.11984190344810486,"568":0.3795188367366791,"569":-0.05795993283390999,"570":-0.13572928309440613,"571":-0.3563215136528015,"572":0.031023960560560226,"573":0.3630944490432739,"574":-0.3771989643573761,"575":-0.03631271794438362,"576":-0.4456886649131775,"577":-0.1891881376504898,"578":-0.08586101233959198,"579":0.6011389493942261,"580":0.5882469415664673,"581":0.3097012937068939,"582":0.21013078093528748,"583":0.7818133234977722,"584":-0.06476401537656784,"585":0.2665227949619293,"586":-0.6691827178001404,"587":-0.10606514662504196,"588":0.1258394569158554,"589":-0.27257806062698364,"590":-0.5645595788955688,"591":-0.3890466094017029,"592":0.7472892999649048,"593":-0.1429780274629593,"594":-0.036881234496831894,"595":-0.4034166932106018,"596":0.2573436200618744,"597":-0.27658188343048096,"598":0.7160123586654663,"599":0.8851832747459412,"600":-1.353097915649414,"601":0.43112993240356445,"602":0.8837515711784363,"603":-0.9117764830589294,"604":-0.3114966154098511,"605":-0.5884513854980469,"606":-0.39194607734680176,"607":-0.34703460335731506,"608":-1.553268551826477,"609":0.16238471865653992,"610":-0.2670941650867462,"611":1.0489907264709473,"612":-0.3244219124317169,"613":0.2201189398765564,"614":0.6640869379043579,"615":0.10602153837680817,"616":-0.35092663764953613,"617":-0.5103858709335327,"618":-0.5633589625358582,"619":0.45563405752182007,"620":-0.08839425444602966,"621":1.0753329992294312,"622":0.35858863592147827,"623":0.5698944926261902,"624":-0.21360209584236145,"625":0.19151784479618073,"626":-1.0872652530670166,"627":-0.60033118724823,"628":0.6220829486846924,"629":-0.41014835238456726,"630":-0.3904954791069031,"631":0.4297252893447876,"632":0.6135227084159851,"633":-0.256611168384552,"634":0.49126020073890686,"635":0.08639539033174515,"636":-0.3144241273403168,"637":-0.5965441465377808,"638":-0.049676161259412766,"639":0.16492803394794464,"640":-0.3183487057685852,"641":-0.102314792573452,"642":-0.4228476285934448,"643":0.031560517847537994,"644":0.0545869842171669,"645":0.5580624341964722,"646":0.5623274445533752,"647":0.3088048994541168,"648":0.2592267394065857,"649":1.16227388381958,"650":-0.13890685141086578,"651":0.3496701419353485,"652":-0.5689443945884705,"653":-0.025603456422686577,"654":0.014591789804399014,"655":-0.0546911396086216,"656":-0.8207308053970337,"657":-0.4040704071521759,"658":0.7090663909912109,"659":-0.12145739048719406}},"inputHidden":{"rows":20,"columns":20,"weights":{"0":-0.1748933047056198,"1":-0.3513631224632263,"2":0.4471210837364197,"3":0.11428893357515335,"4":0.6830081939697266,"5":-0.5473121404647827,"6":0.5478903651237488,"7":-0.6221712827682495,"8":0.8379541039466858,"9":-0.21324777603149414,"10":-0.6354842782020569,"11":-0.20290781557559967,"12":-1.1485297679901123,"13":-0.5382413864135742,"14":-0.14030389487743378,"15":0.45788708329200745,"16":-0.29256471991539,"17":0.24153338372707367,"18":0.6107194423675537,"19":0.043974727392196655,"20":-0.03649914264678955,"21":-0.3322726786136627,"22":0.4801863729953766,"23":-0.016560140997171402,"24":0.665011465549469,"25":-0.2855582535266876,"26":-1.0780131816864014,"27":0.4756172001361847,"28":0.3051667809486389,"29":-0.09396559000015259,"30":-0.14604587852954865,"31":-0.34320101141929626,"32":-0.18906423449516296,"33":-0.3933475911617279,"34":0.23623962700366974,"35":0.19800597429275513,"36":0.3105757236480713,"37":-0.1638260781764984,"38":0.3218398094177246,"39":0.1423908919095993,"40":-0.49439841508865356,"41":-0.5097235441207886,"42":-0.7614091038703918,"43":0.16410009562969208,"44":-0.61513352394104,"45":0.5951223373413086,"46":0.41385817527770996,"47":-0.07803507149219513,"48":-0.7826988101005554,"49":-0.04646250605583191,"50":-0.32067543268203735,"51":-0.026358775794506073,"52":-0.029787015169858932,"53":0.1426837146282196,"54":-0.1577148586511612,"55":-0.26496806740760803,"56":0.07896403223276138,"57":-0.2576513886451721,"58":-0.5053578019142151,"59":-0.5565913915634155,"60":0.668897271156311,"61":-0.24286393821239471,"62":0.509638249874115,"63":-0.4352406859397888,"64":-0.774875283241272,"65":0.00667914841324091,"66":-1.0970395803451538,"67":0.6308109760284424,"68":-0.5652032494544983,"69":0.8853322863578796,"70":0.6151521801948547,"71":-0.2673361003398895,"72":0.25434163212776184,"73":0.3482188880443573,"74":0.42007869482040405,"75":-0.3664132058620453,"76":0.7173836827278137,"77":-0.6897279620170593,"78":-0.619531512260437,"79":0.49300843477249146,"80":-0.29038336873054504,"81":-0.35671210289001465,"82":0.9343931078910828,"83":-0.045774709433317184,"84":0.3717075288295746,"85":-0.6903943419456482,"86":-0.4547733962535858,"87":0.6883646845817566,"88":0.3996596336364746,"89":-0.4364665448665619,"90":0.04725723713636398,"91":-0.35746920108795166,"92":-0.8187131285667419,"93":-0.2952699363231659,"94":0.2308761179447174,"95":1.0966371297836304,"96":0.24129466712474823,"97":-0.2242625206708908,"98":0.19528476893901825,"99":0.14765357971191406,"100":0.4035378694534302,"101":-0.4360053241252899,"102":0.7794997096061707,"103":1.0381842851638794,"104":-0.35519570112228394,"105":-0.7516252994537354,"106":-0.4391481280326843,"107":0.21966134011745453,"108":1.0768550634384155,"109":0.5709925293922424,"110":0.2805023193359375,"111":0.9696380496025085,"112":-0.8442657589912415,"113":0.5235583186149597,"114":-0.643744170665741,"115":1.0140718221664429,"116":-0.9968579411506653,"117":1.0963057279586792,"118":0.7837986350059509,"119":-1.222424030303955,"120":0.988659143447876,"121":-1.1633524894714355,"122":-0.2106425017118454,"123":-0.4373067617416382,"124":0.520774245262146,"125":0.0748124048113823,"126":0.36571305990219116,"127":-0.34037017822265625,"128":-0.46125563979148865,"129":-0.4174357056617737,"130":-0.20545382797718048,"131":-0.3828682601451874,"132":-0.640333354473114,"133":-0.5128489136695862,"134":0.38222160935401917,"135":0.2940121591091156,"136":0.6047002673149109,"137":-0.4732763171195984,"138":-0.20515327155590057,"139":0.41801172494888306,"140":-0.19656464457511902,"141":-0.3370319902896881,"142":1.6458444595336914,"143":-0.045222457498311996,"144":0.38923460245132446,"145":0.41840529441833496,"146":-1.000050663948059,"147":0.6457694172859192,"148":0.20036591589450836,"149":-0.26679521799087524,"150":0.44817373156547546,"151":0.043187063187360764,"152":-1.603096842765808,"153":0.016248086467385292,"154":0.3292262852191925,"155":0.9946181774139404,"156":0.35850486159324646,"157":-0.220535546541214,"158":0.010043540969491005,"159":-0.15358760952949524,"160":0.6803813576698303,"161":-0.0220640916377306,"162":-0.7266702651977539,"163":0.5071458220481873,"164":-1.0301917791366577,"165":0.8591442704200745,"166":0.12204520404338837,"167":0.41494181752204895,"168":-0.14649145305156708,"169":0.47186416387557983,"170":0.6115715503692627,"171":0.6646387577056885,"172":-0.21394702792167664,"173":0.6101276874542236,"174":-0.4303167462348938,"175":0.8250606656074524,"176":-0.4737512171268463,"177":0.42462456226348877,"178":-0.5301832556724548,"179":-0.6819884181022644,"180":-0.6907650232315063,"181":0.057179611176252365,"182":0.5342331528663635,"183":-0.22166486084461212,"184":0.35754987597465515,"185":-0.3218584954738617,"186":-0.29226285219192505,"187":0.4821685552597046,"188":0.27726244926452637,"189":-0.0522211492061615,"190":0.05529080703854561,"191":-0.37490591406822205,"192":-0.6664909720420837,"193":-0.12736018002033234,"194":0.14319634437561035,"195":0.4225865304470062,"196":0.27968376874923706,"197":-0.3313370943069458,"198":0.5605049133300781,"199":0.14389929175376892,"200":-1.1287990808486938,"201":0.8197100758552551,"202":0.13996541500091553,"203":-0.5029727220535278,"204":0.2308468520641327,"205":0.6278374791145325,"206":0.18799923360347748,"207":-0.016810055822134018,"208":-0.6152637004852295,"209":-0.3827923834323883,"210":-0.009500186890363693,"211":-0.5561823844909668,"212":-0.27327078580856323,"213":-0.19243766367435455,"214":0.8433539867401123,"215":0.16160470247268677,"216":0.6752490997314453,"217":-0.6383901238441467,"218":-0.388615220785141,"219":0.5648388862609863,"220":-0.5187485218048096,"221":0.2596126198768616,"222":-0.8611778616905212,"223":-0.31598129868507385,"224":-0.2068161815404892,"225":-0.3174534738063812,"226":0.11740271747112274,"227":0.022602194920182228,"228":-0.6347499489784241,"229":0.05379300191998482,"230":0.19705113768577576,"231":0.16172902286052704,"232":0.016988445073366165,"233":-0.212778240442276,"234":-0.19942376017570496,"235":0.02825378067791462,"236":-0.29699230194091797,"237":-0.05528842657804489,"238":-0.917297899723053,"239":-0.3269815444946289,"240":0.739208996295929,"241":0.026092257350683212,"242":0.18345487117767334,"243":-0.3479425609111786,"244":0.07089647650718689,"245":0.5569937825202942,"246":0.07959729433059692,"247":0.30495405197143555,"248":-1.2509450912475586,"249":0.2881174087524414,"250":0.29506051540374756,"251":-0.42964842915534973,"252":0.29725921154022217,"253":-0.03321944922208786,"254":0.4184281826019287,"255":-0.7719796299934387,"256":0.3513337969779968,"257":-0.5588976144790649,"258":-0.7851747274398804,"259":0.15312784910202026,"260":-0.4664011299610138,"261":0.36571410298347473,"262":0.5129305124282837,"263":-0.5789284706115723,"264":0.6148182153701782,"265":-0.565123438835144,"266":0.15372174978256226,"267":-0.3269587755203247,"268":0.09969830513000488,"269":-0.9511195421218872,"270":-0.929704487323761,"271":-0.649451494216919,"272":-1.2690125703811646,"273":-0.6713627576828003,"274":0.4776918888092041,"275":1.8145819902420044,"276":0.6979447603225708,"277":-0.5225248336791992,"278":0.28625935316085815,"279":0.6265011429786682,"280":0.5168325304985046,"281":-0.6714197993278503,"282":0.07688247412443161,"283":0.763729453086853,"284":0.09416364878416061,"285":0.06794494390487671,"286":-0.07718615978956223,"287":0.2222922146320343,"288":0.3909360468387604,"289":-0.22353078424930573,"290":0.19742222130298615,"291":0.3353903293609619,"292":0.5765990614891052,"293":0.09851774573326111,"294":-0.33165526390075684,"295":-0.22694532573223114,"296":-0.5360398888587952,"297":0.41213950514793396,"298":0.2975368797779083,"299":-0.6025487780570984,"300":0.8192305564880371,"301":-1.0319607257843018,"302":0.006384383887052536,"303":-0.17148099839687347,"304":0.0292873065918684,"305":0.06098037213087082,"306":-0.04293099790811539,"307":0.2522217333316803,"308":-0.5879002809524536,"309":0.1626986414194107,"310":-0.08539106696844101,"311":-0.16305598616600037,"312":0.008638516999781132,"313":0.11852999776601791,"314":0.11574578285217285,"315":-0.768576979637146,"316":0.23750780522823334,"317":-0.3975875973701477,"318":-0.4593077003955841,"319":0.06069013848900795,"320":0.5262512564659119,"321":-0.2682075500488281,"322":0.2142317146062851,"323":-0.2386971414089203,"324":-0.13594941794872284,"325":-0.5929218530654907,"326":-0.47852861881256104,"327":0.07009832561016083,"328":0.11011010408401489,"329":0.6423832178115845,"330":0.7028676867485046,"331":0.3028005063533783,"332":-0.10022300481796265,"333":0.7150130867958069,"334":-0.061340805143117905,"335":0.31322458386421204,"336":0.3101227283477783,"337":-0.2805797755718231,"338":0.05555039644241333,"339":0.2212476134300232,"340":0.3722742795944214,"341":-0.451176255941391,"342":0.38922128081321716,"343":-0.22920498251914978,"344":-0.38371512293815613,"345":-0.573316216468811,"346":-1.0133275985717773,"347":0.4839087426662445,"348":0.4307710826396942,"349":0.31106090545654297,"350":0.6184455156326294,"351":0.3866818845272064,"352":-0.23707221448421478,"353":0.6121094822883606,"354":-0.19850954413414001,"355":-0.004320573527365923,"356":0.12930156290531158,"357":0.0327986478805542,"358":0.33870378136634827,"359":-0.24485570192337036,"360":0.06323140859603882,"361":0.05897204577922821,"362":-0.3299100995063782,"363":0.06444443762302399,"364":-0.1078605204820633,"365":0.06861917674541473,"366":-0.003265449544414878,"367":-0.15916241705417633,"368":-0.0909370630979538,"369":0.07505881041288376,"370":-0.18369613587856293,"371":-0.0034015860874205828,"372":-0.07886900752782822,"373":0.8757826685905457,"374":-0.36846426129341125,"375":-0.5123264789581299,"376":-0.16684770584106445,"377":0.08478514850139618,"378":-0.0888519212603569,"379":-0.4168451428413391,"380":0.20217734575271606,"381":-0.23082207143306732,"382":0.2757071256637573,"383":-0.5990871787071228,"384":-0.8866090774536133,"385":-0.22688981890678406,"386":-0.9906883835792542,"387":0.6148111820220947,"388":-0.11110515892505646,"389":0.19387198984622955,"390":0.597369909286499,"391":0.21446382999420166,"392":-0.1011371985077858,"393":0.7751590609550476,"394":0.07483863085508347,"395":0.23597721755504608,"396":0.5600857734680176,"397":-0.6877546310424805,"398":-0.7232232689857483,"399":0.4825693368911743}},"inputBias":{"rows":20,"columns":1,"weights":{"0":0.3869035840034485,"1":1.2757097482681274,"2":-0.08272790163755417,"3":-0.7106004357337952,"4":-0.298623651266098,"5":-0.7474139332771301,"6":-0.5781048536300659,"7":-0.11205504834651947,"8":-0.09318259358406067,"9":-0.22389045357704163,"10":0.15734778344631195,"11":-1.2642334699630737,"12":-0.39411091804504395,"13":-0.16274312138557434,"14":-0.5016963481903076,"15":-0.3526672124862671,"16":-0.764539897441864,"17":-0.10667271912097931,"18":-0.15315844118595123,"19":-0.4322417974472046}},"forgetMatrix":{"rows":20,"columns":33,"weights":{"0":-0.1328807920217514,"1":0.11811080574989319,"2":-0.7701901793479919,"3":0.22000759840011597,"4":0.2533327043056488,"5":-0.6398957371711731,"6":0.21104730665683746,"7":-0.46113550662994385,"8":-0.3958205282688141,"9":0.3871457576751709,"10":0.44887426495552063,"11":0.1820358783006668,"12":0.32163020968437195,"13":0.20549488067626953,"14":-0.019423075020313263,"15":-0.5034326910972595,"16":-0.6054925322532654,"17":0.4298388361930847,"18":0.6115621328353882,"19":0.07700254768133163,"20":0.00659354031085968,"21":-0.3371981382369995,"22":-0.4006202220916748,"23":0.1468968540430069,"24":0.6530753970146179,"25":0.2761010527610779,"26":-0.23205837607383728,"27":-0.25263696908950806,"28":0.41024118661880493,"29":-0.5224419832229614,"30":-0.136818066239357,"31":-0.3749080002307892,"32":0.17144528031349182,"33":-0.6604846715927124,"34":0.24086494743824005,"35":-0.7372568845748901,"36":-0.5600870251655579,"37":0.6270801424980164,"38":0.5010209679603577,"39":-0.38924160599708557,"40":0.3718470335006714,"41":0.10367888957262039,"42":-0.20082306861877441,"43":-0.4975337088108063,"44":0.5081303119659424,"45":0.40392395853996277,"46":-1.1556147336959839,"47":-0.3409768044948578,"48":-0.39334753155708313,"49":-0.350473552942276,"50":0.27342990040779114,"51":0.4587373733520508,"52":0.7087266445159912,"53":-0.5108077526092529,"54":-0.4698111116886139,"55":0.1179928109049797,"56":0.49229696393013,"57":0.668391227722168,"58":-0.6394525170326233,"59":-0.6600266098976135,"60":-0.35358381271362305,"61":0.820342481136322,"62":-0.44530582427978516,"63":-0.9695494771003723,"64":-0.1485127955675125,"65":-0.8145267367362976,"66":-0.9053698778152466,"67":-0.08017683774232864,"68":-0.41668620705604553,"69":-0.5447632670402527,"70":0.1690455824136734,"71":0.5429880619049072,"72":-0.491007536649704,"73":0.4999449849128723,"74":0.36172962188720703,"75":-0.44878506660461426,"76":-0.5569320321083069,"77":-0.4326585531234741,"78":1.0979249477386475,"79":-0.36763399839401245,"80":-0.48898935317993164,"81":-0.11216297745704651,"82":-0.2184780389070511,"83":0.3423977494239807,"84":0.2226478010416031,"85":0.9100598096847534,"86":0.4423670172691345,"87":0.5312573313713074,"88":0.4242676794528961,"89":-0.480142205953598,"90":-0.06571972370147705,"91":-0.547233521938324,"92":-0.31624341011047363,"93":0.5059332847595215,"94":-0.6927722096443176,"95":0.24205344915390015,"96":-0.30088865756988525,"97":1.0736863613128662,"98":-0.21872955560684204,"99":0.07239112257957458,"100":-0.45514115691185,"101":-0.008623634465038776,"102":0.16855622828006744,"103":-0.225439190864563,"104":-0.18274490535259247,"105":-0.4024043679237366,"106":0.40798088908195496,"107":0.5729638934135437,"108":-0.48815441131591797,"109":0.1946510225534439,"110":0.10212895274162292,"111":0.16533330082893372,"112":-0.09652502089738846,"113":-0.49070101976394653,"114":0.04321718588471413,"115":-0.045745689421892166,"116":0.6583568453788757,"117":-0.05630038306117058,"118":-0.12004160135984421,"119":0.14337673783302307,"120":-0.4135681390762329,"121":-0.08825452625751495,"122":0.11879236996173859,"123":0.036428119987249374,"124":0.07141916453838348,"125":-0.4833788573741913,"126":0.6000570058822632,"127":0.29461726546287537,"128":-0.10949735343456268,"129":-0.052021708339452744,"130":-0.06973568350076675,"131":-0.3398597538471222,"132":-0.39815887808799744,"133":-0.10255159437656403,"134":-1.2356619834899902,"135":-0.9894869327545166,"136":0.5623533725738525,"137":0.6946886777877808,"138":-0.23285146057605743,"139":1.1468755006790161,"140":0.6938678026199341,"141":-0.5727264285087585,"142":-0.7003148198127747,"143":0.1143282875418663,"144":-0.19668364524841309,"145":-0.3452787399291992,"146":-0.42774075269699097,"147":-0.4280101954936981,"148":-0.021043093875050545,"149":0.22507727146148682,"150":-0.1284683644771576,"151":0.48346707224845886,"152":0.543583869934082,"153":0.9146785140037537,"154":1.028867483139038,"155":-0.8541303277015686,"156":0.07431187480688095,"157":-1.0564113855361938,"158":-0.339647114276886,"159":0.6637596487998962,"160":-0.9735485315322876,"161":-0.09942775964736938,"162":0.049283914268016815,"163":0.7355956435203552,"164":-0.4611179530620575,"165":-0.39139118790626526,"166":-0.11441482603549957,"167":-0.06288279592990875,"168":-0.36852094531059265,"169":0.06945487856864929,"170":0.5709085464477539,"171":-0.13831615447998047,"172":0.6125786900520325,"173":0.26199132204055786,"174":-0.28583085536956787,"175":-0.23023578524589539,"176":0.13062307238578796,"177":0.4407770335674286,"178":-0.9658377766609192,"179":-0.17170165479183197,"180":-0.5446595549583435,"181":-0.6632173657417297,"182":-0.10923833400011063,"183":0.7214335203170776,"184":0.43489813804626465,"185":0.703908383846283,"186":0.40981554985046387,"187":0.4865689277648926,"188":-0.6599965691566467,"189":0.1152162104845047,"190":-0.6884399056434631,"191":-0.26442480087280273,"192":0.3097071349620819,"193":-0.5307351350784302,"194":0.04705515876412392,"195":-0.4321673512458801,"196":0.8589836955070496,"197":0.017298679798841476,"198":-0.42196327447891235,"199":0.807460367679596,"200":-0.3100090026855469,"201":-0.3820086717605591,"202":0.448383092880249,"203":0.6126962900161743,"204":-0.5106774568557739,"205":0.23761165142059326,"206":0.3058710992336273,"207":-0.592697262763977,"208":-0.3929440677165985,"209":0.009013216011226177,"210":0.38838431239128113,"211":-0.3015762269496918,"212":-0.6687953472137451,"213":-0.4543568789958954,"214":-0.27887865900993347,"215":0.38537073135375977,"216":0.33901655673980713,"217":0.9715936779975891,"218":0.42426010966300964,"219":0.29316049814224243,"220":0.09737735986709595,"221":-0.5153077840805054,"222":0.29851311445236206,"223":-0.6454503536224365,"224":0.2681034505367279,"225":0.7052995562553406,"226":-0.5595913529396057,"227":-0.4378994405269623,"228":-0.5764259696006775,"229":0.8757899403572083,"230":-0.43311700224876404,"231":0.02938866801559925,"232":-0.4554487466812134,"233":-0.07806921750307083,"234":-0.7276483774185181,"235":0.39853501319885254,"236":0.34177166223526,"237":-0.08073779940605164,"238":0.380727618932724,"239":0.21740229427814484,"240":-0.5988979935646057,"241":-0.7449946403503418,"242":-0.08377299457788467,"243":0.32607346773147583,"244":0.17662891745567322,"245":-0.2384330928325653,"246":0.35896140336990356,"247":0.4837372601032257,"248":0.03189409151673317,"249":-0.36138978600502014,"250":-0.15921790897846222,"251":-0.03560395911335945,"252":0.3927088975906372,"253":0.8387740254402161,"254":-0.014376245439052582,"255":-0.05701889097690582,"256":-0.07586674392223358,"257":-1.052385926246643,"258":0.20740041136741638,"259":-0.19184991717338562,"260":-0.04703614488244057,"261":-0.002445687772706151,"262":-0.1786053329706192,"263":-0.14604461193084717,"264":-0.16375777125358582,"265":-0.31284645199775696,"266":0.8944604396820068,"267":-0.16641080379486084,"268":-1.4395123720169067,"269":0.596236526966095,"270":0.2788596749305725,"271":0.21304884552955627,"272":-0.0038349346723407507,"273":-0.987115740776062,"274":-0.52085942029953,"275":0.15487249195575714,"276":1.2752314805984497,"277":-0.7546355128288269,"278":0.08923397213220596,"279":0.7572939395904541,"280":-0.10363388061523438,"281":0.1382780522108078,"282":-0.1261751800775528,"283":-0.030188482254743576,"284":-0.7374440431594849,"285":0.4249217212200165,"286":-0.1463785469532013,"287":0.726882815361023,"288":-0.4960598945617676,"289":-0.33811154961586,"290":-1.0012695789337158,"291":0.13538122177124023,"292":-0.5172369480133057,"293":-0.23214970529079437,"294":-0.441784143447876,"295":0.08017085492610931,"296":0.3062620162963867,"297":-0.6325247883796692,"298":0.6988506317138672,"299":-0.03145003318786621,"300":-0.12551471590995789,"301":0.035167913883924484,"302":0.11708296835422516,"303":0.026385361328721046,"304":0.1986977756023407,"305":0.044521432369947433,"306":0.051311392337083817,"307":-0.028395220637321472,"308":0.5660513043403625,"309":0.568257212638855,"310":-0.7573314905166626,"311":-0.08787230402231216,"312":-0.6937828660011292,"313":-0.7546458840370178,"314":-0.13035133481025696,"315":0.8254848122596741,"316":0.7055411338806152,"317":0.013315719552338123,"318":-0.036299459636211395,"319":-0.03796550631523132,"320":0.02712499350309372,"321":0.7262195944786072,"322":-0.8086456656455994,"323":-0.11862795054912567,"324":0.007280534598976374,"325":0.11812049150466919,"326":-0.8425036072731018,"327":-0.7784544825553894,"328":0.6834853887557983,"329":0.0008328979602083564,"330":-0.6922194957733154,"331":1.0706064701080322,"332":-0.17030423879623413,"333":-0.41371944546699524,"334":0.2313850224018097,"335":0.2023821771144867,"336":0.09505593776702881,"337":0.3252537250518799,"338":-0.10579372942447662,"339":-0.25784146785736084,"340":-0.07429448515176773,"341":0.7700210809707642,"342":0.37762585282325745,"343":-0.6330048441886902,"344":-0.165403813123703,"345":-0.5435371994972229,"346":-0.5707637667655945,"347":-0.2324981987476349,"348":0.38967323303222656,"349":0.8754478693008423,"350":0.1357993334531784,"351":0.1645348221063614,"352":-0.021199798211455345,"353":0.0008722729398868978,"354":0.5375663042068481,"355":-0.7013799548149109,"356":0.17498134076595306,"357":0.32950931787490845,"358":-0.4860222339630127,"359":-0.7744053602218628,"360":-0.686707615852356,"361":1.025673270225525,"362":0.0817158967256546,"363":0.3462908864021301,"364":-0.39106637239456177,"365":0.5206122398376465,"366":0.4968985617160797,"367":-0.7781141996383667,"368":-0.368150919675827,"369":0.582166850566864,"370":-0.41647231578826904,"371":0.3555529713630676,"372":0.23591741919517517,"373":0.4056408107280731,"374":0.2246852070093155,"375":0.4997226595878601,"376":-0.0856911763548851,"377":0.5204905867576599,"378":0.4974723756313324,"379":-0.3778614103794098,"380":-0.48383185267448425,"381":-0.10898982733488083,"382":-0.3698037564754486,"383":-0.2691771388053894,"384":-0.44030651450157166,"385":-0.3457215130329132,"386":0.2626330852508545,"387":0.12196538597345352,"388":-0.09497589617967606,"389":-0.19014258682727814,"390":0.10206309705972672,"391":-0.03803912550210953,"392":-0.0803164467215538,"393":0.20640696585178375,"394":-0.027617258951067924,"395":0.4862743020057678,"396":-0.4559989273548126,"397":-0.14819863438606262,"398":-1.1129146814346313,"399":-1.006493330001831,"400":1.200201392173767,"401":0.8786554336547852,"402":-0.8992939591407776,"403":0.7655709385871887,"404":0.6502869725227356,"405":-0.6258249878883362,"406":-0.8119444847106934,"407":-0.13978984951972961,"408":0.34458833932876587,"409":0.1535511463880539,"410":-0.842743456363678,"411":-0.09577009081840515,"412":0.11979050189256668,"413":0.686671257019043,"414":-0.15705135464668274,"415":0.2686667740345001,"416":1.039263367652893,"417":1.1381303071975708,"418":0.6731194853782654,"419":-0.9543567895889282,"420":-0.04933977499604225,"421":-0.5867776870727539,"422":-0.6055430173873901,"423":0.8355028033256531,"424":-0.8545457124710083,"425":0.29000282287597656,"426":0.17438183724880219,"427":0.5101881623268127,"428":-0.9549673199653625,"429":-0.643135130405426,"430":-0.062414608895778656,"431":-0.42073071002960205,"432":-0.4568299949169159,"433":0.4004073739051819,"434":0.4992551803588867,"435":-0.28873008489608765,"436":0.7648285031318665,"437":0.7255668640136719,"438":-0.370096355676651,"439":-0.15986712276935577,"440":-0.19442929327487946,"441":-0.07811599224805832,"442":-0.42466306686401367,"443":-0.3193385601043701,"444":-0.6124753355979919,"445":-0.33387327194213867,"446":0.21521222591400146,"447":0.053693972527980804,"448":0.5824962854385376,"449":0.38596463203430176,"450":0.2684445381164551,"451":0.4746474623680115,"452":-0.3362267315387726,"453":0.0335378460586071,"454":-0.6309160590171814,"455":-0.06539326161146164,"456":0.5215563774108887,"457":-0.2608165144920349,"458":-0.21569351851940155,"459":-0.4188324511051178,"460":0.6578874588012695,"461":-0.3484332263469696,"462":0.31544461846351624,"463":-0.29016438126564026,"464":0.3719669580459595,"465":0.17339472472667694,"466":-0.4809073507785797,"467":-0.16827157139778137,"468":0.4881318211555481,"469":-0.0776619240641594,"470":0.06792297214269638,"471":-0.1593496948480606,"472":0.006984846666455269,"473":0.32689425349235535,"474":0.45806774497032166,"475":-0.24633488059043884,"476":0.3220503628253937,"477":0.3290582001209259,"478":-0.19427551329135895,"479":-0.21522857248783112,"480":0.29242631793022156,"481":-0.38836073875427246,"482":-0.299406498670578,"483":-0.33828988671302795,"484":-0.24979834258556366,"485":0.41802409291267395,"486":0.27947479486465454,"487":0.013887891545891762,"488":-0.40154170989990234,"489":-0.28093400597572327,"490":0.251322478055954,"491":-0.10548751056194305,"492":0.07000786066055298,"493":-0.294916033744812,"494":0.13968542218208313,"495":-0.5393978357315063,"496":-0.1862393170595169,"497":-1.0295685529708862,"498":-0.7702757716178894,"499":1.2138818502426147,"500":0.7288287281990051,"501":-0.6992136836051941,"502":0.7425221800804138,"503":0.4779077470302582,"504":-0.5893988609313965,"505":-0.7388806343078613,"506":-0.17658181488513947,"507":0.5781594514846802,"508":0.05919583514332771,"509":-0.897075355052948,"510":0.00805927999317646,"511":-0.0011344648664817214,"512":0.6499329209327698,"513":0.05797865614295006,"514":0.3469184935092926,"515":1.0065522193908691,"516":1.202203631401062,"517":0.5233416557312012,"518":-1.0706079006195068,"519":-0.032589226961135864,"520":-0.5372899174690247,"521":-0.49173951148986816,"522":0.7267352342605591,"523":-0.8611733317375183,"524":0.16075900197029114,"525":-0.04406891018152237,"526":0.4048282206058502,"527":-0.6628524661064148,"528":0.32654085755348206,"529":-0.8056239485740662,"530":0.09663789719343185,"531":0.37415099143981934,"532":-0.6032891273498535,"533":-0.16408038139343262,"534":0.01857050508260727,"535":0.1598111391067505,"536":0.5704334378242493,"537":-0.5552012324333191,"538":-0.10536796599626541,"539":0.020366979762911797,"540":0.4312637746334076,"541":-0.06925025582313538,"542":-0.02501763589680195,"543":0.2201492190361023,"544":-0.171884685754776,"545":0.3653065860271454,"546":0.09111924469470978,"547":-0.6383719444274902,"548":-0.1600552797317505,"549":-0.5085329413414001,"550":-0.5143967270851135,"551":0.5460933446884155,"552":0.16870081424713135,"553":-0.12783657014369965,"554":-0.7222074270248413,"555":0.49194541573524475,"556":0.45578882098197937,"557":0.048108357936143875,"558":0.17419426143169403,"559":-0.5012187361717224,"560":-0.1520824283361435,"561":-0.06635533273220062,"562":-0.5439581274986267,"563":0.15175434947013855,"564":0.13862650096416473,"565":-0.23075678944587708,"566":0.29806390404701233,"567":-0.20345979928970337,"568":0.5678480863571167,"569":0.4014684855937958,"570":-0.7312226295471191,"571":-0.1215389221906662,"572":0.018890229985117912,"573":0.13283541798591614,"574":-0.19044291973114014,"575":-0.3320868909358978,"576":0.17338785529136658,"577":0.02019503153860569,"578":0.5191818475723267,"579":0.03796931356191635,"580":-0.33785027265548706,"581":-0.17117881774902344,"582":-0.4085126221179962,"583":0.025935092940926552,"584":0.3458130657672882,"585":-0.043031346052885056,"586":-0.10965483635663986,"587":-0.6607478260993958,"588":0.366988867521286,"589":0.3602937161922455,"590":-0.1577608436346054,"591":-0.056801438331604004,"592":-0.34249281883239746,"593":-0.31948110461235046,"594":0.019771594554185867,"595":-0.6055408716201782,"596":0.4042685031890869,"597":0.18811866641044617,"598":-0.8463058471679688,"599":-0.04468610882759094,"600":-0.30623680353164673,"601":0.49339714646339417,"602":-0.3719556927680969,"603":-0.43176892399787903,"604":-0.10069525986909866,"605":-0.5131890177726746,"606":0.4183153808116913,"607":0.9917551875114441,"608":-0.0746259018778801,"609":0.5005484819412231,"610":0.5736576318740845,"611":-0.05324847623705864,"612":-0.39693474769592285,"613":0.1071195974946022,"614":-0.09711777418851852,"615":0.026069819927215576,"616":0.24355849623680115,"617":0.45604053139686584,"618":-0.43834638595581055,"619":-0.1494828760623932,"620":-0.4362015724182129,"621":0.038673438131809235,"622":-0.1231548860669136,"623":0.3973482549190521,"624":0.15871402621269226,"625":0.26782387495040894,"626":-0.022067032754421234,"627":-0.05881978198885918,"628":-0.4387896656990051,"629":0.046754032373428345,"630":0.6722522974014282,"631":-0.5581293702125549,"632":-0.4460783302783966,"633":0.10146507620811462,"634":-0.0035427601542323828,"635":0.27686935663223267,"636":-0.36341044306755066,"637":0.5642277002334595,"638":0.007585371844470501,"639":0.20667149126529694,"640":-0.25493133068084717,"641":-0.1314101368188858,"642":0.11698149144649506,"643":-0.3407427668571472,"644":0.5805132389068604,"645":0.13620352745056152,"646":-0.404135525226593,"647":-0.20279563963413239,"648":-0.547559380531311,"649":-0.5316812992095947,"650":0.867012619972229,"651":0.18365482985973358,"652":-0.1352207064628601,"653":-0.4720805883407593,"654":0.12286458164453506,"655":0.5003815293312073,"656":-0.1703341156244278,"657":-0.2949966788291931,"658":-0.45687729120254517,"659":-0.4255811274051666}},"forgetHidden":{"rows":20,"columns":20,"weights":{"0":0.48401811718940735,"1":-0.24901507794857025,"2":-0.024114402011036873,"3":0.43136534094810486,"4":0.5211606621742249,"5":-0.372604638338089,"6":0.594946026802063,"7":-0.2558397650718689,"8":0.43948179483413696,"9":0.012768530286848545,"10":0.2755165100097656,"11":0.3957940936088562,"12":-0.34586089849472046,"13":-0.43473079800605774,"14":-0.7805823683738708,"15":0.5245724320411682,"16":-0.3573920428752899,"17":0.5872164964675903,"18":-0.5685628056526184,"19":-0.5439119338989258,"20":0.15907593071460724,"21":-0.39133837819099426,"22":0.4212997257709503,"23":0.6624118089675903,"24":0.08560454845428467,"25":0.27041324973106384,"26":-0.5780593156814575,"27":0.55465167760849,"28":0.8184256553649902,"29":0.49469897150993347,"30":0.4900111258029938,"31":0.5319360494613647,"32":0.32606422901153564,"33":-0.12190187722444534,"34":-0.6566540002822876,"35":0.2090909481048584,"36":-0.6225691437721252,"37":0.6573047637939453,"38":0.7997332811355591,"39":-0.48892220854759216,"40":0.34807443618774414,"41":0.05599784851074219,"42":0.1835879683494568,"43":-0.5526394248008728,"44":0.4428180754184723,"45":-0.2742755115032196,"46":0.11687900871038437,"47":-0.4769866466522217,"48":0.7447977662086487,"49":-0.5302433371543884,"50":-1.1730339527130127,"51":0.43591824173927307,"52":0.07092554122209549,"53":-0.43541190028190613,"54":-0.052658867090940475,"55":-0.019620507955551147,"56":0.33732926845550537,"57":-0.39801108837127686,"58":0.1989774852991104,"59":0.6616559624671936,"60":0.14525040984153748,"61":-0.8296210169792175,"62":-1.3567270040512085,"63":-0.8237883448600769,"64":0.5320095419883728,"65":0.5564729571342468,"66":0.8556031584739685,"67":-0.0009543385822325945,"68":-0.8473564386367798,"69":-0.543607771396637,"70":-0.9860782027244568,"71":-0.7424038052558899,"72":0.5433131456375122,"73":-0.7290282249450684,"74":0.6886138916015625,"75":-1.0227067470550537,"76":0.7088329792022705,"77":-0.6706801652908325,"78":-0.8442952036857605,"79":0.7747288346290588,"80":0.3036779463291168,"81":0.0640375018119812,"82":0.18048065900802612,"83":0.7643406987190247,"84":-0.022240621969103813,"85":-0.6434694528579712,"86":-0.2663085460662842,"87":0.37486451864242554,"88":0.6167363524436951,"89":0.4874287545681,"90":0.4655679166316986,"91":0.3782099187374115,"92":0.24898743629455566,"93":0.39912235736846924,"94":-0.5822820067405701,"95":0.5156205296516418,"96":-0.4666304588317871,"97":0.6963781118392944,"98":0.45773860812187195,"99":-0.37632256746292114,"100":0.1947466880083084,"101":-0.5302885174751282,"102":-0.03819724917411804,"103":-0.10099901258945465,"104":0.8253108859062195,"105":0.016116278246045113,"106":0.12255214899778366,"107":-0.033522333949804306,"108":0.2073284536600113,"109":-0.12786614894866943,"110":-0.18989473581314087,"111":0.08249132335186005,"112":0.08126116544008255,"113":-0.5930153727531433,"114":0.17769727110862732,"115":-0.05699285864830017,"116":-0.019207589328289032,"117":0.10168825089931488,"118":0.2911778688430786,"119":-0.021424585953354836,"120":-0.3253682553768158,"121":0.40958335995674133,"122":-0.12239517271518707,"123":-0.5565019249916077,"124":-0.18484456837177277,"125":-0.6954573392868042,"126":-0.26440757513046265,"127":0.20457367599010468,"128":-0.030119039118289948,"129":0.1557050347328186,"130":0.08791793137788773,"131":-0.5233580470085144,"132":-0.3516992926597595,"133":0.09050615131855011,"134":0.4604569375514984,"135":0.3980187177658081,"136":0.5531966090202332,"137":-0.4857555627822876,"138":0.2961125373840332,"139":0.5150076150894165,"140":-0.43320348858833313,"141":-0.713420033454895,"142":0.10064250975847244,"143":-0.03963261470198631,"144":-0.20293153822422028,"145":0.1204405277967453,"146":-0.6007504463195801,"147":0.21973925828933716,"148":-0.16678863763809204,"149":-0.058717139065265656,"150":0.05205186456441879,"151":-0.07244021445512772,"152":-0.0738011822104454,"153":0.23849892616271973,"154":0.09720005840063095,"155":0.5312445163726807,"156":0.05072906240820885,"157":-0.3534782826900482,"158":-0.3455572724342346,"159":0.3305702209472656,"160":-0.06029440090060234,"161":-0.12365105003118515,"162":0.23483514785766602,"163":-0.6319933533668518,"164":1.4681693315505981,"165":0.33246147632598877,"166":-0.03479667752981186,"167":-0.46521008014678955,"168":-0.28536275029182434,"169":-0.5484468340873718,"170":-0.4892156422138214,"171":-0.7787173986434937,"172":0.014016643166542053,"173":-0.6412663459777832,"174":0.7961031794548035,"175":0.13243307173252106,"176":0.6679496169090271,"177":-0.6611407995223999,"178":-0.0521719790995121,"179":0.8173614144325256,"180":0.09982500225305557,"181":-0.6340507864952087,"182":-0.5478641986846924,"183":0.449165940284729,"184":0.08895519375801086,"185":-0.41997748613357544,"186":0.13404999673366547,"187":-0.21832945942878723,"188":0.615828275680542,"189":-0.024408118799328804,"190":-0.1647079586982727,"191":0.23778992891311646,"192":0.28557121753692627,"193":0.04661613702774048,"194":-0.5747761726379395,"195":-0.10800983011722565,"196":-0.47594496607780457,"197":0.5669740438461304,"198":0.3149074614048004,"199":-0.2647149860858917,"200":0.08878310024738312,"201":-0.01623082347214222,"202":-0.49013176560401917,"203":-0.2729075253009796,"204":0.06858783215284348,"205":-0.4580111503601074,"206":0.11540080606937408,"207":-0.11498481035232544,"208":-0.1286054402589798,"209":-0.008074595592916012,"210":-0.2235771268606186,"211":0.1031368300318718,"212":0.12168057262897491,"213":-0.11206270754337311,"214":-0.10023524612188339,"215":-0.0673597976565361,"216":-0.08746781200170517,"217":0.026120128110051155,"218":0.04088638722896576,"219":0.27582040429115295,"220":-0.046915750950574875,"221":-0.4464193284511566,"222":-0.3047062158584595,"223":-0.4786036014556885,"224":0.33209219574928284,"225":0.15100687742233276,"226":0.3435426950454712,"227":-0.06591822952032089,"228":-0.4287237524986267,"229":-0.38029080629348755,"230":-0.4116511940956116,"231":-0.48740991950035095,"232":-0.06781421601772308,"233":-0.45190006494522095,"234":0.39460766315460205,"235":0.091132253408432,"236":0.48862016201019287,"237":-0.4515130817890167,"238":-0.21475093066692352,"239":0.5344399213790894,"240":0.2705233097076416,"241":-0.1074637845158577,"242":0.25647610425949097,"243":-0.5125890970230103,"244":0.011883691884577274,"245":-0.19719257950782776,"246":0.17936408519744873,"247":0.17150111496448517,"248":0.036169055849313736,"249":0.03952794522047043,"250":0.023079771548509598,"251":0.15592741966247559,"252":-0.31787461042404175,"253":-0.11665988713502884,"254":0.41509759426116943,"255":0.21194300055503845,"256":0.22777673602104187,"257":-0.3617529571056366,"258":-0.11967736482620239,"259":0.01583549566566944,"260":-0.44483745098114014,"261":0.07016612589359283,"262":0.4811617136001587,"263":0.14218762516975403,"264":-0.31841951608657837,"265":-0.46596255898475647,"266":-0.5464954972267151,"267":0.163926899433136,"268":0.4421113133430481,"269":0.5315251350402832,"270":0.3938823640346527,"271":0.3002595901489258,"272":-0.4286223351955414,"273":0.07951140403747559,"274":-0.24042871594429016,"275":0.755797803401947,"276":-0.3721279799938202,"277":0.29989108443260193,"278":0.12662233412265778,"279":-0.37885791063308716,"280":-0.23399576544761658,"281":0.1358707845211029,"282":-0.44343093037605286,"283":-0.7215142846107483,"284":0.42544063925743103,"285":0.3974165618419647,"286":0.1454164683818817,"287":0.04690256342291832,"288":-0.6888095140457153,"289":-0.4503876566886902,"290":0.019654473289847374,"291":-0.626593291759491,"292":0.24470219016075134,"293":-0.555031955242157,"294":0.8478418588638306,"295":0.05659445747733116,"296":0.7118140459060669,"297":-0.7841924428939819,"298":-0.5963791012763977,"299":0.7347032427787781,"300":0.22349496185779572,"301":0.053325630724430084,"302":0.4379865527153015,"303":-0.016208738088607788,"304":0.3978235125541687,"305":-0.4703855812549591,"306":0.11428162455558777,"307":-0.1256283074617386,"308":0.30067935585975647,"309":-0.1488020420074463,"310":-0.055814724415540695,"311":0.3293715715408325,"312":-0.352243572473526,"313":-0.32768937945365906,"314":-0.05928888916969299,"315":0.36378875374794006,"316":0.20622187852859497,"317":-0.298613578081131,"318":0.27511081099510193,"319":0.1113184243440628,"320":0.10795990377664566,"321":-0.5428952574729919,"322":-0.4811429977416992,"323":-0.7843944430351257,"324":0.5355774164199829,"325":0.41216257214546204,"326":0.11023025214672089,"327":0.2897884249687195,"328":-0.7327226400375366,"329":-0.5412243008613586,"330":-0.43810632824897766,"331":-0.6613180637359619,"332":0.09693307429552078,"333":-0.49005749821662903,"334":0.8193075060844421,"335":-0.36978158354759216,"336":0.7502542734146118,"337":-0.7582035660743713,"338":-0.554334819316864,"339":0.693345844745636,"340":0.3624033033847809,"341":-0.7481582164764404,"342":-0.9428318738937378,"343":-0.5994873046875,"344":0.6828362941741943,"345":0.5433626770973206,"346":1.1441786289215088,"347":-0.29084905982017517,"348":-0.8203283548355103,"349":-0.4799834191799164,"350":-0.7650558352470398,"351":-0.5921878218650818,"352":0.11634065210819244,"353":-0.8032030463218689,"354":0.5734744668006897,"355":-0.7868099808692932,"356":0.5046002864837646,"357":-0.5937119722366333,"358":-0.597608745098114,"359":0.6319548487663269,"360":0.6054729223251343,"361":0.10833127051591873,"362":0.4461275041103363,"363":-0.6750490665435791,"364":1.162988543510437,"365":-0.36725661158561707,"366":-0.2465004026889801,"367":-0.07571570575237274,"368":-0.3770492374897003,"369":-0.794553279876709,"370":-0.491923987865448,"371":-0.7441485524177551,"372":-0.4496169686317444,"373":-1.0575108528137207,"374":0.630253791809082,"375":0.5596455335617065,"376":0.7800525426864624,"377":-0.6506634950637817,"378":-0.2665962278842926,"379":0.9059248566627502,"380":0.22529806196689606,"381":-0.4198242127895355,"382":-1.2788618803024292,"383":-0.766156792640686,"384":0.5186634063720703,"385":0.5349860191345215,"386":0.5126485228538513,"387":0.2565748691558838,"388":-0.8344464302062988,"389":-0.557144820690155,"390":-0.4902046024799347,"391":-0.7463559508323669,"392":0.12013854831457138,"393":-0.596524715423584,"394":0.641525387763977,"395":-0.6502431631088257,"396":0.7125676274299622,"397":-0.6212709546089172,"398":-0.665019690990448,"399":0.6423389315605164}},"forgetBias":{"rows":20,"columns":1,"weights":{"0":0,"1":0,"2":0,"3":0,"4":0,"5":0,"6":0,"7":0,"8":0,"9":0,"10":0,"11":0,"12":0,"13":0,"14":0,"15":0,"16":0,"17":0,"18":0,"19":0}},"outputMatrix":{"rows":20,"columns":33,"weights":{"0":0.19640761613845825,"1":-0.04062986746430397,"2":-0.8207658529281616,"3":0.4691031873226166,"4":-0.5811653137207031,"5":-0.6627909541130066,"6":0.6114148497581482,"7":-0.9688022136688232,"8":-0.09417703002691269,"9":0.466310977935791,"10":0.8035664558410645,"11":0.676628589630127,"12":0.7285325527191162,"13":-0.33855870366096497,"14":0.3817248046398163,"15":-0.9427488446235657,"16":-1.2493375539779663,"17":0.46865370869636536,"18":0.5009261965751648,"19":0.009199152700603008,"20":-0.19433751702308655,"21":-0.0325872004032135,"22":-1.1987279653549194,"23":0.11438719183206558,"24":1.0491164922714233,"25":0.21708092093467712,"26":-0.15501053631305695,"27":-0.03654984384775162,"28":-0.4165581166744232,"29":-0.5315504670143127,"30":-0.278531551361084,"31":-0.12731003761291504,"32":-0.4928751587867737,"33":-0.9928832054138184,"34":0.26603642106056213,"35":-0.11567303538322449,"36":-0.18656596541404724,"37":0.2826298773288727,"38":-0.30032113194465637,"39":-0.6444011330604553,"40":0.053845468908548355,"41":0.008405875414609909,"42":0.476670503616333,"43":-0.20995134115219116,"44":0.632243812084198,"45":0.5975915789604187,"46":-0.943352222442627,"47":-0.4456605315208435,"48":-0.6738662123680115,"49":-0.7412239909172058,"50":0.36805930733680725,"51":0.5099086761474609,"52":0.4953239858150482,"53":-0.5773636102676392,"54":-0.2535144090652466,"55":-0.6702733039855957,"56":0.12926912307739258,"57":0.4474383294582367,"58":-1.007771611213684,"59":0.19106116890907288,"60":0.322543203830719,"61":-0.5595523715019226,"62":-0.49359238147735596,"63":-0.847374677658081,"64":0.3339701294898987,"65":-0.6147194504737854,"66":0.44113144278526306,"67":-0.45762911438941956,"68":0.5262485146522522,"69":1.358364224433899,"70":-0.7726818919181824,"71":-0.8857743144035339,"72":0.9707571268081665,"73":-0.3448064625263214,"74":-0.3136127293109894,"75":0.6490987539291382,"76":0.6225729584693909,"77":-0.14183135330677032,"78":-0.22076129913330078,"79":0.2769213020801544,"80":0.876596212387085,"81":0.7177311182022095,"82":0.32110530138015747,"83":-0.9971132874488831,"84":-0.28453361988067627,"85":-0.6586997509002686,"86":-1.3105663061141968,"87":-1.6411315202713013,"88":-0.7365899682044983,"89":0.9204934239387512,"90":-0.5176297426223755,"91":0.7009770274162292,"92":-0.023976657539606094,"93":-0.8216045498847961,"94":1.0131540298461914,"95":0.16858135163784027,"96":0.2919023931026459,"97":-0.4661582112312317,"98":1.0713330507278442,"99":-0.7008594870567322,"100":0.38371121883392334,"101":0.013075131922960281,"102":-0.24441112577915192,"103":0.15735776722431183,"104":0.4457940459251404,"105":-0.012057296931743622,"106":0.5878547430038452,"107":0.07756158709526062,"108":-0.5153073072433472,"109":-0.46909788250923157,"110":0.012793300673365593,"111":0.5984105467796326,"112":-0.60528963804245,"113":0.0057913316413760185,"114":-0.22786438465118408,"115":-0.02921116352081299,"116":-0.21300184726715088,"117":0.578071117401123,"118":0.6276801228523254,"119":0.25344619154930115,"120":-0.04940241575241089,"121":0.8452416658401489,"122":0.08022435009479523,"123":0.1245073452591896,"124":-0.7320080399513245,"125":-0.14861692488193512,"126":-0.12578576803207397,"127":-0.11829213798046112,"128":-0.6021246314048767,"129":-0.4993636906147003,"130":0.872012197971344,"131":0.0945315882563591,"132":0.5472479462623596,"133":-0.7386150360107422,"134":-0.08857059478759766,"135":0.31254369020462036,"136":-0.3304961621761322,"137":-0.31795430183410645,"138":0.3261745870113373,"139":-0.3812793493270874,"140":-0.36033719778060913,"141":0.2599201798439026,"142":0.13821303844451904,"143":-0.4692135751247406,"144":-0.05846700817346573,"145":0.4781082272529602,"146":0.25840020179748535,"147":0.24804067611694336,"148":0.28078827261924744,"149":-0.17885611951351166,"150":-0.6696874499320984,"151":-0.4872521162033081,"152":-0.3245152235031128,"153":-0.07955391705036163,"154":-0.5132231116294861,"155":0.2598450779914856,"156":-0.459905207157135,"157":0.310223788022995,"158":-0.04521464928984642,"159":-0.20752595365047455,"160":-0.04757270589470863,"161":0.6133173704147339,"162":0.44664743542671204,"163":-0.4710826873779297,"164":0.1719444990158081,"165":-0.20322662591934204,"166":-0.9080815315246582,"167":-0.9563520550727844,"168":-0.4706898629665375,"169":0.18625594675540924,"170":0.5792348384857178,"171":0.12977705895900726,"172":0.3248926103115082,"173":-0.12256138771772385,"174":-0.17904748022556305,"175":-0.9383507370948792,"176":-0.1776614636182785,"177":0.4619344174861908,"178":0.06842146068811417,"179":0.08260608464479446,"180":0.04452734813094139,"181":0.5237586498260498,"182":-0.25340789556503296,"183":0.16379526257514954,"184":-0.73678058385849,"185":-0.3358971178531647,"186":0.05757157877087593,"187":-0.1646789312362671,"188":0.188635915517807,"189":-0.03620639443397522,"190":-0.30726534128189087,"191":-0.9467964768409729,"192":-0.09617723524570465,"193":0.4717790186405182,"194":-0.028100553900003433,"195":0.20054733753204346,"196":-0.6609523296356201,"197":-0.16496263444423676,"198":-0.1757994145154953,"199":-0.6181098818778992,"200":-1.3581162691116333,"201":0.3078674077987671,"202":-0.21602706611156464,"203":-0.2553187310695648,"204":0.27597519755363464,"205":-0.3694859743118286,"206":-0.18741635978221893,"207":0.26536864042282104,"208":0.22504933178424835,"209":0.760490894317627,"210":0.8858035802841187,"211":-0.329508900642395,"212":-0.005262021906673908,"213":-1.1301788091659546,"214":-1.1032698154449463,"215":-0.23378698527812958,"216":0.43039682507514954,"217":-0.0834103524684906,"218":-0.0786023810505867,"219":-0.2950778901576996,"220":-0.7816027998924255,"221":0.2569272220134735,"222":0.7581165432929993,"223":0.021740345284342766,"224":-0.12696495652198792,"225":-0.0839589536190033,"226":-0.00848743412643671,"227":-1.0169602632522583,"228":-0.17673617601394653,"229":-0.20163677632808685,"230":-0.0943264588713646,"231":0.25324109196662903,"232":-0.9975135326385498,"233":-1.2430561780929565,"234":-0.557457685470581,"235":0.5645491480827332,"236":0.2683073580265045,"237":-0.05578158050775528,"238":0.37802356481552124,"239":0.19128873944282532,"240":-0.18594935536384583,"241":-0.29047030210494995,"242":-0.16685932874679565,"243":0.58711838722229,"244":0.2497228980064392,"245":-0.5218446850776672,"246":-0.24295586347579956,"247":-0.3011317253112793,"248":0.1689557135105133,"249":0.3594907522201538,"250":-0.34504610300064087,"251":-0.102497898042202,"252":0.34565210342407227,"253":0.5445751547813416,"254":-0.44511690735816956,"255":0.07692088186740875,"256":0.13879263401031494,"257":-1.0750477313995361,"258":0.18644322454929352,"259":-0.3231109082698822,"260":0.16820181906223297,"261":0.16972170770168304,"262":-0.1942358762025833,"263":-0.5031522512435913,"264":0.4070967733860016,"265":-0.5488161444664001,"266":0.15700355172157288,"267":0.31628698110580444,"268":0.1656966209411621,"269":-0.1619667112827301,"270":-0.8023087382316589,"271":0.10798610001802444,"272":1.0284286737442017,"273":-0.7262777090072632,"274":-0.04179975390434265,"275":-1.2603580951690674,"276":-1.3193000555038452,"277":0.29710230231285095,"278":-0.25083062052726746,"279":0.37945351004600525,"280":0.47174471616744995,"281":0.5460940003395081,"282":-0.23882851004600525,"283":-0.5682675242424011,"284":0.2524116039276123,"285":-0.24988679587841034,"286":-0.009261670522391796,"287":-0.08723702281713486,"288":-1.1828526258468628,"289":0.41346439719200134,"290":-0.20509925484657288,"291":0.22201433777809143,"292":0.7858361601829529,"293":1.1186631917953491,"294":0.19505774974822998,"295":-0.674728274345398,"296":-0.6509321928024292,"297":0.6753088235855103,"298":-0.6869741678237915,"299":0.1789989322423935,"300":-0.1520150750875473,"301":-0.0960715040564537,"302":-0.10277358442544937,"303":0.28829118609428406,"304":-0.22051101922988892,"305":-0.08715318888425827,"306":0.013069824315607548,"307":0.035644371062517166,"308":-0.6318732500076294,"309":0.3125811517238617,"310":0.5839601159095764,"311":0.02635517716407776,"312":0.7386696934700012,"313":0.8042275309562683,"314":-0.10960137844085693,"315":-1.0090962648391724,"316":-0.6036501526832581,"317":-0.28020796179771423,"318":0.2301333248615265,"319":0.10875561088323593,"320":-0.04659120365977287,"321":-1.0677449703216553,"322":0.23246030509471893,"323":-0.2660251557826996,"324":-0.16373583674430847,"325":-0.11697409301996231,"326":1.047187328338623,"327":0.6215429306030273,"328":-0.5282421708106995,"329":0.1841176450252533,"330":0.40595340728759766,"331":-0.669354259967804,"332":0.0532417818903923,"333":-0.2151934653520584,"334":-0.1502920687198639,"335":-0.05100701376795769,"336":0.6072331666946411,"337":0.4843570291996002,"338":-0.27901309728622437,"339":0.17824871838092804,"340":0.11485960334539413,"341":0.4232199192047119,"342":0.06780239939689636,"343":0.4878391921520233,"344":0.23407082259655,"345":0.27886319160461426,"346":0.6753261685371399,"347":-0.7849283814430237,"348":-0.16445158421993256,"349":-0.2170741856098175,"350":0.003937543369829655,"351":0.02402719296514988,"352":0.5674533247947693,"353":-0.2647517919540405,"354":-0.3385066092014313,"355":0.10390973091125488,"356":0.002321561798453331,"357":-0.0434282049536705,"358":0.025689752772450447,"359":0.06800276041030884,"360":0.5687814950942993,"361":-0.12962765991687775,"362":0.3867667019367218,"363":-0.5386530756950378,"364":1.1362186670303345,"365":-0.3476916253566742,"366":-0.2044442892074585,"367":0.43723413348197937,"368":0.4666842520236969,"369":-0.05399554222822189,"370":0.5523819923400879,"371":0.12309082597494125,"372":-0.20639826357364655,"373":-0.5724701285362244,"374":0.7827845215797424,"375":0.4285123944282532,"376":-0.5164200663566589,"377":-0.042782314121723175,"378":-0.07627274841070175,"379":0.014699206687510014,"380":0.17171920835971832,"381":0.27001091837882996,"382":0.6313972473144531,"383":-0.05503520742058754,"384":-0.06740342825651169,"385":0.8595097661018372,"386":0.08016262203454971,"387":0.6094551682472229,"388":-0.2434772104024887,"389":-0.33846762776374817,"390":0.19526322185993195,"391":-0.12766800820827484,"392":-0.9375068545341492,"393":-0.3786555230617523,"394":0.6794589757919312,"395":-0.15465335547924042,"396":0.6559344530105591,"397":-0.20770512521266937,"398":0.5457056760787964,"399":0.26539838314056396,"400":-0.19324584305286407,"401":-0.3104035258293152,"402":0.04110972210764885,"403":-0.18873237073421478,"404":-0.4915793240070343,"405":0.2236592322587967,"406":0.32327350974082947,"407":-0.5893474221229553,"408":-0.14398859441280365,"409":0.7152537703514099,"410":0.13802365958690643,"411":0.8715455532073975,"412":0.8078674674034119,"413":-0.18253053724765778,"414":-0.8130874633789062,"415":-0.6069420576095581,"416":-0.34772199392318726,"417":-0.42603516578674316,"418":0.1530953347682953,"419":0.2812308371067047,"420":-0.8006157279014587,"421":0.7332460880279541,"422":0.12771467864513397,"423":-0.49908339977264404,"424":0.6857775449752808,"425":0.7372740507125854,"426":0.6553705930709839,"427":-0.6112442016601562,"428":0.38882097601890564,"429":-0.03577728196978569,"430":-0.5265529751777649,"431":0.4497787356376648,"432":0.47449541091918945,"433":-0.636245846748352,"434":0.018859373405575752,"435":0.3572268784046173,"436":-0.10279031842947006,"437":0.15781310200691223,"438":0.17529451847076416,"439":0.1166006550192833,"440":0.30847927927970886,"441":0.21965599060058594,"442":-0.3243257999420166,"443":0.5722143650054932,"444":0.06185983493924141,"445":0.09239394962787628,"446":-0.7955812811851501,"447":0.07776472717523575,"448":-0.19194820523262024,"449":-0.3852325677871704,"450":-0.5840669274330139,"451":-0.22790396213531494,"452":0.49936801195144653,"453":-0.0545729398727417,"454":-0.2142942249774933,"455":0.030951261520385742,"456":-0.08417968451976776,"457":0.26321566104888916,"458":-0.188213512301445,"459":0.2311975508928299,"460":0.12503284215927124,"461":0.26350122690200806,"462":-0.4984230697154999,"463":0.7174451947212219,"464":-0.23432718217372894,"465":-0.5704243183135986,"466":0.3911571502685547,"467":0.6259562969207764,"468":-0.20503227412700653,"469":0.822950541973114,"470":0.03126097843050957,"471":-0.7371847033500671,"472":-0.6000000238418579,"473":0.049911096692085266,"474":0.22878217697143555,"475":-0.3808438181877136,"476":-0.1849195808172226,"477":-0.06485185772180557,"478":0.28800392150878906,"479":0.19704240560531616,"480":0.4895683825016022,"481":0.3754715025424957,"482":0.19189690053462982,"483":0.5607962012290955,"484":0.9204490184783936,"485":-0.03888846933841705,"486":-0.08024346828460693,"487":-0.3163691461086273,"488":-0.6761518716812134,"489":-0.06396594643592834,"490":-0.07256123423576355,"491":-0.21632596850395203,"492":-0.4944581985473633,"493":0.23472140729427338,"494":-0.6820716857910156,"495":0.4131307899951935,"496":-0.1962805688381195,"497":0.7663534879684448,"498":0.650432825088501,"499":-0.7415785193443298,"500":-0.6103036403656006,"501":0.415006548166275,"502":-0.1473253071308136,"503":-0.035943374037742615,"504":0.3558066487312317,"505":0.672927975654602,"506":-0.7144243121147156,"507":0.11629124730825424,"508":0.47406917810440063,"509":0.5768243074417114,"510":0.5915789008140564,"511":0.6287569999694824,"512":-0.667863667011261,"513":0.047650910913944244,"514":-0.8134926557540894,"515":-0.7186992168426514,"516":-1.2093244791030884,"517":-0.20111152529716492,"518":1.0874825716018677,"519":-0.37108102440834045,"520":0.5912346839904785,"521":-0.3693062365055084,"522":-0.9254024028778076,"523":1.7994985580444336,"524":0.3475914001464844,"525":0.4437102675437927,"526":-0.6142280697822571,"527":0.9017482399940491,"528":-0.6741506457328796,"529":0.6862722635269165,"530":-0.3752788305282593,"531":-0.10451436042785645,"532":0.008346300572156906,"533":0.11880986392498016,"534":0.24003398418426514,"535":0.106462262570858,"536":-0.06546499580144882,"537":-0.12270467728376389,"538":0.026193013414740562,"539":-0.3377034366130829,