{"type":"LSTM","options":{"inputSize":33,"inputRange":33,"hiddenSizes":[20,20],"outputSize":33,"learningRate":0.01,"decayRate":0.999,"smoothEps":1e-8,"regc":0.000001,"clipval":5,"json":null,"dataFormatter":{"values":["Can I get some assistance to fix this issue?","Can I get some help?","Can I get some support on this bug?","Can I get some support on this issue?","Could you provide me some support to fix this issue?","Do I need to assist you to fix the issue?","Do I need to provide support to you regarding the issue?","Do you need assistance?","Do you need help?","Do you need some assistance?","Do you need some help with your issue?","Do you need some help?","Do you need some support?","Do you need support?","False","I could use some assistance with a bug I am currently facing","I need some assistance with a bug in my Rust code","I need some help with a bug I have in C++","True"],"indexTable":{"C":0,"a":1,"n":2," ":3,"I":4,"g":5,"e":6,"t":7,"s":8,"o":9,"m":10,"i":11,"c":12,"f":13,"x":14,"h":15,"u":16,"?":17,"l":18,"p":19,"r":20,"b":21,"d":22,"y":23,"v":24,"D":25,"w":26,"F":27,"R":28,"+":29,"T":30,"stop-input":31,"start-output":32},"characterTable":{"0":"C","1":"a","2":"n","3":" ","4":"I","5":"g","6":"e","7":"t","8":"s","9":"o","10":"m","11":"i","12":"c","13":"f","14":"x","15":"h","16":"u","17":"?","18":"l","19":"p","20":"r","21":"b","22":"d","23":"y","24":"v","25":"D","26":"w","27":"F","28":"R","29":"+","30":"T","31":"stop-input","32":"start-output"},"characters":["C","a","n"," ","I","g","e","t","s","o","m","i","c","f","x","h","u","?","l","p","r","b","d","y","v","D","w","F","R","+","T","stop-input","start-output"]}},"input":{"rows":34,"columns":33,"weights":{"0":-0.45700931549072266,"1":0.40051573514938354,"2":0.9124530553817749,"3":-0.5595726370811462,"4":0.10277664661407471,"5":0.30886954069137573,"6":0.8408278226852417,"7":0.4602646231651306,"8":0.35918086767196655,"9":0.6695569753646851,"10":-0.7497556209564209,"11":-0.49919071793556213,"12":0.8223758339881897,"13":-0.010461720637977123,"14":0.46645423769950867,"15":0.08193749189376831,"16":-0.3442745506763458,"17":0.7764957547187805,"18":0.3209536373615265,"19":0.0996139794588089,"20":0.5042040348052979,"21":0.5231083631515503,"22":-0.7762694358825684,"23":0.026105282828211784,"24":0.42879271507263184,"25":-0.2636782228946686,"26":1.0411715507507324,"27":0.010253566317260265,"28":0.7247999906539917,"29":0.38124778866767883,"30":-0.26721712946891785,"31":0.6396268010139465,"32":0.6418546438217163,"33":1.8851591348648071,"34":-1.565043330192566,"35":-1.2870125770568848,"36":1.231494665145874,"37":0.7614734768867493,"38":1.603542447090149,"39":1.1260408163070679,"40":1.1937909126281738,"41":1.3225948810577393,"42":-1.3169094324111938,"43":0.7959253787994385,"44":-1.6659901142120361,"45":1.4273210763931274,"46":0.2945525050163269,"47":1.4332655668258667,"48":-1.3235827684402466,"49":-1.4902552366256714,"50":1.4167455434799194,"51":-1.6314834356307983,"52":1.309370994567871,"53":1.4751431941986084,"54":-1.4020512104034424,"55":-0.6248217821121216,"56":-1.8553112745285034,"57":-1.1287263631820679,"58":-1.8026123046875,"59":1.2109509706497192,"60":-1.733475685119629,"61":0.4564829468727112,"62":-1.4738266468048096,"63":-1.2538710832595825,"64":1.0936285257339478,"65":-1.6688801050186157,"66":0.2359943836927414,"67":0.021043702960014343,"68":-0.1813720315694809,"69":0.2603509724140167,"70":0.43105441331863403,"71":-0.21636423468589783,"72":0.4011101722717285,"73":0.23461167514324188,"74":0.16667190194129944,"75":-0.10463736951351166,"76":-0.2590430676937103,"77":-0.037115853279829025,"78":-0.31980252265930176,"79":0.03511945530772209,"80":-0.016896463930606842,"81":-0.5879311561584473,"82":0.18179219961166382,"83":-0.013953547924757004,"84":0.05674317851662636,"85":0.4404967129230499,"86":0.3621358275413513,"87":-0.2580535113811493,"88":-0.6975597739219666,"89":-0.2613547444343567,"90":-0.2990928292274475,"91":-0.5179085731506348,"92":0.7103791236877441,"93":-0.31635189056396484,"94":0.6784957647323608,"95":-0.06154385581612587,"96":-0.43203142285346985,"97":0.22560173273086548,"98":0.07078234851360321,"99":0.3302132487297058,"100":0.015606327913701534,"101":-0.321964293718338,"102":0.2647998631000519,"103":-0.3308422863483429,"104":-0.048455432057380676,"105":-0.9771038889884949,"106":-0.5067564249038696,"107":-0.44644173979759216,"108":-0.3058178424835205,"109":1.186806082725525,"110":0.7583245635032654,"111":-0.8380473256111145,"112":1.0040243864059448,"113":-0.99750155210495,"114":-0.07973317801952362,"115":0.732471227645874,"116":-0.8222697973251343,"117":-0.4289610683917999,"118":-0.34226301312446594,"119":-0.7267929315567017,"120":-0.21852339804172516,"121":0.701164960861206,"122":-0.4061177968978882,"123":-0.14525149762630463,"124":0.24906419217586517,"125":-1.3946119546890259,"126":-0.19909939169883728,"127":-0.9547358751296997,"128":0.07738299667835236,"129":0.660140335559845,"130":-0.44972020387649536,"131":-0.6281384229660034,"132":0.0423477403819561,"133":0.8385594487190247,"134":0.645753800868988,"135":-0.4433654844760895,"136":0.39268505573272705,"137":0.04411563277244568,"138":0.3256818950176239,"139":0.421218603849411,"140":0.2397983819246292,"141":0.6734873652458191,"142":-0.40104570984840393,"143":-0.16794948279857635,"144":0.13804398477077484,"145":0.46894583106040955,"146":0.1751314401626587,"147":-0.6728707551956177,"148":-0.12286742031574249,"149":0.16474826633930206,"150":0.6347918510437012,"151":0.3685361444950104,"152":0.1572561115026474,"153":0.5370784997940063,"154":-1.0085501670837402,"155":-0.23160432279109955,"156":0.3536241948604584,"157":-0.4106287956237793,"158":0.7132793068885803,"159":-0.39873459935188293,"160":1.109551191329956,"161":0.7701963782310486,"162":-0.639957845211029,"163":0.10039005428552628,"164":0.59787917137146,"165":-0.8457633256912231,"166":-1.263947606086731,"167":-1.1705470085144043,"168":1.3633310794830322,"169":-0.8238167762756348,"170":-0.7025148272514343,"171":-0.8537105321884155,"172":-0.7138763666152954,"173":-0.8178172707557678,"174":-1.360148310661316,"175":1.4186161756515503,"176":0.7142820954322815,"177":-0.683165431022644,"178":-0.5296213030815125,"179":-0.8619828224182129,"180":0.36625707149505615,"181":0.7189520597457886,"182":-0.7006484270095825,"183":-1.4172894954681396,"184":-0.6940655708312988,"185":-0.7935012578964233,"186":-1.3597521781921387,"187":0.9325656294822693,"188":0.47263941168785095,"189":-1.3076159954071045,"190":0.7725064158439636,"191":-0.8782654404640198,"192":0.6926413774490356,"193":-1.2831629514694214,"194":-1.31368088722229,"195":0.831912636756897,"196":-0.7860668897628784,"197":-1.433407187461853,"198":-0.7005400061607361,"199":-1.3611005544662476,"200":-1.3207783699035645,"201":1.3383692502975464,"202":-0.7453593611717224,"203":-0.7197443842887878,"204":-0.7185842394828796,"205":-0.7483013272285461,"206":-0.7922731041908264,"207":-1.3116015195846558,"208":1.1621900796890259,"209":0.708180844783783,"210":-0.6550821661949158,"211":-1.0042093992233276,"212":-0.823106586933136,"213":0.6093524098396301,"214":0.6797035336494446,"215":-0.6975301504135132,"216":-1.308994174003601,"217":-0.7329403162002563,"218":-0.8051482439041138,"219":-1.4037574529647827,"220":0.7355420589447021,"221":0.7131357789039612,"222":-1.2963944673538208,"223":0.9373818635940552,"224":-0.7860942482948303,"225":0.7494829297065735,"226":-0.9156075119972229,"227":-1.3973969221115112,"228":0.7895282506942749,"229":-0.645243227481842,"230":-1.3290061950683594,"231":0.19851209223270416,"232":-0.1370592713356018,"233":0.11539677530527115,"234":-0.6532300114631653,"235":-0.09073996543884277,"236":0.34163808822631836,"237":-0.11952183395624161,"238":-0.10436823219060898,"239":-0.11660952121019363,"240":-0.1557653397321701,"241":-0.22263343632221222,"242":-0.0651962012052536,"243":0.23587024211883545,"244":0.48984426259994507,"245":0.04060924053192139,"246":0.07893484830856323,"247":-0.36834484338760376,"248":0.2188982218503952,"249":-0.38487401604652405,"250":0.1116233766078949,"251":0.13335658609867096,"252":0.5809856653213501,"253":0.3775937259197235,"254":-0.3003866672515869,"255":0.7421455383300781,"256":0.012760915793478489,"257":-0.4419476091861725,"258":-0.593585729598999,"259":-0.4645880162715912,"260":0.06947468221187592,"261":0.10857421904802322,"262":0.33803504705429077,"263":-0.06476172804832458,"264":0.9586557149887085,"265":0.5260975360870361,"266":0.7709159851074219,"267":-0.7043458223342896,"268":0.5768284201622009,"269":0.7931221127510071,"270":0.6464470624923706,"271":0.6805453896522522,"272":0.6733013987541199,"273":0.7743719816207886,"274":-0.8312137126922607,"275":-0.7824357748031616,"276":0.6070582270622253,"277":0.6620496511459351,"278":0.6445626616477966,"279":-0.6097256541252136,"280":-0.7316256165504456,"281":0.8227289319038391,"282":0.6200926899909973,"283":0.6567530632019043,"284":0.7106481194496155,"285":0.7295072674751282,"286":-0.5895923376083374,"287":-0.771917462348938,"288":0.6389258503913879,"289":-0.6418271064758301,"290":0.6467013359069824,"291":-0.8107154965400696,"292":0.6009979248046875,"293":0.8061486482620239,"294":-0.7128239870071411,"295":0.97862708568573,"296":0.5723296403884888,"297":0.09830068051815033,"298":-0.32304200530052185,"299":-0.5971462726593018,"300":0.5767910480499268,"301":0.12733563780784607,"302":-0.6308090090751648,"303":-0.3603920638561249,"304":-0.331485778093338,"305":-0.32711002230644226,"306":-0.4613438844680786,"307":0.49746325612068176,"308":0.6976358890533447,"309":-0.3844737708568573,"310":-0.0009077365975826979,"311":-0.5286271572113037,"312":-0.07183917611837387,"313":0.5688605904579163,"314":-0.40685752034187317,"315":-0.23456287384033203,"316":-0.13295473158359528,"317":-0.6948429942131042,"318":-0.586187481880188,"319":0.028703568503260612,"320":0.3794977068901062,"321":-0.597256600856781,"322":0.6127384901046753,"323":-0.4639722406864166,"324":0.0702943429350853,"325":-0.7183923721313477,"326":-0.31551381945610046,"327":0.6383188366889954,"328":-0.1011815294623375,"329":-0.5506319999694824,"330":-0.33364391326904297,"331":-0.7907983064651489,"332":-0.4675637185573578,"333":0.5288479924201965,"334":-0.5415440797805786,"335":0.2018423229455948,"336":-0.2999463379383087,"337":-0.3065338730812073,"338":-0.13177020847797394,"339":-0.504999577999115,"340":0.6142482757568359,"341":0.037329934537410736,"342":-0.2654242515563965,"343":0.02873699925839901,"344":-0.10073956847190857,"345":0.3724285662174225,"346":-0.05505536124110222,"347":-0.1723981648683548,"348":-0.7758100628852844,"349":-0.45666787028312683,"350":-0.12233541905879974,"351":-0.5625301003456116,"352":0.5673276782035828,"353":0.1566508412361145,"354":-0.4078054130077362,"355":0.32795387506484985,"356":-0.4933846890926361,"357":0.257167249917984,"358":-0.6023592352867126,"359":-0.6512348651885986,"360":0.3461168706417084,"361":-0.3411827087402344,"362":-0.7027685046195984,"363":-1.1568138599395752,"364":-1.685142159461975,"365":-0.8720329999923706,"366":1.0301704406738281,"367":-1.2877317667007446,"368":0.6312488317489624,"369":-0.7238942384719849,"370":-0.9660347700119019,"371":0.34823739528656006,"372":-1.5021780729293823,"373":1.5502402782440186,"374":-0.17754186689853668,"375":-1.0051852464675903,"376":0.320941686630249,"377":-0.9642680883407593,"378":-0.5274050831794739,"379":0.02217719703912735,"380":-0.45272451639175415,"381":-1.663942813873291,"382":-1.2128629684448242,"383":-0.4654015898704529,"384":-0.8277454376220703,"385":0.9567430019378662,"386":-0.5219739675521851,"387":-0.7914960980415344,"388":0.5918887853622437,"389":-0.9431406855583191,"390":-0.3450036942958832,"391":-1.0388470888137817,"392":-1.3806425333023071,"393":0.46112293004989624,"394":-0.9136157631874084,"395":-1.5712064504623413,"396":-0.45773065090179443,"397":-0.5078377723693848,"398":-0.6811637878417969,"399":0.724321186542511,"400":-0.4942067861557007,"401":-0.49918973445892334,"402":-0.4203820526599884,"403":-0.5629910826683044,"404":-0.3504337668418884,"405":-0.49374958872795105,"406":0.46883338689804077,"407":0.4845384657382965,"408":-0.5812366604804993,"409":-0.7636232376098633,"410":-0.1981283575296402,"411":0.36674371361732483,"412":0.4763423204421997,"413":-0.5267671942710876,"414":-0.5720124244689941,"415":-0.5307900905609131,"416":-0.3595559895038605,"417":-0.6397364139556885,"418":0.3650941252708435,"419":0.6928618550300598,"420":-0.8053738474845886,"421":0.5552579164505005,"422":-0.20542198419570923,"423":0.5213258862495422,"424":-0.30897775292396545,"425":-0.5237821340560913,"426":0.4293921887874603,"427":-0.5654235482215881,"428":-0.6233444213867188,"429":0.5866224765777588,"430":-1.0476974248886108,"431":-0.5793225765228271,"432":0.15886156260967255,"433":1.3004951477050781,"434":0.47394466400146484,"435":0.9844354391098022,"436":0.8720234036445618,"437":0.8265957832336426,"438":-0.3622041344642639,"439":-0.8110091686248779,"440":-0.6955965161323547,"441":2.1255946159362793,"442":-0.27020713686943054,"443":0.988140881061554,"444":-0.8222466111183167,"445":-0.8210922479629517,"446":1.0311789512634277,"447":0.34532430768013,"448":1.6754825115203857,"449":0.5804972052574158,"450":-0.7253230810165405,"451":-1.6815160512924194,"452":-0.3504997193813324,"453":-0.19475431740283966,"454":-1.027197003364563,"455":1.2260433435440063,"456":-0.5309475660324097,"457":1.6248810291290283,"458":-1.3585755825042725,"459":-0.6844273805618286,"460":0.9540181756019592,"461":0.7569940090179443,"462":-0.18451201915740967,"463":-0.7848886847496033,"464":-1.123209834098816,"465":0.24427857995033264,"466":-0.2182372659444809,"467":-1.4686938524246216,"468":-0.39230504631996155,"469":-0.9819682836532593,"470":-0.7956783175468445,"471":1.4666777849197388,"472":0.08068730682134628,"473":0.9762294292449951,"474":-0.5170480608940125,"475":-1.2938721179962158,"476":-1.3749998807907104,"477":0.5997092127799988,"478":1.4487253427505493,"479":-0.3536704182624817,"480":1.285722017288208,"481":-0.6560155749320984,"482":-1.8065029382705688,"483":-0.4791748821735382,"484":0.4791293442249298,"485":0.665081799030304,"486":0.18751198053359985,"487":1.2777986526489258,"488":-0.1784583330154419,"489":0.09453348815441132,"490":0.03332872688770294,"491":-0.9582049250602722,"492":1.080661654472351,"493":0.060684483498334885,"494":0.03850454464554787,"495":1.5089200735092163,"496":-0.7793151140213013,"497":-0.8568152785301208,"498":0.43778207898139954,"499":0.40746137499809265,"500":1.733931303024292,"501":-0.04389096051454544,"502":0.19642163813114166,"503":0.17060184478759766,"504":-0.7537683248519897,"505":1.7961913347244263,"506":-0.3292396366596222,"507":0.6121034026145935,"508":-0.21806854009628296,"509":0.2070806920528412,"510":-0.34880030155181885,"511":-0.6860485672950745,"512":0.7529741525650024,"513":-0.4354041516780853,"514":0.5892428159713745,"515":0.03474918007850647,"516":-0.7009230256080627,"517":0.14049546420574188,"518":-0.6215335726737976,"519":-0.6250962018966675,"520":-0.5453190207481384,"521":-1.3350977897644043,"522":-0.7157326936721802,"523":-1.8083837032318115,"524":-0.6816199421882629,"525":-0.5583845376968384,"526":-1.5301995277404785,"527":-1.794343113899231,"528":0.279351145029068,"529":0.40118077397346497,"530":-0.8564325571060181,"531":0.5162451863288879,"532":0.3422379791736603,"533":-1.1579968929290771,"534":0.23324806988239288,"535":0.07939444482326508,"536":-0.5554467439651489,"537":0.28698498010635376,"538":-0.25140535831451416,"539":0.9648523926734924,"540":0.23225535452365875,"541":-1.4173774719238281,"542":0.09656607359647751,"543":-0.3505686819553375,"544":0.9237538576126099,"545":-0.5744248032569885,"546":0.46982574462890625,"547":0.35350075364112854,"548":-0.014893027022480965,"549":-0.8277937769889832,"550":-0.44174855947494507,"551":0.9572808742523193,"552":-0.6083515882492065,"553":-0.03385837748646736,"554":0.468797892332077,"555":0.11694276332855225,"556":0.42066556215286255,"557":0.29000911116600037,"558":-0.21761031448841095,"559":0.30905959010124207,"560":0.3745787441730499,"561":0.5408018827438354,"562":0.45264509320259094,"563":0.20310981571674347,"564":0.05816194787621498,"565":-0.17614302039146423,"566":0.8449088931083679,"567":-0.5516163110733032,"568":-0.36260783672332764,"569":-0.14378876984119415,"570":-0.09294815361499786,"571":-0.08033779263496399,"572":-0.8194978833198547,"573":0.1350470930337906,"574":0.3766748309135437,"575":0.02197328582406044,"576":0.3187654912471771,"577":-0.431593120098114,"578":-0.17730918526649475,"579":-0.6628942489624023,"580":-0.23344017565250397,"581":0.3496897220611572,"582":0.4869011342525482,"583":-0.23233959078788757,"584":0.06851048022508621,"585":0.011222182773053646,"586":-0.3369813859462738,"587":-0.41045382618904114,"588":-0.07732406258583069,"589":0.16335903108119965,"590":0.415179967880249,"591":-0.13621187210083008,"592":-0.24622315168380737,"593":0.17854304611682892,"594":-0.4312739074230194,"595":-0.3502734899520874,"596":-0.49512144923210144,"597":0.6165972352027893,"598":-0.028749557211995125,"599":-0.44357094168663025,"600":0.5709152221679688,"601":0.150140643119812,"602":0.536806046962738,"603":-0.41907787322998047,"604":0.15271936357021332,"605":0.04595152288675308,"606":0.710221529006958,"607":-0.7707719802856445,"608":0.5979719161987305,"609":-0.09961403906345367,"610":0.10652796924114227,"611":0.31785982847213745,"612":-0.45359891653060913,"613":-0.13202546536922455,"614":-0.009092669002711773,"615":-0.5181671380996704,"616":-0.13337676227092743,"617":0.36920085549354553,"618":-0.5355691909790039,"619":0.10999031364917755,"620":0.3439236283302307,"621":0.5941982865333557,"622":-0.23414120078086853,"623":-0.6319760084152222,"624":0.03637322410941124,"625":-0.2594548761844635,"626":-0.41575488448143005,"627":-0.015053778886795044,"628":-1.2568587064743042,"629":-0.09308288991451263,"630":0.3416544198989868,"631":-0.4070388972759247,"632":1.050459384918213,"633":0.16577917337417603,"634":-0.037352826446294785,"635":0.619000256061554,"636":-0.5872636437416077,"637":0.47187086939811707,"638":-0.909065842628479,"639":0.2849007844924927,"640":-0.050180625170469284,"641":0.32658010721206665,"642":-0.15409135818481445,"643":-0.849010169506073,"644":0.8700379133224487,"645":-1.236924648284912,"646":-0.16147170960903168,"647":0.12299346178770065,"648":-0.3403170108795166,"649":0.3543928563594818,"650":-0.22433485090732574,"651":-0.22311559319496155,"652":0.28860288858413696,"653":0.09902472048997879,"654":0.11328132450580597,"655":-0.549515962600708,"656":-1.4838656187057495,"657":0.1847739815711975,"658":0.10857972502708435,"659":-0.8819882273674011,"660":-0.35099199414253235,"661":-0.7055230140686035,"662":-0.9269281029701233,"663":1.236193299293518,"664":-0.0011366449762135744,"665":0.667855978012085,"666":1.1924558877944946,"667":0.7235491871833801,"668":0.9829785227775574,"669":-1.1633113622665405,"670":0.40938761830329895,"671":-0.7325671911239624,"672":0.5759584903717041,"673":-0.04890607297420502,"674":0.6723847985267639,"675":-0.4125017821788788,"676":-0.7707093358039856,"677":0.7262930870056152,"678":-0.6681102514266968,"679":0.4315131604671478,"680":0.41665032505989075,"681":-1.101533055305481,"682":-0.6580083966255188,"683":-0.5633895397186279,"684":-1.3227747678756714,"685":-0.357480525970459,"686":0.7097951769828796,"687":-0.24339348077774048,"688":0.4990880787372589,"689":-0.6503730416297913,"690":-0.6794220805168152,"691":-0.21286432445049286,"692":-1.0732799768447876,"693":-0.5222346782684326,"694":-0.9133476614952087,"695":-0.7091080546379089,"696":0.8781231045722961,"697":-0.30241212248802185,"698":-0.1752224713563919,"699":-0.2097758799791336,"700":-0.33998924493789673,"701":-0.15161965787410736,"702":-0.8529068231582642,"703":0.6118435263633728,"704":0.2346625030040741,"705":-0.13086582720279694,"706":-0.4757501482963562,"707":-0.172468900680542,"708":0.10289949923753738,"709":0.12309398502111435,"710":-0.17905104160308838,"711":-0.8784328103065491,"712":-0.16425547003746033,"713":-0.1991264820098877,"714":-0.9253618717193604,"715":0.2132827788591385,"716":0.3104567527770996,"717":-0.9002325534820557,"718":0.3052348792552948,"719":-0.09637699276208878,"720":0.3222982585430145,"721":-0.3204130530357361,"722":-0.8470795750617981,"723":0.234242781996727,"724":-0.29779940843582153,"725":-0.8793789148330688,"726":-1.6323882341384888,"727":-2.1132893562316895,"728":-2.173825263977051,"729":2.2087719440460205,"730":-1.5816181898117065,"731":-1.5281919240951538,"732":-1.6439465284347534,"733":-1.6238126754760742,"734":-1.4792017936706543,"735":-2.0474348068237305,"736":1.9239228963851929,"737":1.5710172653198242,"738":-1.562027931213379,"739":-1.8296840190887451,"740":-1.5561168193817139,"741":1.4581830501556396,"742":1.5360612869262695,"743":-1.5572532415390015,"744":-2.1856093406677246,"745":-1.6142808198928833,"746":-1.5634799003601074,"747":-2.1193063259124756,"748":1.65225088596344,"749":1.6183686256408691,"750":-2.1051242351531982,"751":1.7103230953216553,"752":-1.4705613851547241,"753":1.5407392978668213,"754":-1.611143946647644,"755":-2.2141871452331543,"756":1.5956722497940063,"757":-1.6642094850540161,"758":-2.1203131675720215,"759":0.4445473551750183,"760":0.42744192481040955,"761":0.30027613043785095,"762":-0.36206167936325073,"763":0.038535796105861664,"764":0.7041928172111511,"765":-0.38786590099334717,"766":0.08236679434776306,"767":0.030169406905770302,"768":0.34551721811294556,"769":0.07439225912094116,"770":-0.29187849164009094,"771":-0.26497331261634827,"772":0.8681631088256836,"773":-0.3439670205116272,"774":0.22121208906173706,"775":-0.36324745416641235,"776":-0.03784207999706268,"777":0.39602458477020264,"778":0.04457976669073105,"779":-0.06788665056228638,"780":0.2802574932575226,"781":-0.0022207899019122124,"782":-0.424372136592865,"783":0.45440351963043213,"784":-0.44308632612228394,"785":-0.5327240824699402,"786":-0.38459035754203796,"787":0.0645224004983902,"788":0.38262513279914856,"789":-0.24471445381641388,"790":0.012231850996613503,"791":0.37255316972732544,"792":0.691024124622345,"793":-0.22615346312522888,"794":-0.18755047023296356,"795":0.10381578654050827,"796":0.3260331153869629,"797":1.054553508758545,"798":0.5225789546966553,"799":0.4149576723575592,"800":0.7857286334037781,"801":-0.14487704634666443,"802":0.2675701975822449,"803":-0.6702114939689636,"804":0.6733675599098206,"805":0.34256622195243835,"806":0.6669005155563354,"807":-0.7334914803504944,"808":-0.8625949025154114,"809":0.8639897108078003,"810":-0.058989837765693665,"811":0.5244559645652771,"812":0.6905288696289062,"813":-0.14013193547725677,"814":0.3005828559398651,"815":-0.9962879419326782,"816":0.0013613131595775485,"817":-0.3269394636154175,"818":-0.0646703913807869,"819":-1.0357128381729126,"820":-0.21538269519805908,"821":-0.028361963108181953,"822":-0.45189982652664185,"823":0.3873627781867981,"824":-0.08807016164064407,"825":1.2555292844772339,"826":-1.6937401294708252,"827":-1.4791415929794312,"828":1.8859531879425049,"829":1.7777403593063354,"830":1.101324200630188,"831":1.28281831741333,"832":1.181722640991211,"833":1.4609694480895996,"834":-1.0579506158828735,"835":1.3574293851852417,"836":-0.14023956656455994,"837":1.0162601470947266,"838":-1.205654263496399,"839":0.9808824062347412,"840":-1.4866122007369995,"841":-0.9022125601768494,"842":1.1339173316955566,"843":-1.048317313194275,"844":1.1764390468597412,"845":0.5550620555877686,"846":-1.5930060148239136,"847":-2.0448427200317383,"848":-1.766020655632019,"849":-1.9393515586853027,"850":-0.21245324611663818,"851":1.7366567850112915,"852":-1.923892855644226,"853":1.761124849319458,"854":-1.649193525314331,"855":-0.9365925192832947,"856":0.32041704654693604,"857":-0.9845099449157715,"858":-0.03523401543498039,"859":0.7471498847007751,"860":0.6825205087661743,"861":-0.06955123692750931,"862":0.12071502953767776,"863":-0.5036641359329224,"864":0.12468118965625763,"865":0.022918373346328735,"866":0.02831210382282734,"867":0.7152853012084961,"868":-0.7056834697723389,"869":0.5800340175628662,"870":-0.5025780200958252,"871":-0.09916908293962479,"872":-0.07529313117265701,"873":-0.09620177000761032,"874":0.10490817576646805,"875":0.0022408736404031515,"876":0.5874297022819519,"877":-0.3856537938117981,"878":0.07806938141584396,"879":0.5591540336608887,"880":0.3651493489742279,"881":0.16681602597236633,"882":-0.02937369979918003,"883":0.048367686569690704,"884":0.09539850056171417,"885":0.1727077066898346,"886":-0.4255204200744629,"887":0.639989972114563,"888":0.009618444368243217,"889":0.03314029052853584,"890":0.6635343432426453,"891":0.24051164090633392,"892":-0.24643979966640472,"893":-1.455564260482788,"894":1.6274621486663818,"895":0.9849639534950256,"896":-0.9660826921463013,"897":0.5750089883804321,"898":0.5142819881439209,"899":-0.12101177871227264,"900":-0.7327393293380737,"901":-0.6416739225387573,"902":-0.07830466330051422,"903":1.2730495929718018,"904":-1.5907604694366455,"905":0.6572477221488953,"906":-0.460908442735672,"907":-0.4379831850528717,"908":0.6096053719520569,"909":-0.8453311920166016,"910":1.0018374919891357,"911":0.4266616404056549,"912":-1.768702507019043,"913":-1.058815360069275,"914":0.5934926271438599,"915":-1.5815085172653198,"916":-0.5840132832527161,"917":1.0058088302612305,"918":0.5833715796470642,"919":1.0202370882034302,"920":-1.8702412843704224,"921":-0.5944207310676575,"922":0.569931149482727,"923":-0.7149954438209534,"924":-0.10068655759096146,"925":-0.5448257327079773,"926":-0.371971994638443,"927":0.26441308856010437,"928":-0.6162998080253601,"929":0.2688179016113281,"930":-0.7527956366539001,"931":-0.5432642698287964,"932":-1.0277752876281738,"933":-0.6003249287605286,"934":0.8352219462394714,"935":0.560394287109375,"936":-0.5149711966514587,"937":0.9328112602233887,"938":-0.7655757665634155,"939":0.2541227638721466,"940":0.46495965123176575,"941":-0.6338258385658264,"942":-0.3295747637748718,"943":-0.5148599147796631,"944":-0.639215350151062,"945":-0.30298522114753723,"946":0.6810276508331299,"947":-0.5331658124923706,"948":-0.19940735399723053,"949":0.5260494947433472,"950":-0.8103107213973999,"951":-0.2592940926551819,"952":-0.738700270652771,"953":-0.11688809841871262,"954":0.5083829164505005,"955":-0.3923671245574951,"956":-0.6867085695266724,"957":-2.0870606899261475,"958":2.013810157775879,"959":-2.039167881011963,"960":1.9699708223342896,"961":-2.08485746383667,"962":-2.012709856033325,"963":-2.0431411266326904,"964":-2.0534934997558594,"965":-2.031095504760742,"966":-2.0525238513946533,"967":2.0877420902252197,"968":2.015751361846924,"969":-2.043490171432495,"970":-1.986641526222229,"971":-1.9649642705917358,"972":2.083812713623047,"973":1.9874813556671143,"974":-1.992118239402771,"975":-1.958632469177246,"976":-1.9519494771957397,"977":-2.034456253051758,"978":-2.004464626312256,"979":2.076866626739502,"980":1.9586197137832642,"981":-1.9752193689346313,"982":2.1098203659057617,"983":-2.007046937942505,"984":2.0594329833984375,"985":-2.0120320320129395,"986":2.100065231323242,"987":2.0755057334899902,"988":-2.0075597763061523,"989":-2.01082181930542,"990":1.945385456085205,"991":-2.130373954772949,"992":-2.136605739593506,"993":2.11006236076355,"994":2.1195273399353027,"995":2.0509681701660156,"996":2.172905206680298,"997":2.1341230869293213,"998":2.0900988578796387,"999":-2.0022194385528564,"1000":1.4892112016677856,"1001":-2.051438570022583,"1002":2.1330220699310303,"1003":-1.782128930091858,"1004":2.063741683959961,"1005":-2.18672513961792,"1006":-2.041980743408203,"1007":2.0336759090423584,"1008":-2.0917186737060547,"1009":2.0927696228027344,"1010":2.0943713188171387,"1011":-2.145102024078369,"1012":-2.032071828842163,"1013":-2.14123272895813,"1014":-2.066828727722168,"1015":-1.7757213115692139,"1016":2.0778815746307373,"1017":-2.0062267780303955,"1018":2.024786949157715,"1019":-2.1785008907318115,"1020":-2.078605890274048,"1021":1.963287115097046,"1022":-2.135768175125122,"1023":-1.3659158945083618,"1024":-1.477681279182434,"1025":-1.3222088813781738,"1026":1.379813551902771,"1027":-1.3108246326446533,"1028":-0.8989983201026917,"1029":-1.1352005004882812,"1030":-1.2256841659545898,"1031":-1.0957905054092407,"1032":-1.3694504499435425,"1033":1.4439343214035034,"1034":0.9361783862113953,"1035":-1.0909991264343262,"1036":-1.096388816833496,"1037":-0.9697099924087524,"1038":1.09328031539917,"1039":0.8535323143005371,"1040":-1.0214182138442993,"1041":-1.5409681797027588,"1042":-1.1187394857406616,"1043":-0.9016031622886658,"1044":-1.5164268016815186,"1045":1.2754331827163696,"1046":1.1598751544952393,"1047":-1.4863404035568237,"1048":1.1282904148101807,"1049":-1.0667893886566162,"1050":1.1380126476287842,"1051":-1.3042839765548706,"1052":-1.424763560295105,"1053":1.0987660884857178,"1054":-1.2873327732086182,"1055":-1.5818126201629639,"1056":0.26588302850723267,"1057":-0.314792662858963,"1058":0.07843949645757675,"1059":0.1589168757200241,"1060":0.3851633667945862,"1061":0.7800937294960022,"1062":0.6175423264503479,"1063":0.5153948664665222,"1064":0.69326251745224,"1065":-0.17448370158672333,"1066":0.00887012854218483,"1067":-0.7088128328323364,"1068":0.44974052906036377,"1069":0.22960393130779266,"1070":0.5652730464935303,"1071":-0.7714735865592957,"1072":-0.6113584637641907,"1073":0.6024556756019592,"1074":0.0001795561402104795,"1075":0.392703115940094,"1076":0.4745984971523285,"1077":-0.05113693326711655,"1078":-0.725202739238739,"1079":-0.6028727889060974,"1080":-0.16229486465454102,"1081":-0.35311758518218994,"1082":0.6683561205863953,"1083":-0.6150588989257812,"1084":0.5488798022270203,"1085":-0.1745600402355194,"1086":-0.5274578928947449,"1087":0.40262120962142944,"1088":-0.14013484120368958,"1089":-0.3974039852619171,"1090":-0.14836262166500092,"1091":-0.2054581195116043,"1092":0.5417511463165283,"1093":0.7669023871421814,"1094":0.4476044178009033,"1095":0.8356192111968994,"1096":0.5475274920463562,"1097":0.6532577872276306,"1098":-0.2561662793159485,"1099":-0.13149641454219818,"1100":-0.48884227871894836,"1101":0.8414175510406494,"1102":-0.17444488406181335,"1103":0.7242709398269653,"1104":-0.3810770511627197,"1105":-0.22750531136989594,"1106":0.6398828029632568,"1107":-0.2627491354942322,"1108":0.9612411260604858,"1109":0.6200683116912842,"1110":-0.2580144703388214,"1111":-0.7871707081794739,"1112":-0.581185519695282,"1113":-0.6103581786155701,"1114":-0.4278029203414917,"1115":0.9827579259872437,"1116":-0.41066449880599976,"1117":0.8071197271347046,"1118":-0.10771814733743668,"1119":-0.6377460956573486,"1120":0.15240372717380524,"1121":-0.20647060871124268}},"hiddenLayers":[{"inputMatrix":{"rows":20,"columns":33,"weights":{"0":1.1454393863677979,"1":-0.3176443576812744,"2":-0.2547456920146942,"3":-0.34712836146354675,"4":0.9999004602432251,"5":0.6153219938278198,"6":0.5788838863372803,"7":0.489620566368103,"8":0.4646996259689331,"9":0.08908998221158981,"10":-0.4427169859409332,"11":-0.5874583125114441,"12":0.9935474991798401,"13":0.8761199712753296,"14":0.3131270408630371,"15":-0.496635377407074,"16":-0.5738688111305237,"17":1.0307778120040894,"18":-0.06365347653627396,"19":0.7393495440483093,"20":0.36404940485954285,"21":0.0007128178840503097,"22":-0.1874663084745407,"23":-0.813797116279602,"24":0.38519540429115295,"25":-0.24947258830070496,"26":0.35603588819503784,"27":-1.0037531852722168,"28":0.28002116084098816,"29":-0.32937756180763245,"30":-0.24372009932994843,"31":1.0540904998779297,"32":-0.10489854216575623,"33":0.011037174612283707,"34":-0.36426350474357605,"35":-0.3800808787345886,"36":0.013548113405704498,"37":0.0081108920276165,"38":0.22735394537448883,"39":-0.45054346323013306,"40":-0.4539712965488434,"41":0.028590744361281395,"42":-0.2996319532394409,"43":0.3836386799812317,"44":0.0007783404435031116,"45":-0.18144890666007996,"46":0.39379745721817017,"47":-0.23876316845417023,"48":0.6561371684074402,"49":0.20633858442306519,"50":-0.09405175596475601,"51":-0.165946364402771,"52":-0.39058297872543335,"53":-0.23264646530151367,"54":-0.5137987732887268,"55":0.4015992283821106,"56":-0.21672768890857697,"57":0.2511843144893646,"58":0.11553976684808731,"59":-1.122658371925354,"60":-0.021020691841840744,"61":-0.3336491882801056,"62":-0.37989985942840576,"63":0.5850236415863037,"64":-0.1126040667295456,"65":-0.3087001442909241,"66":0.14261563122272491,"67":-0.08116807788610458,"68":-0.2461254596710205,"69":0.13440273702144623,"70":-0.5132408142089844,"71":0.10274587571620941,"72":-0.47538164258003235,"73":-0.4533316195011139,"74":-0.2612895965576172,"75":-0.27277302742004395,"76":0.6958121061325073,"77":0.20751334726810455,"78":-0.3326565623283386,"79":0.4515265226364136,"80":-0.4462573528289795,"81":0.3449306786060333,"82":0.14654172956943512,"83":-0.23940472304821014,"84":-0.08429470658302307,"85":-0.5154814720153809,"86":-0.2913483679294586,"87":-0.31073832511901855,"88":1.363511562347412,"89":-0.04837706312537193,"90":-0.11215066909790039,"91":0.40571799874305725,"92":-0.7979827523231506,"93":0.24449658393859863,"94":-1.3372913599014282,"95":-0.07120709121227264,"96":0.4572838544845581,"97":-0.32534411549568176,"98":-0.4638906419277191,"99":0.5749952793121338,"100":0.6084818840026855,"101":0.44494301080703735,"102":-0.6022558212280273,"103":0.05570291355252266,"104":-0.5247318744659424,"105":0.02052179165184498,"106":-0.177928626537323,"107":-0.20632514357566833,"108":0.7241674661636353,"109":-0.9499028921127319,"110":0.1501753181219101,"111":0.11731141805648804,"112":-0.5485385060310364,"113":-0.15368837118148804,"114":0.1457124501466751,"115":0.42180806398391724,"116":-0.1019524559378624,"117":0.6637037396430969,"118":-0.14657917618751526,"119":-0.22826150059700012,"120":0.5831778049468994,"121":-0.07409156113862991,"122":0.35676440596580505,"123":0.5750263333320618,"124":0.17150714993476868,"125":0.2219744771718979,"126":0.03316238150000572,"127":0.1595870703458786,"128":0.589874804019928,"129":0.20543618500232697,"130":0.5026244521141052,"131":0.7300829291343689,"132":-0.12440686672925949,"133":-0.6006500720977783,"134":0.10169769823551178,"135":-0.18358641862869263,"136":-0.6857562065124512,"137":0.34105557203292847,"138":-0.5468215346336365,"139":-0.2575841546058655,"140":-0.1277392953634262,"141":-0.09774097800254822,"142":0.3666355311870575,"143":-0.4348989427089691,"144":-0.17059782147407532,"145":0.3921993374824524,"146":-0.09627477079629898,"147":0.730623722076416,"148":-0.1461161971092224,"149":-0.15280014276504517,"150":-0.9167940616607666,"151":-0.44925281405448914,"152":-0.25659844279289246,"153":0.06400531530380249,"154":1.3354018926620483,"155":0.09144286066293716,"156":0.2818176746368408,"157":0.4548833668231964,"158":-1.107801079750061,"159":0.3595385253429413,"160":-1.4875454902648926,"161":-0.40698033571243286,"162":0.6626402139663696,"163":-0.3244909644126892,"164":-1.251440405845642,"165":0.47184303402900696,"166":0.5770439505577087,"167":0.3914933204650879,"168":-0.494662880897522,"169":-0.04941275715827942,"170":-0.8190924525260925,"171":-0.5327871441841125,"172":-0.5994009971618652,"173":-0.9275414943695068,"174":0.5850164294242859,"175":-0.36718207597732544,"176":0.666522741317749,"177":-0.49127110838890076,"178":-0.5244658589363098,"179":-0.806720495223999,"180":0.3883225619792938,"181":0.8451249003410339,"182":-0.6612744331359863,"183":0.666197657585144,"184":-0.4377302825450897,"185":-0.9005422592163086,"186":0.5151439309120178,"187":0.03670990839600563,"188":0.6683691143989563,"189":0.46229955554008484,"190":0.6332142949104309,"191":-0.1868203729391098,"192":0.14969345927238464,"193":0.0528358556330204,"194":0.5708321928977966,"195":0.5257282853126526,"196":-0.47414103150367737,"197":0.6112557649612427,"198":0.2933526933193207,"199":-0.23203153908252716,"200":-0.3277733623981476,"201":0.06096753105521202,"202":-0.5059691071510315,"203":0.3865547478199005,"204":-0.46572649478912354,"205":-0.33861711621284485,"206":-0.17270982265472412,"207":-0.34656795859336853,"208":0.20931632816791534,"209":-0.02441398613154888,"210":-0.2692517042160034,"211":0.36159640550613403,"212":-0.0810713842511177,"213":0.7088685631752014,"214":-0.0242150966078043,"215":-0.05489692836999893,"216":-0.18417896330356598,"217":-0.39301225543022156,"218":0.09875892102718353,"219":-0.1647418588399887,"220":0.9400457739830017,"221":-0.1437491923570633,"222":0.22038711607456207,"223":0.15660464763641357,"224":-0.9572739005088806,"225":0.1192980483174324,"226":-0.8773852586746216,"227":-0.17231827974319458,"228":0.26687151193618774,"229":-0.09730108082294464,"230":-0.3570890426635742,"231":-0.2958109974861145,"232":-0.13981938362121582,"233":-0.574916422367096,"234":0.14711584150791168,"235":-0.5865598320960999,"236":-0.5627180337905884,"237":-0.379178524017334,"238":-1.0723803043365479,"239":-0.6284660696983337,"240":-0.21221652626991272,"241":0.4967605471611023,"242":0.45458289980888367,"243":0.050068821758031845,"244":-1.4309157133102417,"245":-0.5252218246459961,"246":0.734916090965271,"247":0.7186204195022583,"248":-0.2802685499191284,"249":0.16090913116931915,"250":-0.7768861651420593,"251":-0.837582528591156,"252":-0.05309783294796944,"253":0.6989573240280151,"254":0.8513096570968628,"255":-0.02077966369688511,"256":1.1409108638763428,"257":-0.3471110761165619,"258":0.5251762270927429,"259":-0.3195118010044098,"260":-0.17798255383968353,"261":0.9353464841842651,"262":-0.41298148036003113,"263":0.0355079285800457,"264":0.05386192724108696,"265":-0.34132838249206543,"266":-0.13490024209022522,"267":0.00013091025175526738,"268":-1.1261894702911377,"269":0.4172707498073578,"270":-1.1249141693115234,"271":-0.8847264647483826,"272":-0.46451330184936523,"273":-0.27515554428100586,"274":0.44773197174072266,"275":0.07717987149953842,"276":-0.16338782012462616,"277":0.2825227379798889,"278":0.0030493875965476036,"279":1.089555025100708,"280":-0.07693284004926682,"281":-0.15549060702323914,"282":-0.31753867864608765,"283":-0.7540125250816345,"284":-0.392839640378952,"285":0.061436548829078674,"286":1.1391017436981201,"287":0.15310107171535492,"288":0.18697722256183624,"289":0.610520601272583,"290":-1.0628445148468018,"291":0.5487930178642273,"292":-1.0886062383651733,"293":-0.4108092486858368,"294":0.7652482390403748,"295":-0.23282334208488464,"296":-0.41280749440193176,"297":-0.1157349944114685,"298":-0.4005753695964813,"299":-0.35939300060272217,"300":-0.04674360528588295,"301":0.34346288442611694,"302":0.3586544692516327,"303":-0.28871357440948486,"304":0.21236629784107208,"305":0.1992001086473465,"306":-0.3067988157272339,"307":0.31614646315574646,"308":0.13510774075984955,"309":-0.07404300570487976,"310":0.49796029925346375,"311":-0.2713320553302765,"312":-0.25755399465560913,"313":-0.07114438712596893,"314":-0.09085869789123535,"315":-0.2364703267812729,"316":0.06887593865394592,"317":-0.22788940370082855,"318":-0.5004746913909912,"319":0.17418158054351807,"320":-0.027444468811154366,"321":-0.08030856400728226,"322":-0.2804676592350006,"323":-1.031387209892273,"324":-0.4983663856983185,"325":-0.25665441155433655,"326":-0.52154141664505,"327":-0.33997321128845215,"328":-0.16525202989578247,"329":-0.376749187707901,"330":1.0068014860153198,"331":-0.4557498097419739,"332":-0.21992127597332,"333":0.14282141625881195,"334":0.27947065234184265,"335":0.5396929979324341,"336":0.6242519617080688,"337":0.35194721817970276,"338":0.5572378635406494,"339":-0.14749731123447418,"340":0.26425376534461975,"341":-0.4103850722312927,"342":0.4830273687839508,"343":0.20045144855976105,"344":0.4319605231285095,"345":-0.5270666480064392,"346":-0.4578636884689331,"347":0.6126536726951599,"348":-0.05852409452199936,"349":-0.034390874207019806,"350":0.4093439280986786,"351":-0.23079141974449158,"352":-0.2970256507396698,"353":-0.2593420445919037,"354":0.056028541177511215,"355":0.06695985794067383,"356":0.5989977717399597,"357":-0.3921166658401489,"358":-0.047838132828474045,"359":-0.5924208164215088,"360":-0.08681374043226242,"361":0.7222461104393005,"362":-0.0751652792096138,"363":0.19275735318660736,"364":0.21562789380550385,"365":0.05027274414896965,"366":-0.3032987415790558,"367":-0.5692299604415894,"368":0.02417605184018612,"369":-0.5908514261245728,"370":-0.42548730969429016,"371":-0.31899741291999817,"372":0.21430465579032898,"373":0.8452664017677307,"374":0.3222132623195648,"375":-0.5165191888809204,"376":0.7335860133171082,"377":-0.3340352773666382,"378":0.34770363569259644,"379":0.25509974360466003,"380":-0.36531180143356323,"381":0.05142156779766083,"382":-0.44663017988204956,"383":-0.24868090450763702,"384":0.2028973400592804,"385":0.8299875855445862,"386":0.13955450057983398,"387":0.5064677596092224,"388":0.3234723210334778,"389":-0.5518712997436523,"390":0.3457649350166321,"391":-0.7197210788726807,"392":0.39449045062065125,"393":0.3082874119281769,"394":-0.41338276863098145,"395":-0.25367677211761475,"396":-0.1037248745560646,"397":-1.4090596437454224,"398":-1.3506240844726562,"399":0.7675032615661621,"400":0.21648229658603668,"401":0.8077260851860046,"402":0.18739716708660126,"403":0.20141948759555817,"404":0.37497133016586304,"405":-0.9851726293563843,"406":0.5070775747299194,"407":-0.3627520501613617,"408":0.28631269931793213,"409":0.002571313874796033,"410":-0.34829390048980713,"411":-0.21323221921920776,"412":-0.36724454164505005,"413":0.5736768841743469,"414":-1.0907493829727173,"415":0.15195102989673615,"416":-0.24325604736804962,"417":-0.9097061157226562,"418":0.17419889569282532,"419":-0.8350198864936829,"420":-0.5705695748329163,"421":-0.05676327273249626,"422":-0.563779354095459,"423":-0.623116672039032,"424":-0.7324380874633789,"425":-1.3739187717437744,"426":-0.00782475434243679,"427":-0.0186998900026083,"428":-1.1719721555709839,"429":-0.6063597202301025,"430":0.15116454660892487,"431":0.11487647891044617,"432":-0.1765836626291275,"433":-0.44386863708496094,"434":-0.5880959630012512,"435":-0.34430816769599915,"436":-0.558901309967041,"437":-0.5049593448638916,"438":0.2357833981513977,"439":-0.11404961347579956,"440":0.5555302500724792,"441":-0.4515414535999298,"442":-0.7383698225021362,"443":-0.5243675112724304,"444":0.3640948534011841,"445":0.49380043148994446,"446":-0.5028405785560608,"447":0.3104169964790344,"448":-0.5187515020370483,"449":-0.5746402144432068,"450":0.10083996504545212,"451":0.45054593682289124,"452":0.5340997576713562,"453":0.25073039531707764,"454":0.7050102949142456,"455":-0.41875022649765015,"456":0.5040106773376465,"457":-0.4005720913410187,"458":0.19556982815265656,"459":0.5760249495506287,"460":-0.3337436616420746,"461":0.37959957122802734,"462":-0.7840824127197266,"463":0.21709954738616943,"464":0.13479191064834595,"465":-0.1271829456090927,"466":-0.5701625943183899,"467":-0.6073160171508789,"468":-0.530060887336731,"469":-0.6324997544288635,"470":-0.5004048347473145,"471":0.16789725422859192,"472":-0.009657193906605244,"473":0.6532800197601318,"474":-0.37888050079345703,"475":-0.8860977292060852,"476":-0.4321563243865967,"477":0.580915629863739,"478":0.493677020072937,"479":-0.5060786604881287,"480":0.33393996953964233,"481":-0.586283266544342,"482":-0.5981264710426331,"483":0.15481115877628326,"484":0.47963017225265503,"485":0.6876887679100037,"486":0.1429285705089569,"487":0.735662579536438,"488":-0.5376488566398621,"489":0.5640758275985718,"490":-0.45384904742240906,"491":0.15127885341644287,"492":0.5913193821907043,"493":-0.5894026756286621,"494":0.2507890462875366,"495":0.029926477000117302,"496":-0.3457333743572235,"497":-0.3280373215675354,"498":-0.16396182775497437,"499":-0.3819972276687622,"500":0.07475917041301727,"501":-0.6727170348167419,"502":-0.7723256349563599,"503":-0.2937352657318115,"504":-0.03829438239336014,"505":0.465566486120224,"506":0.19166143238544464,"507":-0.3261060118675232,"508":0.19892975687980652,"509":-0.5524433255195618,"510":1.0671303272247314,"511":0.3451733887195587,"512":-0.19805094599723816,"513":-0.04113951697945595,"514":-0.4429631531238556,"515":-0.4492582082748413,"516":-0.07351957261562347,"517":0.6638387441635132,"518":0.14136047661304474,"519":0.47846442461013794,"520":0.610948383808136,"521":-1.0553544759750366,"522":0.22196689248085022,"523":-0.6182317733764648,"524":-0.31534796953201294,"525":0.7704563736915588,"526":-0.17412805557250977,"527":-0.2463158667087555,"528":0.05089102312922478,"529":0.06738344579935074,"530":0.32639309763908386,"531":-0.13391268253326416,"532":-0.9295760989189148,"533":0.30757009983062744,"534":-0.5225353837013245,"535":-0.3878159821033478,"536":-0.09190242737531662,"537":0.2855433523654938,"538":0.581768810749054,"539":0.019759727641940117,"540":-0.4217616617679596,"541":0.8387295603752136,"542":-0.1575113981962204,"543":-0.07938522100448608,"544":-0.052335284650325775,"545":-0.2631478011608124,"546":-0.018122002482414246,"547":-0.6317859888076782,"548":-0.15390200912952423,"549":0.13840575516223907,"550":0.8704509735107422,"551":-0.09617812931537628,"552":0.1993955820798874,"553":0.263937383890152,"554":-0.5877536535263062,"555":0.17606668174266815,"556":-0.9966685175895691,"557":0.3016592562198639,"558":0.36994826793670654,"559":-0.30463266372680664,"560":-0.24865953624248505,"561":0.4734273850917816,"562":0.467023640871048,"563":0.4595798850059509,"564":-0.5202084183692932,"565":-0.14261837303638458,"566":-0.31433579325675964,"567":-0.08654963970184326,"568":-0.17531715333461761,"569":-0.19896894693374634,"570":0.46775004267692566,"571":-0.5716465711593628,"572":0.11705762147903442,"573":-0.025854259729385376,"574":-0.2385738641023636,"575":0.09557707607746124,"576":0.19895538687705994,"577":0.16448654234409332,"578":-0.10530221462249756,"579":0.41948676109313965,"580":-0.07982287555932999,"581":-0.05043014511466026,"582":0.5145841836929321,"583":0.20870356261730194,"584":0.10836496949195862,"585":0.46973469853401184,"586":0.18380847573280334,"587":0.007964571937918663,"588":0.15888060629367828,"589":-0.11601199954748154,"590":0.5104047060012817,"591":0.14574673771858215,"592":0.043996553868055344,"593":0.5753869414329529,"594":-0.7358371019363403,"595":0.008847281336784363,"596":-0.23164597153663635,"597":0.1492033749818802,"598":-0.9754064679145813,"599":-0.3999488949775696,"600":-0.8663092255592346,"601":-0.9314547181129456,"602":-0.6833143830299377,"603":0.09956056624650955,"604":0.043571870774030685,"605":0.270714670419693,"606":-0.03249155730009079,"607":-1.0935125350952148,"608":-0.06699979305267334,"609":0.9094176292419434,"610":0.206717386841774,"611":-0.4589621126651764,"612":0.02748441882431507,"613":-1.0648951530456543,"614":-0.7569392919540405,"615":-0.004035677760839462,"616":0.9860377907752991,"617":1.1172689199447632,"618":-0.16206757724285126,"619":0.9299032092094421,"620":-0.8967046141624451,"621":0.9256556034088135,"622":-1.082161545753479,"623":-0.08674725145101547,"624":0.9493666887283325,"625":-0.7637459635734558,"626":0.07608600705862045,"627":0.28442803025245667,"628":-0.45927703380584717,"629":-0.4137098789215088,"630":-0.06892482191324234,"631":-0.24702352285385132,"632":0.5433348417282104,"633":-0.3924674689769745,"634":-0.24816326797008514,"635":0.036220453679561615,"636":-0.25157228112220764,"637":0.31388741731643677,"638":-0.5528488755226135,"639":-0.0764908492565155,"640":0.7835066318511963,"641":0.06771956384181976,"642":0.2496710568666458,"643":-0.27895501255989075,"644":-0.042325459420681,"645":-0.4881109297275543,"646":-0.261776328086853,"647":0.14439935982227325,"648":-0.25976109504699707,"649":0.9534853100776672,"650":-0.3608786463737488,"651":0.3724147081375122,"652":-0.06721114367246628,"653":-1.0388073921203613,"654":-0.21918347477912903,"655":-1.0984565019607544,"656":-0.3063846528530121,"657":0.2962891161441803,"658":-0.12897324562072754,"659":-0.8420674800872803}},"inputHidden":{"rows":20,"columns":20,"weights":{"0":0.7427126169204712,"1":0.27100107073783875,"2":0.18988245725631714,"3":-0.545261025428772,"4":0.9653144478797913,"5":-0.26855456829071045,"6":0.20763877034187317,"7":-0.009985077194869518,"8":-0.46652451157569885,"9":0.11812974512577057,"10":-0.24227012693881989,"11":-0.21737158298492432,"12":-0.10445136576890945,"13":-0.695545494556427,"14":-0.7240279912948608,"15":0.19951707124710083,"16":0.3113490343093872,"17":0.34923088550567627,"18":-0.6939061880111694,"19":0.12903153896331787,"20":-0.6516555547714233,"21":-0.5397436022758484,"22":0.61812824010849,"23":-0.5237307548522949,"24":0.8475534915924072,"25":-0.4012982249259949,"26":-0.26689520478248596,"27":-0.6855789422988892,"28":-0.47877126932144165,"29":-0.5200673341751099,"30":-0.07198168337345123,"31":-0.8189361095428467,"32":-0.21052947640419006,"33":-0.693030595779419,"34":-0.5722505450248718,"35":-0.6741135716438293,"36":-0.717280387878418,"37":0.44491392374038696,"38":-0.5758622884750366,"39":-0.25766682624816895,"40":-0.39121168851852417,"41":-0.5657184720039368,"42":0.5630486607551575,"43":-0.4614729881286621,"44":0.8362555503845215,"45":-0.5875911116600037,"46":-0.4491637945175171,"47":-0.5342865586280823,"48":-0.5638771653175354,"49":-0.4723278284072876,"50":0.20267459750175476,"51":-0.795171320438385,"52":-0.080347940325737,"53":-0.5242829322814941,"54":-0.579236626625061,"55":-0.5276296734809875,"56":-0.7310657501220703,"57":0.4761641323566437,"58":-0.5704131126403809,"59":-0.6192628741264343,"60":-0.5181873440742493,"61":-0.1600254476070404,"62":-0.26675617694854736,"63":0.5051715970039368,"64":-0.7653921842575073,"65":0.1258215755224228,"66":1.0184675455093384,"67":0.9549655318260193,"68":1.0265816450119019,"69":-0.17868827283382416,"70":0.30495184659957886,"71":0.46593335270881653,"72":0.32004407048225403,"73":0.052738554775714874,"74":0.3103583753108978,"75":0.4291456937789917,"76":-0.11736876517534256,"77":-0.09908430278301239,"78":0.3359893560409546,"79":0.8838900327682495,"80":0.4106266498565674,"81":-0.1516532301902771,"82":-0.004479861352592707,"83":-0.0898042544722557,"84":0.6239973306655884,"85":0.01138556282967329,"86":-0.35073015093803406,"87":-0.11428146064281464,"88":-0.19818255305290222,"89":-0.1391676515340805,"90":-0.5057599544525146,"91":0.12400282174348831,"92":0.43680477142333984,"93":-0.17574332654476166,"94":-0.03526279330253601,"95":-0.0731937512755394,"96":0.4586707651615143,"97":0.18591327965259552,"98":-0.2755407691001892,"99":-0.4405108690261841,"100":-0.19946788251399994,"101":0.2999906539916992,"102":-0.20946021378040314,"103":0.4726276695728302,"104":-0.7601089477539062,"105":0.3230910301208496,"106":0.5269931554794312,"107":1.100999355316162,"108":0.9670324325561523,"109":-0.22323277592658997,"110":0.1452498584985733,"111":0.20960359275341034,"112":0.24571837484836578,"113":0.23351329565048218,"114":0.4018126130104065,"115":0.3885495960712433,"116":0.21536050736904144,"117":-0.16852182149887085,"118":0.5998788475990295,"119":0.43431249260902405,"120":-0.10108565539121628,"121":-0.09478050470352173,"122":0.2570040822029114,"123":-0.1574198305606842,"124":0.784072756767273,"125":0.2715858221054077,"126":-0.23642607033252716,"127":-0.06579446792602539,"128":-0.2806883752346039,"129":-0.21238985657691956,"130":-0.2366652637720108,"131":-0.4558487832546234,"132":0.10984379053115845,"133":-0.5640941262245178,"134":-0.12799762189388275,"135":-0.419193834066391,"136":-0.19974303245544434,"137":-0.18602117896080017,"138":-0.5030911564826965,"139":-0.3425321578979492,"140":0.04401107877492905,"141":-0.10081754624843597,"142":-0.02993404120206833,"143":-0.0724315494298935,"144":0.3050282895565033,"145":0.07031331211328506,"146":-0.023854676634073257,"147":-0.01075735967606306,"148":0.03364469110965729,"149":-0.2914799749851227,"150":-0.20928633213043213,"151":-0.29325851798057556,"152":0.04981932416558266,"153":-0.4832669198513031,"154":-0.13529571890830994,"155":-0.23118971288204193,"156":-0.08108371496200562,"157":0.008597832173109055,"158":-0.07616782188415527,"159":-0.051292456686496735,"160":0.25183045864105225,"161":-0.2375904619693756,"162":0.17801536619663239,"163":-0.056302182376384735,"164":0.7043353915214539,"165":0.3122524917125702,"166":-0.2062668353319168,"167":0.04013627767562866,"168":-0.06013394519686699,"169":-0.24675163626670837,"170":-0.29540279507637024,"171":-0.4242393672466278,"172":-0.1536012887954712,"173":-0.4423632025718689,"174":-0.1098920926451683,"175":-0.21945472061634064,"176":-0.12371330708265305,"177":-0.1824522763490677,"178":-0.31996890902519226,"179":-0.14285600185394287,"180":-0.5779522061347961,"181":-0.7137678861618042,"182":0.7887446284294128,"183":-0.659507691860199,"184":1.1181124448776245,"185":-0.3538197875022888,"186":-0.7286475896835327,"187":-0.8568398952484131,"188":-0.810433030128479,"189":-0.6684932708740234,"190":-0.23492226004600525,"191":-0.8446791172027588,"192":-0.4419220983982086,"193":-0.7186298370361328,"194":-0.8311138153076172,"195":-0.7586742639541626,"196":-0.6458490490913391,"197":0.5386645197868347,"198":-0.7998769283294678,"199":-0.7464841604232788,"200":0.23339614272117615,"201":0.5416163206100464,"202":-0.47932493686676025,"203":1.2789978981018066,"204":-0.1536012589931488,"205":1.4013339281082153,"206":0.704401969909668,"207":0.6417362689971924,"208":0.6866388916969299,"209":0.4821324050426483,"210":-0.13113629817962646,"211":0.5822484493255615,"212":-0.2719135582447052,"213":0.625694751739502,"214":0.8338839411735535,"215":0.4980452060699463,"216":0.6007186770439148,"217":-1.4012792110443115,"218":0.7615023255348206,"219":0.6077367663383484,"220":-0.5903343558311462,"221":-0.7160388827323914,"222":0.6223633885383606,"223":-0.40884917974472046,"224":1.0053750276565552,"225":-0.42416849732398987,"226":-0.9467387199401855,"227":-0.5380823016166687,"228":-0.9288544654846191,"229":-0.6748805046081543,"230":-0.32119959592819214,"231":-0.6546976566314697,"232":0.05062350258231163,"233":-0.8183202743530273,"234":-0.7034251093864441,"235":-0.7754422426223755,"236":-0.5990740656852722,"237":0.13197708129882812,"238":-0.5886468887329102,"239":-0.9840891361236572,"240":0.43752893805503845,"241":-0.4619291424751282,"242":-0.08287258446216583,"243":-0.6359776854515076,"244":0.7632350325584412,"245":-0.3653719425201416,"246":-0.33973392844200134,"247":-0.7689758539199829,"248":-0.5825907588005066,"249":-0.3552072048187256,"250":-0.2343435138463974,"251":0.046877916902303696,"252":-0.38310495018959045,"253":-0.8261489272117615,"254":-1.229941487312317,"255":-0.7305362224578857,"256":0.22072656452655792,"257":0.36309364438056946,"258":-0.9968666434288025,"259":-0.5284848213195801,"260":0.31855735182762146,"261":0.41214537620544434,"262":-1.1577298641204834,"263":0.25085246562957764,"264":-0.46686217188835144,"265":0.3374369740486145,"266":0.9068801999092102,"267":1.1164029836654663,"268":1.005585789680481,"269":0.2282191514968872,"270":-0.5357346534729004,"271":0.5460749864578247,"272":-0.04150628298521042,"273":0.5869669318199158,"274":0.5016266703605652,"275":0.5833719968795776,"276":0.08612184226512909,"277":-0.28823596239089966,"278":0.6002528667449951,"279":0.4461691379547119,"280":0.06071716919541359,"281":0.08298272639513016,"282":-0.1294412612915039,"283":0.3300156593322754,"284":-0.1856130212545395,"285":0.23278558254241943,"286":0.46582871675491333,"287":0.9800958633422852,"288":0.9230643510818481,"289":-0.136250302195549,"290":-0.373614102602005,"291":-0.04816848784685135,"292":0.03614332526922226,"293":0.2456960380077362,"294":0.3411732316017151,"295":0.2519207298755646,"296":0.10116870701313019,"297":-0.13652876019477844,"298":0.39046379923820496,"299":0.19081749022006989,"300":-0.4393795132637024,"301":-0.7048774361610413,"302":0.7944597005844116,"303":-0.5509598255157471,"304":0.7443656921386719,"305":-0.20929893851280212,"306":-0.3146018087863922,"307":-0.7187597751617432,"308":-0.36903074383735657,"309":-0.5637094378471375,"310":-0.330398827791214,"311":-0.9080688953399658,"312":0.02214045263826847,"313":-0.5594571828842163,"314":-0.6462390422821045,"315":-0.6866366863250732,"316":-0.756262481212616,"317":0.4517120122909546,"318":-0.8010333776473999,"319":-0.2509147524833679,"320":-0.2657097578048706,"321":-0.7989405989646912,"322":0.698039710521698,"323":-0.41335296630859375,"324":0.9836162328720093,"325":-0.4116002321243286,"326":-0.5967811942100525,"327":-0.7070852518081665,"328":-0.7970751523971558,"329":-0.8520709872245789,"330":0.04596719890832901,"331":-0.8664746284484863,"332":-0.1819578856229782,"333":-0.6971035003662109,"334":-0.7616357803344727,"335":-0.7377495169639587,"336":-0.8759286999702454,"337":0.3238934278488159,"338":-0.6860285401344299,"339":-0.7603708505630493,"340":-0.5944569110870361,"341":0.5870253443717957,"342":-0.5305060744285583,"343":0.9160904884338379,"344":-0.5328253507614136,"345":0.18974009156227112,"346":0.7161521315574646,"347":1.022400140762329,"348":0.6540312170982361,"349":-0.05731964111328125,"350":-0.06284070760011673,"351":0.696382462978363,"352":1.0106561183929443,"353":0.47787630558013916,"354":0.647189199924469,"355":0.9629839062690735,"356":0.558002233505249,"357":-0.46343183517456055,"358":0.7932906150817871,"359":0.7815760374069214,"360":-0.15607713162899017,"361":-0.6248933672904968,"362":0.27989059686660767,"363":0.06834248453378677,"364":0.41596177220344543,"365":0.24570955336093903,"366":-0.19537286460399628,"367":0.0415852926671505,"368":0.26390618085861206,"369":-0.8612468242645264,"370":-0.17836597561836243,"371":-0.7825855612754822,"372":-0.14484556019306183,"373":-0.2458702027797699,"374":0.03322326019406319,"375":-0.5275130271911621,"376":-0.6785282492637634,"377":-0.12442038208246231,"378":0.19167448580265045,"379":-0.06136932224035263,"380":0.2885182201862335,"381":-0.08031795918941498,"382":0.18182019889354706,"383":-0.24861031770706177,"384":0.725148618221283,"385":-0.011554034426808357,"386":-0.21372635662555695,"387":-0.0986689031124115,"388":-0.2772103250026703,"389":-0.23097015917301178,"390":-0.11741538345813751,"391":-0.36598703265190125,"392":-0.05080048367381096,"393":-0.5361059308052063,"394":-0.41051289439201355,"395":-0.37229299545288086,"396":-0.19940674304962158,"397":0.014165316708385944,"398":-0.5800460577011108,"399":-0.3271016776561737}},"inputBias":{"rows":20,"columns":1,"weights":{"0":0.08524411171674728,"1":-0.010181254707276821,"2":-0.43857914209365845,"3":-0.09747223556041718,"4":-0.38423672318458557,"5":-0.3465052843093872,"6":-0.5645385384559631,"7":0.16259142756462097,"8":-0.03888621926307678,"9":0.1836700439453125,"10":-1.1733983755111694,"11":-0.4756990671157837,"12":0.21537554264068604,"13":-0.31499364972114563,"14":-0.27478939294815063,"15":0.11228901147842407,"16":-0.4313569664955139,"17":-0.5402480959892273,"18":0.32145190238952637,"19":-0.5674848556518555}},"forgetMatrix":{"rows":20,"columns":33,"weights":{"0":0.443258672952652,"1":0.04361145198345184,"2":0.07855232805013657,"3":0.039064161479473114,"4":0.4211045503616333,"5":0.6707638502120972,"6":0.5691825747489929,"7":0.5839809775352478,"8":0.23254384100437164,"9":0.03332891687750816,"10":-0.08562090247869492,"11":-0.6106709837913513,"12":0.5037010908126831,"13":0.4577254056930542,"14":0.7145498394966125,"15":-0.6375615000724792,"16":-0.945677638053894,"17":0.5719088315963745,"18":-0.15572555363178253,"19":0.6859626770019531,"20":0.90871661901474,"21":0.13381561636924744,"22":-0.5051498413085938,"23":-0.6639499068260193,"24":-0.053829044103622437,"25":-0.6849998235702515,"26":0.3551400601863861,"27":-0.547815203666687,"28":0.43537017703056335,"29":0.026337288320064545,"30":-0.7160087823867798,"31":0.3282169997692108,"32":-0.0016464823856949806,"33":-0.5082935094833374,"34":0.8503817319869995,"35":0.9811444878578186,"36":-0.9024652242660522,"37":-0.39550456404685974,"38":-0.5367497205734253,"39":-0.4287964999675751,"40":-0.3814246952533722,"41":-0.25147658586502075,"42":1.1304683685302734,"43":-0.17142724990844727,"44":0.4270860552787781,"45":-0.52718585729599,"46":0.0721939206123352,"47":-0.43681421875953674,"48":0.253507524728775,"49":0.5870039463043213,"50":-0.4597965180873871,"51":0.616277277469635,"52":-0.4784294068813324,"53":-0.38903477787971497,"54":1.0306775569915771,"55":-0.29822152853012085,"56":0.4449569880962372,"57":0.683608889579773,"58":0.3121047019958496,"59":-0.0439925380051136,"60":0.2580212354660034,"61":0.3282168507575989,"62":0.7784683108329773,"63":0.07960664480924606,"64":-0.6022395491600037,"65":0.6875645518302917,"66":-0.601286768913269,"67":0.78239905834198,"68":0.9802806973457336,"69":-0.6816788911819458,"70":-0.4558897912502289,"71":-0.40713125467300415,"72":-0.2924751341342926,"73":-0.2389887273311615,"74":-0.20202921330928802,"75":1.141628623008728,"76":-0.18770842254161835,"77":0.3607713580131531,"78":-0.604669451713562,"79":-0.3084304630756378,"80":-0.476500540971756,"81":0.3373054563999176,"82":0.5869153738021851,"83":-0.4718671143054962,"84":0.6955994367599487,"85":-0.5192740559577942,"86":-0.31820863485336304,"87":0.8719293475151062,"88":-0.3327888548374176,"89":0.527612566947937,"90":0.6390326619148254,"91":0.3609020411968231,"92":0.15414589643478394,"93":0.5132072567939758,"94":0.4084561765193939,"95":0.735567569732666,"96":0.13701151311397552,"97":-0.5726673007011414,"98":0.8273211717605591,"99":0.36904555559158325,"100":0.3740520775318146,"101":0.3894938826560974,"102":0.1773504763841629,"103":0.4667873978614807,"104":0.5169033408164978,"105":0.257102906703949,"106":0.41491514444351196,"107":0.29974231123924255,"108":0.3906651735305786,"109":0.05434955283999443,"110":-0.39607760310173035,"111":0.06902111321687698,"112":0.6843931674957275,"113":0.3023814857006073,"114":-0.3972313106060028,"115":-0.5239989757537842,"116":0.19379951059818268,"117":-0.016194496303796768,"118":0.4443203806877136,"119":0.4099268317222595,"120":-0.1126134991645813,"121":-0.6655714511871338,"122":-0.3661283254623413,"123":-0.2054251730442047,"124":-0.8371066451072693,"125":0.465768039226532,"126":-0.5745358467102051,"127":0.8032522797584534,"128":0.057334866374731064,"129":-0.7183791995048523,"130":-0.0609498955309391,"131":0.26078978180885315,"132":0.2561212182044983,"133":-0.5334903597831726,"134":-0.3255961239337921,"135":1.1179007291793823,"136":-0.11883717030286789,"137":0.19938762485980988,"138":0.045718781650066376,"139":-0.17478658258914948,"140":0.3722132742404938,"141":-0.4710184335708618,"142":0.04299279674887657,"143":0.04509343206882477,"144":0.05955248326063156,"145":-0.46405330300331116,"146":0.41904687881469727,"147":-0.5267689824104309,"148":-0.08789392560720444,"149":-0.06342531740665436,"150":-0.6202411651611328,"151":0.22997571527957916,"152":0.6529642939567566,"153":-0.9077553749084473,"154":0.024807244539260864,"155":-0.24977412819862366,"156":-1.1689937114715576,"157":-0.3549092411994934,"158":0.11525649577379227,"159":-0.07031378149986267,"160":-0.16797581315040588,"161":-0.7611154913902283,"162":-0.38194653391838074,"163":0.019661271944642067,"164":-0.35974448919296265,"165":0.03958892077207565,"166":-0.12764577567577362,"167":-0.19876866042613983,"168":0.44572219252586365,"169":0.08916062861680984,"170":0.7004021406173706,"171":0.10200833529233932,"172":0.19192829728126526,"173":0.2563594579696655,"174":-0.26009076833724976,"175":0.43525150418281555,"176":-0.6119850277900696,"177":0.27359217405319214,"178":0.28501537442207336,"179":0.3974510431289673,"180":-0.13860109448432922,"181":-0.5226044058799744,"182":0.13007478415966034,"183":-0.5050840973854065,"184":0.08158110082149506,"185":0.5457809567451477,"186":-0.2613992989063263,"187":-0.4312644302845001,"188":-0.07438857853412628,"189":-0.4359200894832611,"190":-0.5531588196754456,"191":0.1859448254108429,"192":-0.1703469306230545,"193":0.47688230872154236,"194":-0.21976886689662933,"195":-0.46022099256515503,"196":-0.5961851477622986,"197":-0.25250887870788574,"198":-0.5193570256233215,"199":0.8721454739570618,"200":1.2311793565750122,"201":-0.6346397399902344,"202":-0.5126118659973145,"203":-0.4304901659488678,"204":-0.2806010842323303,"205":-0.4138491451740265,"206":-0.2597675919532776,"207":1.0394107103347778,"208":-0.10533464699983597,"209":0.4470135271549225,"210":-0.6777123212814331,"211":-0.38559064269065857,"212":-0.47853508591651917,"213":0.4199928343296051,"214":0.5308895111083984,"215":-0.5733475685119629,"216":0.6726356148719788,"217":-0.5319794416427612,"218":-0.40140628814697266,"219":0.8490233421325684,"220":0.0007047612452879548,"221":0.4157145321369171,"222":0.5361483693122864,"223":0.2981651723384857,"224":-0.20308569073677063,"225":0.5100737810134888,"226":0.5425902605056763,"227":0.8157435655593872,"228":0.21559014916419983,"229":-0.5442041754722595,"230":0.662212610244751,"231":-0.37825295329093933,"232":0.7234348654747009,"233":0.6875131130218506,"234":-0.7394173741340637,"235":0.1767863631248474,"236":-0.638669490814209,"237":-0.13397397100925446,"238":0.2018558233976364,"239":-0.20392051339149475,"240":0.6766127347946167,"241":-0.15092739462852478,"242":0.5663502812385559,"243":-0.5203698873519897,"244":0.1632319688796997,"245":-0.4357854723930359,"246":-0.23983733355998993,"247":0.5084831118583679,"248":-0.5215116739273071,"249":0.6368682980537415,"250":-0.40933772921562195,"251":-0.519909679889679,"252":0.7354916334152222,"253":-0.2983488142490387,"254":0.2992299199104309,"255":0.6054320335388184,"256":0.26554688811302185,"257":0.200604647397995,"258":0.08658032864332199,"259":0.28757426142692566,"260":0.6734834909439087,"261":0.2972375154495239,"262":-0.39202815294265747,"263":0.6746708750724792,"264":-0.17753325402736664,"265":0.8251197934150696,"266":0.9024760127067566,"267":-0.8661388754844666,"268":0.07833530008792877,"269":-0.2762512266635895,"270":-0.26540374755859375,"271":-0.1640615612268448,"272":-0.08668851107358932,"273":0.8642218708992004,"274":-0.1655764877796173,"275":0.3073596656322479,"276":-0.407481849193573,"277":0.2222592532634735,"278":-0.3579300045967102,"279":0.07902009040117264,"280":0.41944417357444763,"281":-0.4118095934391022,"282":0.5377923846244812,"283":-0.2840340733528137,"284":-0.09862847626209259,"285":0.8857703804969788,"286":-0.2494269162416458,"287":0.15795764327049255,"288":0.8451571464538574,"289":0.1641141027212143,"290":0.24302324652671814,"291":0.22900278866291046,"292":0.4370186924934387,"293":0.7397932410240173,"294":0.10053737461566925,"295":-0.4049762785434723,"296":0.803417444229126,"297":-0.7162989377975464,"298":0.7192302942276001,"299":0.7499479055404663,"300":-0.8055412769317627,"301":0.05844097211956978,"302":-0.6433538794517517,"303":-0.36722269654273987,"304":0.1404094099998474,"305":-0.42546460032463074,"306":0.8551425933837891,"307":0.07780282199382782,"308":0.560571551322937,"309":-0.6582616567611694,"310":0.28668880462646484,"311":-0.5431216955184937,"312":-0.16224762797355652,"313":0.5781744718551636,"314":-0.568919837474823,"315":0.574672281742096,"316":-0.6041762232780457,"317":-0.5770571231842041,"318":0.8931102752685547,"319":0.10016249120235443,"320":0.35239696502685547,"321":0.9761853814125061,"322":0.3811268210411072,"323":0.137334406375885,"324":-0.16859421133995056,"325":0.4462589621543884,"326":0.7699725031852722,"327":-0.516112744808197,"328":-0.5465409159660339,"329":0.6552978754043579,"330":-0.4444352090358734,"331":-0.04277374595403671,"332":-0.44236233830451965,"333":0.5585966110229492,"334":-0.6169244050979614,"335":-0.12473520636558533,"336":-0.12960608303546906,"337":-0.34028318524360657,"338":-0.05899408459663391,"339":-0.7443674206733704,"340":0.7049228549003601,"341":0.10685791820287704,"342":-0.04932558536529541,"343":-0.30600810050964355,"344":-0.11737217009067535,"345":0.5295839309692383,"346":0.11353446543216705,"347":-0.19012300670146942,"348":-0.06710105389356613,"349":-0.4883934557437897,"350":-0.1552058756351471,"351":-0.2361966073513031,"352":-0.12210189551115036,"353":0.5065405368804932,"354":-0.5461642146110535,"355":0.5153378844261169,"356":-0.16103574633598328,"357":0.43093374371528625,"358":0.21690863370895386,"359":-0.13490094244480133,"360":0.31460803747177124,"361":-0.2949371039867401,"362":-0.1917858123779297,"363":-0.35068830847740173,"364":0.7485499978065491,"365":0.8978433609008789,"366":-0.6615241169929504,"367":-0.4853228032588959,"368":-0.12464822828769684,"369":-0.43021103739738464,"370":-0.24015986919403076,"371":-0.23198913037776947,"372":0.5772747993469238,"373":-0.27185532450675964,"374":0.14068925380706787,"375":-0.5608125925064087,"376":0.4811803996562958,"377":-0.3503745496273041,"378":0.3785528838634491,"379":0.3006190061569214,"380":-0.3540235757827759,"381":0.6172890067100525,"382":-0.46596238017082214,"383":-0.21545276045799255,"384":0.9241732358932495,"385":0.08659383654594421,"386":0.2611370384693146,"387":0.6852335333824158,"388":0.1309862583875656,"389":-0.3230482339859009,"390":0.03700186684727669,"391":-0.07894007116556168,"392":0.8740348815917969,"393":-0.01215752400457859,"394":-0.4523756802082062,"395":0.5433818101882935,"396":-0.2028244137763977,"397":1.0236355066299438,"398":0.44700416922569275,"399":-0.5051363110542297,"400":0.15336284041404724,"401":-0.6648456454277039,"402":0.13339191675186157,"403":0.20578542351722717,"404":-0.40228769183158875,"405":0.5481189489364624,"406":-0.7647678256034851,"407":-0.05694413185119629,"408":-0.046960100531578064,"409":0.05713522061705589,"410":0.13819284737110138,"411":0.23033055663108826,"412":0.002752149710431695,"413":-0.21378998458385468,"414":0.8564950227737427,"415":0.1110684722661972,"416":0.3475137948989868,"417":0.4511926472187042,"418":-0.24980950355529785,"419":0.4987120032310486,"420":0.42462781071662903,"421":-0.31757310032844543,"422":0.18095633387565613,"423":0.4269161820411682,"424":0.39574068784713745,"425":0.757358193397522,"426":-0.29344668984413147,"427":0.27865174412727356,"428":0.9736423492431641,"429":-0.3740076422691345,"430":0.028770027682185173,"431":0.36672770977020264,"432":0.35131117701530457,"433":-0.4412606954574585,"434":0.33983471989631653,"435":-0.513006865978241,"436":-0.060944944620132446,"437":-0.5423979759216309,"438":0.22872522473335266,"439":-0.028449948877096176,"440":-0.15522262454032898,"441":-0.09081261605024338,"442":0.2795460820198059,"443":-0.12473008036613464,"444":0.6881580352783203,"445":-0.1541767567396164,"446":-0.2600625157356262,"447":-0.4855673909187317,"448":-0.2638649046421051,"449":0.42119720578193665,"450":0.11992553621530533,"451":0.125094473361969,"452":0.3824784755706787,"453":0.17989136278629303,"454":-0.5059341788291931,"455":-0.611968994140625,"456":0.44050905108451843,"457":-0.24032066762447357,"458":-0.3270796239376068,"459":-0.2952907979488373,"460":-0.41424810886383057,"461":-0.10506945848464966,"462":0.016136327758431435,"463":0.07532983273267746,"464":-0.025328384712338448,"465":0.4549975097179413,"466":0.01022579986602068,"467":0.7886874675750732,"468":0.004014813341200352,"469":0.17641620337963104,"470":0.08891298621892929,"471":-0.39261308312416077,"472":0.38083386421203613,"473":-0.8595492839813232,"474":0.1425248682498932,"475":0.23660387098789215,"476":0.22442525625228882,"477":-0.15807129442691803,"478":-0.43291643261909485,"479":-0.09417854994535446,"480":-0.5234939455986023,"481":0.04730882868170738,"482":0.3773025572299957,"483":-0.2638629376888275,"484":-0.3268791437149048,"485":-0.06864850223064423,"486":-0.49754372239112854,"487":-0.4128524959087372,"488":0.26875126361846924,"489":-0.013935912400484085,"490":0.41738244891166687,"491":-0.23651373386383057,"492":-0.48641544580459595,"493":-0.7034286856651306,"494":-0.2033921331167221,"495":-0.4531857967376709,"496":0.7252790331840515,"497":0.8290098905563354,"498":-0.8624491095542908,"499":0.14267225563526154,"500":-0.45554810762405396,"501":-0.19465352594852448,"502":-0.0069081443361938,"503":-0.1247030720114708,"504":0.8306114673614502,"505":-0.20997387170791626,"506":0.5509259700775146,"507":-0.49198469519615173,"508":0.19008134305477142,"509":-0.5126821994781494,"510":-0.07063471525907516,"511":0.5388445854187012,"512":-0.4989345669746399,"513":0.6624548435211182,"514":-0.47976717352867126,"515":-0.3973853588104248,"516":0.9017676115036011,"517":-0.14304152131080627,"518":0.39325621724128723,"519":0.8405677676200867,"520":0.25540080666542053,"521":0.4493841230869293,"522":0.2189752608537674,"523":0.2266661524772644,"524":0.7441403865814209,"525":0.058568187057971954,"526":-0.4657450020313263,"527":0.7133257389068604,"528":-0.13557299971580505,"529":0.7690092325210571,"530":0.8994067311286926,"531":-0.6492084264755249,"532":-0.2346237599849701,"533":-0.38051289319992065,"534":-0.23431487381458282,"535":-0.2806074023246765,"536":-0.19278541207313538,"537":0.8352601528167725,"538":-0.479852557182312,"539":0.2639748156070709,"540":-0.5134521722793579,"541":0.10279235243797302,"542":-0.32168540358543396,"543":0.089402936398983,"544":0.533012330532074,"545":-0.3633240759372711,"546":0.8316259384155273,"547":-0.471917062997818,"548":-0.35677748918533325,"549":0.7689287066459656,"550":-0.2618863880634308,"551":0.3250541090965271,"552":0.6729012131690979,"553":0.150291308760643,"554":0.04145973175764084,"555":0.08803968876600266,"556":0.3484586477279663,"557":0.7377980947494507,"558":0.13633809983730316,"559":-0.434865802526474,"560":0.9062981009483337,"561":0.3202759325504303,"562":0.16868099570274353,"563":0.05756683275103569,"564":0.3447912633419037,"565":0.49929720163345337,"566":0.7477088570594788,"567":0.4276331961154938,"568":0.5736838579177856,"569":0.48038697242736816,"570":0.15200874209403992,"571":0.23201417922973633,"572":-0.5540419220924377,"573":0.36523887515068054,"574":0.7777036428451538,"575":0.4335653781890869,"576":-0.41789454221725464,"577":-0.7022809982299805,"578":0.4669329524040222,"579":-0.21141088008880615,"580":0.3946847915649414,"581":0.5062946081161499,"582":-0.23448121547698975,"583":-0.6046245098114014,"584":-0.6563413143157959,"585":-0.20915740728378296,"586":-0.6419501900672913,"587":0.418160617351532,"588":-0.5424215197563171,"589":0.5814369916915894,"590":0.02333236299455166,"591":-0.6419134736061096,"592":-0.014751749113202095,"593":-0.004184790421277285,"594":0.22479161620140076,"595":0.5847934484481812,"596":0.693282961845398,"597":-0.3941137492656708,"598":0.3239222466945648,"599":-0.6809847950935364,"600":0.3320089876651764,"601":0.6722875833511353,"602":0.20392020046710968,"603":0.6650465726852417,"604":-0.17840877175331116,"605":0.4644385278224945,"606":-0.4376097619533539,"607":0.5050477981567383,"608":-0.389383465051651,"609":-0.3762529492378235,"610":0.5367471575737,"611":-0.4061634838581085,"612":0.32314789295196533,"613":0.5317889451980591,"614":-0.10109109431505203,"615":0.6713289618492126,"616":-0.4628085792064667,"617":-0.43359917402267456,"618":0.549073338508606,"619":-0.3269971013069153,"620":0.37224432826042175,"621":-0.3531357944011688,"622":0.5021594166755676,"623":0.5748761892318726,"624":-0.6887908577919006,"625":0.150608092546463,"626":0.6582555770874023,"627":-0.5561956763267517,"628":0.8078723549842834,"629":1.2366257905960083,"630":-0.6144563555717468,"631":-0.45194724202156067,"632":-0.45587244629859924,"633":-0.29824432730674744,"634":-0.4585801661014557,"635":-0.2406071424484253,"636":0.9144718647003174,"637":-0.15409648418426514,"638":0.4529097378253937,"639":-0.6579220294952393,"640":-0.619185745716095,"641":-0.4477755129337311,"642":0.2872115671634674,"643":0.6241471171379089,"644":-0.5872957706451416,"645":0.5787889957427979,"646":-0.5309546589851379,"647":-0.45594173669815063,"648":0.99116450548172,"649":-0.2802238464355469,"650":0.5328645706176758,"651":0.38853511214256287,"652":0.35973966121673584,"653":0.015054662711918354,"654":0.5205845832824707,"655":0.4695422947406769,"656":0.8007802367210388,"657":0.15006953477859497,"658":-0.5709097981452942,"659":0.6613180041313171}},"forgetHidden":{"rows":20,"columns":20,"weights":{"0":-0.0535639226436615,"1":0.8897508382797241,"2":-0.8487895131111145,"3":0.4749840199947357,"4":-0.2879730463027954,"5":0.4990070164203644,"6":0.8612164258956909,"7":0.7688923478126526,"8":0.5100669860839844,"9":0.7682918906211853,"10":0.06782221794128418,"11":0.811957836151123,"12":0.12321081012487411,"13":0.5421597957611084,"14":0.5762767195701599,"15":0.7280590534210205,"16":0.9720339179039001,"17":-0.22181260585784912,"18":0.6014615297317505,"19":0.9447532296180725,"20":-0.36402228474617004,"21":-0.015791920945048332,"22":0.09670299291610718,"23":0.061311669647693634,"24":-0.1330210119485855,"25":-0.029217151924967766,"26":-0.056880924850702286,"27":-0.1582861840724945,"28":-0.08653440326452255,"29":-0.18282072246074677,"30":0.18430177867412567,"31":-0.09444450587034225,"32":0.22107107937335968,"33":-0.046600788831710815,"34":-0.004094104282557964,"35":-0.05310261622071266,"36":-0.18979448080062866,"37":-0.1267663538455963,"38":-0.008044883608818054,"39":-0.13213597238063812,"40":-0.4885711073875427,"41":-0.2578396797180176,"42":0.2441871464252472,"43":0.06992346793413162,"44":-0.05292612314224243,"45":0.054180461913347244,"46":-0.11439283192157745,"47":-0.13785795867443085,"48":-0.2045760452747345,"49":-0.28182581067085266,"50":-0.10218042135238647,"51":-0.3473389148712158,"52":0.1601206213235855,"53":-0.024909732863307,"54":-0.11880023777484894,"55":-0.10221941024065018,"56":-0.23174253106117249,"57":-0.08543071150779724,"58":-0.07867255061864853,"59":-0.2424926906824112,"60":0.7104443311691284,"61":-0.37995854020118713,"62":0.2594246566295624,"63":-0.20562945306301117,"64":1.0417462587356567,"65":0.36591506004333496,"66":-0.6079765558242798,"67":-0.9044576287269592,"68":-0.8543775081634521,"69":0.012427992187440395,"70":-0.21117472648620605,"71":-0.12476658821105957,"72":0.14586415886878967,"73":0.07580870389938354,"74":0.16597098112106323,"75":-0.5940512418746948,"76":-0.18953634798526764,"77":0.19638696312904358,"78":-0.33308762311935425,"79":-0.7417996525764465,"80":-0.07886970043182373,"81":-0.22628143429756165,"82":0.5376509428024292,"83":-0.0024387575685977936,"84":0.604842483997345,"85":-0.016727585345506668,"86":0.012748926877975464,"87":-0.4322739839553833,"88":-0.6625320911407471,"89":-0.28103286027908325,"90":-0.4303499460220337,"91":-0.6157398223876953,"92":0.6788009405136108,"93":-0.7494972944259644,"94":-0.6140263676643372,"95":-0.33255234360694885,"96":-0.09829601645469666,"97":0.0763716772198677,"98":-0.3771824836730957,"99":-0.18420067429542542,"100":0.1149824783205986,"101":-0.5362818241119385,"102":0.5584453344345093,"103":0.26663169264793396,"104":0.9718174338340759,"105":0.21755439043045044,"106":-0.2917526364326477,"107":-0.616675078868866,"108":-0.7765937447547913,"109":-0.10145667940378189,"110":-0.7138492465019226,"111":-0.1940697580575943,"112":0.09608497470617294,"113":0.2520434558391571,"114":0.42250075936317444,"115":-0.5456840395927429,"116":-0.47767534852027893,"117":-0.5380422472953796,"118":-0.30736637115478516,"119":-0.5197564363479614,"120":-0.3459821939468384,"121":-0.19263163208961487,"122":0.2154351770877838,"123":0.12208160758018494,"124":-0.1308939903974533,"125":0.052309006452560425,"126":-0.21005786955356598,"127":-0.048231352120637894,"128":-0.16429975628852844,"129":-0.1552424132823944,"130":0.29841500520706177,"131":-0.3423219323158264,"132":0.25654205679893494,"133":0.012196353636682034,"134":0.06692514568567276,"135":-0.15201139450073242,"136":-0.22908392548561096,"137":-0.05832827836275101,"138":-0.05196148529648781,"139":-0.14710840582847595,"140":-0.16043324768543243,"141":-0.27250900864601135,"142":0.16549807786941528,"143":-0.13443496823310852,"144":-0.024303609505295753,"145":-0.20536859333515167,"146":-0.2202223539352417,"147":-0.21775448322296143,"148":-0.23591791093349457,"149":-0.16254599392414093,"150":0.021636836230754852,"151":-0.33838963508605957,"152":0.017736641690135002,"153":-0.2069275677204132,"154":-0.18960094451904297,"155":-0.21749641001224518,"156":-0.34983891248703003,"157":0.21111087501049042,"158":-0.14545796811580658,"159":-0.15405412018299103,"160":-0.6707111597061157,"161":-0.17337876558303833,"162":0.24594692885875702,"163":-0.08644997328519821,"164":-0.052069514989852905,"165":-0.10571181774139404,"166":-0.18014895915985107,"167":-0.2701873481273651,"168":-0.19675344228744507,"169":-0.1792367398738861,"170":0.3083791136741638,"171":-0.473859965801239,"172":0.3282032310962677,"173":-0.0082152234390378,"174":-0.11740601062774658,"175":-0.2301579713821411,"176":-0.468475341796875,"177":0.030675770714879036,"178":-0.18311719596385956,"179":-0.14365004003047943,"180":0.058480944484472275,"181":0.07945381850004196,"182":-0.03778867423534393,"183":0.004486582707613707,"184":-0.26088517904281616,"185":-0.10153587907552719,"186":0.010106861591339111,"187":0.10912026464939117,"188":0.09112879633903503,"189":-0.06498035788536072,"190":0.2388056069612503,"191":-0.06265272200107574,"192":0.17369966208934784,"193":0.15153801441192627,"194":0.08346349745988846,"195":0.07632779330015182,"196":-0.12607631087303162,"197":-0.0010139929363504052,"198":0.027990946546196938,"199":0.08681177347898483,"200":-0.7256277799606323,"201":-0.125482976436615,"202":0.3216244578361511,"203":0.6751748919487,"204":-0.036665670573711395,"205":0.5917755961418152,"206":0.0395234115421772,"207":0.6295435428619385,"208":0.15224723517894745,"209":-0.2874133884906769,"210":-0.2795473337173462,"211":-0.297114759683609,"212":0.09386179596185684,"213":0.5409368276596069,"214":0.5666505098342896,"215":-0.03699318692088127,"216":-0.2776632010936737,"217":-0.3032286763191223,"218":0.5651675462722778,"219":0.21619893610477448,"220":-0.47994571924209595,"221":0.011859674006700516,"222":0.07805890589952469,"223":0.09511109441518784,"224":0.016001282259821892,"225":0.22560428082942963,"226":-0.07137144356966019,"227":-0.14500343799591064,"228":-0.23708565533161163,"229":-0.11984666436910629,"230":-0.12316730618476868,"231":-0.12666109204292297,"232":0.4876548647880554,"233":0.018235957249999046,"234":-0.036980122327804565,"235":0.045915279537439346,"236":0.13415022194385529,"237":-0.1148717999458313,"238":-0.11526282131671906,"239":0.04214204475283623,"240":-0.8066256642341614,"241":0.3164516091346741,"242":-0.22852268815040588,"243":0.262034147977829,"244":-0.6988958120346069,"245":0.22990664839744568,"246":0.3570164740085602,"247":0.286180317401886,"248":0.21355584263801575,"249":0.14440029859542847,"250":0.8448485136032104,"251":0.34054476022720337,"252":0.3988143503665924,"253":0.28682634234428406,"254":0.2587054669857025,"255":0.3627776801586151,"256":0.2199408859014511,"257":-0.22332663834095,"258":0.362041711807251,"259":0.35754358768463135,"260":-0.4524359107017517,"261":-0.4419980049133301,"262":0.644766092300415,"263":-0.1763768047094345,"264":0.8870149850845337,"265":0.28923261165618896,"266":-0.31072089076042175,"267":-0.7126742005348206,"268":-0.607669472694397,"269":-0.4015129506587982,"270":0.38466763496398926,"271":-0.5444204211235046,"272":-0.2666293680667877,"273":-0.33832910656929016,"274":-0.2979145646095276,"275":-0.6668834090232849,"276":-0.4813174903392792,"277":0.10961589217185974,"278":-0.6366145014762878,"279":-0.3317393660545349,"280":-0.4302351474761963,"281":-0.3418419063091278,"282":0.42816829681396484,"283":-0.1528165340423584,"284":0.5752980709075928,"285":0.014902635477483273,"286":-0.3253953158855438,"287":-0.6082836985588074,"288":-0.4904574453830719,"289":-0.18256841599941254,"290":0.2825128138065338,"291":-0.4211653172969818,"292":0.03723771125078201,"293":-0.3130597174167633,"294":-0.21485115587711334,"295":-0.5256389379501343,"296":-0.41295504570007324,"297":-0.08288842439651489,"298":-0.48147422075271606,"299":-0.32265692949295044,"300":-0.22997400164604187,"301":-0.12720946967601776,"302":0.06467422842979431,"303":-0.03896163031458855,"304":-0.10993215441703796,"305":-0.12971322238445282,"306":-0.08323384076356888,"307":0.02136613428592682,"308":-0.08658467233181,"309":-0.036117713898420334,"310":0.15622076392173767,"311":-0.26343804597854614,"312":0.16653189063072205,"313":-0.11375703662633896,"314":0.04868122562766075,"315":-0.018943969160318375,"316":-0.2949552536010742,"317":0.025020282715559006,"318":-0.004450560547411442,"319":-0.028451206162571907,"320":-0.4352394640445709,"321":-0.08871050179004669,"322":0.2990763485431671,"323":0.1415645182132721,"324":-0.04304305464029312,"325":0.07254943251609802,"326":-0.09294212609529495,"327":-0.20258304476737976,"328":-0.24933180212974548,"329":-0.20477035641670227,"330":-0.11557521671056747,"331":-0.22076141834259033,"332":0.13650129735469818,"333":-0.01902286894619465,"334":-0.12723354995250702,"335":-0.18660689890384674,"336":-0.36740511655807495,"337":-0.07624148577451706,"338":-0.03647513687610626,"339":-0.20828692615032196,"340":0.9643844366073608,"341":-0.3328934907913208,"342":-0.05479913577437401,"343":-0.2346256673336029,"344":1.0089528560638428,"345":0.589918315410614,"346":-0.3896167576313019,"347":-0.7048986554145813,"348":-0.9585602283477783,"349":-0.019190117716789246,"350":0.32881322503089905,"351":0.140425905585289,"352":0.5605955123901367,"353":0.19072605669498444,"354":0.410566508769989,"355":-0.3787253201007843,"356":0.2028481364250183,"357":-0.1383897066116333,"358":-0.053580719977617264,"359":-0.670006275177002,"360":0.01907637156546116,"361":-0.14437691867351532,"362":0.16728979349136353,"363":-0.06908796727657318,"364":-0.20447394251823425,"365":-0.1232866644859314,"366":-0.061061955988407135,"367":-0.10218661278486252,"368":-0.06713568419218063,"369":-0.007532739546149969,"370":0.1373056173324585,"371":-0.39399999380111694,"372":0.34493130445480347,"373":-0.2667056620121002,"374":-0.18426598608493805,"375":-0.08330340683460236,"376":-0.35626736283302307,"377":0.0031277139205485582,"378":-0.1784074604511261,"379":-0.06010615825653076,"380":-0.7555949687957764,"381":-0.16167059540748596,"382":0.24480967223644257,"383":0.18564534187316895,"384":-0.15797469019889832,"385":0.19068650901317596,"386":-0.14469093084335327,"387":-0.03850449621677399,"388":-0.12733995914459229,"389":-0.19587455689907074,"390":0.9394476413726807,"391":-0.31750190258026123,"392":0.22173334658145905,"393":0.07636123895645142,"394":0.032151319086551666,"395":-0.12132243067026138,"396":-0.2898648977279663,"397":-0.12648840248584747,"398":-0.0009099901071749628,"399":-0.12032849341630936}},"forgetBias":{"rows":20,"columns":1,"weights":{"0":0,"1":0,"2":0,"3":0,"4":0,"5":0,"6":0,"7":0,"8":0,"9":0,"10":0,"11":0,"12":0,"13":0,"14":0,"15":0,"16":0,"17":0,"18":0,"19":0}},"outputMatrix":{"rows":20,"columns":33,"weights":{"0":0.9711718559265137,"1":-0.2035360336303711,"2":0.05540170148015022,"3":-0.2634783983230591,"4":0.696264922618866,"5":0.7957750558853149,"6":0.3673129975795746,"7":0.6393252015113831,"8":0.11265334486961365,"9":0.17574182152748108,"10":-0.3125000596046448,"11":-0.525213897228241,"12":0.6001510620117188,"13":1.0719876289367676,"14":0.4577651619911194,"15":-0.32386812567710876,"16":-0.7797773480415344,"17":0.7315924167633057,"18":-0.2869402766227722,"19":0.6886441707611084,"20":0.8966013193130493,"21":0.0493193119764328,"22":-0.23607200384140015,"23":-0.6418771147727966,"24":0.23058868944644928,"25":-0.7939397692680359,"26":0.25379833579063416,"27":-0.712904155254364,"28":0.17607510089874268,"29":-0.04908972606062889,"30":-0.48964062333106995,"31":0.9604498744010925,"32":-0.1310821920633316,"33":-0.7255465984344482,"34":-0.04515263810753822,"35":0.12037201225757599,"36":0.05688686668872833,"37":-0.7752694487571716,"38":0.16557982563972473,"39":-0.7185158729553223,"40":-0.3769454061985016,"41":-0.3634498715400696,"42":-0.06757038831710815,"43":0.8915382623672485,"44":-0.04623052477836609,"45":-0.6428916454315186,"46":0.4313426613807678,"47":-0.33932188153266907,"48":0.413546085357666,"49":0.24571700394153595,"50":-0.8434203863143921,"51":-0.07556170970201492,"52":-0.7812067866325378,"53":-0.0314515046775341,"54":-0.021640213206410408,"55":0.503627359867096,"56":0.2025512009859085,"57":-0.05860717222094536,"58":-0.13293877243995667,"59":-0.5939358472824097,"60":0.19249273836612701,"61":0.0786343514919281,"62":-0.00022339069982990623,"63":0.0261739082634449,"64":-0.815949559211731,"65":0.1002141460776329,"66":-0.3112327754497528,"67":0.08004235476255417,"68":0.15165485441684723,"69":-0.09696342796087265,"70":-0.6355236768722534,"71":-0.03504515066742897,"72":-0.37342506647109985,"73":-0.21388134360313416,"74":-0.1695503443479538,"75":0.08777419477701187,"76":0.8699206113815308,"77":0.21651314198970795,"78":-0.6765703558921814,"79":0.45211270451545715,"80":-0.40108034014701843,"81":0.1796322911977768,"82":0.2868834137916565,"83":-0.4476592540740967,"84":0.17206710577011108,"85":-0.5712820887565613,"86":-0.1780628263950348,"87":0.029353221878409386,"88":0.5870074033737183,"89":-0.03022884391248226,"90":0.17395494878292084,"91":0.38315123319625854,"92":-0.5865402221679688,"93":0.30318483710289,"94":-0.634207010269165,"95":0.29051676392555237,"96":0.3222249150276184,"97":-0.46819445490837097,"98":-0.07636822015047073,"99":0.9223054051399231,"100":0.6755906343460083,"101":0.4488273859024048,"102":-0.7030382752418518,"103":0.20292550325393677,"104":-0.29181942343711853,"105":-0.020386138930916786,"106":-0.007073808461427689,"107":-0.2513744533061981,"108":0.7825258374214172,"109":-1.0433440208435059,"110":0.10018174350261688,"111":-0.07932798564434052,"112":-0.12867097556591034,"113":-0.47795361280441284,"114":0.03460930660367012,"115":0.35380470752716064,"116":-0.020384827628731728,"117":0.8110408186912537,"118":0.053122956305742264,"119":-0.4141028821468353,"120":0.5842404961585999,"121":-0.1744154691696167,"122":0.10364419221878052,"123":0.6144193410873413,"124":0.010246742516756058,"125":0.05953487753868103,"126":-0.18725714087486267,"127":0.2510761618614197,"128":0.6853654980659485,"129":0.04082051292061806,"130":0.6260024905204773,"131":0.8574084043502808,"132":-0.16650402545928955,"133":-0.5462411642074585,"134":-0.032003387808799744,"135":-0.0803060457110405,"136":-0.895233154296875,"137":0.4344736337661743,"138":-0.5140324234962463,"139":-0.5080134272575378,"140":-0.11044470965862274,"141":-0.30614471435546875,"142":0.7468262314796448,"143":-0.16541597247123718,"144":-0.2562033534049988,"145":0.21625931560993195,"146":-0.16136813163757324,"147":0.6442553997039795,"148":-0.01514408178627491,"149":-0.12324439734220505,"150":-0.9382744431495667,"151":-0.5051760077476501,"152":-0.42045536637306213,"153":-0.19960230588912964,"154":1.4245688915252686,"155":0.38961878418922424,"156":0.1742890179157257,"157":0.5242391228675842,"158":-0.9796858429908752,"159":0.47423893213272095,"160":-1.4680591821670532,"161":-0.4372585117816925,"162":0.6294281482696533,"163":-0.39833304286003113,"164":-1.2664653062820435,"165":0.7122272253036499,"166":0.7036278247833252,"167":0.41709211468696594,"168":-0.6377202868461609,"169":0.0210570115596056,"170":-0.6735633611679077,"171":-0.6455151438713074,"172":-0.6096564531326294,"173":-1.068331003189087,"174":0.6638079285621643,"175":-0.31917089223861694,"176":0.6837413311004639,"177":-0.5228455066680908,"178":-0.31162136793136597,"179":-0.756083071231842,"180":0.4020860195159912,"181":0.8003562688827515,"182":-0.7996522188186646,"183":0.6879281401634216,"184":-0.4310457110404968,"185":-0.7136131525039673,"186":0.6389578580856323,"187":0.0778430700302124,"188":0.46457192301750183,"189":0.598223865032196,"190":0.5841782689094543,"191":-0.20920878648757935,"192":-0.048845354467630386,"193":0.11799190193414688,"194":0.7899023294448853,"195":0.5881760716438293,"196":0.19551409780979156,"197":0.6424022912979126,"198":0.3297317624092102,"199":0.19628913700580597,"200":0.23831787705421448,"201":-0.3087352514266968,"202":-0.36945509910583496,"203":0.27972692251205444,"204":-0.49452444911003113,"205":-0.10707126557826996,"206":-0.34525081515312195,"207":-0.07350379228591919,"208":0.6461053490638733,"209":0.0339587964117527,"210":-0.4760088622570038,"211":0.7250039577484131,"212":-0.37787094712257385,"213":-0.017131134867668152,"214":0.03826618939638138,"215":-0.3943477272987366,"216":-0.2857464849948883,"217":-0.2735375463962555,"218":-0.0035203020088374615,"219":0.4502584636211395,"220":0.4229302704334259,"221":-0.3730884790420532,"222":0.2990410029888153,"223":-0.09317370504140854,"224":-0.6903471350669861,"225":-0.385383665561676,"226":-0.2620689868927002,"227":0.42725443840026855,"228":0.03747966140508652,"229":-0.31148797273635864,"230":-0.23184294998645782,"231":-0.33693820238113403,"232":0.1983252912759781,"233":-0.059584084898233414,"234":-0.10491794347763062,"235":-0.7084097862243652,"236":-0.5745372176170349,"237":-0.6564652919769287,"238":-0.6499840617179871,"239":-0.3495319187641144,"240":-0.023362746462225914,"241":0.4000622630119324,"242":0.7061392664909363,"243":-0.5211110711097717,"244":-0.5145937204360962,"245":-0.5702272653579712,"246":0.48544904589653015,"247":0.6272013187408447,"248":-0.5374441146850586,"249":0.5553808808326721,"250":-0.8130284547805786,"251":-0.8675102591514587,"252":-0.007303476333618164,"253":0.3555343449115753,"254":0.7204111814498901,"255":0.006033807061612606,"256":1.1712193489074707,"257":-0.44930317997932434,"258":0.2648034691810608,"259":-0.29680028557777405,"260":0.130080908536911,"261":0.8875601887702942,"262":-0.5326188802719116,"263":0.41636109352111816,"264":-0.12006834894418716,"265":-0.3057404160499573,"266":-0.10640821605920792,"267":-0.06691383570432663,"268":-0.8844137191772461,"269":0.236574187874794,"270":-0.8951897621154785,"271":-0.7864763140678406,"272":-0.33811524510383606,"273":-0.18330533802509308,"274":0.6877546310424805,"275":0.1806570142507553,"276":-0.3723297715187073,"277":0.5045089721679688,"278":-0.37750154733657837,"279":0.5416942238807678,"280":0.22904442250728607,"281":-0.4467484652996063,"282":-0.3223438262939453,"283":-0.8792604207992554,"284":-0.6117880940437317,"285":0.14188258349895477,"286":0.7426587343215942,"287":0.16087079048156738,"288":0.2314477413892746,"289":0.7630704641342163,"290":-0.7621995210647583,"291":-0.13138777017593384,"292":-0.5726184844970703,"293":-0.213562473654747,"294":0.6445786356925964,"295":-0.5608857870101929,"296":-0.25302019715309143,"297":-0.5914021134376526,"298":-0.13802793622016907,"299":-0.4401646852493286,"300":0.30931970477104187,"301":-0.37829476594924927,"302":-0.07285195589065552,"303":-0.2572587728500366,"304":-0.17602062225341797,"305":-0.014457935467362404,"306":-0.12767134606838226,"307":0.7156720757484436,"308":0.20056767761707306,"309":-0.4696018099784851,"310":0.12348710745573044,"311":-0.41337689757347107,"312":-0.10092079639434814,"313":0.15698036551475525,"314":-0.39932680130004883,"315":-0.1905301809310913,"316":-0.3904973268508911,"317":-0.4140855371952057,"318":-0.3755892813205719,"319":-0.07734944671392441,"320":0.25989335775375366,"321":-0.3871379494667053,"322":0.21340590715408325,"323":-0.4490506052970886,"324":0.39360836148262024,"325":-0.03222014382481575,"326":-0.27069276571273804,"327":0.1798551380634308,"328":-0.48454445600509644,"329":-0.16559040546417236,"330":0.7881137728691101,"331":-0.2501818537712097,"332":-0.2050178498029709,"333":0.059473492205142975,"334":0.09940581768751144,"335":0.45795324444770813,"336":0.4509516954421997,"337":0.34942424297332764,"338":0.6484127640724182,"339":-0.4274430572986603,"340":0.27119681239128113,"341":-0.41326993703842163,"342":0.4556177258491516,"343":0.5462257862091064,"344":0.5228510499000549,"345":-0.27546051144599915,"346":-0.4222012460231781,"347":0.5539928674697876,"348":0.033367790281772614,"349":0.07796483486890793,"350":0.11343652755022049,"351":-0.06150805205106735,"352":-0.34134531021118164,"353":-0.4144686460494995,"354":-0.03433101251721382,"355":-0.09144817292690277,"356":0.360294908285141,"357":-0.48762083053588867,"358":0.5639272332191467,"359":-0.40509122610092163,"360":-0.20637285709381104,"361":0.4823884069919586,"362":-0.13960771262645721,"363":0.12126771360635757,"364":0.6839534044265747,"365":0.9728466272354126,"366":-0.6741349697113037,"367":-0.40931785106658936,"368":0.13964511454105377,"369":-0.524439811706543,"370":-0.10783044993877411,"371":-0.2248798906803131,"372":0.773160994052887,"373":0.03229216858744621,"374":0.175085186958313,"375":-0.7410817742347717,"376":0.7319633960723877,"377":-0.31444796919822693,"378":0.005641568452119827,"379":0.23711776733398438,"380":-0.4553458094596863,"381":0.5009030103683472,"382":-0.43219077587127686,"383":-0.07170655578374863,"384":0.7169598937034607,"385":0.3760247528553009,"386":-0.38673579692840576,"387":0.7070363759994507,"388":-0.25901493430137634,"389":-0.5824184417724609,"390":-0.025474516674876213,"391":-0.19576628506183624,"392":0.8259247541427612,"393":0.0030613464768975973,"394":-0.4949387311935425,"395":0.46896427869796753,"396":-0.24385614693164825,"397":-0.20740535855293274,"398":0.4414820373058319,"399":-0.2138342708349228,"400":0.14655537903308868,"401":1.072056531906128,"402":0.35676833987236023,"403":0.8018370866775513,"404":0.3797761797904968,"405":-0.19030465185642242,"406":0.407606840133667,"407":-0.9612742066383362,"408":0.8680083751678467,"409":0.37884679436683655,"410":0.017512569203972816,"411":-0.17692817747592926,"412":-0.8238609433174133,"413":0.827574610710144,"414":-0.529980480670929,"415":0.7197090983390808,"416":-0.1856769323348999,"417":0.3219369649887085,"418":-0.164367213845253,"419":-1.0121365785598755,"420":0.04842124506831169,"421":-0.4070149064064026,"422":0.06574070453643799,"423":-0.38042840361595154,"424":-0.3602418303489685,"425":0.1638777107000351,"426":-0.45643800497055054,"427":0.46548378467559814,"428":-0.2960413098335266,"429":-0.5054216980934143,"430":0.15746182203292847,"431":-0.08746784925460815,"432":-0.17539295554161072,"433":-0.5543456673622131,"434":-0.6048693060874939,"435":-0.5848986506462097,"436":-0.8359922170639038,"437":-0.5871134400367737,"438":0.09343679994344711,"439":0.006127071566879749,"440":0.6725225448608398,"441":-0.43459412455558777,"442":-0.8395801186561584,"443":-0.7770330905914307,"444":0.5421236753463745,"445":0.6148855686187744,"446":-0.516408383846283,"447":0.28425365686416626,"448":-0.5678911209106445,"449":-0.7827078700065613,"450":0.1336529701948166,"451":0.5971791744232178,"452":0.6883366107940674,"453":0.33078768849372864,"454":0.8502129912376404,"455":-0.5223718285560608,"456":0.276562362909317,"457":-0.5574712157249451,"458":0.13108332455158234,"459":0.8045247793197632,"460":-0.37775903940200806,"461":0.27671825885772705,"462":-0.661158561706543,"463":0.28644242882728577,"464":0.003933430649340153,"465":-0.17681998014450073,"466":-0.6538852453231812,"467":-0.5820152759552002,"468":-0.7210642695426941,"469":-0.7499626278877258,"470":-0.7049731016159058,"471":0.20495650172233582,"472":0.07587643712759018,"473":0.5618059635162354,"474":-0.3701283037662506,"475":-0.8560754656791687,"476":-0.5325784683227539,"477":0.4946674704551697,"478":0.4118952453136444,"479":-0.5020841360092163,"480":0.24144072830677032,"481":-0.5526406764984131,"482":-0.5722850561141968,"483":0.14296357333660126,"484":0.5212061405181885,"485":0.7293379306793213,"486":0.16616791486740112,"487":0.8427073955535889,"488":-0.5744311213493347,"489":0.4827460050582886,"490":-0.49456989765167236,"491":0.30482617020606995,"492":0.6041154861450195,"493":-0.5386848449707031,"494":0.2979819178581238,"495":-0.40090933442115784,"496":-0.10947315394878387,"497":-0.1530701071023941,"498":0.10304179787635803,"499":-0.7046851515769958,"500":-0.047040071338415146,"501":-0.7383399605751038,"502":-0.6643455624580383,"503":-0.3267454206943512,"504":0.022892290726304054,"505":0.861051082611084,"506":0.21408922970294952,"507":-0.6258039474487305,"508":-0.101337730884552,"509":-0.7223443984985352,"510":0.505158543586731,"511":0.6116093397140503,"512":-0.6871357560157776,"513":-0.00445297546684742,"514":-0.7659191489219666,"515":-0.5731315016746521,"516":-0.09965230524539948,"517":0.48678138852119446,"518":0.3654720187187195,"519":0.014386075548827648,"520":0.5015177130699158,"521":-0.536108672618866,"522":0.28129109740257263,"523":-0.295610249042511,"524":-0.006844258867204189,"525":0.43044158816337585,"526":-0.5275142192840576,"527":-0.011137221939861774,"528":-0.44030529260635376,"529":0.09680558741092682,"530":0.07244960218667984,"531":0.08251288533210754,"532":-0.9650692939758301,"533":0.014390703290700912,"534":-0.49552059173583984,"535":-0.6086127161979675,