{"type":"LSTM","options":{"inputSize":38,"inputRange":38,"hiddenSizes":[20,20],"outputSize":38,"learningRate":0.01,"decayRate":0.999,"smoothEps":1e-8,"regc":0.000001,"clipval":5,"json":null,"dataFormatter":{"values":["Bug","C#","C++","Can anyone help me with a bug in my code?","Error","I could use some help regarding a bug I have in Rust","I have a question about C#","I need help with an issue in my Rust code","Issue","JavaScript","Lua","Programming Language","Question","Rust","TypeScript"],"indexTable":{"B":0,"u":1,"g":2,"C":3,"#":4,"+":5,"a":6,"n":7," ":8,"y":9,"o":10,"e":11,"h":12,"l":13,"p":14,"m":15,"w":16,"i":17,"t":18,"b":19,"c":20,"d":21,"?":22,"E":23,"r":24,"I":25,"s":26,"v":27,"R":28,"q":29,"J":30,"S":31,"L":32,"P":33,"Q":34,"T":35,"stop-input":36,"start-output":37},"characterTable":{"0":"B","1":"u","2":"g","3":"C","4":"#","5":"+","6":"a","7":"n","8":" ","9":"y","10":"o","11":"e","12":"h","13":"l","14":"p","15":"m","16":"w","17":"i","18":"t","19":"b","20":"c","21":"d","22":"?","23":"E","24":"r","25":"I","26":"s","27":"v","28":"R","29":"q","30":"J","31":"S","32":"L","33":"P","34":"Q","35":"T","36":"stop-input","37":"start-output"},"characters":["B","u","g","C","#","+","a","n"," ","y","o","e","h","l","p","m","w","i","t","b","c","d","?","E","r","I","s","v","R","q","J","S","L","P","Q","T","stop-input","start-output"]}},"input":{"rows":39,"columns":38,"weights":{"0":-0.5732473731040955,"1":-0.2973024249076843,"2":0.6665638089179993,"3":-0.886147677898407,"4":-0.025381483137607574,"5":-0.243894562125206,"6":0.9525900483131409,"7":0.04150576516985893,"8":1.0079494714736938,"9":-1.7238476276397705,"10":1.057831883430481,"11":0.5067489743232727,"12":0.5010263323783875,"13":-3.1019692420959473,"14":-0.4777328372001648,"15":0.5335074067115784,"16":0.22401688992977142,"17":-2.0862133502960205,"18":2.5634357929229736,"19":-0.6122115850448608,"20":-0.48004692792892456,"21":0.38589730858802795,"22":0.13578562438488007,"23":1.2152460813522339,"24":1.8090314865112305,"25":-1.8980802297592163,"26":0.6592457294464111,"27":1.1771854162216187,"28":-2.1115121841430664,"29":-0.60744309425354,"30":0.7892767190933228,"31":-1.651296854019165,"32":0.7100494503974915,"33":2.049208879470825,"34":-0.4871235489845276,"35":0.24982468783855438,"36":-4.329453945159912,"37":0.3218587636947632,"38":-0.553523063659668,"39":3.6707427501678467,"40":1.157547116279602,"41":4.904767036437988,"42":-6.945062160491943,"43":4.208555221557617,"44":-7.641608715057373,"45":-1.4832113981246948,"46":-0.813529908657074,"47":6.039041042327881,"48":-1.4849989414215088,"49":-5.295690059661865,"50":0.7599458694458008,"51":7.426009178161621,"52":-1.656959891319275,"53":3.277005910873413,"54":6.091702461242676,"55":3.7444450855255127,"56":3.992553472518921,"57":1.8054744005203247,"58":0.7194725275039673,"59":-1.3725932836532593,"60":-6.57177209854126,"61":-3.101609468460083,"62":2.8297359943389893,"63":3.701815366744995,"64":5.271836757659912,"65":7.628008842468262,"66":-1.264078140258789,"67":1.8437469005584717,"68":-4.6996917724609375,"69":-1.117272138595581,"70":1.333633303642273,"71":-5.9669365882873535,"72":0.6123491525650024,"73":0.4835442304611206,"74":-1.0528825521469116,"75":0.7595153450965881,"76":1.2649376392364502,"77":-1.6262903213500977,"78":-0.9656270146369934,"79":-0.294620156288147,"80":1.7821720838546753,"81":-2.31010365486145,"82":2.0784835815429688,"83":-0.6166024804115295,"84":-0.4285432696342468,"85":0.37132567167282104,"86":-2.4058425426483154,"87":-1.202437162399292,"88":-0.7445036768913269,"89":0.9046409130096436,"90":0.9138965606689453,"91":0.6881312131881714,"92":0.010827903635799885,"93":0.5061020851135254,"94":-0.19706669449806213,"95":-0.22914981842041016,"96":1.010850429534912,"97":-1.8901852369308472,"98":0.7120808959007263,"99":2.192173719406128,"100":-0.015772022306919098,"101":-3.89819073677063,"102":-2.755575180053711,"103":0.5524917244911194,"104":-0.07363801449537277,"105":-2.8081400394439697,"106":1.1197162866592407,"107":-1.0415829420089722,"108":0.4873179495334625,"109":2.3529770374298096,"110":0.2147209495306015,"111":0.34274134039878845,"112":-0.1491740196943283,"113":0.18827484548091888,"114":0.9613384008407593,"115":-0.7539147734642029,"116":-0.3804345726966858,"117":-0.7227516174316406,"118":2.8054089546203613,"119":-1.3847019672393799,"120":1.6796776056289673,"121":2.1770341396331787,"122":-4.952690124511719,"123":-3.230463743209839,"124":0.9945974349975586,"125":0.2683141231536865,"126":-2.1934001445770264,"127":1.64251708984375,"128":-2.5576746463775635,"129":-0.17688997089862823,"130":-0.7279004454612732,"131":2.6485676765441895,"132":-1.3655225038528442,"133":0.8437778949737549,"134":2.1610054969787598,"135":1.4367750883102417,"136":-4.033475399017334,"137":-1.6430190801620483,"138":0.9977210164070129,"139":0.8472520709037781,"140":1.0395050048828125,"141":-2.02012038230896,"142":2.6505215167999268,"143":0.5532100200653076,"144":1.3452266454696655,"145":0.9926124811172485,"146":1.4130336046218872,"147":-0.6644363403320312,"148":-0.417025625705719,"149":0.39859676361083984,"150":1.054697871208191,"151":2.0592637062072754,"152":-1.4272208213806152,"153":4.00588846206665,"154":5.4414591789245605,"155":-1.664998173713684,"156":-5.853311538696289,"157":1.0881785154342651,"158":0.38345322012901306,"159":3.750012159347534,"160":4.930262088775635,"161":-0.7389969229698181,"162":2.0871634483337402,"163":0.35128405690193176,"164":-2.4379589557647705,"165":1.4600160121917725,"166":-2.5475337505340576,"167":1.9618446826934814,"168":0.1908896416425705,"169":-4.896636486053467,"170":0.2514141798019409,"171":6.291077136993408,"172":0.05541561171412468,"173":5.492307662963867,"174":0.47468480467796326,"175":2.7769980430603027,"176":2.200831651687622,"177":-5.216955184936523,"178":2.3609530925750732,"179":-6.618854522705078,"180":4.421108245849609,"181":-1.8879013061523438,"182":-0.020905381068587303,"183":-2.9056923389434814,"184":-6.6211113929748535,"185":3.107480049133301,"186":3.501615047454834,"187":-0.5300208330154419,"188":7.379582405090332,"189":3.7336838245391846,"190":6.107876300811768,"191":-1.6828534603118896,"192":-1.5339750051498413,"193":0.9894367456436157,"194":-0.12262705713510513,"195":0.9062488079071045,"196":-2.2540040016174316,"197":3.4428939819335938,"198":11.869820594787598,"199":-0.4126167893409729,"200":-7.338776588439941,"201":1.414991855621338,"202":1.920627236366272,"203":3.20460844039917,"204":6.7175421714782715,"205":2.4570276737213135,"206":3.1234941482543945,"207":1.1729238033294678,"208":-8.135916709899902,"209":6.478420257568359,"210":0.8267141580581665,"211":0.4533321261405945,"212":-0.7130027413368225,"213":-1.3023524284362793,"214":1.1498615741729736,"215":-1.9224159717559814,"216":2.814239025115967,"217":-1.1035923957824707,"218":4.146661281585693,"219":-1.561173915863037,"220":4.702554225921631,"221":-7.517944812774658,"222":-9.20421314239502,"223":-3.143141746520996,"224":5.579702854156494,"225":-7.260203838348389,"226":-0.0838715136051178,"227":-0.3641040623188019,"228":12.88216495513916,"229":-2.0989935398101807,"230":-16.649845123291016,"231":8.669259071350098,"232":8.866251945495605,"233":1.9519327878952026,"234":8.547882080078125,"235":-0.9107939600944519,"236":-4.879251956939697,"237":-3.577313184738159,"238":-4.866663932800293,"239":-1.9070699214935303,"240":-0.9280685186386108,"241":9.669750213623047,"242":1.265332579612732,"243":2.113856554031372,"244":-0.8966145515441895,"245":10.876482963562012,"246":-6.1846604347229,"247":-0.36505651473999023,"248":1.296101689338684,"249":-5.472946643829346,"250":-9.549186706542969,"251":-11.778093338012695,"252":-4.5674872398376465,"253":-6.3143181800842285,"254":-7.336296081542969,"255":1.9713118076324463,"256":-1.7131768465042114,"257":-7.68251895904541,"258":6.643152236938477,"259":-2.175929307937622,"260":2.538339853286743,"261":-1.6965895891189575,"262":-4.445663928985596,"263":-4.2638468742370605,"264":0.5987193584442139,"265":-1.0971177816390991,"266":-0.14623984694480896,"267":-0.3891029357910156,"268":1.234139323234558,"269":0.0311044380068779,"270":-2.976273536682129,"271":-0.30183032155036926,"272":-1.1425731182098389,"273":-0.13578803837299347,"274":-1.63162362575531,"275":0.9580246806144714,"276":1.9032549858093262,"277":-1.337864637374878,"278":-1.847835659980774,"279":-1.1339234113693237,"280":3.6057169437408447,"281":0.3298373222351074,"282":-0.06146474555134773,"283":-0.23946644365787506,"284":-1.9571130275726318,"285":2.5823962688446045,"286":0.18009702861309052,"287":0.175587460398674,"288":-0.3700381815433502,"289":2.170711040496826,"290":0.5147756338119507,"291":-0.7050902247428894,"292":0.09840773791074753,"293":0.8677877187728882,"294":-1.0005486011505127,"295":-0.27498164772987366,"296":-0.05691532418131828,"297":-0.2235736846923828,"298":-0.6686351299285889,"299":1.461949110031128,"300":-0.6204691529273987,"301":0.4383935034275055,"302":2.785219669342041,"303":-0.18722161650657654,"304":2.0946128368377686,"305":-0.017108062282204628,"306":1.279425859451294,"307":-1.3629097938537598,"308":-1.3559656143188477,"309":0.2831558287143707,"310":-1.1096792221069336,"311":-0.3571171462535858,"312":1.413255214691162,"313":1.5811752080917358,"314":0.884840726852417,"315":-0.9284428358078003,"316":-0.586184024810791,"317":1.8063690662384033,"318":-1.2826387882232666,"319":-1.4938050508499146,"320":1.4020144939422607,"321":-0.7515011429786682,"322":4.334967136383057,"323":-1.9724112749099731,"324":-3.2193636894226074,"325":0.9593206644058228,"326":-0.2580915689468384,"327":-1.9669681787490845,"328":1.077326774597168,"329":0.30567657947540283,"330":0.29042306542396545,"331":-0.5719186067581177,"332":-4.698092460632324,"333":0.5326939225196838,"334":3.975102424621582,"335":-0.03135593980550766,"336":-1.7535840272903442,"337":-1.5703858137130737,"338":-2.476242780685425,"339":-1.7175960540771484,"340":-2.0906896591186523,"341":-3.2819206714630127,"342":-2.0871753692626953,"343":3.4419822692871094,"344":-2.0380659103393555,"345":-0.33066967129707336,"346":-1.4621710777282715,"347":-0.45743197202682495,"348":0.5754411816596985,"349":-1.6654787063598633,"350":0.773390531539917,"351":1.4601408243179321,"352":1.184592843055725,"353":-1.0234615802764893,"354":-1.214654803276062,"355":-2.4382412433624268,"356":-0.6863400936126709,"357":0.5725829005241394,"358":-0.6071513295173645,"359":0.5134101510047913,"360":-0.670445442199707,"361":-0.8200485110282898,"362":1.1122442483901978,"363":-0.2768379747867584,"364":-0.3143981397151947,"365":1.5041991472244263,"366":-0.2816963493824005,"367":-1.8263806104660034,"368":-1.3288326263427734,"369":0.884467363357544,"370":0.5633722543716431,"371":-1.400763988494873,"372":-3.5868823528289795,"373":2.249452829360962,"374":3.9664649963378906,"375":1.9303171634674072,"376":0.09004388749599457,"377":1.459196925163269,"378":-1.3556227684020996,"379":0.9022238850593567,"380":5.781553745269775,"381":0.5323746800422668,"382":-1.1993962526321411,"383":0.27324122190475464,"384":-6.094923496246338,"385":1.3745657205581665,"386":1.070738673210144,"387":8.432297706604004,"388":4.707947731018066,"389":4.924066066741943,"390":-0.22997230291366577,"391":0.5355287790298462,"392":0.9117234945297241,"393":-5.61175012588501,"394":4.163600921630859,"395":-3.82319974899292,"396":2.0186896324157715,"397":0.2960178852081299,"398":0.2476816624403,"399":-1.7465752363204956,"400":1.8813780546188354,"401":2.6427834033966064,"402":-2.2074217796325684,"403":-0.4755157232284546,"404":-2.089423418045044,"405":-0.7470301389694214,"406":2.0817692279815674,"407":-6.8080339431762695,"408":2.919320821762085,"409":2.2294349670410156,"410":5.3276848793029785,"411":-3.898258686065674,"412":-6.151153564453125,"413":0.7108904719352722,"414":7.401968955993652,"415":-2.906285047531128,"416":-1.437452793121338,"417":-1.5240931510925293,"418":1.8300060033798218,"419":-0.3956533372402191,"420":1.900863528251648,"421":2.6583762168884277,"422":1.5116547346115112,"423":1.198867678642273,"424":0.6316221952438354,"425":-1.8207849264144897,"426":0.7779709100723267,"427":5.062323570251465,"428":-1.5491154193878174,"429":-1.0723644495010376,"430":6.249477386474609,"431":1.285034418106079,"432":2.784872055053711,"433":-2.2637369632720947,"434":2.8290035724639893,"435":1.8716238737106323,"436":-1.5939351320266724,"437":0.5660247802734375,"438":-1.2880802154541016,"439":-0.04757470265030861,"440":0.1031348928809166,"441":-0.8964028358459473,"442":-1.4563310146331787,"443":1.58657968044281,"444":-0.8539352416992188,"445":-3.5641939640045166,"446":0.9504751563072205,"447":1.638812780380249,"448":-2.1782824993133545,"449":3.9476401805877686,"450":-1.6428946256637573,"451":-2.3611648082733154,"452":0.21947768330574036,"453":-2.0098814964294434,"454":2.979560613632202,"455":-2.5085599422454834,"456":0.30336251854896545,"457":-0.05505317077040672,"458":-0.2208365947008133,"459":-2.2775232791900635,"460":-2.129713773727417,"461":0.5631932616233826,"462":-3.8823294639587402,"463":0.31560540199279785,"464":2.8460536003112793,"465":0.0912509635090828,"466":2.342404842376709,"467":0.38160252571105957,"468":1.7321654558181763,"469":-4.853264331817627,"470":-0.7131242156028748,"471":-1.4556900262832642,"472":-0.6835125684738159,"473":1.100722074508667,"474":-0.7610018849372864,"475":-0.07162488996982574,"476":1.3491942882537842,"477":2.046105146408081,"478":-0.08074922859668732,"479":-1.2055081129074097,"480":0.8081981539726257,"481":2.044220447540283,"482":3.710691452026367,"483":-0.3998100757598877,"484":1.9924060106277466,"485":2.7476630210876465,"486":-2.6076607704162598,"487":-0.02754802815616131,"488":1.0626555681228638,"489":0.3919147849082947,"490":0.7227585315704346,"491":0.2482665628194809,"492":1.1604293584823608,"493":0.4879559278488159,"494":-6.066037178039551,"495":3.2118983268737793,"496":0.31404373049736023,"497":-1.5990022420883179,"498":0.06844479590654373,"499":2.835268497467041,"500":-4.2807817459106445,"501":2.4197354316711426,"502":-2.0718021392822266,"503":2.43634295463562,"504":6.2654571533203125,"505":-1.5827981233596802,"506":-1.2349852323532104,"507":-1.2741543054580688,"508":-1.5859768390655518,"509":-2.1096553802490234,"510":-0.6538031101226807,"511":-0.32218143343925476,"512":-2.5151779651641846,"513":0.45465683937072754,"514":5.850348472595215,"515":3.77030086517334,"516":-4.789007663726807,"517":-0.7450333833694458,"518":-2.7010064125061035,"519":2.9748339653015137,"520":7.7853851318359375,"521":-3.3221850395202637,"522":1.9402188062667847,"523":5.72733736038208,"524":0.5572981834411621,"525":4.917710304260254,"526":-0.9427981972694397,"527":-1.9059674739837646,"528":0.35721448063850403,"529":0.8084349036216736,"530":0.15089362859725952,"531":3.7941524982452393,"532":2.3580782413482666,"533":-2.6425697803497314,"534":3.8403611183166504,"535":-2.8701882362365723,"536":-0.8943705558776855,"537":-4.014523983001709,"538":7.005867004394531,"539":3.338752031326294,"540":-4.170835018157959,"541":0.14822499454021454,"542":2.993311643600464,"543":2.084476947784424,"544":4.696613311767578,"545":1.9417486190795898,"546":4.148555278778076,"547":-0.7847101092338562,"548":-6.330644607543945,"549":-3.127089023590088,"550":1.0747121572494507,"551":-7.565579891204834,"552":1.064027190208435,"553":1.4965299367904663,"554":3.959958791732788,"555":3.336559534072876,"556":1.7047605514526367,"557":-9.833893775939941,"558":0.08848848938941956,"559":2.671874523162842,"560":-2.365689277648926,"561":-7.37492561340332,"562":6.847573280334473,"563":-1.9653263092041016,"564":0.12409164756536484,"565":0.7336999177932739,"566":-4.305203914642334,"567":4.401451587677002,"568":-8.296798706054688,"569":-0.44259369373321533,"570":0.6069538593292236,"571":-2.370765209197998,"572":-2.168867349624634,"573":-0.15831442177295685,"574":1.4849783182144165,"575":-2.5242538452148438,"576":0.15509098768234253,"577":-2.737563133239746,"578":1.8650811910629272,"579":-1.5464792251586914,"580":-5.059562683105469,"581":-1.072533130645752,"582":-1.626049518585205,"583":0.9411603808403015,"584":-2.1899449825286865,"585":1.9743690490722656,"586":0.38234981894493103,"587":4.175444602966309,"588":-0.042855579406023026,"589":1.3899749517440796,"590":-0.775934636592865,"591":-5.361601829528809,"592":-0.9139297604560852,"593":-1.1313917636871338,"594":-0.8509805798530579,"595":0.9608166813850403,"596":-3.384056329727173,"597":2.1128175258636475,"598":2.232656717300415,"599":-0.1315404623746872,"600":1.368004560470581,"601":-2.063032865524292,"602":1.162237524986267,"603":-0.2450648546218872,"604":2.042747735977173,"605":-5.495273590087891,"606":-0.3595651388168335,"607":3.160881757736206,"608":-4.913497447967529,"609":0.7958407998085022,"610":1.9422180652618408,"611":-2.6106948852539062,"612":-0.8139551877975464,"613":-1.967909336090088,"614":-0.8109308481216431,"615":-0.2173791229724884,"616":-2.829460620880127,"617":-1.5282906293869019,"618":4.0817108154296875,"619":-1.3544421195983887,"620":0.28080981969833374,"621":-2.0517921447753906,"622":0.1897066980600357,"623":0.09975660592317581,"624":-3.569477081298828,"625":-0.4843752384185791,"626":-4.3700056076049805,"627":2.572608232498169,"628":2.190896987915039,"629":-0.25418540835380554,"630":1.1080495119094849,"631":4.895205497741699,"632":-2.2112183570861816,"633":3.343989610671997,"634":1.837632417678833,"635":-1.3646423816680908,"636":3.540168285369873,"637":2.764908790588379,"638":-0.4816868007183075,"639":2.185758352279663,"640":-2.532541275024414,"641":1.5624876022338867,"642":1.7436354160308838,"643":3.315642833709717,"644":5.7170729637146,"645":3.451342821121216,"646":0.6150245666503906,"647":4.979756832122803,"648":-5.604429244995117,"649":-5.229704856872559,"650":-3.6249806880950928,"651":4.098745346069336,"652":-0.7542633414268494,"653":2.9465057849884033,"654":10.742992401123047,"655":-0.5915043950080872,"656":-2.4655921459198,"657":9.987457275390625,"658":2.500622510910034,"659":-3.2253355979919434,"660":-3.1887412071228027,"661":-5.490207195281982,"662":0.3733854293823242,"663":-2.3566479682922363,"664":2.5418615341186523,"665":0.2621433436870575,"666":-4.510873317718506,"667":-0.574427604675293,"668":10.92963695526123,"669":-6.180649757385254,"670":-0.6214695572853088,"671":3.1461575031280518,"672":3.4044997692108154,"673":1.6742043495178223,"674":2.859057903289795,"675":5.493105888366699,"676":-2.1953065395355225,"677":-0.24277038872241974,"678":-5.200403690338135,"679":0.523279070854187,"680":5.4843525886535645,"681":-0.001841685501858592,"682":0.23891282081604004,"683":-0.3506249785423279,"684":-3.825037956237793,"685":2.1840808391571045,"686":-0.05341510847210884,"687":1.3983670473098755,"688":-2.3458762168884277,"689":-3.1759867668151855,"690":3.229393243789673,"691":0.5448644757270813,"692":-0.5355086922645569,"693":2.7348389625549316,"694":1.2464815378189087,"695":-1.9308463335037231,"696":0.10943783819675446,"697":-1.9696930646896362,"698":2.30969500541687,"699":0.22889921069145203,"700":-2.6373450756073,"701":0.14694596827030182,"702":-3.4194185733795166,"703":-2.2749006748199463,"704":-3.629319190979004,"705":-1.5192334651947021,"706":-0.5646247863769531,"707":4.285073757171631,"708":-1.1196167469024658,"709":-2.6614022254943848,"710":-4.230947971343994,"711":-1.619643211364746,"712":-1.2330434322357178,"713":-3.608875036239624,"714":1.6230002641677856,"715":1.2036045789718628,"716":2.145646572113037,"717":3.5998153686523438,"718":1.72443425655365,"719":3.705320358276367,"720":-1.7655457258224487,"721":0.3308117091655731,"722":-3.3040435314178467,"723":2.4502556324005127,"724":-1.3367950916290283,"725":2.080780267715454,"726":1.1416736841201782,"727":2.365583658218384,"728":0.6912174820899963,"729":-1.843648076057434,"730":3.925445079803467,"731":-0.8809661865234375,"732":-2.5526955127716064,"733":0.7063696980476379,"734":1.1684105396270752,"735":-6.2764811515808105,"736":1.8825353384017944,"737":-0.2092892825603485,"738":1.868817925453186,"739":-0.9570082426071167,"740":2.507194757461548,"741":-1.6360775232315063,"742":-0.9672752022743225,"743":-2.309553861618042,"744":2.4446945190429688,"745":1.7427432537078857,"746":1.2078982591629028,"747":-1.8080540895462036,"748":-2.744500160217285,"749":-1.6670173406600952,"750":1.4028027057647705,"751":-1.2462996244430542,"752":0.6480388045310974,"753":1.860196590423584,"754":5.93455171585083,"755":1.3512024879455566,"756":1.5103938579559326,"757":0.6281225085258484,"758":-1.1154063940048218,"759":0.2941874563694,"760":6.998830318450928,"761":2.1438872814178467,"762":-3.5489981174468994,"763":4.416347026824951,"764":-5.864739418029785,"765":0.08963329344987869,"766":-0.20013029873371124,"767":1.3082554340362549,"768":6.084117412567139,"769":4.355201721191406,"770":-6.070619106292725,"771":-6.965602397918701,"772":2.684762954711914,"773":3.7733473777770996,"774":-0.32609814405441284,"775":-5.443547248840332,"776":-2.0635623931884766,"777":0.7557657361030579,"778":-0.2951638400554657,"779":0.33999860286712646,"780":-3.204519748687744,"781":0.009540824219584465,"782":-2.1653892993927,"783":-6.902170658111572,"784":-1.230790615081787,"785":0.7555631399154663,"786":-0.6477920413017273,"787":-0.04006171599030495,"788":6.362448215484619,"789":-0.5021699666976929,"790":-0.46805840730667114,"791":2.1998953819274902,"792":-8.22309398651123,"793":-3.470580816268921,"794":-0.12088625133037567,"795":-3.5616025924682617,"796":3.271794080734253,"797":-2.5277011394500732,"798":-2.418027639389038,"799":-2.5210001468658447,"800":1.7961933612823486,"801":-0.15892787277698517,"802":0.007426056545227766,"803":-2.7990715503692627,"804":-0.8356542587280273,"805":-1.0409529209136963,"806":1.6222095489501953,"807":-3.6266350746154785,"808":-0.12877394258975983,"809":-0.44092294573783875,"810":0.003013397566974163,"811":2.584670066833496,"812":0.052936654537916183,"813":3.5223701000213623,"814":2.190046787261963,"815":-2.7380080223083496,"816":2.9826743602752686,"817":-0.5270708203315735,"818":-2.4536876678466797,"819":-2.3656790256500244,"820":3.5565760135650635,"821":2.4684512615203857,"822":5.665685176849365,"823":0.5644935965538025,"824":-2.9396045207977295,"825":0.18612751364707947,"826":-0.007548609748482704,"827":0.8320724368095398,"828":4.330972194671631,"829":0.7647906541824341,"830":-6.060235023498535,"831":-0.6037979125976562,"832":-1.0160905122756958,"833":-0.7167531251907349,"834":-1.9319401979446411,"835":-0.445979505777359,"836":-3.0723323822021484,"837":-0.672917366027832,"838":1.051281213760376,"839":12.643426895141602,"840":4.953528881072998,"841":6.866241455078125,"842":-0.04401843994855881,"843":-3.0695109367370605,"844":-5.953291416168213,"845":-2.7954025268554688,"846":1.0920754671096802,"847":-4.7467451095581055,"848":-1.137305736541748,"849":3.184934139251709,"850":1.238763689994812,"851":6.162174224853516,"852":1.4580531120300293,"853":-0.6944272518157959,"854":-4.275180816650391,"855":0.8970825672149658,"856":2.3796863555908203,"857":-8.27767276763916,"858":-1.03000009059906,"859":-0.7766430974006653,"860":-3.893373966217041,"861":1.3431355953216553,"862":-5.387850761413574,"863":4.233750343322754,"864":0.6335786581039429,"865":0.024988092482089996,"866":-4.261919021606445,"867":4.146105766296387,"868":3.441006898880005,"869":-5.621146202087402,"870":0.9751055836677551,"871":3.127131462097168,"872":3.7215051651000977,"873":4.741079330444336,"874":-0.9829154014587402,"875":11.208584785461426,"876":6.054807186126709,"877":-1.0222526788711548,"878":-4.326895236968994,"879":4.515732765197754,"880":12.706616401672363,"881":11.983545303344727,"882":-5.111565113067627,"883":1.9556286334991455,"884":-4.688648700714111,"885":6.7922468185424805,"886":7.892890453338623,"887":4.641958236694336,"888":7.021202087402344,"889":0.7977291345596313,"890":-8.758936882019043,"891":-1.1621079444885254,"892":-3.409341812133789,"893":2.9374077320098877,"894":5.705318450927734,"895":12.90888786315918,"896":0.4493125081062317,"897":1.6608723402023315,"898":0.834929883480072,"899":-2.8528106212615967,"900":1.8726630210876465,"901":-4.257221221923828,"902":5.248585224151611,"903":-4.633638858795166,"904":-3.9328746795654297,"905":5.214938163757324,"906":-12.079633712768555,"907":2.2553842067718506,"908":-0.5909013152122498,"909":3.868534564971924,"910":1.2639943361282349,"911":0.4913875460624695,"912":-18.418729782104492,"913":-0.07660592347383499,"914":2.7627575397491455,"915":-10.021149635314941,"916":-4.078904151916504,"917":2.6348726749420166,"918":-9.056760787963867,"919":0.935155987739563,"920":-6.229677677154541,"921":-9.158005714416504,"922":2.471440315246582,"923":6.519664764404297,"924":-1.7950873374938965,"925":0.9540585279464722,"926":0.17082586884498596,"927":1.2714117765426636,"928":-10.580163955688477,"929":2.106189250946045,"930":-10.447869300842285,"931":10.292963027954102,"932":2.1811392307281494,"933":2.9160752296447754,"934":-12.03294849395752,"935":-4.275005340576172,"936":-0.013318353332579136,"937":3.6247713565826416,"938":2.6682088375091553,"939":-3.6692070960998535,"940":2.4564998149871826,"941":10.07400894165039,"942":6.4389495849609375,"943":-0.8578741550445557,"944":-13.424031257629395,"945":-3.189143180847168,"946":5.998101234436035,"947":-1.6759909391403198,"948":12.856109619140625,"949":4.161514759063721,"950":-3.2401487827301025,"951":-2.184920310974121,"952":0.33749285340309143,"953":1.651610016822815,"954":0.4159807562828064,"955":-2.9276340007781982,"956":-2.164057493209839,"957":-2.0030226707458496,"958":-5.175603866577148,"959":-2.619506359100342,"960":1.3994330167770386,"961":-0.8359348773956299,"962":-2.1909196376800537,"963":0.8791382312774658,"964":-0.5632894039154053,"965":2.995429515838623,"966":-2.752885580062866,"967":0.6185792088508606,"968":-0.9673420786857605,"969":2.8342180252075195,"970":1.6320866346359253,"971":0.5314670205116272,"972":-1.7386456727981567,"973":1.5030733346939087,"974":-0.4112913906574249,"975":-1.3412727117538452,"976":0.10754657536745071,"977":-1.4330157041549683,"978":-1.216653823852539,"979":3.192159652709961,"980":-0.07320801913738251,"981":-2.0016815662384033,"982":-1.8773714303970337,"983":2.072396993637085,"984":-1.012001395225525,"985":0.4103860557079315,"986":1.7294756174087524,"987":2.405116319656372,"988":-7.358932971954346,"989":1.313041090965271,"990":-5.26886510848999,"991":-4.956879138946533,"992":-4.669431686401367,"993":-4.454821586608887,"994":1.9239909648895264,"995":2.70013165473938,"996":-4.1242289543151855,"997":-2.9403796195983887,"998":0.7872397303581238,"999":-1.5874731540679932,"1000":0.02803032286465168,"1001":-0.43671715259552,"1002":2.586982488632202,"1003":-1.143033742904663,"1004":-6.9503350257873535,"1005":2.3523662090301514,"1006":-2.7358744144439697,"1007":-1.5114457607269287,"1008":6.051640510559082,"1009":2.8999524116516113,"1010":-7.87359094619751,"1011":-0.8678057789802551,"1012":6.353671073913574,"1013":0.4577532410621643,"1014":1.3890318870544434,"1015":0.8484781384468079,"1016":3.990835666656494,"1017":5.608582973480225,"1018":-4.046496391296387,"1019":1.6635303497314453,"1020":-0.3210815191268921,"1021":3.1791799068450928,"1022":2.2794432640075684,"1023":2.469003677368164,"1024":1.1209794282913208,"1025":-4.098524570465088,"1026":7.6124467849731445,"1027":2.7005276679992676,"1028":-4.371078014373779,"1029":0.6047602295875549,"1030":-0.7110739350318909,"1031":4.521791458129883,"1032":1.9357603788375854,"1033":2.822662115097046,"1034":0.7256274819374084,"1035":1.3349331617355347,"1036":-1.3170464038848877,"1037":2.278132438659668,"1038":5.145778656005859,"1039":-0.48090827465057373,"1040":0.17300909757614136,"1041":-0.6279382705688477,"1042":0.14166516065597534,"1043":0.07188142836093903,"1044":-0.7804943919181824,"1045":-4.031774997711182,"1046":0.05102720856666565,"1047":1.1690616607666016,"1048":-2.7253668308258057,"1049":-1.157194972038269,"1050":1.6382097005844116,"1051":0.20817379653453827,"1052":2.943765163421631,"1053":1.0155695676803589,"1054":-2.6975536346435547,"1055":-0.005236831493675709,"1056":-7.235151290893555,"1057":0.5300113558769226,"1058":-0.13291320204734802,"1059":-4.458193778991699,"1060":-2.1279447078704834,"1061":0.36008426547050476,"1062":-1.5539062023162842,"1063":0.47384682297706604,"1064":2.473959445953369,"1065":-2.5479044914245605,"1066":3.56592059135437,"1067":-3.38181734085083,"1068":-0.8295179009437561,"1069":-5.973106384277344,"1070":2.424356460571289,"1071":3.816040277481079,"1072":2.413121223449707,"1073":-4.580686092376709,"1074":1.7077378034591675,"1075":-2.508462429046631,"1076":-4.557338237762451,"1077":-0.9600647687911987,"1078":0.6799901723861694,"1079":4.327876091003418,"1080":1.4387768507003784,"1081":-0.8111945390701294,"1082":-3.506197214126587,"1083":2.696408748626709,"1084":1.0767590999603271,"1085":1.0135211944580078,"1086":2.562312126159668,"1087":1.9906842708587646,"1088":1.6428331136703491,"1089":-2.942124366760254,"1090":-2.3748762607574463,"1091":-2.0939595699310303,"1092":1.2684718370437622,"1093":-4.272488117218018,"1094":2.9586780071258545,"1095":-4.6819376945495605,"1096":-2.4943654537200928,"1097":3.2014143466949463,"1098":3.044888734817505,"1099":-1.3786046504974365,"1100":1.8739417791366577,"1101":4.027194976806641,"1102":-0.30574944615364075,"1103":-1.5699471235275269,"1104":-0.20998696982860565,"1105":2.128103017807007,"1106":1.3707866668701172,"1107":-1.3193881511688232,"1108":-3.0186843872070312,"1109":-5.871844291687012,"1110":2.950911045074463,"1111":2.1457948684692383,"1112":2.6177823543548584,"1113":1.9128117561340332,"1114":1.020841121673584,"1115":-7.55190896987915,"1116":3.914755344390869,"1117":-0.34860339760780334,"1118":9.301237106323242,"1119":2.687784433364868,"1120":-2.8524394035339355,"1121":2.9788014888763428,"1122":2.635490894317627,"1123":-6.874477863311768,"1124":-0.25455671548843384,"1125":2.9731321334838867,"1126":-5.901736736297607,"1127":4.331462383270264,"1128":2.2993428707122803,"1129":-0.8623265027999878,"1130":2.422759532928467,"1131":7.704602241516113,"1132":-2.6408321857452393,"1133":2.540775775909424,"1134":3.125000476837158,"1135":-5.297802448272705,"1136":5.9630842208862305,"1137":6.285822868347168,"1138":0.07510803639888763,"1139":-2.177393913269043,"1140":5.751810073852539,"1141":9.62226676940918,"1142":1.729418396949768,"1143":2.263390064239502,"1144":-4.047610759735107,"1145":1.5772383213043213,"1146":-2.8458199501037598,"1147":10.686447143554688,"1148":10.428267478942871,"1149":-2.2464301586151123,"1150":-5.594996929168701,"1151":6.591564178466797,"1152":-5.1903276443481445,"1153":-9.241447448730469,"1154":-9.393083572387695,"1155":-3.6951565742492676,"1156":-8.917194366455078,"1157":-9.211362838745117,"1158":12.596426010131836,"1159":-2.1930367946624756,"1160":-6.405589580535889,"1161":8.94759750366211,"1162":7.333861827850342,"1163":-9.229447364807129,"1164":11.64594841003418,"1165":-0.460895836353302,"1166":-4.13251256942749,"1167":7.227043151855469,"1168":-2.8177690505981445,"1169":-1.0304739475250244,"1170":0.8571258783340454,"1171":-0.4733864963054657,"1172":-0.4363301396369934,"1173":4.947230815887451,"1174":-10.583023071289062,"1175":-2.9337401390075684,"1176":-11.806296348571777,"1177":2.5630385875701904,"1178":1.1382964849472046,"1179":-1.0707430839538574,"1180":0.7838174104690552,"1181":-0.010926563292741776,"1182":1.5412933826446533,"1183":-3.076392650604248,"1184":7.121190071105957,"1185":5.150463581085205,"1186":-3.8015434741973877,"1187":-9.100016593933105,"1188":-1.6296497583389282,"1189":3.248131275177002,"1190":0.21083283424377441,"1191":2.4080464839935303,"1192":-3.9867873191833496,"1193":2.9435925483703613,"1194":-3.6336939334869385,"1195":2.264796257019043,"1196":2.590791940689087,"1197":-2.7767300605773926,"1198":-0.5655927658081055,"1199":0.1601409912109375,"1200":-3.1132895946502686,"1201":-1.752549648284912,"1202":6.296054363250732,"1203":-4.689515113830566,"1204":-0.11349262297153473,"1205":-2.0114963054656982,"1206":-2.005341053009033,"1207":-5.310426712036133,"1208":3.9260032176971436,"1209":-2.072824001312256,"1210":0.9886796474456787,"1211":-0.04453697428107262,"1212":-5.4119954109191895,"1213":-3.338477849960327,"1214":-3.4205048084259033,"1215":5.5911760330200195,"1216":0.5564003586769104,"1217":2.0837011337280273,"1218":1.8569124937057495,"1219":-3.8224122524261475,"1220":-4.0316667556762695,"1221":-0.0672057569026947,"1222":3.184330463409424,"1223":-0.5709826946258545,"1224":4.787145614624023,"1225":-0.6593033075332642,"1226":3.3863983154296875,"1227":0.9516189098358154,"1228":0.20100288093090057,"1229":-1.5513758659362793,"1230":2.164666175842285,"1231":0.9941254258155823,"1232":-2.1685822010040283,"1233":-4.445529460906982,"1234":1.0499086380004883,"1235":2.9335029125213623,"1236":-2.8109774589538574,"1237":4.694457530975342,"1238":6.347845554351807,"1239":4.031234264373779,"1240":1.1787065267562866,"1241":-4.403048515319824,"1242":0.6801348924636841,"1243":-6.325260162353516,"1244":5.653079986572266,"1245":-0.6424053311347961,"1246":-1.249132513999939,"1247":-2.0158138275146484,"1248":-3.9289989471435547,"1249":0.7301464676856995,"1250":-3.3865163326263428,"1251":1.716883659362793,"1252":2.2811813354492188,"1253":0.30999407172203064,"1254":2.07245135307312,"1255":0.5085073709487915,"1256":0.6995725035667419,"1257":2.2603447437286377,"1258":-3.109431505203247,"1259":0.5261324048042297,"1260":0.21374046802520752,"1261":-2.210353374481201,"1262":-3.072504997253418,"1263":-1.458215355873108,"1264":-1.553137183189392,"1265":-2.216407537460327,"1266":-1.588033676147461,"1267":0.0971401035785675,"1268":-0.4720144271850586,"1269":0.3449857831001282,"1270":-3.804525136947632,"1271":-1.0944631099700928,"1272":1.7654650211334229,"1273":-0.9013053774833679,"1274":3.015934705734253,"1275":0.7413856387138367,"1276":-1.6307073831558228,"1277":1.1015634536743164,"1278":1.0303977727890015,"1279":-2.7240192890167236,"1280":-0.7456381916999817,"1281":-0.9090928435325623,"1282":-0.32290396094322205,"1283":-1.6253377199172974,"1284":3.453829050064087,"1285":1.832351803779602,"1286":1.0116101503372192,"1287":3.3962206840515137,"1288":-0.563149094581604,"1289":-0.4531630873680115,"1290":1.1677684783935547,"1291":2.332559823989868,"1292":-0.3306400179862976,"1293":1.2946189641952515,"1294":1.6058155298233032,"1295":-0.0932500883936882,"1296":-1.2174220085144043,"1297":-0.7315691113471985,"1298":1.5328258275985718,"1299":0.2550280690193176,"1300":-2.9456794261932373,"1301":-2.2287628650665283,"1302":1.7741106748580933,"1303":-0.6575123071670532,"1304":-3.484452962875366,"1305":-0.5639599561691284,"1306":-2.255805253982544,"1307":0.3824292719364166,"1308":-3.1568310260772705,"1309":-0.42933395504951477,"1310":1.0645073652267456,"1311":-1.0007781982421875,"1312":2.936948776245117,"1313":0.3953339457511902,"1314":-1.5237476825714111,"1315":2.682191848754883,"1316":1.9010816812515259,"1317":-1.7627202272415161,"1318":-0.36183926463127136,"1319":-0.47340983152389526,"1320":-0.26159101724624634,"1321":-2.03421688079834,"1322":0.4721342623233795,"1323":0.775016188621521,"1324":-0.30805525183677673,"1325":2.518688678741455,"1326":-2.358306407928467,"1327":-0.22044524550437927,"1328":-0.7309991121292114,"1329":2.4295856952667236,"1330":3.9547226428985596,"1331":0.0903797447681427,"1332":1.0298346281051636,"1333":-2.7320070266723633,"1334":0.6786661744117737,"1335":2.887199640274048,"1336":-5.125585079193115,"1337":0.025817953050136566,"1338":4.725825786590576,"1339":1.5078833103179932,"1340":4.603608131408691,"1341":-0.2947070598602295,"1342":1.0834773778915405,"1343":3.214890480041504,"1344":0.974460780620575,"1345":-1.5260769128799438,"1346":3.7062788009643555,"1347":-2.5782716274261475,"1348":3.267897129058838,"1349":-1.2721749544143677,"1350":-0.4481064975261688,"1351":-1.504787564277649,"1352":1.3518226146697998,"1353":-7.592609882354736,"1354":-3.514272451400757,"1355":4.9534687995910645,"1356":2.6026108264923096,"1357":0.35373085737228394,"1358":-5.191519737243652,"1359":6.169088363647461,"1360":1.837231993675232,"1361":1.2327197790145874,"1362":-4.016913414001465,"1363":-4.232314586639404,"1364":-1.443586826324463,"1365":2.170384168624878,"1366":-1.4035288095474243,"1367":-4.306589126586914,"1368":4.326799392700195,"1369":-3.871954917907715,"1370":3.5576469898223877,"1371":-2.159057140350342,"1372":4.511607646942139,"1373":-1.323594331741333,"1374":-0.12926091253757477,"1375":6.32235860824585,"1376":7.478733539581299,"1377":0.36865219473838806,"1378":6.6156840324401855,"1379":2.421309232711792,"1380":-0.0901477113366127,"1381":-4.04327392578125,"1382":-4.476781845092773,"1383":1.9046765565872192,"1384":1.4379663467407227,"1385":-0.809785783290863,"1386":-3.13014817237854,"1387":-6.323139190673828,"1388":5.671025276184082,"1389":6.843661785125732,"1390":-0.26580721139907837,"1391":-1.8014411926269531,"1392":6.280625820159912,"1393":-6.552007675170898,"1394":3.9306230545043945,"1395":0.7796443104743958,"1396":2.045341968536377,"1397":-1.8783233165740967,"1398":1.9939334392547607,"1399":-9.560090065002441,"1400":-2.016434669494629,"1401":2.520796537399292,"1402":-4.401618957519531,"1403":2.017679452896118,"1404":-8.09504222869873,"1405":0.35641053318977356,"1406":-0.5631264448165894,"1407":0.2419608235359192,"1408":-1.796822428703308,"1409":-0.06941553205251694,"1410":-2.5749568939208984,"1411":0.2859863340854645,"1412":-1.533555507659912,"1413":1.0031439065933228,"1414":3.105731964111328,"1415":1.5406192541122437,"1416":-2.289077043533325,"1417":-2.337106227874756,"1418":1.5449703931808472,"1419":-1.4201328754425049,"1420":3.132413625717163,"1421":-1.308484673500061,"1422":0.6172811388969421,"1423":1.7200486660003662,"1424":-3.7570760250091553,"1425":1.5121256113052368,"1426":0.8338661193847656,"1427":-0.898561954498291,"1428":-1.266471028327942,"1429":0.49573183059692383,"1430":-0.10272787511348724,"1431":-0.970774233341217,"1432":-1.1856669187545776,"1433":-0.44288602471351624,"1434":1.0817395448684692,"1435":-0.44559770822525024,"1436":0.027608968317508698,"1437":-0.6176605224609375,"1438":-0.5246122479438782,"1439":0.2537657618522644,"1440":2.291137456893921,"1441":-1.2533025741577148,"1442":3.2654385566711426,"1443":-0.43120095133781433,"1444":0.5899747610092163,"1445":-0.8595848679542542,"1446":1.7301641702651978,"1447":0.7081913948059082,"1448":-1.207907795906067,"1449":-1.4126553535461426,"1450":-0.5880513191223145,"1451":-0.30289793014526367,"1452":0.8965768218040466,"1453":-0.3967238962650299,"1454":-0.5356313586235046,"1455":-0.5712856650352478,"1456":-0.6694749593734741,"1457":0.45907071232795715,"1458":2.651294469833374,"1459":0.3565545976161957,"1460":2.808990001678467,"1461":2.6203176975250244,"1462":-1.0216745138168335,"1463":2.5454840660095215,"1464":-0.2487146407365799,"1465":0.10884594917297363,"1466":0.5543655157089233,"1467":0.28853046894073486,"1468":-0.2083914577960968,"1469":0.06698223203420639,"1470":-1.724119782447815,"1471":1.3515198230743408,"1472":3.7234628200531006,"1473":-0.9158817529678345,"1474":-0.33547502756118774,"1475":1.3207449913024902,"1476":-0.3131899833679199,"1477":0.6909657716751099,"1478":1.8740997314453125,"1479":-0.17676645517349243,"1480":4.157135009765625,"1481":-0.6124920845031738}},"hiddenLayers":[{"inputMatrix":{"rows":20,"columns":38,"weights":{"0":0.8735553622245789,"1":-1.2938929796218872,"2":-0.2505122125148773,"3":-0.33037060499191284,"4":1.5618643760681152,"5":-0.28316444158554077,"6":-0.23720252513885498,"7":-3.1414527893066406,"8":0.6448274254798889,"9":-0.21730200946331024,"10":-0.016703041270375252,"11":-0.4870927035808563,"12":0.45703813433647156,"13":1.6813393831253052,"14":0.14366470277309418,"15":-0.509087085723877,"16":3.0102014541625977,"17":-0.4945623278617859,"18":0.6486347913742065,"19":-1.2429548501968384,"20":-1.415718913078308,"21":-2.322580575942993,"22":1.7672492265701294,"23":-1.537933588027954,"24":-3.1506500244140625,"25":1.0258632898330688,"26":-0.07639569789171219,"27":0.8115864396095276,"28":1.4778779745101929,"29":1.0761089324951172,"30":0.6228818893432617,"31":0.980621874332428,"32":2.3791003227233887,"33":-1.8264857530593872,"34":1.2669428586959839,"35":0.923759400844574,"36":0.20150835812091827,"37":-3.49190354347229,"38":1.6011728048324585,"39":-0.9275228381156921,"40":0.7218755483627319,"41":0.5577157139778137,"42":0.8407474756240845,"43":1.4891215562820435,"44":-0.54323810338974,"45":-0.40635576844215393,"46":3.9204556941986084,"47":0.5368794798851013,"48":-1.5003340244293213,"49":2.230764389038086,"50":0.8485144376754761,"51":-0.7476915717124939,"52":0.3259856700897217,"53":-1.41207754611969,"54":1.257348656654358,"55":-2.6730310916900635,"56":1.7725082635879517,"57":-0.7900392413139343,"58":-1.4811711311340332,"59":0.6365765333175659,"60":1.5594396591186523,"61":-2.1791229248046875,"62":-0.44748976826667786,"63":1.0594098567962646,"64":1.474269151687622,"65":-1.7701847553253174,"66":0.8801515698432922,"67":1.5960299968719482,"68":1.4994806051254272,"69":0.11953558027744293,"70":-0.3640255331993103,"71":-1.166808843612671,"72":0.4006499648094177,"73":-0.9110310673713684,"74":1.3876464366912842,"75":-1.0682867765426636,"76":0.5992173552513123,"77":0.2863462567329407,"78":-0.2740621864795685,"79":0.31009578704833984,"80":1.1974259614944458,"81":0.40142756700515747,"82":-0.764980673789978,"83":-1.4080462455749512,"84":-1.5548629760742188,"85":0.6171313524246216,"86":0.09604247659444809,"87":-0.19018281996250153,"88":1.1191420555114746,"89":-0.6524791717529297,"90":-1.295210599899292,"91":-2.249906301498413,"92":-0.3536505103111267,"93":-0.11894956231117249,"94":0.49706095457077026,"95":-0.865580141544342,"96":-0.31320223212242126,"97":-0.540314793586731,"98":0.5525972843170166,"99":-1.28078293800354,"100":-2.0859973430633545,"101":3.6756927967071533,"102":1.4944911003112793,"103":0.8660823106765747,"104":1.386554479598999,"105":1.5480748414993286,"106":-2.2259738445281982,"107":2.1278250217437744,"108":2.1337594985961914,"109":-1.1499072313308716,"110":0.1335955411195755,"111":1.520121455192566,"112":0.8496801853179932,"113":0.41345128417015076,"114":-0.43899211287498474,"115":0.8230810761451721,"116":0.8109655380249023,"117":-3.342921018600464,"118":-1.1726462841033936,"119":-0.3594602346420288,"120":-0.5874608755111694,"121":0.6600118279457092,"122":-1.3129459619522095,"123":-1.7230569124221802,"124":3.2050204277038574,"125":1.6500325202941895,"126":-2.8235440254211426,"127":-2.409491539001465,"128":-2.0572547912597656,"129":1.3692259788513184,"130":-2.159162998199463,"131":-1.620246171951294,"132":0.37284111976623535,"133":0.8174153566360474,"134":4.189945697784424,"135":1.6507363319396973,"136":-0.39036381244659424,"137":0.21628306806087494,"138":0.7302936315536499,"139":0.16098670661449432,"140":2.0321595668792725,"141":1.564128041267395,"142":-1.8254139423370361,"143":1.6584759950637817,"144":-1.978888750076294,"145":0.6020285487174988,"146":-1.5188336372375488,"147":1.8784046173095703,"148":-1.582668423652649,"149":0.3842208683490753,"150":0.5909498929977417,"151":2.0719687938690186,"152":-0.3619724214076996,"153":-0.18873414397239685,"154":-1.5310280323028564,"155":-1.0852197408676147,"156":-0.16072620451450348,"157":0.30629488825798035,"158":-0.12235045433044434,"159":0.5819734334945679,"160":-2.17435622215271,"161":-1.7754087448120117,"162":2.1229963302612305,"163":-0.8804464340209961,"164":0.6687703728675842,"165":0.29604533314704895,"166":-0.7255175709724426,"167":-0.5767995119094849,"168":-2.6054484844207764,"169":0.48473525047302246,"170":1.12063467502594,"171":-1.1148676872253418,"172":1.3097014427185059,"173":0.5923600196838379,"174":-1.5349891185760498,"175":-2.948617935180664,"176":-0.40279531478881836,"177":-0.3545725643634796,"178":2.3880388736724854,"179":0.6778275370597839,"180":-1.5031111240386963,"181":0.9477135539054871,"182":0.2769182026386261,"183":-0.31094878911972046,"184":1.5780097246170044,"185":1.163714051246643,"186":-2.754533290863037,"187":-0.8532326221466064,"188":-1.7382254600524902,"189":-0.20324377715587616,"190":3.3260645866394043,"191":0.3797767758369446,"192":-1.2062866687774658,"193":0.8843768239021301,"194":1.753044605255127,"195":-0.42104408144950867,"196":3.203151226043701,"197":2.0743637084960938,"198":1.043286681175232,"199":-1.9678928852081299,"200":0.6108559370040894,"201":2.6204841136932373,"202":0.495977520942688,"203":2.175337553024292,"204":-1.0788180828094482,"205":-0.5752244591712952,"206":1.6724330186843872,"207":-0.5163087844848633,"208":1.1742080450057983,"209":0.17520377039909363,"210":-0.9117060303688049,"211":1.8045430183410645,"212":1.070420503616333,"213":-2.798490285873413,"214":0.9382716417312622,"215":0.18408435583114624,"216":1.3577944040298462,"217":0.22692438960075378,"218":2.6595206260681152,"219":-1.0403929948806763,"220":1.0473418235778809,"221":2.1255414485931396,"222":-1.0345666408538818,"223":-0.36283475160598755,"224":-0.622916042804718,"225":0.7622153759002686,"226":1.674806833267212,"227":-1.6868003606796265,"228":-0.22592437267303467,"229":-0.4542376399040222,"230":0.4024309515953064,"231":-0.34075361490249634,"232":-2.0143260955810547,"233":-0.17412669956684113,"234":-2.0928397178649902,"235":-1.847394347190857,"236":0.045423295348882675,"237":1.5755456686019897,"238":0.6870328783988953,"239":-1.3282912969589233,"240":-0.13352319598197937,"241":1.1106925010681152,"242":0.3671471178531647,"243":-0.04495503380894661,"244":0.41359058022499084,"245":1.6965737342834473,"246":-1.6302404403686523,"247":1.9863818883895874,"248":-0.3118668794631958,"249":0.678041398525238,"250":-2.3992199897766113,"251":-2.3945772647857666,"252":-1.9821031093597412,"253":1.2028603553771973,"254":-0.8254207372665405,"255":0.7139918804168701,"256":-1.007231593132019,"257":1.135526418685913,"258":-0.2827199399471283,"259":-0.45958471298217773,"260":-1.045935869216919,"261":-2.5163114070892334,"262":-0.269692063331604,"263":-0.9479585886001587,"264":0.46067938208580017,"265":-0.7772296667098999,"266":-0.2823244333267212,"267":-0.16886386275291443,"268":-0.2520885765552521,"269":0.5050536394119263,"270":-1.5128449201583862,"271":1.2968063354492188,"272":0.5272654294967651,"273":2.27382493019104,"274":-1.7956684827804565,"275":3.2658066749572754,"276":1.7371877431869507,"277":0.3161562383174896,"278":3.7446651458740234,"279":0.7804430723190308,"280":1.2335753440856934,"281":-2.763467788696289,"282":-1.8167710304260254,"283":1.2905300855636597,"284":-2.295473098754883,"285":-1.7146248817443848,"286":-0.7011201977729797,"287":0.2197948545217514,"288":-0.7458735704421997,"289":-0.8425503969192505,"290":-3.1306023597717285,"291":0.8412809371948242,"292":1.066278338432312,"293":-2.214111804962158,"294":-1.7786667346954346,"295":-0.384115993976593,"296":0.028751349076628685,"297":-0.07182508707046509,"298":-0.5292204022407532,"299":-0.6912351250648499,"300":0.09183522313833237,"301":0.7460358738899231,"302":-1.6349278688430786,"303":-3.0551390647888184,"304":-0.015213200822472572,"305":3.046706438064575,"306":-0.48393312096595764,"307":0.2954452335834503,"308":-1.3278741836547852,"309":2.332907199859619,"310":-3.2557270526885986,"311":0.13367633521556854,"312":1.4020947217941284,"313":1.0008482933044434,"314":-1.3954222202301025,"315":2.2817018032073975,"316":1.0729446411132812,"317":-0.7169918417930603,"318":2.121006965637207,"319":-2.350958824157715,"320":0.3728469908237457,"321":-0.8908686637878418,"322":1.6978470087051392,"323":0.7581003308296204,"324":-0.15188823640346527,"325":1.2469542026519775,"326":1.9466367959976196,"327":-2.0429270267486572,"328":-0.9130831956863403,"329":1.5607153177261353,"330":1.542733907699585,"331":-1.1166071891784668,"332":1.3324220180511475,"333":1.3937909603118896,"334":-1.0809085369110107,"335":1.3714936971664429,"336":-1.7082853317260742,"337":-1.0987627506256104,"338":-0.03208772838115692,"339":-0.11255764961242676,"340":1.3422317504882812,"341":-0.8911210298538208,"342":2.193577289581299,"343":0.43499627709388733,"344":-3.2206075191497803,"345":0.22088368237018585,"346":-0.5124455690383911,"347":2.455562114715576,"348":-2.8660902976989746,"349":0.582158625125885,"350":3.359247922897339,"351":2.8873324394226074,"352":-0.20902878046035767,"353":0.5810844302177429,"354":2.6520755290985107,"355":-0.7318208813667297,"356":0.41732800006866455,"357":-3.0853052139282227,"358":1.3036659955978394,"359":-0.2995924949645996,"360":-0.6101675033569336,"361":-0.24254107475280762,"362":0.5644294619560242,"363":-0.08657833933830261,"364":-1.0886043310165405,"365":-0.7166344523429871,"366":-1.580060601234436,"367":0.2853405475616455,"368":0.34527796506881714,"369":-0.32889437675476074,"370":0.4859961271286011,"371":1.1601178646087646,"372":0.496664434671402,"373":-0.8187631964683533,"374":-0.8942474722862244,"375":-1.005860686302185,"376":-0.007252815179526806,"377":-1.4618431329727173,"378":-2.2514984607696533,"379":-0.3848710060119629,"380":-1.4377574920654297,"381":-1.0671963691711426,"382":0.5447639226913452,"383":-1.2676154375076294,"384":1.56905996799469,"385":0.5191084146499634,"386":-1.5233097076416016,"387":1.0725029706954956,"388":1.6596884727478027,"389":-2.0462427139282227,"390":1.1346285343170166,"391":2.788417100906372,"392":0.7578909397125244,"393":-0.15550515055656433,"394":2.5119776725769043,"395":0.5980052351951599,"396":1.9009206295013428,"397":-1.394105315208435,"398":-1.0705113410949707,"399":-0.16158504784107208,"400":0.18936803936958313,"401":-0.7772784233093262,"402":3.025026559829712,"403":0.13734565675258636,"404":-1.5366644859313965,"405":1.4499433040618896,"406":0.02073921635746956,"407":-2.0401852130889893,"408":1.3912979364395142,"409":1.0902185440063477,"410":-0.3668118119239807,"411":0.3060097098350525,"412":-1.511343240737915,"413":-1.6043286323547363,"414":3.601747512817383,"415":0.6922582387924194,"416":3.305060386657715,"417":-1.0872220993041992,"418":0.7701128721237183,"419":1.6399261951446533,"420":-2.1897170543670654,"421":-1.5459970235824585,"422":0.7087752223014832,"423":1.1821954250335693,"424":0.898249626159668,"425":2.8587253093719482,"426":1.6141352653503418,"427":-1.7285383939743042,"428":-0.36696404218673706,"429":1.5463178157806396,"430":0.8098910450935364,"431":-0.7895708084106445,"432":0.4995337128639221,"433":-1.0130559206008911,"434":3.1243948936462402,"435":-0.4578702747821808,"436":-2.101483106613159,"437":0.17019028961658478,"438":0.5709335803985596,"439":1.6195298433303833,"440":0.6721095442771912,"441":-1.2041852474212646,"442":-0.012713076546788216,"443":0.7340653538703918,"444":1.7695220708847046,"445":-3.8733673095703125,"446":3.4135799407958984,"447":1.2310831546783447,"448":-0.08527284860610962,"449":0.8657355904579163,"450":-0.7870968580245972,"451":-0.3777974843978882,"452":2.511307716369629,"453":1.912216305732727,"454":1.213850498199463,"455":0.028569793328642845,"456":-1.9472688436508179,"457":1.0220423936843872,"458":2.233877420425415,"459":2.713442802429199,"460":-1.3270858526229858,"461":0.020141713321208954,"462":-1.8033480644226074,"463":-1.6500681638717651,"464":-0.41404521465301514,"465":0.17566147446632385,"466":-1.8792344331741333,"467":-1.915055513381958,"468":-1.8577243089675903,"469":0.5088699460029602,"470":0.7557858228683472,"471":1.7493102550506592,"472":-0.6841477751731873,"473":-1.3458136320114136,"474":-1.0493557453155518,"475":2.280087947845459,"476":-1.0226225852966309,"477":-1.4890613555908203,"478":2.1460700035095215,"479":3.3348770141601562,"480":-0.6619642972946167,"481":-1.270440936088562,"482":-2.2411959171295166,"483":-0.2940109074115753,"484":1.559365153312683,"485":-0.982574462890625,"486":0.610390841960907,"487":-0.27037808299064636,"488":-1.8728456497192383,"489":1.840752124786377,"490":1.7383495569229126,"491":-0.21377265453338623,"492":2.816418409347534,"493":1.1850202083587646,"494":1.0923153162002563,"495":-0.9466843008995056,"496":-2.7879648208618164,"497":0.5388660430908203,"498":0.7570146322250366,"499":-0.6090981364250183,"500":-1.274191975593567,"501":-0.5211222767829895,"502":2.2624638080596924,"503":0.7096288800239563,"504":-2.805569648742676,"505":1.533721923828125,"506":3.6869752407073975,"507":-1.081322431564331,"508":0.5979278683662415,"509":-2.112258195877075,"510":1.1196755170822144,"511":1.6988110542297363,"512":-0.6207021474838257,"513":-0.09056984633207321,"514":-1.0781663656234741,"515":-1.9795500040054321,"516":-0.6843990087509155,"517":-2.7281458377838135,"518":0.5430309772491455,"519":0.723503053188324,"520":0.7451856136322021,"521":1.7096812725067139,"522":2.003262758255005,"523":2.1264688968658447,"524":0.5199569463729858,"525":0.12454452365636826,"526":0.787864625453949,"527":-0.776986300945282,"528":2.161267042160034,"529":0.4641573131084442,"530":0.021288054063916206,"531":-1.9826780557632446,"532":0.6796585321426392,"533":2.40045428276062,"534":-0.3296810984611511,"535":-0.3913663923740387,"536":-1.7542632818222046,"537":1.5569263696670532,"538":-1.5680198669433594,"539":2.0165162086486816,"540":2.002525806427002,"541":1.2774676084518433,"542":0.21625132858753204,"543":0.23739294707775116,"544":-0.07611376792192459,"545":1.1716705560684204,"546":0.47802168130874634,"547":-0.4470221996307373,"548":2.740934371948242,"549":0.3469599485397339,"550":-1.4903441667556763,"551":1.797236442565918,"552":0.41916853189468384,"553":0.649842381477356,"554":-0.5730084776878357,"555":-1.4073152542114258,"556":-0.15535253286361694,"557":2.1191093921661377,"558":1.809320092201233,"559":0.2921617031097412,"560":1.4156417846679688,"561":2.63143253326416,"562":-1.604245662689209,"563":1.2584871053695679,"564":-2.5970351696014404,"565":-2.428244113922119,"566":1.228965401649475,"567":0.24142950773239136,"568":2.0701522827148438,"569":-0.3169180750846863,"570":-0.2976563572883606,"571":0.09677597880363464,"572":2.3968448638916016,"573":0.17179718613624573,"574":0.3593922555446625,"575":1.9883756637573242,"576":2.5907094478607178,"577":0.2589702606201172,"578":-0.4403532147407532,"579":0.908109724521637,"580":-0.009065392427146435,"581":-0.3788813352584839,"582":1.4056997299194336,"583":-0.9063239097595215,"584":5.094803333282471,"585":0.33658450841903687,"586":2.869307279586792,"587":-0.961185097694397,"588":-2.7196033000946045,"589":0.03933510184288025,"590":-0.5529064536094666,"591":0.43108421564102173,"592":0.659309446811676,"593":1.3005539178848267,"594":-0.501569390296936,"595":0.07860713452100754,"596":0.06647089123725891,"597":-1.8697059154510498,"598":0.9751970767974854,"599":-3.0918171405792236,"600":-0.2724872827529907,"601":-0.5413686037063599,"602":0.6297911405563354,"603":0.31739601492881775,"604":2.63515567779541,"605":2.4168810844421387,"606":1.357587218284607,"607":0.13721278309822083,"608":0.050492674112319946,"609":0.3970423936843872,"610":-2.213857412338257,"611":-0.4258910119533539,"612":-2.0034852027893066,"613":1.4391804933547974,"614":-0.9493528008460999,"615":-1.6191238164901733,"616":1.2681628465652466,"617":1.2153881788253784,"618":0.6571453213691711,"619":0.014630401507019997,"620":0.7799246907234192,"621":-2.238111734390259,"622":0.8252080678939819,"623":-2.972228527069092,"624":-0.7080657482147217,"625":0.18440252542495728,"626":-1.5308754444122314,"627":-0.6009404063224792,"628":-1.0043559074401855,"629":-0.770654559135437,"630":0.06634499877691269,"631":0.23463422060012817,"632":-1.6608116626739502,"633":2.4159176349639893,"634":-1.5414445400238037,"635":-1.7994396686553955,"636":0.6203306317329407,"637":1.554394245147705,"638":1.1275272369384766,"639":0.8562843799591064,"640":-1.0794904232025146,"641":0.08917313069105148,"642":0.40484434366226196,"643":0.32517915964126587,"644":0.6165157556533813,"645":-3.468057155609131,"646":-0.4467928111553192,"647":0.2726006805896759,"648":0.29313239455223083,"649":2.076286554336548,"650":-0.07613105326890945,"651":1.9325237274169922,"652":0.003343723015859723,"653":-0.8849197626113892,"654":-2.2302520275115967,"655":-2.357219934463501,"656":-0.9952229261398315,"657":-0.1787749081850052,"658":0.25339221954345703,"659":1.510545253753662,"660":-2.7687981128692627,"661":-0.06077554449439049,"662":-0.511383056640625,"663":-0.9307483434677124,"664":1.2041364908218384,"665":-1.2430877685546875,"666":-1.2928727865219116,"667":0.06570416688919067,"668":-1.6824941635131836,"669":-0.7006685137748718,"670":0.25984498858451843,"671":0.6760740876197815,"672":0.014342915266752243,"673":-1.3065577745437622,"674":-0.2952210605144501,"675":1.2834895849227905,"676":2.5097055435180664,"677":0.4590637981891632,"678":-0.07420068979263306,"679":-1.942273497581482,"680":-2.1301212310791016,"681":-2.539180040359497,"682":-1.1313420534133911,"683":1.776735782623291,"684":-0.85661381483078,"685":-0.3649783730506897,"686":-1.639167070388794,"687":0.5719386339187622,"688":0.6157264709472656,"689":2.141383171081543,"690":-0.4177863597869873,"691":-0.42397841811180115,"692":0.4812852144241333,"693":0.6543030142784119,"694":-2.613637924194336,"695":-0.1741919070482254,"696":3.1058173179626465,"697":2.1002864837646484,"698":0.0023086867295205593,"699":0.7555025219917297,"700":1.4746513366699219,"701":-0.05306701362133026,"702":-0.8004233241081238,"703":-0.9122434258460999,"704":-1.349440336227417,"705":-2.044114351272583,"706":-0.732219934463501,"707":-1.6964738368988037,"708":0.3774144649505615,"709":2.04864764213562,"710":0.4010627269744873,"711":0.5502642393112183,"712":-1.8466423749923706,"713":0.3644399046897888,"714":-1.4465855360031128,"715":-2.2156405448913574,"716":-2.7339463233947754,"717":-4.2289228439331055,"718":-0.09890627861022949,"719":-1.3605109453201294,"720":-0.8254224061965942,"721":-1.061457633972168,"722":0.07515062391757965,"723":1.0212838649749756,"724":-1.7446881532669067,"725":1.2808431386947632,"726":1.6418577432632446,"727":1.3173143863677979,"728":1.022204875946045,"729":-2.0560858249664307,"730":-1.2221046686172485,"731":1.641618251800537,"732":0.195667564868927,"733":0.1949085295200348,"734":0.9218931794166565,"735":1.636645793914795,"736":-1.9579297304153442,"737":0.32109516859054565,"738":-0.016295233741402626,"739":3.3763504028320312,"740":-1.5088627338409424,"741":-2.531083106994629,"742":0.5544114112854004,"743":-2.9597268104553223,"744":-2.608045816421509,"745":-1.4278230667114258,"746":-2.189180612564087,"747":0.9757586121559143,"748":0.3890986740589142,"749":2.653907537460327,"750":-0.972525417804718,"751":1.2336225509643555,"752":-2.711853504180908,"753":2.5918948650360107,"754":0.7534853219985962,"755":-3.2728309631347656,"756":-0.9148316383361816,"757":0.02275693230330944,"758":-1.3886444568634033,"759":1.0573214292526245}},"inputHidden":{"rows":20,"columns":20,"weights":{"0":1.7906447649002075,"1":1.9631259441375732,"2":0.9084965586662292,"3":-0.5836620330810547,"4":-2.527735710144043,"5":6.0419392585754395,"6":-0.5910072326660156,"7":-1.4363223314285278,"8":-4.582741737365723,"9":0.10230912268161774,"10":0.14131097495555878,"11":-4.237314701080322,"12":4.228152751922607,"13":-0.5241042375564575,"14":0.36315569281578064,"15":1.6923311948776245,"16":1.4313244819641113,"17":0.4352111518383026,"18":3.325716257095337,"19":-0.6288182139396667,"20":-1.008409023284912,"21":2.64495587348938,"22":1.6262127161026,"23":5.842667579650879,"24":0.23096071183681488,"25":-1.8593459129333496,"26":-2.2399685382843018,"27":2.1278741359710693,"28":-1.0267430543899536,"29":2.7235984802246094,"30":-1.3633413314819336,"31":0.6139200925827026,"32":1.659827470779419,"33":-1.6549317836761475,"34":3.2437617778778076,"35":-2.6437675952911377,"36":4.458410739898682,"37":-1.4313098192214966,"38":-0.46345943212509155,"39":-2.2434802055358887,"40":0.3881222605705261,"41":4.491245746612549,"42":-0.7623615264892578,"43":1.2327187061309814,"44":-0.35348618030548096,"45":-0.4372204840183258,"46":-0.9039095640182495,"47":-1.1952780485153198,"48":-2.7525010108947754,"49":2.901801586151123,"50":-2.7945187091827393,"51":1.719807744026184,"52":1.029075264930725,"53":0.2721598744392395,"54":-0.09627995640039444,"55":-1.839422345161438,"56":1.4345086812973022,"57":-2.373913049697876,"58":0.38325953483581543,"59":0.17567814886569977,"60":1.1277260780334473,"61":1.745204210281372,"62":1.5872633457183838,"63":0.2727285921573639,"64":3.7300832271575928,"65":1.607839822769165,"66":-4.358335971832275,"67":-0.923324704170227,"68":-0.2908039391040802,"69":-0.023156890645623207,"70":-1.3403078317642212,"71":-1.5031824111938477,"72":-1.1445890665054321,"73":2.36480975151062,"74":1.6021815538406372,"75":-3.3131206035614014,"76":1.6887730360031128,"77":1.5447120666503906,"78":2.4747917652130127,"79":1.153855800628662,"80":0.4185000956058502,"81":1.6353058815002441,"82":0.10385046899318695,"83":-1.120649814605713,"84":0.06395956873893738,"85":-0.05793038755655289,"86":0.2118954211473465,"87":1.2688363790512085,"88":-0.6735069751739502,"89":2.08001971244812,"90":0.9148533940315247,"91":2.226672410964966,"92":0.9051814079284668,"93":1.7226183414459229,"94":0.8741509318351746,"95":0.6519565582275391,"96":1.4348052740097046,"97":0.03053378127515316,"98":1.7790062427520752,"99":-0.3667655289173126,"100":1.70670485496521,"101":-2.5912561416625977,"102":-0.8623553514480591,"103":-0.315204381942749,"104":-7.745748996734619,"105":2.354804515838623,"106":-1.162440538406372,"107":0.4658283591270447,"108":0.6346206665039062,"109":-5.695213317871094,"110":-1.1590745449066162,"111":-1.572235345840454,"112":-0.5359775424003601,"113":1.7103286981582642,"114":-2.117587089538574,"115":-0.24056489765644073,"116":0.5418577194213867,"117":-1.8798763751983643,"118":-3.6057803630828857,"119":1.5761772394180298,"120":4.239265441894531,"121":-3.7866830825805664,"122":-0.11279041320085526,"123":0.66300368309021,"124":1.661670446395874,"125":-1.4213138818740845,"126":0.7267072796821594,"127":-0.6442016363143921,"128":-0.11259128898382187,"129":1.4917443990707397,"130":0.6912530660629272,"131":-0.3684898316860199,"132":-2.657896041870117,"133":-0.4431617259979248,"134":-1.2146530151367188,"135":4.2268290519714355,"136":-1.0697479248046875,"137":1.3664385080337524,"138":-0.03655875474214554,"139":0.026702243834733963,"140":2.144057273864746,"141":-0.2586350440979004,"142":3.055925130844116,"143":0.9902079105377197,"144":1.505600094795227,"145":-0.797187089920044,"146":-0.9253190755844116,"147":-0.005261580925434828,"148":-1.7605990171432495,"149":-2.490683078765869,"150":-1.9532467126846313,"151":0.6378032565116882,"152":-0.05131807550787926,"153":3.3861167430877686,"154":2.1424148082733154,"155":-1.640574336051941,"156":3.743403196334839,"157":0.18068748712539673,"158":-2.0031960010528564,"159":1.7676490545272827,"160":-0.5887880921363831,"161":-1.7189850807189941,"162":0.3648751974105835,"163":1.669586420059204,"164":-0.8645495772361755,"165":-1.0182605981826782,"166":0.7131228446960449,"167":0.6969751715660095,"168":-0.8414358496665955,"169":0.9495751261711121,"170":0.12600181996822357,"171":1.1134768724441528,"172":-0.17714230716228485,"173":-0.4832879900932312,"174":-0.36143478751182556,"175":1.286307692527771,"176":-0.5465660691261292,"177":-0.5947515964508057,"178":-4.15574312210083,"179":2.041454315185547,"180":-1.5639350414276123,"181":0.46386322379112244,"182":0.03342903405427933,"183":0.22601549327373505,"184":-1.1469229459762573,"185":1.5315744876861572,"186":1.3733291625976562,"187":0.14210090041160583,"188":-1.528263807296753,"189":0.2371659278869629,"190":-2.628929615020752,"191":0.38818952441215515,"192":0.21404612064361572,"193":0.1813010275363922,"194":0.4358808994293213,"195":1.3440760374069214,"196":0.9662693738937378,"197":-0.2425609678030014,"198":-3.5542173385620117,"199":1.8250514268875122,"200":-0.24738198518753052,"201":-1.0062628984451294,"202":2.36344051361084,"203":-1.0391546487808228,"204":0.1513550877571106,"205":-1.8401453495025635,"206":1.0854194164276123,"207":1.9699205160140991,"208":1.726827621459961,"209":-1.1444485187530518,"210":1.068029761314392,"211":-0.3958195447921753,"212":0.4860483705997467,"213":-1.157246470451355,"214":0.5676783919334412,"215":3.5032033920288086,"216":0.15818195044994354,"217":-0.14589877426624298,"218":-2.039019823074341,"219":-1.1234922409057617,"220":-1.82413649559021,"221":-1.4936792850494385,"222":-1.525744915008545,"223":1.3912808895111084,"224":0.3712610602378845,"225":-2.8300726413726807,"226":2.2369978427886963,"227":2.3560352325439453,"228":-2.050832748413086,"229":2.5909838676452637,"230":-1.3493951559066772,"231":4.237748622894287,"232":0.4429325759410858,"233":0.7227281928062439,"234":1.3455517292022705,"235":-0.013334563933312893,"236":2.253620147705078,"237":-0.2898818850517273,"238":0.5532470941543579,"239":0.7269431352615356,"240":0.5062459707260132,"241":0.4461279809474945,"242":0.35252583026885986,"243":-1.0350675582885742,"244":2.1760497093200684,"245":-0.4517430365085602,"246":0.08531676977872849,"247":-0.7166510820388794,"248":0.026306893676519394,"249":0.6743758916854858,"250":1.0923250913619995,"251":-0.9914160966873169,"252":0.6274933218955994,"253":-0.493777871131897,"254":-0.5800085663795471,"255":-0.34622564911842346,"256":0.7992766499519348,"257":-0.2508936822414398,"258":0.24328526854515076,"259":0.04503067582845688,"260":-0.4676068425178528,"261":6.4723639488220215,"262":-2.3334619998931885,"263":0.1412430703639984,"264":0.08610007911920547,"265":2.4727001190185547,"266":0.33454129099845886,"267":0.39713960886001587,"268":-3.4458467960357666,"269":-1.4579243659973145,"270":0.887280285358429,"271":0.6430560350418091,"272":0.30757638812065125,"273":-1.427654504776001,"274":-1.4985109567642212,"275":-0.9396429061889648,"276":1.6068596839904785,"277":-0.9310554265975952,"278":-1.1381356716156006,"279":-1.8210968971252441,"280":0.8751424551010132,"281":-1.624999761581421,"282":0.3797171115875244,"283":0.785317599773407,"284":1.2649834156036377,"285":0.3031328618526459,"286":0.598469614982605,"287":0.7361328601837158,"288":-0.7078091502189636,"289":-0.4324086606502533,"290":2.8339970111846924,"291":-1.228634238243103,"292":-0.5545276999473572,"293":-0.46977636218070984,"294":-1.0832701921463013,"295":1.2323766946792603,"296":0.14270992577075958,"297":2.232174873352051,"298":-0.44302064180374146,"299":0.17290045320987701,"300":2.105022430419922,"301":2.186190128326416,"302":-0.4965497553348541,"303":-1.1705803871154785,"304":-2.4426205158233643,"305":1.941049337387085,"306":0.7249144315719604,"307":-4.730169773101807,"308":0.9306538105010986,"309":-3.0495641231536865,"310":1.339585781097412,"311":0.6274712085723877,"312":0.6967785954475403,"313":-0.6735247373580933,"314":-5.860630512237549,"315":0.431205153465271,"316":-0.6795555353164673,"317":0.09275637567043304,"318":-1.2425864934921265,"319":-0.08244846016168594,"320":-1.7414366006851196,"321":-0.6100505590438843,"322":-1.009546160697937,"323":3.630112886428833,"324":0.9893866181373596,"325":1.2816530466079712,"326":0.16817136108875275,"327":0.7466504573822021,"328":1.9764028787612915,"329":1.978560447692871,"330":-0.11782298982143402,"331":1.933826208114624,"332":-2.3024935722351074,"333":1.097287893295288,"334":-0.14985686540603638,"335":1.3271920680999756,"336":0.8370764851570129,"337":0.7577584385871887,"338":-0.6646780371665955,"339":0.6129360198974609,"340":-1.326452374458313,"341":-2.341789484024048,"342":-3.396088123321533,"343":0.8027114272117615,"344":0.2127475142478943,"345":3.242140769958496,"346":1.6935008764266968,"347":1.8428547382354736,"348":2.4387292861938477,"349":1.257779598236084,"350":1.7279157638549805,"351":1.9431989192962646,"352":5.953800678253174,"353":0.010422727093100548,"354":-2.776414155960083,"355":0.9355493187904358,"356":0.01296487357467413,"357":-0.015123438090085983,"358":-0.21111615002155304,"359":0.4055888056755066,"360":-1.0713088512420654,"361":2.453890323638916,"362":-0.09970464557409286,"363":3.7909772396087646,"364":1.029646635055542,"365":2.5674664974212646,"366":0.5000318884849548,"367":2.1073343753814697,"368":-0.9783739447593689,"369":1.272092580795288,"370":-0.450685977935791,"371":1.5232714414596558,"372":1.710638165473938,"373":-0.35117948055267334,"374":-0.2581122815608978,"375":-3.2891178131103516,"376":-1.3641865253448486,"377":1.8854124546051025,"378":0.33832913637161255,"379":-1.5301569700241089,"380":0.20129066705703735,"381":0.06013201177120209,"382":-0.5407220721244812,"383":0.8256638050079346,"384":0.37784066796302795,"385":-0.27752000093460083,"386":-0.6207866072654724,"387":-0.15313133597373962,"388":-0.0748976469039917,"389":0.5517719388008118,"390":1.443336844444275,"391":0.7685419917106628,"392":1.6795456409454346,"393":0.9032712578773499,"394":-0.008243109099566936,"395":0.2895904779434204,"396":-1.145586609840393,"397":-1.8748034238815308,"398":-2.843324899673462,"399":1.4338793754577637}},"inputBias":{"rows":20,"columns":1,"weights":{"0":-1.9697054624557495,"1":-1.0201444625854492,"2":-0.502273678779602,"3":-0.844535231590271,"4":0.6515119075775146,"5":-0.10083547234535217,"6":-0.2029939591884613,"7":-1.9349243640899658,"8":2.753986120223999,"9":0.5250935554504395,"10":-0.11472924798727036,"11":-1.8842774629592896,"12":-1.51853346824646,"13":-0.030393993481993675,"14":-0.33078283071517944,"15":-0.14932279288768768,"16":-0.6834213733673096,"17":-0.06306497752666473,"18":-0.005501079373061657,"19":-1.692588210105896}},"forgetMatrix":{"rows":20,"columns":38,"weights":{"0":0.926131546497345,"1":-1.313795566558838,"2":-0.4523719549179077,"3":-0.9889614582061768,"4":2.299400568008423,"5":-0.7840732932090759,"6":2.355165958404541,"7":1.3955461978912354,"8":-0.6911430358886719,"9":-0.29478102922439575,"10":0.0319572351872921,"11":1.3523945808410645,"12":-0.04617023095488548,"13":-1.0931607484817505,"14":-0.32562243938446045,"15":0.46203839778900146,"16":-1.2203789949417114,"17":-0.28445670008659363,"18":-0.8666164875030518,"19":-0.6006484627723694,"20":0.966758131980896,"21":0.3423285484313965,"22":0.18777619302272797,"23":0.7940122485160828,"24":0.6084690690040588,"25":-1.4368976354599,"26":0.16475652158260345,"27":-0.22081181406974792,"28":-0.854733943939209,"29":-1.3544137477874756,"30":-0.195943221449852,"31":0.4867039620876312,"32":0.030058538541197777,"33":0.6034368276596069,"34":-1.7512948513031006,"35":1.1991312503814697,"36":-0.49435189366340637,"37":0.46248987317085266,"38":-1.4373221397399902,"39":1.2768256664276123,"40":0.42885199189186096,"41":-0.9751613736152649,"42":-2.388906717300415,"43":1.4686787128448486,"44":-0.8953497409820557,"45":-1.0030111074447632,"46":2.8224377632141113,"47":2.1340394020080566,"48":0.8368448615074158,"49":0.5998528003692627,"50":-0.03021152876317501,"51":-2.1906373500823975,"52":2.200023889541626,"53":-0.23648589849472046,"54":0.7529062628746033,"55":0.6205300092697144,"56":-1.7343274354934692,"57":0.849743664264679,"58":-1.034335732460022,"59":0.16865165531635284,"60":1.5067200660705566,"61":0.20000562071800232,"62":0.08576666563749313,"63":1.202250361442566,"64":0.5203953385353088,"65":-0.2909090220928192,"66":0.2813400626182556,"67":0.985226571559906,"68":-0.9310109615325928,"69":-0.3530856966972351,"70":-1.249773383140564,"71":0.4341576099395752,"72":0.21506814658641815,"73":0.49616411328315735,"74":1.1482294797897339,"75":-0.6350536942481995,"76":-1.1572104692459106,"77":0.7866203784942627,"78":-1.402856469154358,"79":-0.5710576772689819,"80":-0.4263157844543457,"81":-2.0840697288513184,"82":-0.4008151888847351,"83":0.4566134512424469,"84":-0.9621353149414062,"85":-0.3081247806549072,"86":2.039928913116455,"87":1.7454333305358887,"88":-0.2365109771490097,"89":-2.790874481201172,"90":0.7167035937309265,"91":0.4776418209075928,"92":-1.2758569717407227,"93":1.013726830482483,"94":-1.6849948167800903,"95":2.049082040786743,"96":0.6741079688072205,"97":1.580628514289856,"98":-0.14280985295772552,"99":1.4170061349868774,"100":-0.2969677746295929,"101":-0.9698119163513184,"102":0.6460110545158386,"103":-1.4376417398452759,"104":1.5359721183776855,"105":0.9296495318412781,"106":0.4717550277709961,"107":-1.4232016801834106,"108":-0.2563253343105316,"109":1.5201623439788818,"110":1.2624480724334717,"111":1.697287917137146,"112":2.494445323944092,"113":1.1744096279144287,"114":0.46591946482658386,"115":-0.841401994228363,"116":-0.6931003332138062,"117":-0.009898290038108826,"118":0.40380409359931946,"119":-1.1442599296569824,"120":-3.152259111404419,"121":0.2490406185388565,"122":0.8540602326393127,"123":0.6224431395530701,"124":0.7423616647720337,"125":0.791607141494751,"126":-0.20250189304351807,"127":0.16268353164196014,"128":0.5366124510765076,"129":0.5743394494056702,"130":0.20139391720294952,"131":3.2596075534820557,"132":-1.3167686462402344,"133":3.7268922328948975,"134":-0.4279470145702362,"135":-0.43550413846969604,"136":-0.3094438910484314,"137":-0.759452760219574,"138":-0.2850307822227478,"139":0.9501369595527649,"140":2.262808322906494,"141":-1.3014088869094849,"142":0.59282386302948,"143":2.5423097610473633,"144":0.000529276265297085,"145":-1.095999002456665,"146":-1.6920198202133179,"147":-0.1560707986354828,"148":1.3407330513000488,"149":-1.6963884830474854,"150":2.060267210006714,"151":-0.7396106123924255,"152":-0.007119007874280214,"153":1.1535629034042358,"154":-0.08940169215202332,"155":1.291276454925537,"156":-0.29108738899230957,"157":0.6182687878608704,"158":-1.0191255807876587,"159":-1.7766257524490356,"160":1.026573896408081,"161":1.0087568759918213,"162":-0.7064676880836487,"163":-0.2891590893268585,"164":-1.0127912759780884,"165":0.31910374760627747,"166":-0.2372695952653885,"167":0.1125951036810875,"168":2.379519462585449,"169":-0.21271757781505585,"170":0.8632189035415649,"171":-0.7840752005577087,"172":0.030974460765719414,"173":-1.4330570697784424,"174":-0.10833915323019028,"175":-2.425783157348633,"176":-1.380098581314087,"177":1.2400331497192383,"178":0.1152074784040451,"179":1.2275078296661377,"180":-0.0013754375977441669,"181":1.439198613166809,"182":-1.580811858177185,"183":0.5706468224525452,"184":1.4813849925994873,"185":-1.7168920040130615,"186":-0.17990955710411072,"187":-0.7119596600532532,"188":-0.8738756775856018,"189":-0.06194443255662918,"190":-0.696877121925354,"191":-1.1371361017227173,"192":1.0809690952301025,"193":-2.09330677986145,"194":0.9227966070175171,"195":-0.4604730010032654,"196":-0.2022610306739807,"197":0.4552134573459625,"198":-0.797866702079773,"199":-1.6313369274139404,"200":1.002902626991272,"201":0.9097035527229309,"202":0.3611058294773102,"203":-0.9676157236099243,"204":-1.494555950164795,"205":0.10860007256269455,"206":-2.137640953063965,"207":-0.972796618938446,"208":0.7860259413719177,"209":-0.07041645795106888,"210":1.0423216819763184,"211":0.7673777937889099,"212":0.289671927690506,"213":0.30189234018325806,"214":0.8638983368873596,"215":1.8001338243484497,"216":2.1404435634613037,"217":-1.6872426271438599,"218":-0.05487212538719177,"219":1.596254825592041,"220":1.4850598573684692,"221":0.8515492081642151,"222":-0.8621824979782104,"223":-1.6870518922805786,"224":-0.537785530090332,"225":0.0627974271774292,"226":-2.988349676132202,"227":1.1650127172470093,"228":0.7929776310920715,"229":-0.0907881036400795,"230":1.7189586162567139,"231":-2.266434907913208,"232":-1.6201539039611816,"233":-0.942953884601593,"234":-0.3083769381046295,"235":1.8676230907440186,"236":-0.9326013326644897,"237":-0.40103083848953247,"238":2.382510185241699,"239":0.28672483563423157,"240":-1.1516090631484985,"241":1.2427867650985718,"242":-1.3823516368865967,"243":1.042598009109497,"244":-1.8838512897491455,"245":-0.7887173295021057,"246":0.8572984933853149,"247":-0.7188464999198914,"248":-0.13587576150894165,"249":4.047591686248779,"250":-1.261604905128479,"251":-1.1613335609436035,"252":0.76190185546875,"253":0.7501209378242493,"254":2.6300241947174072,"255":0.9479556083679199,"256":-3.1897788047790527,"257":0.7476862072944641,"258":-0.6083730459213257,"259":-2.044034481048584,"260":-0.17606638371944427,"261":-1.0401426553726196,"262":-2.7806437015533447,"263":0.000882101827301085,"264":0.4683781862258911,"265":1.0957152843475342,"266":1.425275206565857,"267":0.25008922815322876,"268":-1.483325719833374,"269":-2.450976848602295,"270":0.6511693596839905,"271":-0.7869195938110352,"272":1.582277774810791,"273":1.33832848072052,"274":1.2077410221099854,"275":-0.4763530194759369,"276":-1.6210435628890991,"277":-0.05367504805326462,"278":-0.5976235866546631,"279":1.0971935987472534,"280":-1.1331983804702759,"281":0.9765465259552002,"282":0.662498414516449,"283":-0.14790573716163635,"284":2.4290931224823,"285":-2.6236648559570312,"286":-1.0574278831481934,"287":1.0060701370239258,"288":0.7183829545974731,"289":0.649843692779541,"290":1.9315311908721924,"291":-1.5380675792694092,"292":-2.3440237045288086,"293":0.2080058604478836,"294":-0.6917049884796143,"295":-2.442811965942383,"296":0.6135950684547424,"297":0.6486588716506958,"298":0.302988737821579,"299":1.5264564752578735,"300":-0.10584764182567596,"301":0.12937979400157928,"302":-0.8567957878112793,"303":-0.6578652858734131,"304":1.5625423192977905,"305":-0.558290421962738,"306":0.17076878249645233,"307":0.6884132027626038,"308":-0.715350329875946,"309":-0.5465458631515503,"310":1.4019471406936646,"311":-0.2878052592277527,"312":-1.016141414642334,"313":0.4701218605041504,"314":-0.4200909435749054,"315":0.3719466030597687,"316":-0.38993123173713684,"317":-0.27977415919303894,"318":-0.9903491139411926,"319":0.9599834680557251,"320":-2.8020126819610596,"321":0.5740219950675964,"322":0.9957108497619629,"323":-0.5659188628196716,"324":0.7435624003410339,"325":1.0731900930404663,"326":-0.8160971403121948,"327":-0.5249729752540588,"328":-0.14547652006149292,"329":-1.1398186683654785,"330":-0.7389823198318481,"331":3.0583906173706055,"332":-0.7042641043663025,"333":-2.035823106765747,"334":-0.35350143909454346,"335":-1.9096482992172241,"336":1.4658294916152954,"337":-0.04099516570568085,"338":-1.968535304069519,"339":-0.4428224563598633,"340":-1.8073025941848755,"341":1.806791067123413,"342":-1.1849548816680908,"343":-0.7546762824058533,"344":-0.5630598664283752,"345":-1.7464466094970703,"346":1.7564115524291992,"347":-0.09525036066770554,"348":0.1986064463853836,"349":0.8718986511230469,"350":0.7301084995269775,"351":-2.0989725589752197,"352":1.6549766063690186,"353":-0.9720672369003296,"354":-1.4981578588485718,"355":1.0941376686096191,"356":-2.4699552059173584,"357":0.6210440993309021,"358":0.45962709188461304,"359":0.8158199787139893,"360":0.40351471304893494,"361":-0.7835931181907654,"362":1.2336609363555908,"363":0.5281014442443848,"364":-0.49397212266921997,"365":-1.057018518447876,"366":-0.8046474456787109,"367":2.915653944015503,"368":3.6484012603759766,"369":-1.7265596389770508,"370":0.5483449697494507,"371":2.4813320636749268,"372":2.010315179824829,"373":-1.3752095699310303,"374":0.13093388080596924,"375":-1.0004183053970337,"376":0.9965144395828247,"377":-1.5860552787780762,"378":-1.1134639978408813,"379":0.3805472254753113,"380":0.15335778892040253,"381":-0.46804168820381165,"382":-0.9455958008766174,"383":-0.7389592528343201,"384":2.837358236312866,"385":-1.3561069965362549,"386":1.3219726085662842,"387":2.161729335784912,"388":-0.35059982538223267,"389":-3.0278611183166504,"390":0.9892733693122864,"391":1.293850064277649,"392":0.7428267598152161,"393":-0.15578602254390717,"394":-1.4240660667419434,"395":1.1112470626831055,"396":-2.121753692626953,"397":-1.0396554470062256,"398":1.137388825416565,"399":1.5539796352386475,"400":1.3316526412963867,"401":1.4872459173202515,"402":0.45472490787506104,"403":-0.5693848133087158,"404":2.8651046752929688,"405":0.35401853919029236,"406":2.6801421642303467,"407":-1.4636919498443604,"408":0.33114609122276306,"409":0.3820922374725342,"410":2.004537343978882,"411":-1.9392454624176025,"412":0.10604098439216614,"413":1.080596923828125,"414":0.2561891973018646,"415":0.7299651503562927,"416":0.8034729957580566,"417":0.516440749168396,"418":2.4562530517578125,"419":0.08305872976779938,"420":-0.3012637197971344,"421":-0.4597190022468567,"422":1.9462230205535889,"423":1.572706937789917,"424":2.1825051307678223,"425":2.169311046600342,"426":1.0415430068969727,"427":-3.188354730606079,"428":0.044305816292762756,"429":2.902297258377075,"430":1.0703964233398438,"431":-1.2442667484283447,"432":-0.8619922995567322,"433":0.6673107147216797,"434":1.089435338973999,"435":-0.8726093769073486,"436":-1.0271443128585815,"437":-1.1017670631408691,"438":1.3858338594436646,"439":0.008314583450555801,"440":0.41465291380882263,"441":-0.26619717478752136,"442":0.7273411750793457,"443":1.194616675376892,"444":3.957876443862915,"445":-1.6753379106521606,"446":3.3728444576263428,"447":0.7902522683143616,"448":-1.8733171224594116,"449":2.0554819107055664,"450":-0.4011070132255554,"451":-1.7183866500854492,"452":2.4039976596832275,"453":2.5093166828155518,"454":-0.37979868054389954,"455":0.6492403149604797,"456":0.9102259874343872,"457":-1.100440502166748,"458":-0.1343127191066742,"459":-0.9456080198287964,"460":2.7782788276672363,"461":-0.3580337166786194,"462":3.277315139770508,"463":1.3016152381896973,"464":0.39163002371788025,"465":-1.3611931800842285,"466":-0.23533089458942413,"467":1.2492210865020752,"468":-0.8060573935508728,"469":1.1596179008483887,"470":-2.0893478393554688,"471":1.2151193618774414,"472":0.41762998700141907,"473":-1.7504655122756958,"474":2.275625705718994,"475":-1.5260117053985596,"476":-0.5888444781303406,"477":0.2677227556705475,"478":0.579902172088623,"479":-0.9948405027389526,"480":2.9166088104248047,"481":-1.0447657108306885,"482":1.6991029977798462,"483":0.16837187111377716,"484":0.3405666649341583,"485":-2.2301807403564453,"486":0.09147658944129944,"487":-2.4825823307037354,"488":-1.0134965181350708,"489":-0.2501713037490845,"490":-1.2340760231018066,"491":-0.3356938362121582,"492":-0.962947428226471,"493":1.3008545637130737,"494":0.17733514308929443,"495":-1.2230883836746216,"496":3.0646779537200928,"497":-1.1734822988510132,"498":1.5562807321548462,"499":-3.697902202606201,"500":0.45193517208099365,"501":-0.44944819808006287,"502":-1.4136642217636108,"503":-2.7294065952301025,"504":0.3397846817970276,"505":0.9122976064682007,"506":-1.9200693368911743,"507":0.18074285984039307,"508":0.6844419240951538,"509":3.178725004196167,"510":-0.22883419692516327,"511":-1.0804721117019653,"512":-0.24625763297080994,"513":1.0552812814712524,"514":-0.2585860788822174,"515":0.9383330345153809,"516":1.3939484357833862,"517":0.8391737937927246,"518":1.0376498699188232,"519":-1.7804025411605835,"520":1.1772092580795288,"521":0.4775514602661133,"522":-0.7183647751808167,"523":-0.5354089736938477,"524":0.36045682430267334,"525":-1.7245254516601562,"526":0.2283555269241333,"527":1.0551937818527222,"528":-0.8191589713096619,"529":0.481258749961853,"530":1.4109982252120972,"531":2.077983856201172,"532":-1.8008400201797485,"533":-0.24195176362991333,"534":3.5199735164642334,"535":1.9579859972000122,"536":-0.4336712956428528,"537":-2.3830645084381104,"538":3.3884177207946777,"539":-0.2112492173910141,"540":-0.22437338531017303,"541":-1.6047052145004272,"542":-0.43868324160575867,"543":0.609957218170166,"544":-1.8848727941513062,"545":-0.12858189642429352,"546":-0.16572768986225128,"547":2.8205299377441406,"548":-0.38487234711647034,"549":0.8712530732154846,"550":0.913336455821991,"551":-0.10447052866220474,"552":-1.6891447305679321,"553":-0.15561294555664062,"554":1.5761358737945557,"555":2.4596915245056152,"556":0.6875395774841309,"557":-1.7797681093215942,"558":-2.218275308609009,"559":1.008576512336731,"560":1.6541533470153809,"561":-2.9268789291381836,"562":1.7104843854904175,"563":0.5418916940689087,"564":-0.05466118082404137,"565":1.8717128038406372,"566":1.1641480922698975,"567":-0.2703532576560974,"568":-0.4605591893196106,"569":2.178907632827759,"570":0.8029751777648926,"571":-2.4989013671875,"572":0.4649888277053833,"573":0.11020021140575409,"574":1.6192615032196045,"575":-2.1164307594299316,"576":2.154106855392456,"577":-0.2985738515853882,"578":0.013056165538728237,"579":-2.6312475204467773,"580":-0.9447011351585388,"581":1.05632746219635,"582":0.15787845849990845,"583":2.018684148788452,"584":-1.3696283102035522,"585":1.5301039218902588,"586":-0.5428819060325623,"587":0.2751813232898712,"588":1.2535353899002075,"589":-0.4876619875431061,"590":0.29678598046302795,"591":-0.13861480355262756,"592":-0.13929298520088196,"593":0.16334038972854614,"594":1.3677008152008057,"595":-1.475000262260437,"596":0.6878365874290466,"597":0.0512194000184536,"598":-1.9325107336044312,"599":-2.514072895050049,"600":1.08754301071167,"601":-1.3438520431518555,"602":-0.16559351980686188,"603":0.1656322479248047,"604":-1.0107452869415283,"605":-1.0057889223098755,"606":-1.8503552675247192,"607":0.3923983871936798,"608":-0.5012415051460266,"609":0.3115462362766266,"610":1.715399980545044,"611":-0.2878982424736023,"612":0.6742143034934998,"613":-0.741158127784729,"614":2.402860403060913,"615":0.33415988087654114,"616":0.4555157423019409,"617":-0.2927626669406891,"618":-0.7979711294174194,"619":-0.11317498981952667,"620":-0.3561897277832031,"621":-0.5390332341194153,"622":0.3447926342487335,"623":1.0482115745544434,"624":-1.8576312065124512,"625":-1.3899965286254883,"626":0.41604703664779663,"627":-1.2018693685531616,"628":1.2517802715301514,"629":1.093856930732727,"630":1.9487924575805664,"631":0.003407383104786277,"632":0.9793499112129211,"633":-2.632657766342163,"634":-1.928396224975586,"635":1.3246588706970215,"636":-0.4813307821750641,"637":-3.539830446243286,"638":-0.4296551048755646,"639":-0.3133595287799835,"640":1.0316083431243896,"641":2.527463436126709,"642":-1.6448101997375488,"643":0.4637916684150696,"644":-0.42010384798049927,"645":0.649371862411499,"646":-1.703755259513855,"647":0.31340742111206055,"648":1.7437149286270142,"649":-0.32612016797065735,"650":-1.724129319190979,"651":-1.5491451025009155,"652":1.083561897277832,"653":-0.19948500394821167,"654":1.61855947971344,"655":0.7447511553764343,"656":-1.1652421951293945,"657":0.2707505226135254,"658":-0.5241814255714417,"659":-1.4089455604553223,"660":-0.5468772649765015,"661":2.484492063522339,"662":-1.1270519495010376,"663":0.5348156094551086,"664":0.3432695269584656,"665":0.5818265080451965,"666":0.03586473688483238,"667":-0.9575090408325195,"668":1.4964019060134888,"669":5.07757043838501,"670":0.6507875919342041,"671":-1.2092061042785645,"672":-1.54722261428833,"673":-0.9412075877189636,"674":0.02893488109111786,"675":-1.5649985074996948,"676":1.5584170818328857,"677":-0.729744553565979,"678":-2.5941832065582275,"679":2.01472806930542,"680":-0.23876559734344482,"681":-0.35004866123199463,"682":0.2240588366985321,"683":0.41118237376213074,"684":1.3700897693634033,"685":0.37085872888565063,"686":-0.5005977749824524,"687":1.5018458366394043,"688":0.29588958621025085,"689":-0.448070764541626,"690":2.9424052238464355,"691":1.169079303741455,"692":0.681249737739563,"693":1.3724828958511353,"694":-1.0444588661193848,"695":1.0767191648483276,"696":0.627485990524292,"697":-1.6257798671722412,"698":0.24370630085468292,"699":-1.0854687690734863,"700":-0.1373281329870224,"701":0.33245226740837097,"702":2.197441816329956,"703":-1.2571842670440674,"704":-1.522807240486145,"705":0.5244154334068298,"706":1.2193217277526855,"707":0.009407429955899715,"708":-0.7626374363899231,"709":-2.1987271308898926,"710":-1.6355679035186768,"711":-0.4466070532798767,"712":0.6559239029884338,"713":-3.177846670150757,"714":0.10288695245981216,"715":-0.5143772959709167,"716":1.288761019706726,"717":1.298326015472412,"718":1.1675455570220947,"719":0.9266309142112732,"720":-1.6784026622772217,"721":-0.6589534282684326,"722":2.3257017135620117,"723":0.9203580021858215,"724":-3.756018877029419,"725":-0.12048403173685074,"726":-0.3858835995197296,"727":1.3583543300628662,"728":0.4195984899997711,"729":0.5497859120368958,"730":2.983139753341675,"731":1.4902924299240112,"732":-0.5493146181106567,"733":0.5503575801849365,"734":2.768087863922119,"735":-0.682137131690979,"736":-1.3603699207305908,"737":-3.4060823917388916,"738":-1.4452269077301025,"739":-0.22798067331314087,"740":0.10281600803136826,"741":-2.2959787845611572,"742":-1.4713340997695923,"743":0.0991160199046135,"744":-0.5733746886253357,"745":-0.8198494911193848,"746":-1.364012598991394,"747":-0.8722492456436157,"748":-1.3997081518173218,"749":-0.058792389929294586,"750":-0.9951815605163574,"751":-0.509272038936615,"752":0.7545793652534485,"753":0.8961238265037537,"754":-0.17163725197315216,"755":0.7031848430633545,"756":1.078080177307129,"757":0.11520393937826157,"758":-2.5589327812194824,"759":-2.1656975746154785}},"forgetHidden":{"rows":20,"columns":20,"weights":{"0":-1.0079078674316406,"1":-0.803545355796814,"2":-0.8104203939437866,"3":-0.4862803518772125,"4":0.4344554543495178,"5":1.2266255617141724,"6":0.3825816214084625,"7":1.0892858505249023,"8":0.3280264139175415,"9":-0.1470789611339569,"10":-0.9175496101379395,"11":-0.35510799288749695,"12":0.14918245375156403,"13":0.9514511227607727,"14":-0.199358731508255,"15":-0.9506075978279114,"16":0.4593149721622467,"17":-0.09445107728242874,"18":1.0195785760879517,"19":1.5726782083511353,"20":-0.8049651980400085,"21":-0.8756209015846252,"22":0.9370953440666199,"23":-0.737021803855896,"24":0.04695567861199379,"25":-2.5893561840057373,"26":0.5806304216384888,"27":1.9618817567825317,"28":3.309354066848755,"29":-1.502097249031067,"30":-0.9411095380783081,"31":-2.46063232421875,"32":-0.7840124368667603,"33":-1.2057695388793945,"34":-0.10063784569501877,"35":2.3419713973999023,"36":-1.0091097354888916,"37":-0.8918771743774414,"38":-0.26598674058914185,"39":0.007916875183582306,"40":-1.1053520441055298,"41":-1.267485499382019,"42":1.403902530670166,"43":-0.4721071422100067,"44":0.1322731077671051,"45":-1.0044413805007935,"46":-0.409744530916214,"47":4.857340335845947,"48":1.7298163175582886,"49":0.9103479385375977,"50":-2.494605779647827,"51":0.3931896686553955,"52":-0.918462336063385,"53":1.7590575218200684,"54":1.8186596632003784,"55":1.0795282125473022,"56":1.0676558017730713,"57":-0.12507520616054535,"58":-0.3513665795326233,"59":-0.8959408402442932,"60":0.782543420791626,"61":-1.5251704454421997,"62":-1.8215993642807007,"63":-2.3612914085388184,"64":-3.52547287940979,"65":2.200852870941162,"66":4.249894618988037,"67":-1.0227253437042236,"68":0.8157389760017395,"69":0.3812795579433441,"70":-0.20371098816394806,"71":-2.3040661811828613,"72":-1.4421055316925049,"73":1.7729854583740234,"74":-1.5485056638717651,"75":0.01801239140331745,"76":0.7507643103599548,"77":-0.332663357257843,"78":-0.3375389575958252,"79":0.07942374050617218,"80":-0.8830865621566772,"81":-0.1955992877483368,"82":-0.21327249705791473,"83":0.7426255345344543,"84":-2.492825984954834,"85":-1.4388562440872192,"86":0.7084830403327942,"87":-0.709917426109314,"88":-0.8561809062957764,"89":0.30758169293403625,"90":0.7288132905960083,"91":0.6485850214958191,"92":0.4156196117401123,"93":-1.3003545999526978,"94":-0.7390254139900208,"95":-0.21124599874019623,"96":-1.3465243577957153,"97":-2.004669189453125,"98":-0.7861664891242981,"99":0.3316161632537842,"100":1.6560851335525513,"101":1.895269513130188,"102":-0.3169935941696167,"103":-0.8062214851379395,"104":-0.058660220354795456,"105":1.3530731201171875,"106":-0.12279964238405228,"107":-0.943723201751709,"108":-0.6831514835357666,"109":-0.06906671077013016,"110":-0.2063824087381363,"111":0.8994412422180176,"112":0.11666913330554962,"113":1.359757661819458,"114":0.05058927834033966,"115":-1.9229857921600342,"116":-0.9446448683738708,"117":-0.14121849834918976,"118":-0.4984235465526581,"119":1.7624671459197998,"120":0.1326354444026947,"121":-1.020886778831482,"122":5.0926289558410645,"123":-3.3377747535705566,"124":-1.3197641372680664,"125":0.20005854964256287,"126":-2.2704124450683594,"127":3.0026793479919434,"128":-1.2555408477783203,"129":-1.1313645839691162,"130":-3.5445313453674316,"131":0.09741383045911789,"132":1.3053276538848877,"133":-0.6386044025421143,"134":0.6159341931343079,"135":-0.8608042597770691,"136":1.576089859008789,"137":0.22114650905132294,"138":-0.4586088955402374,"139":0.29478734731674194,"140":0.41453611850738525,"141":-0.010152019560337067,"142":-0.7115216255187988,"143":3.192816972732544,"144":0.09783786535263062,"145":0.559205949306488,"146":-1.4033255577087402,"147":-1.6978334188461304,"148":-1.4136289358139038,"149":2.3498618602752686,"150":0.7709257006645203,"151":0.8325707316398621,"152":0.040478017181158066,"153":-0.8044942617416382,"154":-0.5787246227264404,"155":1.1361496448516846,"156":-0.6920750737190247,"157":2.5490915775299072,"158":1.8568518161773682,"159":-2.3120639324188232,"160":1.4292333126068115,"161":-0.6999530792236328,"162":-1.3303585052490234,"163":-0.6789092421531677,"164":-0.2840607166290283,"165":-1.4026234149932861,"166":-0.3762436807155609,"167":-0.4328511953353882,"168":-0.8883675336837769,"169":0.7126217484474182,"170":-1.1829296350479126,"171":-0.5881575345993042,"172":0.44067245721817017,"173":-0.9727187156677246,"174":0.6015756726264954,"175":-1.0661321878433228,"176":-0.05475965514779091,"177":-0.4121420383453369,"178":-1.601805567741394,"179":-0.024212798103690147,"180":-0.4764944016933441,"181":0.24547603726387024,"182":-0.6222658753395081,"183":-0.09440835565328598,"184":-2.9142045974731445,"185":1.7448954582214355,"186":-2.02056622505188,"187":0.35364261269569397,"188":-1.3092665672302246,"189":-0.8395217657089233,"190":-0.4179302453994751,"191":1.4895766973495483,"192":0.7999254465103149,"193":3.1955902576446533,"194":0.9147663116455078,"195":-2.953470468521118,"196":0.8926901817321777,"197":-1.3286371231079102,"198":-2.106074094772339,"199":3.1103878021240234,"200":1.3704116344451904,"201":0.9111497402191162,"202":0.5276131629943848,"203":-2.9889864921569824,"204":-0.6193684935569763,"205":-1.6911176443099976,"206":-2.0968754291534424,"207":1.3709535598754883,"208":-4.1785664558410645,"209":1.2321640253067017,"210":-1.8102048635482788,"211":0.7798935770988464,"212":-0.7078664898872375,"213":2.486309051513672,"214":1.681904911994934,"215":-0.3262385129928589,"216":-2.117030382156372,"217":-0.23653031885623932,"218":-1.1966981887817383,"219":-0.4976801574230194,"220":1.1202608346939087,"221":-0.09272739291191101,"222":-0.6221047043800354,"223":1.4824213981628418,"224":-1.3244984149932861,"225":-2.307783365249634,"226":-1.0640385150909424,"227":-1.2733052968978882,"228":-0.4319602847099304,"229":1.298949122428894,"230":-0.11918658763170242,"231":0.4605748653411865,"232":-0.6400609612464905,"233":1.6613389253616333,"234":0.7888997793197632,"235":-0.046150289475917816,"236":0.6909705996513367,"237":0.16780658066272736,"238":-0.34509849548339844,"239":-0.6502125263214111,"240":1.5768541097640991,"241":-0.5645955801010132,"242":-0.8011639714241028,"243":0.6286165714263916,"244":0.7752876877784729,"245":1.1710363626480103,"246":0.5456103682518005,"247":0.8032636046409607,"248":0.8193973302841187,"249":0.3547620177268982,"250":-2.5697686672210693,"251":1.770875096321106,"252":0.27787962555885315,"253":-0.4811572730541229,"254":-0.6404443383216858,"255":-1.18581223487854,"256":0.7063964605331421,"257":-1.1299760341644287,"258":-0.6534513831138611,"259":0.22488859295845032,"260":0.8539705872535706,"261":2.4152016639709473,"262":-2.607172727584839,"263":0.40590664744377136,"264":-0.8635817170143127,"265":1.339880108833313,"266":2.539358139038086,"267":1.2556006908416748,"268":1.0620648860931396,"269":-0.8708928227424622,"270":0.004587163683027029,"271":-0.4638354182243347,"272":1.3572418689727783,"273":-3.771350383758545,"274":-2.0987091064453125,"275":1.8639576435089111,"276":-0.1714230626821518,"277":-1.6308274269104004,"278":0.31828030943870544,"279":2.363430976867676,"280":-2.5331625938415527,"281":-0.38679566979408264,"282":-0.2985888421535492,"283":-1.932949423789978,"284":0.5280252695083618,"285":0.39403262734413147,"286":1.6276408433914185,"287":0.4954622685909271,"288":-1.1680521965026855,"289":0.4825515151023865,"290":2.384615182876587,"291":1.7015622854232788,"292":0.5371099710464478,"293":-0.0921049490571022,"294":-0.9696835875511169,"295":0.6436851620674133,"296":1.8305474519729614,"297":0.7304586172103882,"298":-0.8255934715270996,"299":0.548724889755249,"300":0.7784515619277954,"301":-1.1150044202804565,"302":1.1929994821548462,"303":0.01588757336139679,"304":0.28677916526794434,"305":0.4228529930114746,"306":3.614145517349243,"307":3.066403865814209,"308":1.2012784481048584,"309":-0.18441280722618103,"310":3.3196113109588623,"311":0.3852829039096832,"312":-0.32789140939712524,"313":0.06266319006681442,"314":-0.9505430459976196,"315":2.9832024574279785,"316":0.29904380440711975,"317":-1.843194842338562,"318":-3.8690550327301025,"319":2.635369062423706,"320":0.4330599308013916,"321":-0.6088550686836243,"322":-0.8879284858703613,"323":0.40788358449935913,"324":-0.7127650380134583,"325":-0.20055066049098969,"326":0.22079823911190033,"327":0.8775820732116699,"328":0.5437675714492798,"329":-0.5756926536560059,"330":1.486938238143921,"331":0.24532127380371094,"332":1.0883172750473022,"333":-0.285321980714798,"334":-0.7747440338134766,"335":-0.44082313776016235,"336":0.27711257338523865,"337":-0.7450786828994751,"338":-0.2485276311635971,"339":1.3215734958648682,"340":0.6934741735458374,"341":-0.592158854007721,"342":-0.7501960396766663,"343":-1.5664069652557373,"344":-0.2283739596605301,"345":0.6750656962394714,"346":0.34901145100593567,"347":-1.959647297859192,"348":0.08753158152103424,"349":-0.6909859776496887,"350":0.24733106791973114,"351":-1.0898336172103882,"352":0.07421629875898361,"353":0.44399112462997437,"354":-0.36890867352485657,"355":1.7517398595809937,"356":0.37150341272354126,"357":1.3169842958450317,"358":-0.13158412277698517,"359":-1.066704273223877,"360":-2.368744134902954,"361":0.9126118421554565,"362":-0.8237808346748352,"363":0.16287656128406525,"364":-0.9103894233703613,"365":0.4090392291545868,"366":-1.3566222190856934,"367":0.05219282954931259,"368":-1.2429026365280151,"369":-1.2272242307662964,"370":-1.5076100826263428,"371":-0.8770950436592102,"372":0.5488622784614563,"373":-1.7861604690551758,"374":-1.1446841955184937,"375":1.226655125617981,"376":-1.1861600875854492,"377":0.013804136775434017,"378":0.7700464129447937,"379":-0.858794093132019,"380":1.0521306991577148,"381":-0.6295374035835266,"382":-1.759261131286621,"383":2.26987886428833,"384":-0.6470054388046265,"385":2.0396316051483154,"386":-1.7283514738082886,"387":-4.290212631225586,"388":2.01900577545166,"389":3.1791844367980957,"390":1.3592971563339233,"391":0.36893656849861145,"392":0.6748839616775513,"393":0.508520781993866,"394":0.06975897401571274,"395":-2.2545177936553955,"396":1.8740438222885132,"397":0.1447446197271347,"398":1.3003674745559692,"399":-2.1167068481445312}},"forgetBias":{"rows":20,"columns":1,"weights":{"0":0,"1":0,"2":0,"3":0,"4":0,"5":0,"6":0,"7":0,"8":0,"9":0,"10":0,"11":0,"12":0,"13":0,"14":0,"15":0,"16":0,"17":0,"18":0,"19":0}},"outputMatrix":{"rows":20,"columns":38,"weights":{"0":3.1324448585510254,"1":-2.8835484981536865,"2":-0.4095422923564911,"3":0.3300134539604187,"4":2.759519338607788,"5":0.8763996362686157,"6":1.2563036680221558,"7":0.5711472630500793,"8":-0.5544188618659973,"9":-0.21927867829799652,"10":-3.7870066165924072,"11":-0.850807785987854,"12":0.3140815198421478,"13":2.669965982437134,"14":-1.1107043027877808,"15":-0.20975342392921448,"16":-0.271396279335022,"17":0.996392011642456,"18":-2.11122727394104,"19":1.148329734802246,"20":1.2146543264389038,"21":0.2359578013420105,"22":-0.2238980382680893,"23":-1.1433215141296387,"24":-0.6769528388977051,"25":0.34047964215278625,"26":-2.6156978607177734,"27":0.49716970324516296,"28":2.0317556858062744,"29":-0.7594850063323975,"30":-1.7022442817687988,"31":1.8279917240142822,"32":0.7438988089561462,"33":-0.3996959924697876,"34":0.39618924260139465,"35":-0.6236722469329834,"36":2.9445862770080566,"37":-0.369018018245697,"38":1.448911190032959,"39":-0.27603912353515625,"40":-0.1220020279288292,"41":1.8596025705337524,"42":-1.8122551441192627,"43":0.15424436330795288,"44":-0.31015223264694214,"45":-0.5478155612945557,"46":1.6968779563903809,"47":-0.0779321938753128,"48":-1.779129147529602,"49":-0.5483694076538086,"50":0.6027830839157104,"51":0.3529241681098938,